32 32
0.324945 -0.004414 -0.946454 0.498624 0.245217 -0.916806 -0.699116 -0.911586 -0.185833 0.329382 0.328671 0.548279 0.507461 -0.545000 0.758561 0.009855 0.942136 0.564222 0.618619 -0.420347 -0.863136 -0.952173 -0.206856 -0.223327 0.355504 0.328171 0.562541 -0.481879 0.117696 0.904243 -0.919868 -0.536261 -0.109224 -0.864344 0.978714 -0.870888 -0.786988 -0.722346 -0.779499 0.051118 0.608160 0.550645 -0.414969 0.154557 -0.992582 -0.659921 -0.832316 0.938171 0.904917 0.773453 -0.489075 -0.964283 0.819978 0.300828 -0.190793 0.200693 -0.334874 -0.626359 0.709165 0.777427 -0.726552 0.790450 -0.766262 0.159585 0.913371 -0.798341 0.281727 -0.862161 -0.511781 0.500930 0.187333 -0.904811 0.053421 0.772404 0.244489 0.048906 -0.882719 0.410074 -0.008941 -0.995955 0.176201 0.494326 -0.961610 0.002298 -0.202832 -0.145052 -0.803987 0.447484 0.223866 0.910500 0.235425 0.498127 0.697581 0.466881 -0.347159 0.614985 0.671775 0.934160 0.753467 -0.839555 0.437484 -0.062329 -0.739898 -0.515755 -0.297265 0.505435 0.542620 -0.187846 -0.085645 -0.467899 -0.174031 -0.908698 -0.973300 -0.130147 0.098361 -0.173621 0.724927 0.294584 -0.715994 -0.053311 0.195226 0.517268 -0.551421 -0.102625 -0.013273 0.102697 -0.489294 -0.336768 0.087359 -0.724564 -0.177485 -0.477572 0.201091 0.086062 -0.009024 0.936204 -0.371955 -0.474586 -0.266595 0.532748 0.097742 0.549783 0.632225 0.106909 -0.552633 -0.298776 0.889418 -0.859803 0.997754 -0.817411 0.093125 0.230115 0.741529 0.599379 -0.906145 -0.322852 -0.343801 -0.391939 0.369840 0.712217 -0.157336 -0.813175 -0.831135 -0.977361 0.267809 0.128437 1.018820 0.826206 0.586655 -0.248069 0.356979 -0.329864 -0.727243 -0.028946 0.776757 -0.346843 0.695108 0.634425 -0.154118 0.679004 0.809616 0.932197 -0.124551 0.501092 0.431412 -0.047973 -0.810452 -0.864618 0.594795 0.534981 0.787784 -0.505880 0.716103 0.983734 -0.459316 -0.029523 0.100421 -0.465093 -0.173544 -0.266899 0.256272 -0.809923 0.402940 0.535289 0.158328 0.140817 -0.777278 -0.161758 -0.220915 0.065485 -0.491791 -0.420088 0.000959 0.374575 -0.916156 -0.506176 -0.653579 -0.730044 -0.387359 0.921588 0.800903 -0.572428 -0.618199 0.511430 -0.588243 -0.084143 -0.521389 0.482059 0.457469 0.307102 -0.784197 -0.340392 0.482736 0.638428 -0.770371 -0.387108 -0.168062 -0.534218 0.477827 0.522765 0.508952 0.989968 -0.867135 -0.472208 0.364043 -0.799582 0.014398 0.725231 -0.538211 0.654451 0.628987 -0.708484 -0.950023 -0.992583 0.749896 -0.551455 -0.072810 -0.728490 0.957423 -0.607765 0.573494 -0.806082 0.097474 0.079860 0.840585 0.332606 0.724128 -0.377484 0.790795 0.206010 -0.832840 0.330000 0.196738 -0.701407 0.846894 -0.443013 -0.484789 -0.138934 -0.738158 0.000911 -0.510176 0.889035 0.288455 -0.469980 0.896040 0.083115 -0.003921 -0.176889 0.357792 -0.059484 0.205659 -0.082385 0.140005 -0.700332 1.041171 -0.049330 0.624351 0.768385 0.583060 0.418258 0.019267 0.756410 -0.191491 -0.896163 -0.923239 -0.410291 -0.335015 -0.429836 0.452742 -0.062522 0.573440 0.945987 -0.181667 -0.084405 -0.534779 -0.270179 0.968615 0.450302 0.529370 0.346015 -0.503588 -0.262024 -0.775722 0.531650 0.055181 -0.765413 -0.558762 -0.458327 0.964040 -0.912066 -0.916576 -0.249809 1.086811 -0.135098 -0.029819 0.860915 0.402315 0.672015 -0.533806 -0.105180 -0.384683 -1.003189 -0.155685 0.543504 -0.110127 0.465530 -0.824475 -0.144834 -0.254849 0.722089 -0.973340 0.124878 -0.450033 -0.628797 -0.327278 0.527312 -0.397149 0.186819 -0.827138 -0.545591 0.285018 -0.679678 0.400483 0.050747 0.327148 -0.585135 0.012387 -0.396578 -0.943603 0.500434 0.532740 -0.311749 0.543167 -0.663456 -0.856602 -0.486058 0.655655 -0.585485 0.296410 -0.581095 -0.969687 0.441254 0.479001 -0.496418 0.790231 -0.769619 -0.953759 -0.603935 0.414113 -0.740635 -0.034779 -0.318000 -0.435012 -0.617001 0.808677 0.760041 -0.236663 -0.163546 -0.606858 -0.147619 -0.668695 0.925618 0.563927 0.878649 -0.707958 0.699866 -0.677698 0.940170 -1.011348 0.591131 -0.627204 -0.955277 0.057885 0.929850 -0.451825 -0.126345 -0.829179 -0.396710 0.294045 0.571327 -0.144662 -0.740437 -0.740122 0.435763 -0.359200 -0.929156 0.200428 0.436059 -0.090286 0.594504 -0.695388 0.243832 0.525756 0.867673 0.119126 0.810681 0.566255 0.435557 0.768114 0.585829 0.053276 -0.858547 0.618918 -0.890821 -0.931714 -0.827245 -0.016794 -0.767515 -0.190393 -0.738937 0.802492 0.589879 -0.458681 -0.931082 0.012140 0.057442 -0.881620 -0.738159 -0.412968 -0.064027 1.007477 -0.077967 -0.739865 0.318567 -0.261278 0.392381 0.184655 -0.654362 -0.169962 -0.080910 0.931459 0.931928 0.051919 0.632595 0.992126 0.172392 0.711916 -0.026707 0.286623 -0.533078 0.220785 0.210220 -0.886519 0.756266 0.254111 0.171948 -0.120935 0.391256 0.408791 0.488783 -0.581673 0.299834 -0.702657 -0.306092 -0.440302 0.272841 -0.952541 0.875314 0.653334 -0.081627 -0.181339 0.539627 -0.208288 0.894333 0.061109 -0.355617 0.079826 -0.205260 0.707500 -0.527796 0.288251 -0.078060 0.722370 0.392898 -0.220415 -0.026792 -0.448083 0.749718 -0.661439 1.022297 0.373486 -0.254045 0.295285 0.851366 0.496843 0.958138 0.134958 0.543422 0.856291 -0.296605 -0.599099 -0.367638 -0.755675 0.207343 -0.449440 0.363127 1.035303 0.708353 -0.885459 0.724603 -0.882042 0.390226 -0.239943 0.804880 -0.263568 0.520868 -0.313499 0.296170 0.275201 -0.020691 0.330319 -0.405570 0.661016 -0.382759 -0.581903 0.105611 -0.472447 0.514906 -0.397641 -0.623101 -0.778202 0.010600 0.041554 -0.525712 -0.790350 0.592620 0.794962 -0.831147 0.190400 0.857386 0.920973 0.331837 0.306988 -0.347021 0.087510 -0.914963 -0.854698 0.776396 0.422882 0.416583 -0.246269 -0.252618 -0.955612 -0.561086 0.339950 -0.532116 0.545824 0.936523 0.951607 -0.849817 -0.666667 -0.808374 0.158631 0.372486 -0.324515 0.371138 -0.036433 -0.535034 0.556590 -0.822382 -0.645906 0.439359 0.517957 0.684025 -0.875268 -0.387754 0.760970 -0.706469 -0.621619 0.184084 0.736142 0.130774 0.931516 0.780006 0.578173 0.289316 -0.757194 0.128950 0.227458 -0.773548 0.272502 0.561696 -0.571389 -0.564409 -0.071246 0.105540 0.808170 0.896021 0.570312 0.362096 -0.916272 0.942568 -0.168803 0.591655 0.628568 -0.038170 -0.791135 0.394546 0.252116 -0.408916 -0.529081 0.021015 0.752084 -0.639355 -0.220264 0.322176 0.915714 -0.032090 -0.669471 0.145900 0.232118 0.757060 -0.402225 0.684114 -0.681074 0.428254 -0.126902 0.979709 0.422750 -0.624698 0.342354 0.500258 -0.689929 -0.848388 -0.021360 0.888092 0.145105 0.326847 0.382366 -0.599185 0.863852 1.031990 0.414418 0.659187 -0.590359 -0.819189 -0.047740 -0.787320 0.145396 0.431404 0.265242 -0.617802 0.136049 0.866313 -0.958666 0.295845 0.324340 -0.079031 0.277556 -0.212088 0.253178 -0.390414 -0.715942 0.543285 -0.215111 0.406983 0.501959 0.901208 -0.300481 -0.212943 -0.699951 -0.391987 -0.274772 0.678744 -0.751971 0.101840 0.850016 0.201321 0.323288 0.019606 -0.413505 -0.443927 0.433033 0.722458 -0.594519 0.511836 0.032235 0.770817 -0.611124 -0.701423 -0.465010 0.644916 -0.078913 -0.162497 0.181590 0.704456 -0.773238 -0.353272 0.627801 -0.072474 0.439228 0.951333 0.530324 -0.867178 0.636489 0.770458 0.191228 0.492255 -0.000510 -0.483467 -0.479460 0.602121 0.101866 0.928642 0.300328 0.517126 0.473913 -0.653090 0.241689 0.891204 -0.354978 0.825226 0.508174 0.601268 -0.295457 -0.278251 0.308558 -0.080446 0.366463 -0.088199 0.807847 -0.258920 -0.105537 0.393919 -0.076101 -0.456490 0.155619 -0.854301 -0.961085 -0.825989 -0.263055 -0.438752 0.768512 0.867913 -0.472334 0.121806 0.410582 1.000328 0.476937 -0.263815 0.876085 -0.850049 -0.402103 0.421059 0.765731 0.276261 -0.875691 0.056486 -0.798250 0.495950 0.996429 -0.948989 -0.700895 -0.112299 0.442623 0.225311 0.435961 -0.380079 0.415999 0.485253 -0.240894 -0.849874 -0.970806 -0.466622 -0.990702 -0.467913 0.597748 0.424271 -0.504221 0.069229 -0.866903 -0.600026 0.133947 -0.288690 0.719265 0.037978 0.956792 0.943432 -0.878976 -0.803535 0.423980 -0.906064 -0.754339 0.694974 -0.035254 0.578459 -0.056834 -0.587074 -0.724942 -0.654997 0.890516 0.037055 -0.481750 0.918466 0.662350 -0.557353 -0.559273 0.329579 0.797469 -0.143196 -0.565956 -1.028546 0.333542 0.674060 -0.251356 0.166850 -0.311636 -0.299426 0.041893 -0.105430 -0.035474 -0.479941 -0.025602 0.143714 -0.758919 1.010041 -0.173960 0.175508 -0.630885 0.183007 0.484565 -0.753333 -0.805955 0.938076 -0.898367 0.931268 -0.504080 -0.459824 0.257460 -0.602772 0.581364 0.703421 -0.601126 -0.066221 0.457837 0.189273 -0.944121 -0.752182 0.975041 0.112952 0.148261 -0.145671 0.659247 -0.895159 -0.965506 0.901723 -0.945865 -0.126665 0.032634 -0.601181 -0.923272 -0.402691 -0.319650 -0.648689 -0.419483 -0.153400 -0.786851 0.110814 0.408793 0.446115 0.483108 -0.058935 0.366760 0.911991 0.760752 -0.185273 0.091620 0.944754 -0.038148 0.021531 0.180452 -0.959283 0.972223 -0.296310 -0.820712 0.923966 -0.394687 -0.756232 -0.187033 0.657254 -0.419021 -0.148988 -0.723677 0.317017 0.285138 -0.129180 -0.880400 0.633619 0.960385 0.531174 0.047112 0.435889 -0.545997 -0.704908 0.306699 -0.693147 0.011726 -0.602986 -0.820721 0.980438 0.384584 0.211134 -0.998000 0.355343 0.910604 -0.766028 0.259835 -0.480728 -0.539472 -0.943969 -0.803383 0.117276 -0.047534 -0.570733 -0.579848 -0.832943 0.317627 -0.459126 0.702196 0.256815 -0.946535 -0.271210 -0.290027 -0.491240 0.027067 -0.953101 -0.200126 -0.969446 -0.523265 -0.023421 0.996001 0.931674 -0.813550 -0.956566 0.264966 -0.898571 -0.730848 -0.491854 -0.374688 -0.267009 -0.439674 -0.176546 0.843294 0.493554 0.289932 -0.739737 0.665461 -0.369192 -0.194683 0.347376 0.911151 -0.137593 -0.870274 -0.405289 0.364782 0.197545 -0.336183 -0.826536 0.070116 0.184021 0.228082 0.064783 0.094574 0.321726 0.173684 -0.652375 0.359125 0.501582 -0.203699 -0.928649 -0.828361 0.406294 -0.101915 -0.973339 -0.090113 -0.805060 -0.638042 -0.393531 -0.179964 0.084660 0.892524 -0.266290 0.985475 -1.079146
0.095328 0.026566 -0.064404 -0.016935 0.022526 -0.029843 0.046164 -0.033907 0.006120 -0.153035 -0.101343 -0.022969 -0.021246 0.022642 -0.089489 0.319519 -0.000841 -0.006567 0.004743 0.001111 -0.147209 0.209745 -0.002294 -0.001434 -0.012159 0.249200 0.244533 -0.124410 -0.132755 0.183483 -0.008142 0.024710
