256 784
0.02062054 -0.056612752 -0.06683749 0.018128946 0.026075497 -0.012518629 0.03528426 0.051145747 -0.06381635 0.026009 -0.04059856 0.052025363 0.051342964 0.013876095 0.01335004 -0.071088046 -0.024976883 -0.04115096 -0.051185265 -0.015676439 -0.074934185 -0.030983739 -0.020726893 0.048333645 0.053531244 -0.038758885 0.0758743 -0.05995582 -0.03992057 0.0737315 -0.028281324 -0.0126242265 0.01602164 -0.016624272 0.07220088 0.07030432 -0.013484754 0.061199903 -0.034112718 -0.0040274262 -0.04331177 -0.02803681 -0.064279296 -0.05416984 -0.00073532015 0.06639142 -0.043796733 -0.024853505 -0.034054387 -0.032160763 -0.028830249 -0.015150186 -0.06100588 0.056751683 0.051689446 -0.06316991 0.026818804 0.020108826 -0.02098877 -0.0027863532 0.042909056 -0.053304024 -0.06719448 -0.04077315 -0.059475925 -0.0215706 0.033292226 0.025121361 -0.03781632 0.037753694 0.059991524 0.063007474 0.03103365 0.032991737 0.006683834 0.06995502 0.025621556 0.006839663 0.054351836 0.053766936 0.03912534 -0.030665923 -0.005725689 -0.028498758 -0.028748866 0.02489724 0.03753613 0.037743375 0.05200827 0.04046966 0.015107013 -0.015577108 -0.07262666 -0.010307223 -0.039585367 -0.07494608 0.0274399 -0.022645943 -0.00026756525 0.05495988 0.05575499 -0.054178134 0.07514675 -0.012020156 0.043013327 0.034571134 -0.06981542 0.07314919 -0.01792761 0.066157684 -0.049292475 -0.02727282 0.040607758 -0.020290498 0.061148122 -0.0145435445 -0.071588054 -0.031128991 -0.050671577 -0.037359152 0.013991468 -0.014456693 -0.017790414 -0.0681217 0.028455384 -0.07239951 0.06834243 -0.06276348 0.06551634 0.020414561 -0.03803919 -0.06083967 0.046005853 -0.06297337 0.06804708 0.045574583 0.039095826 -0.042780265 -0.008047417 0.013772875 -0.030015059 -0.02330171 -0.012644216 -0.017085839 -0.07157547 -0.035403524 -0.07423678 0.07386841 0.06545089 0.035108685 -0.034068767 -0.057590775 -0.016888995 0.049274698 0.014643617 0.054306254 -0.03756909 -0.06505437 -0.053008135 -0.05619651 0.06260532 0.008816168 0.043393314 -0.07069629 -0.04164317 0.0073872805 -0.052081417 0.039883353 -0.05729375 -0.06479353 -0.06284896 -0.031477287 0.07269667 0.06341846 -0.025885928 0.055126235 -0.016322196 0.031052828 -0.04293077 -0.030422624 0.06716004 -0.0067640916 0.039441995 -0.046662748 -0.07380792 0.039603837 -0.01217249 0.0524652 -0.025062088 0.016943939 -0.0144207105 0.06838305 0.006228909 0.032854438 -0.015658166 -0.009048529 0.0033127666 0.07531552 0.049440473 0.020311937 -0.072646536 -0.048933223 -0.047072485 -0.0007837117 0.031370044 -0.012823895 0.04294283 0.048963234 -0.04611312 0.05265972 0.041633807 0.06855522 -0.07158831 -0.046821132 -0.043031476 -0.029732123 -0.0030505657 0.03358867 -0.022671945 -0.0032748133 0.04890465 -0.064563826 0.060411215 -0.00048360229 -0.048548967 -0.023434632 0.058689475 -0.015739638 -0.020390838 -0.07036949 0.027954526 0.0368959 -0.023666792 0.018046983 -0.020508062 0.02594962 0.06329119 0.037741892 0.028652087 0.048148043 0.07420345 0.020395547 -0.008335389 -0.034758292 0.042487673 -0.060486197 -0.07041619 -0.0636422 0.009214424 0.02047731 -0.053170994 0.03814721 -0.044266034 -0.012627102 -0.0062446445 -0.040657848 -0.06456948 0.008752264 -0.07040229 0.007427357 0.037147924 -0.051319018 0.043821454 -0.017036583 0.02648545 0.044263244 -0.05819209 0.06218727 -0.018775083 0.055995032 -0.062080424 -0.023081865 -0.05495687 0.073098496 -0.022015344 -0.07181986 -0.0032845885 -0.03255147 -0.0067412704 -0.042943373 -0.04468901 0.00056542456 0.00011039525 -0.00444597 -0.008821003 0.009145126 0.068527564 0.07050978 -0.03583338 -0.07532509 -0.00031178445 -0.0051023737 0.070856035 -0.058776386 0.051572844 0.04677765 -0.022738516 -0.03552051 -0.06023568 -0.0037453994 0.045230255 0.024086654 -0.04264537 0.050935447 -0.028379727 -0.03751078 0.037023626 -0.052342206 -0.010803781 -0.038510695 0.016277663 0.059265926 0.06409283 0.039018534 -0.03741402 -0.013356961 -0.024053063 -0.048360486 0.031211242 -0.056049086 -0.026223827 -0.00049190223 0.026625216 0.069359764 -0.06921269 0.02694296 0.041986704 -0.054568496 -0.06273634 -0.005150743 -0.0026294366 0.037128985 0.015554838 0.007814385 -0.061952174 -0.06854079 0.058736935 -0.037329994 0.012971036 -0.04469783 -0.042436898 0.07130222 0.05594583 0.063734755 0.011456162 -0.0027490258 0.04412158 -0.027954921 -0.019137938 -0.0485262 -0.022306684 -0.06584871 -0.032319654 -0.007870764 -0.027010255 -0.054144196 -0.0053874105 0.008333668 0.018426068 -0.0699528 -0.025446076 -0.073060244 0.059093535 0.07009649 0.047824904 -0.04936531 -0.007004492 -0.048798367 -0.044720322 0.012869313 0.035571918 0.060269356 -0.066437386 0.0711503 -0.03665905 -0.033130437 0.005794123 -0.006465994 -0.052947614 0.04956484 0.03636211 -0.035184257 0.06363703 -0.00838425 0.022887588 -0.0056174546 0.040616885 0.021856777 -0.04569447 0.020810433 -0.015999142 -0.0040875897 0.032090828 0.07356085 -0.07403229 0.053289115 0.0011409 -0.0339497 -0.055096596 -0.017863665 -0.02823183 0.055719912 0.073006526 0.06354137 0.06959583 -0.06266645 -0.04530409 0.075388536 0.038580723 -0.0031056553 0.020082057 0.06383547 0.063065335 -0.074217044 -0.041940704 -0.072963215 -0.0201855 0.025936216 0.02777198 0.0363134 -0.044014893 -0.006818928 0.0032031164 0.046924934 0.022913307 -0.0020771995 0.06954184 -0.009230129 0.0097170845 0.005707018 0.058763042 0.051873833 0.037942432 0.06349817 -0.003962651 0.01579652 -0.030795548 0.038547732 0.037819996 -0.04770656 0.044969283 -0.03661579 -0.039616715 0.0036504492 -0.027904868 -0.022140369 -0.05114734 -0.02285713 0.058111504 -0.058925353 0.001865536 -0.042251315 -0.07554989 -0.042901758 0.014530942 0.041013353 0.023992501 -0.0745046 0.019255921 0.016418934 0.013496056 0.07157594 -0.008323275 0.06762709 -0.05435057 0.044121325 -0.040234745 -0.04195271 0.01845517 -0.07392748 0.049092636 -0.037633162 -0.040028952 -0.056789517 -0.01463965 0.02793777 -0.055620022 -0.006802082 0.050619215 0.03237798 -0.023009159 -0.048302248 0.0006891787 0.025744244 -0.0068523884 0.014596008 0.03543456 0.0061301067 -0.026872464 -0.053644203 -0.06694059 -0.04401209 0.0419752 0.009824432 0.05461152 -0.024279427 -0.045772627 0.052177742 -0.07467709 -0.07566839 0.04946962 0.067751125 -0.037347127 0.018394552 -0.042971514 0.050896063 -0.05186657 0.03662312 -0.048325807 -0.06806993 -0.07446284 -0.07348759 0.033904314 -0.05816406 -0.014231145 0.025669448 0.03782077 0.05254826 0.03148891 -0.071152985 -0.0045572296 -0.0121230185 0.022814251 -0.05954932 0.015476584 -0.04328817 -0.011225745 -0.0003315583 -0.04967936 -0.030810613 0.023200408 -0.0507411 0.03706325 -0.06624706 -0.019753579 -0.025513496 -0.02814532 -0.058760233 -0.069000706 -0.017564937 0.00069865584 0.0316109 0.057725415 -0.016016874 -0.025813982 0.046082057 -0.05324589 0.037717715 -0.06540221 -0.014761779 0.048238322 -0.0644023 0.013154753 -0.06797031 0.02475883 -0.006603949 -0.02078227 0.06378397 0.018577747 -0.06649579 -0.035366092 0.07404609 -0.010132581 -0.069610186 0.025343 -0.04488167 0.06569117 0.052539855 -0.019012116 -0.05945204 0.02622781 0.048587233 -0.06298784 0.008855864 0.050563067 -0.005198084 0.019085094 -0.06831207 0.003297463 0.023038968 0.01943703 -0.015500382 -0.05508776 -0.009733111 -0.018463206 -0.040470656 -0.06811714 -0.036727432 -0.023079693 0.007847995 0.045786515 -0.045067765 0.052495897 -0.040588148 -0.05330654 -0.021656364 0.04697048 -0.022326421 -0.052653484 -0.07400104 0.06549105 -0.0150622465 0.07469623 0.019902922 -0.017492391 0.036808178 0.034578234 -0.06962527 -0.009791963 0.019371398 0.040965684 0.020220973 0.051564977 0.07089259 -0.051101256 -0.06689517 -0.074531995 0.060370326 -0.01488838 0.031598076 -0.03331624 0.055773973 -0.024910223 -0.029642284 0.025829174 0.040157296 0.04642711 -0.0495198 -0.03769705 0.01468011 0.0032314435 0.025122046 0.03842807 0.018580504 0.022595577 -0.04265683 0.038930684 0.041444696 -0.0228149 -0.04645036 0.07227744 0.011878468 0.029172204 -0.041716967 -0.041273654 -0.03393099 0.063108355 -0.028443635 0.04833205 -0.071663484 0.012943596 -0.036524516 -0.04015188 0.046489134 -0.064233735 0.048267744 0.03546817 -0.049154118 0.025628619 0.020315036 0.041437738 0.075333744 0.00012808293 -0.025137242 -0.032143578 0.0013729632 -0.067099854 0.06635426 -0.06386639 -0.03356294 0.017533824 0.0051662475 0.045036525 0.036695905 -0.065927036 -0.037361506 -0.06958721 0.039420955 -0.06450423 0.067853585 -0.045815255 0.03351984 0.060517296 0.03001602 -0.0009633377 0.046167098 -0.0063150525 -0.037826225 0.02854383 0.07065062 0.07330516 0.003040716 0.067795545 0.015963726 0.021877699 -0.019241232 -0.048439622 -0.061163973 0.03722375 0.008385062 -0.07276206 0.013803221 -0.009734467 0.06350115 0.0347268 -0.041960083 0.019710355 -0.03041884 -0.06004008 0.0425514 -0.017815333 -0.039251797 0.013016053 -0.061088655 -0.026237048 0.04480844 0.03169398 -0.016084455 -0.05467132 -0.055317946 0.011187583 0.026424065 0.07160576 0.00032694638 0.057754904 0.015504979 -0.052810654 0.03314797 0.023597166 -0.052093133 -0.040954877 -0.046218675 0.028227173 -0.060027204 0.007344365 -0.0025761425 -0.072758295 0.03204892 0.036795087 0.062245935 0.010080665 -0.031283643 0.023141116 0.012059182 0.055181444 0.07269812 0.05185163 -0.045146212 0.07320233 -0.03477566 -0.0048071966 0.04882528 -0.066128805 0.0048665926 -0.043651246 0.057664827 0.03786443 0.04904571 0.011035249 0.062675536 -0.026836134 0.03833989 0.049449325 0.039658695 0.0070337728 -0.053435512 0.065304026 0.05144444 -0.029630166 -0.024362892 -0.042154826 0.0005732253 0.023603141 -0.0026897416 -0.01479787 -0.014579654 0.06088367 0.06507094 -0.039561898 -0.06353012 0.035301566 -0.0046118647 0.035798647 -0.06910505 -0.032835312 -0.055702113 -0.008405328 -0.0034693256 0.06684402 -0.012637392 0.07450488 -0.055877827 0.057391614 0.0010269508 -0.04456661 -0.032518744 0.0098067075 0.009134531 -0.025882453 0.02270525 -0.026399415 -0.03292984 0.010941409 -0.006365761 0.008603208 0.009663574 -0.067477524 -0.07298804 0.07460976 -0.015727326 -0.017314542 -0.013660684 0.017754234 -0.034381405 0.012664206 -0.059902683 -0.02622899 -0.0381377 -0.017127562 0.014297441 0.062290505 0.008483179 -0.051731456 0.00997664 -0.03253374 -0.072012044 -0.053827956 0.059714317 0.027823031 0.0030813366 -0.046427853 0.07225716 -0.03388952 0.007431887 -0.06990441 0.039821044 -0.067462966 0.045711488 -0.0641452 -0.04326041 0.018455945 -0.008194827 0.06502043 0.038725942 0.030973196 -0.035487782 -0.03397543 -0.012264393 0.06849854 0.052475467 0.03975842 0.060206443 0.06962748 -0.0013162866 0.04037918 -0.03227974 0.06317335 0.0054008514 -0.004171379 -0.060105868 0.0012344122 0.03499092 -0.07142096 0.025746472 -0.004143037 -0.042122178 -0.055695303 0.03119015 0.0371662 -0.0352505 -0.03779984 0.03692627 -0.02891643 0.071084335 0.0744206 0.0036815107 -0.05365239 0.020693734 0.0018511415 -0.012237921 0.059231758 -0.031522196 -0.046755828 0.002758555 -0.007874474 -0.0698369 0.014136232 0.03737677 -0.0014644712 0.05193825 -0.0019893646 0.023158774 0.0046065226 -0.016718168 -0.05515237 0.050107792 0.050976634 -0.051347725 0.03390211 -0.06948303 -0.051858258 0.053763494 0.02213876 0.027919099 -0.024418812 -0.05643311 -0.058402266 0.023891076 -0.07044915 -0.05871322 0.042025074 0.060345262 -0.043914843 -0.020103592 -0.009386718 0.039905667 -0.029061176 -0.032169744 0.03343969 -0.056546364 -0.02240922 -0.066919655 0.057469785 -0.051480047 0.02830302 -0.055891484 0.032526717 -0.00955046 -0.07023869 -0.020051345 -0.060057446 0.010141507 -0.035576772 0.06380208 0.047142677 0.022492848 -0.0068875924 0.0640956 0.029033527 0.03643243 0.0749463 0.04827729 0.04216837 0.067287 -0.016143564 -0.073551655 -0.07108121 0.045960255 0.0056126714 0.043286256 -0.018378947 0.031523883 0.0015926138 -0.0025582463 -0.010981664 -0.06521163 -0.06599699 0.05593787 -0.019154832 -0.011257015 0.013805635 -0.020770427 0.03611087 -0.014162291 0.04764939 0.029191747 0.05926995 0.06081322 0.020316139 -0.06118945 -0.07253191 -0.06128485 -0.06785008 0.06306076 -0.012830071 0.048658125 0.0015633479 -0.058097832 0.010628752 0.054205626 0.07473594 0.0683738 -0.066377625 0.023066945 -0.020504765 -0.04085712 0.06641734 -0.039203245 0.034994252 0.0002162978 0.06660852 -0.03546004 -0.075701885 0.05875367 -0.012602545 -0.0535858 0.044916026 -0.006402269 0.0028046072 -0.025676858 0.009244233 0.06012763 0.06479287 -0.021924544 0.058007166 -0.02713684 -0.0071638674 0.042320617 -0.030567262 0.07484573 0.01215034 -0.047786243 -0.005569592 -0.03589736 -0.0014757514 -0.049253576 -0.008717023 -0.049320888 0.06665218 -0.009866759 -0.074194185 -0.021752343 -0.006445132 -0.050226636 -0.029039498 0.062231317 0.039790675 0.059652254 0.01789099 0.050665677 0.005258836 -0.057188243 -0.000254035 0.041259326 0.0100597665 -0.066529565 -0.043556876 0.03664598 -0.032325845 -0.012745738 0.0012161955 0.045054615 0.07062729 0.013876222 -0.046073657 0.009249195 0.060801223 -0.02873157 -0.006327674 0.030171834 0.053333715 0.061366573 -0.07051203 0.0522898 0.004030198 -0.018644318 -0.037971877 -0.0036598668 0.06019564 0.04985477 0.02000828 -0.07115009 -0.032174706 0.025169618 -0.02353054 0.06451891 0.0069079474 0.0020034015 0.04480058 -0.0015620068 0.0009793788 -0.06708651 -0.03329371 0.042997792 0.008400671 0.06535101 -0.07342255 -0.025072176 0.0056290776 -0.02030629 -0.045535833 -0.06125095 -0.021170206 0.039992936 0.07226306 -0.015984114 -0.038570385 -0.06364982 -0.019084081 -0.0050503984 -0.044011455 -0.048370406 -0.038236868 -0.01719562 -0.030775934 -0.055162188 0.00180614 0.049441114 -0.026139565 -0.009117268 0.036959372 -0.042500295 -0.021537784 -0.07278055 0.054042563 0.024710096 -0.0688736 0.0072227567 0.05280453 0.043940246 -0.0709846 0.020304225 -0.061036084 -0.07302857 0.040761217 0.052530214 0.01647091 0.056416184 0.062487096 0.023265257 0.023399137 -0.055516187 -0.0036221668 -0.036092613 0.037761338 -0.06871234 0.006139651 0.022368453 -0.01147978 -0.01741597 -0.029692229 0.026187614 -0.061308973 0.048821762 0.049677715 0.039758243 0.0019598678 -0.043088157 -0.049121127 -0.03100757 -0.05097431 -0.05623467 0.0087042 -0.024466477 0.0003003627 0.07478976 -0.07018324 0.0058442727 0.019217856 -0.03260616 -0.05586584 -0.010659397 -0.0022228882 0.052010253 0.060128465 -0.029118855 -0.023324817 0.06397432 -0.03336021 -0.0479403 -0.068964414 0.060361326 -0.06956846 0.025950179 0.015878826 0.01690752 -0.04019911 -0.009747438 0.06289014 0.052929 -0.037382983 -0.054316834 -0.06996017 -0.045722373 0.05925843 -0.0040838793 0.0067453682 0.038060628 0.036426656 -0.0035184324 -0.071200214 -0.0014271289 -0.0036730692 -0.04204762 -0.05594197 -0.0014551803 -0.05354147 -0.033843976 0.012289204 -0.07064518 -0.06379643 0.04477892 -0.01854432 -0.06955342 -0.039939474 -0.014841858 -0.04739646 -0.06318219 -0.030374583 -0.014798902 0.046475917 0.018001981 -0.055361517 0.032196224 -0.017351195 0.04563471 -0.013923977 -0.01629503 -0.06090173 -0.06808205 0.027245857 0.036608323 0.011500202 -0.05262721 -0.015219614 -0.04838091 0.012980834 -0.062028177 -0.0049032792 0.019109309 0.06859502 0.04795996 0.0010686964 0.009584598 0.01724618 0.03433624 0.00195463 0.0020102486 -0.042700168 -0.07314282 0.05762428 -0.03134978 -0.009637043 -0.010730706 0.048170716 0.0118275285 -0.051205166 0.01975599 -0.017109383 0.017140388 -0.019789562 0.020391434 0.053692326 0.018385231 0.019403078 -0.04219378 0.0071472973 -0.055345252 -0.028639793 -0.06541865 -0.020391349 0.027877778 -0.049022265 -0.04330186 -0.04724311 -0.057279803 0.0018622577 -0.044313118 -0.0072510466 0.04766439 -0.072657295 0.022669375 0.07508594 -0.027448952 -0.067924894 -0.023352146 -0.037912823 -0.057559684 -0.07397559 0.035311148 0.0205933 -0.01190225 0.0066861287 0.043295577 -0.06915279 -0.045433186 -0.038554702 -0.0712268 0.011615306 0.026353396 -0.04463903 0.04289175 0.0038398728 0.061245874 -0.017394584 -0.02990577 0.04700353 0.034955375 0.01981908 -0.031391665 -0.007852182 0.01656384 -0.022094373 0.015486382 -0.031808306 0.008364253 0.05117248 0.015556879 0.023567446 0.009553194 -0.02832089 -0.05935758 0.00036282092 -0.006811425 -0.06896563 -0.06818163 -0.005634345 -0.055836827 0.01788447 0.07141486 0.005490236 0.039987065 0.060667425 -0.06758268 0.028969504 -0.03712272 -0.060030084 -0.0126096085 -0.04838752 -0.04219206 0.01947783 -0.053563364 0.0046408027 0.064883694 -0.0371909 0.033592224 0.0046857 0.048476584 -0.06233819 0.044177897 0.024004132 0.01760646 -0.06043236 -0.0016404241 0.017430693 0.050803304 0.038009018 0.04032647 -0.021949843 -0.016941328 -0.012989074 -0.0086602345 -0.056521624 -0.04464522 -0.028107002 0.03948693 0.07083376 0.06808151 0.03700559 -0.07588231 -0.054180544 0.040924437 -0.052021764 0.0491416 -0.014359828 -0.025845978 0.015209943 0.013539478 -0.063208774 0.04424186 -0.008451864 -0.051400203 -0.040820453 0.043491594 0.004240662 -0.06787616 -0.038117185 0.044517174 0.03826108 -0.06769882 -0.038533878 0.017935358 -0.0391882 0.051034525 0.033490777 -0.057085764 0.00018518418 -0.050976105 -0.06578173 0.038032778 0.049607307 -0.0041701123 -0.034259547 -0.014292624 -0.0024113655 0.011879705 0.01397562 -0.011027522 0.07256663 0.049516648 0.02804672 0.025256455 -0.07539738 -0.049430974 -0.06594004 0.055912375 0.06903474 0.039896227 0.062726885 -0.04985161 0.05747339 0.042047292 0.036639094 -0.020831257 -0.06767553 -0.023021419 -0.024476744 -0.051832434 -0.028533023 -0.067648 -0.06476049 0.043773733 -0.04118307 0.059444904 0.051222682 0.017932497 0.056084886 -0.0391313 0.032852568 0.03288243 0.045734033 0.04622358 0.03333263 0.0056542307 -0.011728108 0.040582113 0.06240025 0.04237985 0.057385743 -0.017765135 0.02723255 0.049165606 0.025494695 0.07366437 0.034605615 -0.028666325 0.00254561 0.06239842 0.05278665 0.015397973 0.07160404 -0.04408782 0.03114634 0.053487226 -0.019822031 -0.0015900955 0.06414743 -0.022246923 -0.022390839 0.028130457 -0.02376404 -0.049138837 -0.051170506 -0.027460288 0.030603394 0.04675114 0.040727496 -0.04518006 0.07414949 -0.01854191 -0.048515555 -0.030731931 0.035578623 -0.02804045 -0.046097018 -0.07138085 0.015893295 0.03997104 -0.04078646 0.040988013 0.0060203075 0.045864314 0.018080436 0.060510755 0.07580899 0.013323352 0.013544969 0.02312772 0.016981818 0.038505808 -0.045241885 -0.026539996 -0.06613578 -0.050948396 0.05352275 -0.039303463 -0.04513886 0.028001897 -0.008499153 0.007108167 -0.019333426 0.01586005 0.058481023 0.052899525 0.0139919 0.003848672 -0.013113245 -0.07135802 0.046677202 0.07086192 -0.050922047 -0.07409603 -0.04895749 0.011055715 0.035252057 0.008056596 -0.06813952 -0.015707694 0.07257019 -0.037103213 0.051270947 -0.00355009 0.0667139 -0.011786893 -0.031409107 -0.053189337 -0.025678381 0.070587695 0.0014521405 -0.029340748 -0.038283844 -0.0545518 0.0054292604 0.0674468 -0.022302356 0.061258107 -0.0026713982 -0.010982625 -0.06117156 -0.0047043487 0.026869074 -0.04064825 0.033157274 0.04187703 0.029161647 0.04819236 0.031947054 0.058778852 -0.058180954 -0.004240431 -0.06642377 -0.04961355 -0.068717934 0.006177731 -0.04508835 0.027871057 -0.008057885 -0.008250967 -0.033318646 -0.031924672 0.048811026 0.023799568 -0.003475137 0.07072364 -0.06722077 0.0069822147 0.05990386 -0.06780552 -0.0030759722 -0.014713682 0.069751054 0.05368489 0.009328388 0.0115419105 0.062581286 0.068728 0.022993043 -0.01430941 0.028147232 0.06191241 0.014048076 0.04911263 -0.074898206 0.01075968 0.06771944 -0.003883448 0.017912174 -0.040014 -0.07361457 0.073695466 -0.05617015 0.022485338 0.044719588 0.061579634 0.071081996 -0.059955895 0.014812636 -0.06442955 0.035861623 -0.068675615 0.0462762 0.056351773 0.062878914 0.04934368 0.056110945 0.039942402 -0.02592567 -0.07691548 0.011108105 -0.07640034 0.0011976617 0.021545038 0.0010188702 0.041697104 -0.04042776 -0.006518051 -0.008503332 -0.030175457 -0.07022904 0.022856468 -0.07320894 0.011273926 0.014515727 -0.022389214 0.06393425 -0.0029207063 -0.02247558 -0.05589174 -0.07438302 0.0106476145 -0.0065273265 -0.050634425 -0.0170007 -0.056496352 0.009542127 -0.076335445 -0.017369168 0.0414526 -0.031365506 -0.05285671 0.014798975 -0.03837098 -0.07265676 -0.054540593 -0.016153261 0.052012067 0.059746735 0.026289664 0.040118363 -0.07694279 -0.010329806 -0.075753234 -0.06979303 0.042309467 -0.027314536 -0.051371142 0.06028918 0.033293795 0.04993149 -0.04588433 0.031886112 -0.030912995 -0.0023100358 0.0726787 -0.00045995403 -0.052511457 -0.059685417 -0.055011198 0.05633365 0.018386928 0.0031769082 -0.06639281 -0.07363744 0.037430894 -0.075822935 0.04770049 0.037315052 -0.07450189 0.050700244 0.019226812 0.014685048 0.0037460425 0.036828984 -0.034374453 0.036273662 -0.0731548 0.006554961 -0.05271445 -0.008649239 0.009977204 -0.053267997 -0.008531297 -0.062157266 -0.026135266 0.02004578 0.062643155 0.06321806 0.0043578264 0.040704563 0.03925321 -0.019112896 0.005182818 -0.05798586 -0.025067095 -0.013723725 0.015867718 -0.010359148 -0.077673785 -0.041134868 -0.032492936 -0.037979327 0.035082635 0.05081619 -0.07427983 -0.028138883 0.05737869 -0.060370978 -0.03261382 0.028467173 0.01872906 -0.02680697 0.023030989 0.031304065 0.0618027 0.05287468 0.07132304 -0.06567491 0.02874131 -0.042418554 0.028707461 0.06262601 -0.030603074 -0.02283101 -0.019797789 0.018918352 0.045919273 0.051553663 0.047653954 -0.014997949 0.06722255 0.010315901 0.040728938 0.052532654 0.0042448086 -0.009660856 0.06724428 -0.060100984 0.038486194 0.051741194 -0.059892803 -0.07755982 0.021435022 0.031904023 0.04685347 -0.046553627 -0.028334428 -0.02457163 0.05237594 0.049480062 0.017422143 0.0061235833 -0.000672598 -0.02515139 0.065587446 -0.050085463 -0.033667997 -0.0714973 0.008923484 -0.008117938 -0.0078069153 -0.026861897 0.067760974 0.053468492 0.021883845 -0.062904626 0.05567689 -0.006042767 0.01463396 -0.01114844 0.04807378 -0.00055797084 0.02976346 -0.06793356 -0.04839225 0.015183279 -0.025866337 0.043938085 -0.008153176 -0.028985588 0.014598647 -0.03399223 -0.014145783 -0.005859721 0.05134737 -0.07291297 -0.07335626 -0.055812802 0.06641093 -0.06858596 0.027378289 0.05080306 0.05057892 -0.05641401 -0.028723486 0.0066409972 -0.004452566 -0.026326086 -0.008421624 0.042257342 0.0129328575 -0.01733652 -0.062018618 -0.026321052 -0.02735271 0.07382591 -0.077273145 -0.0035546625 0.03438199 0.04243238 0.06509414 -0.0013215352 0.055748675 -0.05594958 -0.061791148 -0.009322763 -0.0548482 -0.041595396 -0.033565897 0.06952701 0.010219289 0.057857823 -0.05288661 0.009824326 -0.05619022 0.037329737 -0.01634949 0.038409334 -0.07528441 -0.040352914 0.06429805 0.05827638 -0.015389687 0.044098333 -0.015604833 -0.024126006 0.035231017 0.02105183 -0.03760656 -0.007994503 -0.044201307 0.01284543 -0.0612239 0.050590783 -0.07327057 0.032753583 0.06758383 -0.0471597 0.06397705 0.0004983205 0.029059958 0.017987872 -0.06202938 -0.00081664015 0.0580596 0.03985237 0.0018998263 -0.008202032 -0.069910854 -0.04509065 0.00940606 0.024331491 -0.02662883 0.039487615 -0.007500911 -0.07715877 0.03699231 -0.04236683 0.04453322 0.035770662 -0.014256419 0.004401141 -0.020669725 -0.05560716 0.071802154 0.04462957 -0.015777672 0.00042393347 -0.018846422 0.03102922 0.073619865 0.04418058 -0.038377292 -0.058841344 -0.059373852 0.040829178 -0.032472678 -0.05616928 0.04777737 -0.058137406 0.044255883 -0.008124489 0.05650681 0.018209897 0.038786914 3.8697835e-05 0.0072763683 0.021625394 0.06533506 -0.076201126 0.06843684 -0.020475559 0.043150518 -0.008123787 0.05672365 0.06258851 -0.0057549323 0.058039825 -0.07458132 0.070730954 0.03545841 0.0484821 -0.031363968 0.00560211 0.010819854 0.069377914 -0.03066951 -0.0741027 0.01673406 -0.067740254 -0.07137715 -0.004237057 0.018983657 -0.06574542 -0.018325262 -0.05258199 0.045828026 -0.010444023 0.07087483 0.018230159 -0.02826378 0.0018544325 0.07068118 -0.05899886 0.031412613 -0.062318947 -0.024456525 0.06123106 0.021509476 0.05301898 -0.06627693 0.057196777 -0.0022088795 -0.060360145 -0.02988168 -0.05721052 -0.027311023 0.015461317 -0.042465627 0.005840571 0.030530926 0.012397981 0.029687015 -0.06638105 -0.027127191 -0.0069812303 -0.06652444 0.004884046 0.063887715 -0.04913674 0.021311596 -0.004637728 0.0128127765 0.019346043 0.04112233 -0.028964635 0.06835127 -0.048936155 -0.047086433 -0.010873564 0.009330232 -0.018689407 -0.05154895 0.0337722 0.046388365 0.072205715 0.027436828 0.07174003 0.0093917465 -0.023874752 -0.012940421 -0.06444054 0.06942011 -0.022735294 -0.0015879668 0.04397658 0.010037487 -0.055146974 0.06387436 0.016976165 -0.04504859 0.05480213 -0.056824762 -0.050042298 0.036934454 0.033088043 -0.036290076 -0.05949341 -0.011838574 0.007393863 -0.0105401585 -0.06956702 -0.05401674 0.037924588 -0.012558606 -0.002003053 0.06348261 0.012389985 -0.020728594 0.030442378 -0.051697467 -0.06769967 -0.042338215 0.00036948145 -0.031868197 -0.04104197 -0.07299672 0.07302874 -0.024519527 0.003007132 -0.05012885 0.040476568 -0.0144907255 0.025977954 -0.06236322 0.021885328 -0.029522652 0.012634484 -0.052788053 0.01869667 0.011228369 0.016196836 0.034210496 -0.024218783 -0.031102935 0.053754777 -0.036871888 0.06850394 -0.0006666448 0.015839167 0.05311231 0.025718415 0.073462024 -0.036183253 -0.033385746 -0.005003611 0.03630024 -0.043227166 0.026171952 0.045153137 -0.008762965 0.05572424 0.068385415 -0.015654014 -0.03378242 -0.025414726 0.0028029864 -0.020412669 0.072628684 -0.0750174 0.025034422 -0.06727705 -0.07813843 -0.02098372 -0.07354535 -0.0068055354 0.03080581 0.0048558796 -0.026484385 0.010635017 0.005946271 -0.037388954 0.042109236 0.014076914 0.0680856 0.010201554 -0.01890298 0.008259801 -0.011508102 -0.0006587474 0.06849301 0.016468313 0.011411739 -0.0026615846 0.05026193 -0.07283737 -0.071628585 0.0661214 -0.016482627 -0.0134899 0.051759943 0.06928955 0.044143885 -0.034194153 0.023233738 0.06655295 -0.06341912 -0.0038300336 -0.008124383 0.018529326 0.057992958 0.039262813 0.022296809 -0.032730103 -0.040398184 0.026590548 -0.019104734 -0.03902491 -0.034888778 -0.046614073 -0.045714438 0.06570767 0.06164529 -0.031077014 -0.031763196 0.055386625 -0.047459494 0.03861609 -0.061435025 -0.07350726 0.04175738 0.005937044 0.07171378 -0.05225211 -0.004124052 0.06336994 0.03839199 0.04686631 -0.026292942 -0.04921459 -0.00835848 0.045306344 0.043092664 -0.021818815 -0.062935986 -0.055370174 0.011055496 -0.070226684 0.003747651 0.0086723035 0.008522528 -0.034114826 0.0028314327 0.02967158 0.0114500085 -0.0374009 -0.04913022 0.020930111 0.027479338 -0.021147175 -0.07247936 0.004315936 -0.0714186 -0.015211444 0.014583299 0.0040700925 0.005928111 0.04803848 -0.00863626 0.03675669 -0.05938357 0.052384082 -0.04684191 -0.032443143 0.03450767 0.034723267 0.037559323 0.0685906 0.042495035 -0.040059116 0.026892774 -0.03278402 -0.07975506 -0.04299462 -0.018306363 0.07239497 -0.031666975 0.05093667 0.03401869 0.05470703 0.011187529 -0.06868127 0.029355736 0.07393193 0.046990346 -0.015171485 0.01413384 0.060331933 -0.069906026 -0.06648944 0.005796839 0.009369491 0.019122154 0.04486126 -0.02358777 0.048936963 0.04661235 -0.06259953 0.059485044 -0.009891363 -0.06304957 0.044654414 -0.01170583 -0.062337358 0.03264874 -0.06412217 -0.06709261 -0.03491848 0.052487876 -0.0075694243 -0.01378865 -0.03770171 0.06172302 -0.01923149 0.02055798 -0.072635844 0.06531079 0.028760554 0.0032924016 -0.07460728 -0.011809098 0.01555342 0.04236009 0.026736818 -0.0027878836 0.0038272475 0.00849657 0.06955616 0.03291532 -0.05402885 -0.03902249 0.049125187 -0.067058206 0.03032133 -0.06345956 -0.0009855968 -0.067440696 -0.01638846 -0.06605757 0.042384196 0.040941704 -0.061386965 -0.046362214 -0.02431243 0.010013196 0.043731175 0.037457082 0.057913497 0.05021785 -0.05234589 -0.030226542 -0.026521936 -0.024535308 0.030673722 0.06096748 0.04075851 0.043299 -0.00860809 -0.06313976 0.061730046 -0.013583632 -0.036535006 0.004606068 0.032260723 0.054874487 -0.06620096 0.015015705 0.031509668 0.043964874 -0.06914524 -0.008304024 0.029096717 -0.045939434 0.047687795 -0.033531632 -0.07539645 -0.06103808 0.0126837995 0.0025167346 -0.020973433 -0.048045363 -0.022159247 -0.0386482 -0.053054366 -0.06750152 0.07176483 -0.056124236 0.027779743 -0.039944965 -0.06462977 0.027363198 0.0718573 -0.057573523 0.021807753 -0.041124526 -0.00084474374 -0.02956317 -0.03836834 0.071543336 0.02247987 0.0519749 -0.012049185 -0.04821292 -0.05116946 -0.052678045 0.0147080105 0.05217582 -0.0051731695 -0.06402863 0.05103163 -0.05414475 -0.07455943 0.021306366 -0.011335895 -0.035625387 -0.025360644 0.0060050967 -0.01751219 0.04703821 0.031280417 0.0134771075 -0.0346506 0.05346943 -0.07285654 -0.0026906417 0.049706977 -0.069258936 -0.036665123 -0.031070653 -0.0036069553 -0.029778797 0.0044465107 -0.0011058791 -0.027821194 -0.019127555 -0.0057711233 0.002648934 0.06431246 -0.07176795 -0.018569378 -0.045664176 0.020551778 0.06312789 -0.013014028 -0.00869857 -0.057088893 -0.007882719 -0.03669667 -0.012023674 0.0072821197 -0.030766148 0.036909025 0.06939332 -0.05176034 0.04758154 0.009156786 0.041577347 0.039861023 -0.07301144 0.011382565 -0.011749096 -0.0004123971 -0.055707023 0.034528464 0.01675848 -0.07196469 -0.047245648 0.07533789 -0.012890033 -0.02704278 -0.06275153 -0.07135452 0.031101488 -0.012960255 0.0309387 0.073691785 -0.047079477 -0.0046479926 -0.006846957 -0.047087066 0.012855805 -0.074986756 -0.052840192 0.07432008 0.061257854 -0.018732943 0.027857348 0.06678878 -0.048897512 0.063663796 0.070908815 0.01985763 -0.03196694 -0.027843188 -0.055311568 0.054410994 0.01757408 -0.037636366 0.030877419 0.026400648 -0.046783537 0.07539962 0.014080785 -0.06450215 0.045182705 -0.0056313425 -0.029074088 -0.0036701933 -0.024829168 0.0063692704 -0.051947083 -0.007067837 -0.032977052 -0.049073517 0.06686105 0.055803314 0.024203278 -0.009161584 0.056803152 0.04236064 0.04125259 -0.0148758665 -0.058996648 0.046599604 -0.052903607 -0.03205669 -0.0021142513 -0.018990528 -0.07287768 0.052978992 -0.05491831 -0.024200235 0.008331999 -0.04699429 0.039731167 0.02143889 -0.020530172 0.07131794 0.05744733 -0.036217783 -0.005737841 0.0076678097 0.04079794 -0.006653063 -0.026276037 0.058117986 -0.042639103 -0.066076234 -0.009149052 -0.04703187 0.031723388 -0.05739362 -0.015263785 0.042418897 0.0007648021 -0.006076157 0.008432999 0.037329197 0.03329391 -0.0486743 -0.018572133 -0.0683292 0.063606665 -0.050299075 0.038694397 -0.010109857 -0.0342031 0.03614924 0.010434553 0.07538326 0.051138952 0.07230236 -0.04511128 -0.06300941 -0.0594934 -0.068472676 0.01648572 -0.0147641525 -0.06788386 -0.011690296 0.03894403 -0.07304188 -0.013272785 -0.029798493 -0.05120957 0.05580561 0.020397216 -0.00058856606 -0.01867032 -0.07594484 -0.029960625 -0.0034996346 0.037935823 0.058083758 -0.058844186 -0.023804765 0.029434986 0.05014205 -0.009532861 -0.04904224 0.06664653 0.029322326 -0.023188565 -0.046421044 0.07283366 0.02694986 0.024824984 0.051842898 -0.047290266 -0.048822705 0.049643263 -0.03765015 -0.041201632 0.0074817017 -0.04132463 0.032256722 0.0016398579 0.064051494 -0.05235014 -0.039061867 -0.06173195 0.012119651 0.0040178522 0.041545272 -0.018327985 0.0038454533 -0.019348927 -0.026075732 0.01600197 -0.017883442 0.025891744 -0.027878337 -0.0538913 0.011188708 0.05820687 0.019784726 0.0058394745 0.039312012 -0.017643478 0.018424004 0.049917176 0.025619633 -0.0603477 0.043501988 0.041450202 -0.0021073148 0.026454411 -0.0065656304 -0.07076653 0.0045630783 0.054461822 -0.07161709 -0.008279361 0.06440973 -0.0035442412 0.06026785 -0.021496262 -0.02550741 -0.012627177 0.07201269 0.059960395 -0.026198223 -0.04716524 -0.038513593 0.023032717 -0.042078532 0.040808007 -0.063390896 -0.07279194 0.016232736 0.025662318 0.0058455914 0.060256615 0.071652636 0.02628839 -0.046147667 -0.03325999 0.017450832 -0.04949568 -0.05781149 0.042600624 -0.027140152 -0.060503095 -0.07078345 0.0108765215 0.030106291 -0.057153385 0.06324661 -0.0528474 -0.04517544 0.02663058 0.008222133 -0.0366105 0.004534088 -0.027662586 0.017065719 0.043323867 0.053160086 -0.019980285 0.07419382 0.061571434 -0.061208703 -0.0006996691 0.009380691 -0.07503467 0.05022502 -0.03490112 0.042594776 -0.010001197 -0.033189602 0.05709049 0.03983307 0.039502867 0.06534678 0.00041977316 0.008553334 -0.060450867 0.04991518 0.018623218 -0.033597656 0.011312015 -0.06786613 -0.009515382 0.044847302 0.009797014 0.046716824 -0.014145959 -0.025490806 -0.016926661 -0.05278869 0.06771593 -0.02036085 -0.056150876 0.057387993 0.05060269 -0.03613964 -0.004549302 0.07140027 0.04204052 -0.03549769 0.059166312 -0.010913193 -0.012811601 0.060690597 -0.067942046 0.02297116 -0.061293505 -0.04968175 0.0037320703 0.059465468 0.07567179 0.048580386 0.05040957 0.04798653 0.046922557 -0.0630601 -0.04259738 0.057047024 -0.033467524 -0.02477254 0.04907815 -0.01337371 -0.07155593 -0.01252573 0.015016578 0.06568755 -0.051005024 -0.028003328 0.0039776117 0.0020886436 -0.05605863 -0.005041525 -0.058461703 0.06778973 0.062118664 -0.065046854 0.04354967 0.024558254 -0.06470417 -0.056189485 0.047484033 0.039412573 0.030027159 0.035294235 0.055437416 0.07308163 0.03290434 -0.06032957 -0.008085087 -0.0060001537 -0.045404755 -0.025867622 -0.062232252 0.0059344172 -0.035307452 0.014859751 0.02630233 -0.037477568 -0.0423223 0.00830929 -0.0686924 0.035400987 0.0023284107 -0.021788958 -0.010179631 -0.025917474 -0.012047395 -0.039738283 0.02569151 0.058299214 0.047374062 -0.0018037483 -0.03662231 -0.073701546 -0.0059919357 -0.0740033 -0.02687183 -0.034428995 0.046240605 -0.04806862 -0.018749367 0.013140336 -0.005407281 -0.018382765 0.00014898181 -0.0018635243 -0.06832291 -0.068862766 -0.021116238 0.019183882 0.00803753 0.07167962 0.031387135 0.0648237 0.06602712 -0.030964922 0.018438868 0.00011870265 0.02759245 0.010020107 -0.00961116 -0.037579358 0.050623015 -0.034241963 -0.030695476 -0.031762417 0.02610445 0.0418536 0.011230417 0.018751815 -0.020246927 -0.03544231 -0.041072298 0.072498634 -0.046667546 -0.029584099 -0.00036296248 -0.017177291 -0.044429485 0.015479445 -0.058115162 -0.025445912 -0.022275772 -0.035658736 -0.019403238 -0.012400851 0.03833638 -0.017605953 -0.016459804 0.055186465 0.020034 0.035735227 -0.0056682155 0.0047300085 0.06117274 -0.0346611 -0.025221866 -0.043896843 0.041136965 -0.05351103 0.007951766 0.057917595 0.05163598 0.06430741 -0.031041019 0.07368651 0.04972996 -0.007209271 -0.0582326 -0.056612898 -0.04566951 0.075384274 0.021665126 -0.016999822 -0.0622387 -0.029218908 -0.031059451 -0.06655334 0.041217186 0.034042455 -0.009378046 -0.050271727 0.007566057 0.0020207837 -0.010200761 0.02470316 0.055241764 0.057328224 -0.022915985 0.053716823 -0.06461048 0.07085155 0.061234236 -0.075735785 -0.016611397 -0.012484185 0.06671974 -0.05465082 -0.0028807223 0.070152774 -0.049349666 -0.004498668 -0.013375774 -0.04138716 0.022377603 -0.0020070747 -0.074151576 -0.061161056 0.025007486 0.0057158396 0.0065380856 0.014902219 0.012693599 0.052697062 0.068758205 0.006521605 -5.9887767e-05 -0.06311178 0.006478615 -0.012359738 -0.028227158 0.058957085 0.02105409 -0.029433087 0.029483825 0.07124528 -0.07361667 0.04623215 0.065377206 0.016921483 0.03641762 0.058840647 -0.044649858 -0.044625048 -0.020002343 -0.055325173 0.03414747 -0.013020143 -0.074677706 0.009280704 0.05808662 0.0079902485 -0.025335863 -0.0033613592 -0.019753613 -0.010703221 0.029107623 -0.067008734 -0.06726652 0.021603614 -0.020349931 0.010280535 -0.024781305 -0.018972635 0.048222855 -0.06825245 -0.0055658445 -0.013489012 -0.0057026744 -0.04571017 0.06879203 0.008324049 0.058785513 -0.0395343 0.054931566 0.02915594 0.019022241 -0.01035855 -0.00863035 0.061958805 0.022763975 -0.06819849 -0.038550373 -0.060869228 0.03247402 0.038965 -0.07144831 -0.0002452135 -0.07311669 0.061185196 -0.041498315 -0.059924595 0.0675848 0.017079286 -0.0011306629 -0.06865862 0.047598235 0.05495724 0.015088506 -0.054700006 0.036740124 0.011942342 -0.0012812987 0.06998694 -0.0056640506 0.0225107 -0.018089019 -0.014917336 -0.06795238 -0.051452756 -0.037288237 -0.07214624 0.029682755 -0.05992036 -0.06249172 -0.043193243 -0.007165484 0.060419425 0.019653216 -0.040348217 0.06874505 -0.056362737 -0.06561333 0.031030044 0.013553336 -0.037102636 -0.00086681545 -0.00432384 -0.03077197 -0.011359982 -0.06801577 0.0325014 -0.04724762 -0.002235651 -0.03229584 -0.0044605657 -0.021098763 -0.0035584345 -0.068934605 -0.027331822 -0.067887604 0.023415491 0.041948803 0.029784925 0.006879069 0.025494754 0.03232719 0.055009052 0.06312095 0.041204274 -0.06812938 -0.041563798 -0.028649174 0.01729399 0.044219255 -0.063712336 -0.017313164 0.009986043 -0.04508504 0.016730554 0.049514547 -0.036744796 -0.00012357533 -0.058709867 -0.02924886 -0.027556755 0.071933314 0.04869228 0.018708043 0.0698442 -0.03917842 -0.014279801 0.072690666 -0.06265688 -0.05226691 -0.06905058 -0.005349651 0.064643815 0.025446638 0.0010224283 0.0467925 -0.065273836 -0.053418852 -0.045451753 -0.06991692 -0.069683366 -0.045697585 -0.020874482 0.05800952 0.018381968 0.043697946 -0.07584118 -0.0036091954 -0.03418088 0.051413074 0.031733245 -0.037467826 -0.03233021 -0.0025045201 0.065050155 -0.010845542 -0.0095810145 -0.011995584 0.056279108 0.06268911 -0.06929792 0.062044725 0.015554205 -0.07496314 -0.028142858 0.06472087 -0.014710277 -0.01750172 -0.001650542 -0.007306896 0.075836256 0.04352104 0.04227364 0.051064238 -0.072607026 -0.029266443 0.0053091794 -0.043659303 -0.07471615 -0.02749636 0.061687693 -0.053219162 -0.04965873 0.074502274 0.0022455007 -0.06445687 -0.04120942 -0.040093966 -0.00011256337 -0.016668987 -0.000514552 0.026243746 -0.030346297 0.014319718 0.06636557 -0.07374595 -0.01202251 -0.03404861 -0.052921377 0.047649793 -0.00033868104 -0.027221646 0.034118332 0.0057576373 -0.06267221 0.033270583 -0.017413888 0.047293656 -0.022757802 0.0021088123 0.061587423 0.06326395 0.06881362 0.068363786 0.018224277 -0.07033597 0.0043006465 -0.014035746 -0.01064802 -0.06897216 -0.045881882 -0.06415077 -0.06227843 0.066875845 0.0024903044 -0.06343921 -0.05259045 0.020261846 -0.06037883 -0.030526608 -0.04257891 -0.056833666 0.037223496 0.054179057 -0.008985639 0.074802235 -0.030218553 -0.018889498 -0.06561266 0.021040037 0.0022322088 0.008691795 0.011189833 -0.004128352 0.040734358 -0.036455467 -0.047873385 -0.02038481 -0.030925788 0.054424673 -0.01876985 0.0053191185 0.037409365 0.039043322 -0.050104454 -0.050120026 -0.02442899 -0.07503262 -0.05762908 0.044438593 -0.025186371 0.023177609 -0.070206635 -0.013094865 -0.07265668 -0.06638599 -0.0337821 0.041923717 0.038907997 0.04707274 -0.033296555 -0.012612365 0.019871615 -0.02468893 0.027504183 -0.03377382 0.07261118 -0.060883895 -0.060869697 -0.06582968 0.058530077 0.063752264 0.040356733 -0.001982145 -0.015472475 -0.013219222 -0.025060784 -0.017778553 0.039387688 0.055841595 0.026430674 -0.06685491 0.07102539 -0.045296572 -0.027548842 0.020694025 0.009188078 -0.0166516 0.03146012 -0.051021792 0.009174734 0.037150808 -0.031862795 -0.0015352592 -0.022004135 -0.05676603 -0.03405399 -0.02184153 0.049890116 -0.062624566 0.023796186 0.034266047 -0.015344985 0.01161471 0.067144156 0.016849712 -0.025630355 -0.027190588 0.01746586 -0.071811 0.03880678 0.027882233 0.07328941 0.013405763 -0.07336241 -0.061709113 0.01789371 0.029645853 0.042753533 0.0018425211 -0.0025295094 -0.001630716 -0.065334864 -0.017499745 -0.0443669 -0.0636943 -0.039644007 0.06617212 -0.033201624 0.012903936 0.047662847 -0.062576525 -0.037708513 -0.021286268 -0.05102967 0.0029325113 -0.07167761 -0.012774676 0.033515207 0.032920733 0.060915798 0.07436262 0.035319947 -0.02822138 -0.07208488 -0.020431876 0.028700821 0.065020174 -0.066918515 -0.038592894 -0.0113014355 -0.052760586 0.032845363 -0.07144077 -0.023506887 -0.02973444 -0.06839485 -0.012130298 0.026282191 0.020685278 0.01806274 0.028021999 0.020319708 -0.019436594 -0.05702863 0.037187405 -0.013971366 -0.04407004 -0.017911293 0.060290202 -0.017035749 0.03861376 -0.0045522675 -0.034848385 -0.022575498 -0.070615575 0.052004233 -0.027698334 -0.06345957 -0.027869973 -0.06932383 -0.04682671 -0.073933885 0.06336287 -0.034085117 -0.055435218 0.043432176 -0.0030120835 -0.012114815 0.062154964 0.031235218 0.016106606 -0.050741535 -0.033105865 0.039677687 0.010371208 -0.02510649 0.0033003613 -0.06969916 0.02173929 0.011053219 0.07312611 -0.033415385 -0.015658148 0.040205084 -0.038838256 -0.025729612 -0.06553309 0.0650917 -0.058639225 -0.035444774 -0.013241135 -0.0379544 0.010338388 0.049412176 0.025493428 -0.06849557 -0.07280869 -0.009348668 -0.034770913 0.070584685 -0.004230179 0.013892591 0.012849681 0.01665508 -0.05951564 -0.068744354 -0.068651274 0.049654827 -0.047307216 -0.056825988 0.047497362 0.029882751 -0.07209406 0.07370284 0.06373368 0.061651886 -0.06722972 0.0013819337 0.028377049 -0.0034713894 -0.06936081 0.025530986 0.039401866 0.07561304 -0.03234899 -0.061741944 0.03735915 0.074094355 0.038904846 -0.016752902 0.069695815 -0.030377064 -0.07017469 0.01879783 0.04330536 -0.04682588 0.02445887 0.03548842 0.035471685 0.030772768 -0.058406577 -0.065409034 0.036026806 0.030803882 -0.06142337 0.04023344 0.042161457 -0.023341931 -0.06456747 -0.026128974 -0.034245256 -0.00803829 0.022318386 0.06021203 0.00033775717 -0.029467963 -0.009097226 0.004928522 0.06068279 0.03155776 0.0034233034 -0.023258124 -0.028412938 0.026427776 0.027138539 -0.023661051 -0.052561183 0.03875354 -0.0036162958 0.009990387 -0.021391336 -0.014291029 -0.016911902 0.0121624395 -0.027725894 0.018346183 0.00715632 0.06967121 -0.012992911 -0.015667275 -0.05614771 0.03368871 0.012175895 -0.004966192 -0.02578964 0.05559492 0.044661812 -0.01266209 -0.03944238 -0.026404884 -0.05351952 0.0051824898 -0.0026190802 0.031092554 0.059046462 -0.062868536 -0.019073214 -0.019031454 -0.00013951212 0.04935488 -0.055962108 -0.059726592 0.043882735 -0.07446121 -0.049116053 -0.034931015 -0.0042436346 -0.03055064 0.041932516 0.042108342 -0.015389297 0.05572872 -0.044660885 -0.06954755 0.025525123 0.036322653 0.07089889 -0.06662632 0.054277495 0.013890959 -0.06730053 0.060546935 0.03278122 0.06400192 0.018033966 0.074096784 0.06738792 0.070009425 -0.051420085 -0.053167135 -0.020459294 -0.019852906 0.05750002 0.03383854 -0.04168408 -0.06540331 -0.060785383 0.051110566 -0.07383727 0.020682052 0.019798145 0.041855484 -0.0128763765 -0.04879266 0.025015205 -0.031635143 0.050674826 -0.062467635 -0.008331746 0.018172175 -0.0637811 0.069005236 -0.066623405 0.023370363 -0.07010482 0.0123997405 0.032260723 0.0330676 -0.037897702 0.049702913 -0.0054324865 -0.033886623 -0.005102612 0.011469148 -0.05124946 -0.034304295 0.025435895 -0.029474046 0.028037518 0.016483635 0.011683382 -0.06410085 0.07423726 -0.06281742 -0.015389424 0.06900357 -0.01636716 0.028349832 0.052345127 -0.04824169 0.062738225 -0.028297186 0.0013919473 -0.005144261 0.04950857 -0.0019152611 -0.06174669 0.0002162382 0.057753414 0.010074049 -0.012557 0.059383273 -0.03538572 0.061962247 0.04623439 -0.02311048 -0.014750678 -0.029925238 -0.03221446 -0.049399808 -0.041450597 0.003483139 0.054666534 0.019924544 0.03698621 -0.022200745 -0.03582909 -0.06916521 0.060726106 0.07237914 -0.06344982 -0.075529814 -0.015740164 -0.056372643 0.0234951 -0.0018044561 -0.00788641 -0.06534547 -0.0010630265 -0.019434314 0.030922584 -0.018873472 -0.052681282 -0.065250926 0.013919488 0.035393454 0.014083371 -0.06365464 0.010453455 0.063591346 -0.039192162 -0.008017264 0.034071952 0.05832623 -0.055170484 -0.06333686 0.027602285 -0.0583696 0.02438122 0.07554485 0.042220272 -0.034282528 0.0033536255 -0.021600388 -0.06127339 0.032582328 -0.0146507695 0.07292868 -0.07339378 0.035596617 -0.0094122365 -0.020308081 -0.04965035 0.009702757 -0.07067793 -0.00031004846 -0.06538121 -0.06295173 0.030702196 0.023754224 -0.0044346303 -0.03344215 0.022590324 0.053220093 -0.056070726 0.011835441 -0.061861232 -0.0102816 -0.03538389 0.07332878 0.020969793 0.04022202 0.008499384 0.04339893 0.044883266 -0.014290616 -0.036237758 -0.00048764795 -0.035407018 0.01023414 -0.02813118 0.03684438 -0.06273858 0.012675561 -0.059467994 0.07285969 -0.055932134 0.019971102 0.0624512 0.040544085 0.033320926 -0.06015087 -0.049532637 0.049606994 0.004234761 0.055471227 -0.011905938 0.010159455 0.038176507 -0.040435832 0.024286635 -0.0014934465 0.026996456 0.03506908 -0.06700614 -0.0012065098 -0.06193497 -0.025151566 -0.05677052 -0.01034493 0.034750104 0.05761218 0.015078783 0.0028434694 -0.031010322 -0.031920075 -0.053343028 -0.0058996826 -0.07122689 -0.071960166 -0.043075282 0.027788319 -0.00054764 -0.019745898 -0.07287901 0.03202866 -0.03702728 0.01521942 -0.04506691 0.0006162524 -0.05615528 0.06333363 0.029293172 0.05913043 0.0369685 -0.071222484 -0.060529027 0.019660547 0.037930258 0.05078043 -0.04407775 0.019446574 -0.041561425 0.009484455 0.061896846 0.06942685 0.0057080016 -0.01867092 -0.022627596 0.04539507 0.054826662 -0.033651005 0.051786765 -0.015364889 -0.004169695 -0.07438004 0.024943545 0.02986151 0.07505615 -0.031233337 -0.013222389 0.064989865 0.01588875 0.04732743 -0.011164337 0.016562372 -0.036278177 0.034903347 0.06349991 -0.00042779 -0.018860199 0.020117864 0.05585274 -0.03821088 -0.035907608 -0.0027902797 0.062144876 -0.02017755 -0.034375392 -0.013127066 -0.05589101 -0.0017584711 -0.01324673 0.07542433 0.015773796 -0.027529683 0.045251228 -0.014807396 0.052535072 0.03572786 -0.0754227 -0.05984678 -0.0047086254 0.058286637 -0.06465979 -0.067339405 0.041103788 0.014829256 0.052934483 0.022539474 0.06775333 0.06770222 0.012323774 -0.010014236 -0.06742689 0.003980458 -0.045966886 -0.041717835 0.06541237 -0.012254305 -0.058185317 -0.047415495 0.04495246 -0.040329367 3.6597252e-05 0.014151424 0.057937488 0.060719594 0.040418282 -0.064008765 0.013752967 -0.019859768 0.05850035 -0.0107956305 -0.0018111914 -0.04415586 -0.060035426 -0.00010329485 0.075938344 0.019873276 -0.036595054 -0.04772447 -0.018441405 0.0034105554 0.012287155 -0.002540812 0.011947826 0.04114566 0.017046541 -0.006411575 0.011218734 -0.073421665 0.018451795 -0.019769639 0.03696522 -0.0249298 0.058569863 -0.015821747 0.038398057 -0.07278574 0.043215103 -0.04219429 0.07202765 -0.056267843 0.01399225 -0.07297023 0.034609504 -0.024535708 -0.006799437 0.014459811 0.04597713 0.0076576546 0.05081792 0.07061969 0.06244573 -0.0146391615 -0.046178654 -0.0008291304 0.02813518 -0.06143056 0.031360738 0.03863132 -0.043960333 -0.042728163 -0.026549269 -0.011709981 -0.040686354 -0.036643494 -0.061552033 -0.017001722 0.07105844 0.026664838 -0.07102345 0.043099858 0.04813423 0.012603849 0.00022037327 -0.038535632 -0.0299078 -0.05545704 -0.039409675 0.07234493 -0.052734196 0.074349806 -0.02809485 -0.06944266 0.06829381 0.022756532 0.06769557 0.0022648796 0.0016789064 0.06311673 -0.006695822 -0.020361993 -0.009999983 0.039912388 0.020777762 -0.053008717 -0.047481574 -0.057724874 -0.013341442 0.051553383 0.058013916 0.030568205 0.06986566 -0.03379081 -0.07264323 0.026268072 -0.040433764 -0.005615987 -1.0162592e-05 -0.014611218 -0.035716176 -0.06878946 0.008025959 0.05784589 -0.05844044 -0.010041006 -0.07314188 0.034336507 -0.040664222 0.04406341 0.010037668 0.04361575 0.025452465 -0.021694575 -0.052325636 -0.062507495 -0.03243577 -0.018928632 -0.054209426 -0.06710757 0.034095533 0.043241017 0.0012540221 -0.0134167895 0.02313757 -0.020595636 -0.008778229 0.00942862 0.045014992 -0.06508648 0.06609656 0.051145375 -0.0022224113 0.04639133 -0.07188016 -0.06989903 -0.03489009 0.048593715 0.041857652 -0.0027813166 -0.031410553 0.05019355 -0.012801133 0.038495503 -0.06740829 -0.0030552372 -0.048540473 -0.061622787 -0.009129606 -0.0057468414 -0.07026112 0.031234644 0.05898203 0.029452935 0.026502222 -0.023514204 -0.009594902 -0.012018472 -0.06746294 0.06470148 -0.05160402 -0.062181346 0.046009697 -0.04439428 0.070686325 -0.002458848 -0.0463889 -0.0738447 -0.012381308 0.03604953 0.03808473 0.004851848 0.061195403 0.019041955 -0.047586754 0.056824237 -0.074118726 0.0419894 0.05924721 -0.019420493 -0.042059373 0.047685467 0.02567543 -0.005141124 -0.075037204 -0.03932916 -0.024929509 -0.006428361 0.07337439 0.0358437 -0.023153849 -0.044197615 -0.062262274 -0.024221513 -0.04432248 -0.049460147 -0.058430262 0.05265498 0.006161183 -0.07482801 -0.07562344 0.020830408 0.03167314 0.0186788 -0.020442251 -0.02653844 -0.017019778 0.048329554 -0.0404727 0.075362235 0.060623974 0.022533849 -0.005984761 0.065027155 0.003981557 -0.00987473 0.044217143 -0.06032145 -0.01304478 -0.011408014 0.024977269 0.056697194 0.011813813 -0.027409723 0.041272704 -0.008710071 0.038336117 -0.065095186 -0.07359041 -0.04612714 -0.07976526 -0.07865805 0.058270693 -0.039148584 -0.06369118 0.058500186 -0.06384217 0.049657438 -0.07586315 -0.0027433312 -0.032331035 -0.080012776 -0.053370174 -0.038589153 -0.0018630228 -0.021698663 -0.050135266 0.02885834 0.048451845 -0.026880464 -0.07789037 0.053236756 -0.054604236 -0.044868898 -0.06260214 -0.004879106 -0.06667391 0.00090254255 0.05110431 -0.00274351 0.020527499 -0.043199003 -0.010068043 0.055068392 -0.0021735148 0.045079563 -0.04538307 -3.9098846e-05 0.043241385 -0.06775646 -0.03240251 0.010664352 -0.034832098 0.036793683 0.023293184 -0.08014384 -0.05342919 -0.03737524 -0.018366171 0.048508335 -0.008480265 0.048533607 0.004403789 -0.036811877 -0.0761247 -0.080335304 -0.005752835 0.046666835 -0.041011494 -0.06607399 -0.056673918 -0.07874584 -0.06177937 -0.010785712 -0.029016225 0.003335091 0.019331763 -0.024528513 0.018117668 -0.020298623 0.059387594 0.002011636 0.038700294 -0.048673365 -0.035748098 -0.04064835 -0.078168176 -0.045652065 -0.027854124 -0.04432839 0.04399799 -0.075482786 -0.026213719 -0.026760744 0.06353294 -0.059219163 0.0153083075 -0.059179705 -0.026494412 -0.015164426 0.012852835 0.00646433 0.054992948 0.062157013 0.0008751617 0.06490385 0.06369571 -0.036074605 0.04268201 -0.06556072 -0.047235567 -0.020304307 0.04873887 0.05762214 0.02637666 0.013989546 -0.05749388 0.039884623 -0.06613163 0.018122213 0.06433078 0.06448259 0.031280864 -0.052406974 -0.057187896 -0.040889673 -0.010059609 -0.06655262 -0.036226977 0.051873494 -0.021216596 0.010264197 -0.007716361 0.06758889 -0.007535379 0.04844861 0.038129035 -0.04597064 -0.030147722 -0.05427329 0.04450323 -0.049353566 0.029838102 -0.03064006 0.02097349 0.010936932 0.049706552 -0.0580333 -0.055708587 -0.02461451 -0.062176865 0.055334304 -0.0508703 -0.039513268 0.025433274 0.021873804 0.042171877 0.044038806 0.025982143 0.0035553896 -0.08159654 0.04043412 -0.030770173 0.06059283 -0.025014613 -0.054424465 0.030149454 0.052522693 -0.005128674 0.012983816 0.028325712 0.001725116 0.016391264 -0.066402055 0.021888586 -0.0063993214 0.0053996868 0.04444431 0.039720524 -0.037843507 -0.06968925 -0.016611788 0.05171602 -0.08179376 -0.015834434 -0.00944107 -0.06460137 -0.015115781 0.05464207 0.04104657 0.030156823 0.027543431 0.017129468 0.062883295 0.0043383655 0.026196921 0.05487748 0.047279883 0.05165469 0.008016279 -0.019910207 0.019430088 0.02418921 0.035611592 0.0076463697 0.061060287 0.06220301 0.012564548 -0.061571877 -0.08007982 0.029509928 -0.07449418 -0.012434861 -0.00016963296 0.041232612 0.0161289 -0.06342217 0.06740051 -0.055769306 0.036017362 0.051720653 0.043786604 -0.06290824 0.0064529385 0.025925519 0.046633188 -0.06764546 0.0019429456 -0.08140714 -0.05548129 -0.07102231 -0.038254526 -0.051376622 0.038649533 -0.019622657 -0.018348245 0.014244139 -0.013018249 0.03247403 0.059906263 0.066831075 -0.056932986 0.00856548 -0.01507712 0.047186334 0.046866063 0.008977609 -0.06120594 0.016771272 -0.08158167 -0.022261461 -0.03235157 0.056267653 -0.040691976 0.039056074 -0.01657447 0.0028342921 -0.081460044 -0.022942604 0.016083516 -0.067149915 0.060318112 0.012943087 -0.014994054 0.05215246 -0.0037041178 -0.0103666475 0.033341456 0.031425882 -0.055514183 0.04275434 -0.004374404 0.03500739 -0.03333791 -0.02174879 -0.06939279 0.054470543 -0.03397691 -0.05623817 -0.022291413 0.06810839 0.04414839 -0.07333364 -0.049876567 0.049108356 0.028462697 0.053608365 0.015837045 -0.04419458 -0.032587375 -0.06622595 -0.022124253 0.011201636 0.020336635 0.04719411 0.026447134 -0.07365162 -0.016278006 -0.044624787 -0.022878176 0.06114018 -0.07182111 0.039540555 0.06745934 -0.008736461 -0.018979644 -0.053518407 -0.018626405 0.049530003 0.053759474 0.023147104 -0.030051343 0.012220582 -0.04935713 0.04587891 0.0012050073 0.022623574 -0.047053125 -0.034290362 0.043258768 0.03745986 -0.07012142 0.0036983097 0.068269975 0.06369714 0.034873538 -0.052551597 -0.030039763 0.0017350075 -0.017363472 -0.080323175 0.02929392 0.010398315 0.008713307 -0.032670945 0.054936845 -0.052214798 -0.0053138323 -0.025648182 -0.07571163 -0.057540078 -0.066237785 -0.018002529 -0.024761152 -0.073800296 0.0035065485 0.061612338 -0.009989616 0.065077975 -0.05061263 -0.009483046 -0.06594686 0.001601494 0.033751607 0.046346024 -0.05670181 -0.010489078 -0.024134876 0.0530102 -0.054530583 -0.058071192 0.03551351 -0.034383986 -0.009994484 -0.031374995 -0.029060315 0.041725356 0.05429278 0.0024029133 0.04780751 -0.07790023 0.053222384 -0.04465229 -0.05343652 -0.018170753 -0.029723452 -0.077784926 -0.074660555 -0.07963995 -0.081128925 -0.049860734 -0.0068052504 -0.015439623 -0.004320169 -0.0017902425 -0.048459604 0.034120474 -0.017825631 -0.026855038 -0.01098557 -0.05622651 -0.026728166 0.020062672 -0.076968804 -0.042480964 0.024043966 -0.033605866 -0.0067337067 0.009102982 -0.028832333 -0.024712626 0.0572751 0.014075779 -0.08158249 -0.080314726 0.06590714 -0.023816667 0.03313779 -0.06108027 0.03937447 0.0009906797 -0.07772208 0.04833411 0.015301013 0.06735184 -0.059741322 -0.04407852 0.008090957 -0.0057654637 -0.081446774 -0.012105597 -0.017853593 0.046421625 0.019172052 -0.033411466 -0.036139354 0.044712458 -0.033347886 -0.014513429 0.022765543 0.0063879136 0.06979346 -0.03434225 -0.038751274 -0.0495006 0.047233943 -0.058943838 -0.052763116 -0.07794319 -0.024795972 0.012783509 0.0076937284 0.05768423 -0.04406963 0.018700661 0.018985393 -0.076636374 -0.016854038 -0.036433924 -0.0029574162 0.0312265 0.0616974 -0.07775096 0.0028768615 0.019502366 0.049359687 -0.04262953 -0.045361564 -0.009155258 0.058728293 0.037175924 0.0076339506 0.06437697 0.06331711 0.0035231614 0.015047018 -0.028541908 -0.07303584 -0.0675903 0.03788199 -0.013543674 0.010813118 0.05982958 -0.0642428 0.06644345 -0.031688087 -0.06423807 -0.007311079 0.06604978 0.022953015 -0.05513817 0.06541463 0.06976986 -0.033175778 -0.042240765 -0.011125175 0.022159891 0.06403598 0.028709969 -0.07051335 0.04633325 -0.06707466 0.05260679 0.06969871 -0.05626759 -0.07334154 -0.06366547 0.0641618 0.02245971 -0.05693083 0.05064999 -0.01801384 -0.037431452 -0.013766861 0.024132127 0.04215173 0.027884392 -0.0473996 -0.041040752 0.035190407 -0.043931324 -0.047988668 -0.065071166 0.06679952 -0.043585647 0.008380992 -0.021365922 0.010402645 -0.028120382 -0.020370465 0.0021961785 0.06640484 -0.029507099 0.0666518 0.03207574 -0.026005026 0.05727302 0.01825823 -0.054887097 -0.051472213 -0.022404073 0.0020451786 0.03520676 -0.026736839 0.036086116 0.060066912 -0.02082879 0.0231349 0.04919486 -0.080400415 -0.065492064 0.06854469 -0.030416116 -0.04936186 0.002245763 -0.03656022 0.013249458 0.031235041 0.046566494 0.01979061 0.051198453 -0.036560662 0.025636783 0.057799388 0.06494912 0.06785204 -0.046879288 -0.0044305217 -0.03900525 -0.0733168 -0.07095708 -0.068853736 -0.04781661 -0.035549406 0.025789138 0.03006862 0.011930189 -0.028817028 0.0313547 -0.04742383 0.009664818 -0.055538304 -0.075867504 -0.06536694 -0.009100066 -0.042766877 -0.0782155 -0.07480478 -0.00063130446 -0.031796467 0.032974884 -0.015983893 -0.043778867 0.03252164 -0.06174268 0.030492824 0.032682154 0.038445625 0.0013559771 -0.026881894 -0.0067063463 0.03257162 -0.008375174 0.038471725 -0.044075422 0.016431294 -0.0071654064 0.04130743 -0.056542903 -0.043826476 -0.055423576 -0.05432279 -0.006877238 -0.03509614 -0.013518856 0.008858128 -0.023819743 0.0145800905 -0.019225024 0.01732126 0.012328752 0.0032076044 -0.0666966 -0.08051084 -0.050420303 -0.06828482 0.061501686 0.006000591 -0.04178352 -0.07582962 -0.053946167 0.04569261 0.062743746 0.05373485 -0.0023060082 0.06380317 0.04310182 -0.01966856 -0.051455908 0.0472744 -0.06613587 0.060077105 0.030286197 -0.03184022 -0.066430904 -0.0573255 -0.06410317 0.043749455 -0.017964276 0.018504502 -0.078407034 -0.04659481 0.031184217 -0.023912838 0.047248203 -0.074056596 0.029774 -0.0392952 0.04462461 -0.025715569 -0.05096954 0.03088858 0.059560556 -0.011281559 0.023631543 0.005806913 -0.041125882 -0.008495948 0.014183909 0.050487462 -0.042330205 -0.046507705 -0.018968923 -0.033045713 0.036036503 -0.009082692 -0.04146808 0.0016571669 -0.033237312 0.04109286 -0.051567774 -0.011730863 0.06113702 -0.052623 0.0076387837 -0.07272793 0.009156464 0.04548872 -0.018260123 -0.056810398 0.0145735 0.021645488 0.04652365 -0.07412594 0.010736377 -0.018394446 0.06870978 -0.0028944886 -0.015114477 -0.0063139303 0.035469506 -0.032715134 -0.013528129 -0.012171788 -0.026236484 0.06812512 -0.029679382 0.047948454 0.026858758 -0.06846643 -0.051556893 0.026997877 0.06324481 0.032844234 -0.0692926 0.050456863 0.05270897 0.045167442 -0.06858906 0.033074234 -0.054371893 0.0057269013 0.050189618 -0.0006355477 -0.02322887 -0.0719522 0.056319926 0.03454749 -0.080709785 -0.04394308 0.03826609 -0.006964508 -0.01102191 0.03105118 0.018958138 -0.051378626 -0.064530924 -0.0346453 0.044674132 0.0064489376 0.068867184 0.0016802562 -0.012975705 0.02109363 -0.012294964 -0.08126628 0.043256287 0.015781732 -0.054339986 0.039241705 0.007606042 0.0431394 -0.055135123 0.02511269 -0.0046827313 -0.07547266 0.04501419 -0.06538057 0.039935593 -0.019240107 -0.0077379155 -0.02766336 0.06456237 -0.032286614 -0.060635064 0.01319638 0.0136521915 0.03973793 -0.00689261 0.06477367 0.0656087 -0.032251064 -0.011847196 0.040692065 -0.044953376 -0.018858729 0.013701917 0.0652036 -0.03879933 -0.025916923 0.056056593 -0.056594726 -0.011742456 -0.03212445 -0.06024023 0.02103533 -0.056293603 0.048298664 -0.0075733815 -0.047402255 0.023346225 0.006758482 0.018908387 0.0031624357 0.019143388 -0.06714569 -0.004497937 -0.07308955 0.021141239 -0.044513997 0.037459828 0.03559651 -0.030245956 0.04883054 0.026662657 -0.0101376325 -0.014734748 0.023195822 -0.010462325 0.0037244675 0.042363085 -0.021062534 -0.049050808 -0.034017988 -0.022499766 -0.05957689 0.061350487 0.06101094 -0.02931208 0.051782288 -0.018018851 0.026525406 0.054284085 0.013217956 0.014452864 -0.066087864 -0.054353822 -0.0510102 -0.073206395 0.015732294 -0.062067844 -0.029772073 -0.011228954 -0.052461304 0.003823389 0.024652757 -0.050437927 -0.062838286 -0.052659616 -0.07387525 -0.023755398 -0.006664564 -0.010160123 -0.017019486 -0.06960548 0.056624845 0.0584112 -0.03512 -0.059933476 -0.009820262 -0.067155086 -0.07480239 -0.025530063 0.012729171 -0.011356719 -0.072738215 -0.0017709563 -0.0289926 0.05564189 -0.032585006 0.054397095 -0.0008604402 -0.074011944 0.065401345 -0.018872017 0.055885755 0.013206071 0.04801849 0.04125653 0.03989423 -0.0575105 -0.025298225 0.006802589 -0.0026521492 0.008546709 -0.0270412 0.072911456 -0.02251373 -0.007225367 -0.012168296 0.07277861 0.010111676 0.035975218 0.0685932 0.054711286 -0.0038792375 -0.0014673405 -0.03515027 0.046752624 -0.0043944158 0.034886904 0.07315821 -0.073377274 0.024730857 -0.03874861 -0.035782274 0.061899647 -0.0031111843 -0.07310782 -0.06286036 -0.038114753 0.04946317 -0.076473884 0.019183628 0.051632475 0.017048849 0.03588174 -0.058785826 0.063866116 -0.056560967 -0.017821575 0.006697053 0.002723023 -0.07094139 0.018320924 0.014448102 -0.07653627 -0.021811446 0.009106127 0.035158988 -0.024738126 0.041665908 0.04538665 0.010782252 0.02384334 -0.005212478 -0.0352414 0.072952405 0.0023924268 -0.008395776 0.069982655 0.0581726 0.009079115 -0.059864454 -0.012659468 -0.03862385 0.060608946 -0.020157076 -0.043298256 -0.026322212 -0.0668413 -0.049825255 -0.073659465 0.0631123 -0.02416229 0.029392939 0.035191935 0.008135395 -0.045081142 -0.05361283 -0.0032989138 0.035290796 -0.055430572 0.031780336 -0.074030474 0.006816896 0.067611024 0.047957487 -0.0453181 -0.017823188 -0.008473913 0.070252635 0.029739555 -0.017240336 -0.01193127 0.04230444 -0.0074883974 0.0668393 -0.059611868 0.005775791 0.047592834 -0.05255259 -0.0012513942 -0.0023860743 0.019664025 -0.043440912 0.026314003 0.050176576 0.031188093 -0.06716561 0.0071039423 0.02683296 0.04647921 0.062194478 -0.0019743468 -0.069413304 0.063172325 0.025975056 0.03495095 -0.05383494 -0.06649355 0.05316549 0.038350984 0.04612043 0.013136134 -0.013154853 -0.040357944 -0.012212722 -0.029454844 0.07351019 0.041771624 -0.034862462 -0.07579476 0.070382155 0.06092561 0.0619842 -0.031634852 -0.071360685 -0.04230564 0.018103076 0.01841983 -0.020881396 0.06384152 -0.006486884 -0.044928204 -0.031628467 -0.034497958 0.03959665 0.021292455 -0.030226516 -0.02006097 -0.08022157 0.004778379 0.045991145 0.07078313 -0.0018566104 0.02991793 -0.05476363 0.0047342875 -0.018187523 0.01561543 -0.006441953 -0.07636597 0.004978099 0.022656793 0.010126113 -0.012286379 0.011886705 -0.025152126 -0.065513276 0.0064553684 0.07054185 0.052183803 -0.037460353 0.06577336 0.052988146 -0.059568945 0.000689002 -0.013869434 0.03592089 -0.058751844 0.008734055 0.038831197 0.06661667 0.011685417 0.030466303 0.07130477 0.036241136 0.006292265 0.021038057 0.0006836805 0.050794788 0.010530995 -0.0029312163 -0.016432744 -0.06285351 -0.01867243 -0.03431882 -0.060756877 0.026299562 0.061878275 0.039745785 0.04981168 0.019104982 0.00539545 -0.048551906 -0.0033157906 -0.02353157 0.018688014 0.041870143 0.0019018493 -0.011441591 0.06255248 -0.027193429 -0.025779622 0.070802495 0.054592516 -0.054523665 0.05865986 0.035903543 0.047567192 0.0054548928 -0.016265694 -0.02764957 0.0036491829 0.023710018 0.033172105 -0.07092883 0.054824166 -0.039664917 -0.06369435 -0.04628725 0.029220412 -0.031516243 -0.021258654 -0.052906133 0.04638971 0.06632156 -0.06301026 0.049647253 0.03492312 0.0016819242 0.06991279 0.06473379 0.014165245 -0.03390174 -0.026705466 -0.0025365797 0.046968136 0.05911444 -0.07328258 0.043145053 -0.0018391132 -0.0198634 0.026372002 -0.0010385846 -0.0335097 -0.02444786 -0.007429518 -0.049172875 0.036852602 -0.06352811 -0.0075625037 0.007858706 0.06093501 -0.0057181767 -0.020544322 -0.03106432 0.012728933 -0.015143849 -0.050349973 -0.03855189 -0.049634855 0.06351109 0.024756951 0.033969756 -0.00960146 -0.06825133 0.053974386 0.028764505 -0.035018466 -0.07447183 0.027971352 -0.0078051495 0.0015298339 0.023114085 0.05823782 -0.03690236 -0.04965924 0.016535373 0.063424274 -0.05908385 0.03188449 -0.055621028 0.017889546 -0.05375218 0.03764079 -0.049865868 -0.067080155 -0.0074981456 -0.076494455 0.060174722 -0.031559955 -0.06972592 -0.037831027 0.050415166 -0.014093115 0.008424767 -0.016954131 0.07399283 0.0027789227 -0.029197168 0.03647402 0.00906399 -0.067775875 -0.013229263 -0.0010302496 0.06365297 0.011156718 -0.01060287 -0.008086766 0.021698711 0.056281853 0.010871578 -0.08080175 -0.019444864 -0.019368745 -0.06357403 0.0481789 0.06481514 -0.0149639435 -0.061021104 0.059613824 0.029753523 -0.049042497 -0.024113819 -0.037480418 0.073181584 -0.019594155 -0.00014454337 0.038375236 0.018138738 -0.034861334 0.0033946235 0.059154317 -0.052504655 -0.07713726 -0.034889158 0.023484474 0.040068228 -0.0907446 -0.03837457 0.03136108 -0.005143292 -0.06938546 0.07097038 0.027673041 -0.072011754 -0.020812891 0.03965927 0.04547588 0.04479428 -0.022824412 -0.022697905 -0.029827207 0.054199293 -0.05379898 0.060480863 0.00012617918 0.037132356 0.05179216 0.023867121 -0.038888823 0.035915237 -0.04467376 -0.03195807 -0.05798482 -0.0065365834 0.0042098192 -0.07968388 -0.04652515 -0.0017008209 -0.040241927 0.0023511625 -0.06820935 -0.04906496 -0.03146368 -0.002736788 0.027861718 -0.043515265 0.012447218 -0.0015640532 -0.036944106 -0.021696517 0.065179005 -0.04205858 -0.002709572 -0.033048764 -0.046727877 -0.057696473 -0.040120326 -0.033696663 0.07085193 -0.064541705 -0.05787917 -0.059868433 -0.085978344 0.049240865 -0.02914444 0.03711522 0.0012477859 0.042963393 -0.04562091 0.024693908 0.07080236 -0.0326829 0.0579253 -0.01405172 0.060318854 -0.008249806 0.040324047 -0.0064674015 -0.010378512 0.033473995 -0.0450954 -0.008255239 0.0036845976 -0.056741387 0.037290428 0.049235635 -0.009804251 -0.038338225 0.024373973 0.057800338 0.021630274 0.029133596 -0.0014544142 -0.08447809 -0.024870533 0.012433843 -0.060443852 0.050330285 0.026518002 0.018225295 -0.076170444 0.028436443 0.005048261 -0.034779366 -0.00966137 -0.0068370015 -0.069236554 0.06840236 0.013191468 -0.05806752 0.044189878 -0.020588707 -0.019407908 0.041239187 0.037878104 -0.085647516 -0.07219152 0.008741964 -0.028725151 -0.0058343606 -0.055147946 0.052244987 -0.060074124 0.07040611 0.058884162 -0.01983608 0.048209224 0.035276946 0.031197138 -0.053826496 0.07030266 -0.064648874 -0.01895428 -0.011924158 -0.01760875 -0.003525426 -0.045897104 -0.05503433 -0.01025611 0.045689445 -0.031795066 0.005797178 -0.048010055 -0.08263027 -0.060513645 -0.00655186 0.06374422 0.023364643 -0.010567596 -0.021955369 -0.03471168 0.06640636 -0.012114114 -0.071186274 -0.047556903 -0.058429286 -0.06543042 0.05385524 0.018367901 0.044174474 -0.031172328 -0.075213134 0.0563208 -0.007037269 -0.042453457 0.0317821 -0.05426851 -0.06827364 0.045063365 0.00055919786 0.02472295 0.06656993 -0.08788115 0.058846522 0.06315689 -0.052088033 -0.019499846 0.027010636 -0.062255982 0.061096545 -0.028437631 -0.0119256675 -0.030582342 -0.04847407 -0.017821126 -0.038984943 0.007359945 -0.07188359 -0.027565343 -0.068108596 0.056098472 0.065054536 0.06534826 -0.06648464 -0.065968506 0.044867095 -0.06226611 0.05949311 0.035078064 0.005860703 -0.010477974 -0.067075916 0.029332517 0.055207495 0.046696827 -0.0063394797 -0.037670415 -0.03358704 0.030585278 -0.048535135 0.07125028 0.04994593 -0.020148365 0.0174224 -0.001815252 -0.022431081 -0.04326934 0.034467313 -0.015078975 0.012703094 -0.014220169 -0.05416306 0.03660067 -0.057884704 0.02622015 -0.07828357 0.018183138 0.008056102 0.025752718 0.023589507 -0.0028149707 -0.05631733 -0.0641557 -0.04037246 -0.015838742 -0.043717265 -0.05836723 -0.0120487 -0.060213856 -0.077125885 -0.0006592986 0.034581475 0.014107693 0.05175055 0.0051083933 0.03929326 -0.06731184 0.003365449 0.072882056 0.015178512 0.05803397 -0.06737286 0.04078272 0.00825243 0.031978928 0.017784676 -0.048668426 -0.011263322 -0.040003765 -0.024110563 0.03468499 0.049832158 0.06327492 -0.027215473 -0.01722729 -0.021575108 -0.031172186 0.004163791 0.068539135 -0.07083069 0.0035191735 -0.06449552 -0.049098697 0.012766342 0.06893611 -0.003930495 -0.012683957 0.07030539 -0.0036000998 -0.066323236 0.072550096 0.016215816 0.045957375 -0.070359744 0.0067573898 0.057831742 0.056056153 -0.032360423 0.044658788 -0.010060029 0.008322755 -0.067153595 -0.02272706 0.013396951 -0.062638976 -0.0005925272 0.06487218 0.03314656 -0.06178543 -0.066844806 -0.045629453 0.003264698 0.05999765 -0.07265623 0.05870107 -0.01756944 -0.042854212 -0.058990244 0.0036474322 0.011852276 0.056945235 0.05190931 0.06973463 -0.054680657 0.0054774377 0.0024633752 0.008791692 0.015976928 -0.0668516 -0.023398345 -0.031825557 0.049299456 -0.050265826 0.024405716 -0.009499176 0.068163045 0.07324681 0.047064144 -0.030900689 0.051477723 -0.023511294 0.004081259 -0.067178585 0.046907146 -0.069300584 0.033879954 0.024741635 -0.024661062 -0.015428474 0.02341604 0.0058535147 -0.072490804 -0.062415726 0.014174252 0.016647901 -0.07037534 -0.07515472 0.031663995 0.023175402 -0.059039727 0.053233176 -0.013630519 -0.040217157 0.023321759 -0.020714888 0.067467265 0.010948068 -0.0012254637 0.021682283 -0.08330816 0.038905066 0.03459555 0.026997855 -0.055548437 0.00068453164 -0.0023808654 0.05616069 -0.012212931 -0.04877665 -0.022203004 -0.04769153 -0.046554677 -0.077754594 0.016821576 0.022375992 0.021271193 -0.026920086 0.013074009 0.018597944 -0.059975483 -0.07676009 0.045874372 0.040601373 0.043053284 -0.07374131 -0.05443534 -0.041309685 0.030719155 0.021093545 -0.003261427 -0.02425644 -0.027064724 0.024539413 0.009990213 -0.011725873 -0.027701715 -0.08378542 -0.009247457 0.010262718 0.004481962 0.040603884 0.015937379 0.04549153 -0.0682399 -0.034506734 -0.014205947 -0.059273046 -0.05704534 -0.0071270685 0.019813327 -0.063715465 0.053803697 -0.069694035 0.05615771 0.029532913 -0.08337364 0.011808721 0.020636132 0.04901083 -0.03894057 -0.05524773 -0.041274194 0.052779004 0.059161916 -0.07528861 -0.008153966 -0.024489595 0.0009002911 -0.06892986 -0.068032384 -0.07064558 0.0115877 0.031108692 -0.072520606 0.028489893 -0.0044556498 -0.06461834 0.059436675 0.019203952 0.06763522 -0.024716938 -0.012111521 -0.064092316 0.028936936 0.00071035535 0.0075407997 0.04806894 -0.07207472 -0.06750865 -0.0171136 0.054273993 -0.050213777 -0.08300438 0.03202132 -0.033248674 -0.026498465 -0.021877 0.05782737 0.060286216 0.021065613 0.014250167 0.021218037 -0.040798936 0.012793844 0.015467085 0.0060799485 -0.06418194 0.04406789 -0.055726923 -0.012856705 -0.0038172852 0.024106218 0.05801457 -0.015700119 -0.073140405 -0.04486003 0.009828588 0.04638481 0.04140383 -0.050854016 0.05484344 -0.08031604 -0.010002863 0.054814577 0.056936916 -0.03918796 -0.0521337 -0.0034277015 -0.058444727 -0.06914204 -0.07959771 0.046837136 0.06088254 -0.06332621 0.0644656 0.03940855 -0.06480351 -0.010406536 0.010661593 -0.057726376 -0.0031596299 -0.02076258 -0.019777318 0.016440181 -0.06401751 -0.08264358 -0.02029846 -0.07296269 0.009964263 0.06293589 -0.074498795 -0.0011402557 0.056563832 0.03755946 -0.010412451 -0.032563426 -0.07306621 0.034197323 0.04611793 0.04185173 0.012676766 0.051479563 0.04095319 -0.010706004 0.011074683 -0.058015868 -0.08068814 0.059738643 -0.07058424 -0.074657574 -0.0066425744 -0.0010681115 0.060705584 -0.041417655 0.0008102974 -0.062113218 0.0080461325 0.03373637 -0.06298594 -0.01855603 0.048311338 -0.015334423 -0.039841305 0.054904386 0.019971749 0.049163207 0.04325089 0.062291287 -0.057821702 -0.017770361 0.05837722 -0.07085309 0.02152135 0.056314748 -0.06238337 -0.012956883 -0.009431881 0.049341664 0.06393546 -0.011938314 -0.015776794 -0.033821393 0.051662892 0.010724936 -0.074718796 0.044681128 -0.010094272 0.044567585 -0.019457513 -0.0100528775 -0.01336403 -0.06970323 -0.037153624 -0.017317053 -0.02688671 -0.022889668 -0.03061715 -0.01658787 -0.053009458 -0.0284918 -0.009857658 -0.021056512 0.05162677 -0.08216831 0.022581695 -0.023059366 0.035105467 0.017855411 0.015461288 -0.034764174 -0.026667304 0.0076211016 -0.043830365 -0.013664123 0.0147318635 -0.04354615 0.01152578 -0.033231847 -0.039609954 0.06356059 -0.04854114 -0.020085694 -0.066586025 -0.0788122 -0.03435565 0.042498738 4.770092e-05 0.012687141 -0.047372553 0.06159079 -0.049356796 -0.031331833 0.040298823 0.040852904 0.0070898077 0.018312274 -0.07107614 0.06492917 -0.059307158 -0.062045377 -0.004309419 -0.013250496 -0.005398669 -0.036792293 -0.026778718 0.029245315 -0.014216297 -0.04412596 0.05179047 -0.06975528 -0.041962795 -0.05585847 0.045091867 0.04925166 -0.028354494 -0.014441834 0.005754961 -0.0039759963 -0.002478783 0.03812077 -0.05566696 -0.07562209 -0.075246304 0.011545068 -0.072070755 -0.0041772737 0.009978792 -0.07862789 -0.07355824 -0.06260294 0.06760836 -0.01293116 0.024403483 -0.064902306 0.044614997 -0.0529136 -0.041976698 -0.07158179 -0.026515748 -0.06492857 -0.026836716 0.0518849 0.060775407 -0.05200586 -0.07759472 -0.07267484 0.05108267 -0.050427955 -0.054675214 0.054176938 0.027865937 0.047168374 -0.041029736 0.03379827 2.5796222e-05 0.03351091 -0.046338394 -0.0010323295 -0.05626809 -0.024123713 0.032576565 -0.016083818 0.03434985 -0.004494091 0.005813232 -0.03442398 -0.047543757 0.042460304 -0.04715609 0.061964422 0.017838657 0.0023059372 -0.0817264 0.025009302 0.067123294 -0.034388337 -0.04648564 -0.06553902 0.024017844 -0.077949196 -0.044082586 0.008830423 0.06526997 -0.04847909 -0.021291194 0.05631278 0.010486818 -0.037834894 0.051854268 -0.015761951 0.02377432 -0.003990551 -0.06043772 0.009817836 -0.05177983 -0.039725352 0.05443109 -0.07314574 -0.008163715 0.016410202 -0.07328933 0.038198456 0.015407942 -0.081999265 0.05366851 -0.052402418 -0.019107329 -0.005124824 0.007805423 -0.07232531 -0.04758343 -0.078466885 0.029551553 -0.033254553 0.053163614 -0.078216955 -0.013791639 0.020415246 0.05145671 -0.0065691774 -0.006692308 -0.074565664 -0.039568856 -0.028445542 -0.005361735 0.009177315 0.057176806 -0.041646138 -0.076834805 -0.07980867 -0.07940568 0.009469552 0.018453306 0.061289813 -0.004009926 0.03426839 0.045578226 0.027148863 0.06116491 0.023170862 -0.07895153 -0.0673998 0.016513577 0.04357614 0.020377435 -0.0004283606 0.029395148 -0.010988444 -0.010690816 -0.010108313 -0.064745784 -0.025296077 -0.01378737 -0.073107935 -0.01897571 -0.02307808 -0.026201162 0.020733273 0.004620841 -0.009335611 0.0051561804 0.06563554 -0.037683558 0.023011947 0.029294832 -0.03246605 -0.08263891 0.04455249 0.03563906 0.051687002 -0.083588354 -0.057131156 0.0559204 -0.06456125 -0.051106185 0.06508124 0.030857962 -0.06498618 -0.053789195 -0.005915869 0.006061593 -0.020437501 0.05714776 0.02655174 -0.008393483 0.004618829 -0.079951346 -0.056156926 0.059264198 0.017587287 -0.05997148 -0.038044676 -0.03155506 -0.014308524 0.025433615 0.043904066 0.0060435864 -0.0011867629 0.057186574 -0.012160132 -0.032843422 -0.018245649 0.06331284 0.034965426 0.036479525 0.028776113 0.05254822 0.058427222 0.045699235 -0.043380946 -0.01944059 -0.08353887 0.03890807 0.042474315 -0.02880994 -0.07379735 0.01632767 -0.06312005 0.03148658 0.021986281 -0.023926325 -0.0570526 -0.009287229 0.059857804 -0.0385392 -0.013026868 -0.04885237 -0.048016947 0.048360795 -0.012190966 0.06121275 0.027745679 0.012152214 0.052472994 -0.043970436 -0.08240117 -0.07476967 -0.032171298 -0.013747398 -0.06003294 0.027625406 0.03186508 -0.011606734 -0.025172872 0.035600826 -0.0836401 -0.04151722 -0.04994614 -0.039738245 -0.042072263 0.06627248 0.018082285 0.011079958 0.012402629 0.0416638 -0.006835771 0.044243436 0.05596577 0.06382731 -0.01451178 0.036909156 -0.014558556 -0.056328416 -0.019147903 0.029915756 0.0029619974 -0.015144814 0.024883898 -0.03268107 -0.07291646 0.040454827 0.03761422 0.018746933 -0.056264386 0.01194579 0.06314938 0.066778645 -0.054405876 -0.022659644 -0.014582245 0.01691814 0.023543319 -0.01934183 0.055294357 -0.062330157 -0.007500259 -0.052223317 0.011421056 -0.044780336 -0.02858563 -0.013542221 -0.07094787 -0.08336064 -0.061515924 0.011712292 0.011099787 -0.028733347 0.044193015 0.0011364095 -0.033507705 0.058985997 0.03998153 -0.032332208 -0.016451994 -0.056047056 0.022304973 0.007613213 -0.0032416852 -0.008845623 0.061773628 -0.039616942 0.049700417 0.038612038 -0.00086358987 0.041554324 -0.011808904 0.04639834 0.021919578 -0.07818684 0.018329635 -0.014458094 -0.015828643 0.046957728 -0.074240334 0.028143313 0.020621119 -0.015276852 0.054222718 0.04501103 -0.029705226 -0.058653586 -0.047277264 0.0111090895 -0.037782345 -0.0031078246 -0.01801575 0.043066673 -0.07963169 -0.027930029 -0.022929009 -0.0021343576 0.0038321912 -0.060809307 -0.08365005 0.035292584 -0.08055885 0.016672172 0.025751056 0.03544311 -0.059910107 0.03898165 -0.026903141 -0.0022156197 0.047494233 -0.059026126 0.0058385194 -0.04941509 0.033744954 -0.036624387 -0.052040562 -0.03926217 0.060548607 0.043234468 0.03569736 0.025052406 -0.05616634 -0.026589489 0.017178874 -0.0599763 -0.07468577 0.060811285 -0.050272476 -0.039903298 -0.0029300104 0.023958718 0.022595068 -0.019486422 0.03936252 -0.0606873 0.0032081564 0.0032019608 0.043718066 -0.006309985 0.053862453 -0.024467157 -0.02489602 -0.0543939 0.031764932 -0.04147729 0.0663542 0.06661169 0.050703347 0.054924343 0.04488726 0.04160746 0.037753556 -0.031440333 0.0035989694 -0.028183166 0.026444674 -0.07250501 0.039767332 0.047945783 -0.047330398 0.06744379 0.01098734 0.050409943 -0.030679373 -0.037758674 0.05823416 0.011496788 0.038964935 0.008613936 -0.054964595 -0.042519003 -0.008005259 -0.0055862237 0.029226251 0.053325105 0.03302535 0.060180217 0.020732753 -0.024715004 0.01297831 0.055833332 0.047842298 0.014136021 -0.026099892 -0.0046017705 -0.011004191 -0.08336105 0.0025515 -0.07254304 0.05637726 -0.023606194 -0.013031577 0.011989145 -0.069950126 -0.06577953 -0.019376213 -0.014433401 -0.010347624 0.058628354 0.010346895 0.019342309 -0.07850636 -0.009837326 -0.078541405 -0.05791289 0.0555891 0.030255603 0.02242219 -0.036612287 -0.0298294 0.030899722 0.067602724 -0.08225221 0.021839617 -0.034126714 -0.074390106 0.052283466 0.06095606 -0.08247361 0.009420228 0.01751103 -0.03146623 0.04877563 -0.06496629 0.054781213 -0.051468834 -0.062001195 -0.027239712 -0.0017498174 -0.07728035 0.03894046 0.026340583 -0.05485963 -0.047202498 -0.010401269 0.00010636353 0.051312387 0.0055268244 0.031711027 -0.046214998 -0.083363876 0.023509083 0.013513154 0.019341907 0.06565845 -0.022839596 -0.0422102 -0.022582373 -0.07435403 -0.035082426 0.047194704 0.013483315 0.03120039 -0.060394205 -0.043662958 -0.016103756 -0.023011105 -0.015353854 -0.010658901 0.027595708 0.040292338 -0.016846921 -8.506011e-06 -0.062406044 0.023691883 -0.009329889 -0.07797835 -0.026037497 0.04855302 0.044352632 -0.05613123 -0.017042842 -0.077774964 0.025091795 -0.07527257 -0.013707603 -0.0019174853 -0.056972075 -0.047025602 0.06125933 0.07150769 0.03851915 0.041132204 -0.012432523 -0.023750547 0.073144615 0.03969319 0.075489864 -0.03288821 0.052874476 -0.023497634 0.018250205 0.018098056 -0.039795253 0.06595537 -0.029520914 0.0006411001 -0.046499584 -0.06545576 -0.015562821 0.059243217 0.072993174 0.0014269352 0.03996709 -0.034843784 -0.06008832 0.010609776 0.06172082 -0.039793987 -0.03115489 -0.06828344 -0.074762814 0.0341606 0.016585335 -0.07026828 0.07140772 0.00221242 -0.0057163835 -0.06339412 -0.06323661 0.05902292 0.057015345 -0.074114524 0.0025149882 0.06359497 0.018638052 -0.06474394 0.019572072 -0.065225266 0.0476003 -0.062497713 -0.058024995 -0.050804086 0.050060555 -0.03132122 0.07552859 0.058718964 0.043527268 -0.053212352 -0.07398962 0.011765592 0.038506873 0.07418743 0.055735573 0.049736723 0.043078452 -0.06287641 -0.038575437 -0.04477653 -0.054067414 0.021259718 0.032356143 0.05355078 0.06015694 -0.011682838 0.058835626 -0.01654023 0.024284929 -0.024584007 -0.004864022 -0.039960973 -0.026284315 -0.013910249 -0.0739399 -0.056656085 0.056760505 -0.05437185 -0.045101322 -0.03439462 -0.06535989 0.021845587 -0.041973572 -0.07346931 -0.073704585 -0.023486733 0.039344773 0.006479107 0.019501336 -0.03869686 -0.016814005 0.033190213 -0.04500603 0.049573794 0.07187174 0.01976502 0.040890843 -0.0041463003 0.0037464648 -0.012322232 0.012394562 -0.012147769 -0.04965207 -0.031385835 -0.008175306 -0.0036147237 -0.0020688847 -0.05031856 -0.007454522 0.015189521 -0.0068848804 0.009017125 -0.05890802 -0.0010370761 -0.070025906 -0.0655887 0.017952204 0.0114701465 0.041914552 -0.06281872 0.07211043 -0.0419708 -0.056844458 -0.010130808 0.07151033 0.006138161 0.0022039413 0.054586664 0.013855398 -0.0043691695 -0.064579405 0.04667501 -0.010110125 0.040266097 -0.011631206 -0.016731985 0.058527976 -0.061238438 0.019949414 0.024915405 -0.007218525 0.027369507 -0.05528964 -0.03267568 0.06386079 -0.033173084 0.020652026 -0.07370285 0.030769214 0.026334062 -0.03064908 -0.023665216 -0.07181953 -0.03391002 0.030492164 0.06450869 0.01427602 -0.040261347 -0.020761788 0.03399162 0.05850397 -0.052222684 -0.0615939 -0.008374341 0.06277035 -0.021511093 0.015948601 0.009237751 -0.0094018355 0.020758457 -0.04596518 -0.012735739 -0.014269933 0.002149105 0.035472587 -0.021391537 -0.049580917 0.04147383 0.055340767 0.0509488 0.008559234 -0.07065623 -0.06884457 0.075486824 -0.02632381 -0.06921054 0.03912744 0.02471459 0.055805027 -0.07258544 -0.017638803 0.03273928 0.008195005 0.023398161 -0.020345874 -0.053247035 0.019860208 0.014412835 0.07439324 0.0032722205 0.02257289 -0.062938705 -0.0059396327 0.026705407 -0.03265871 -0.053847335 0.049787268 0.0022459924 -0.015710808 -0.059870396 -0.041947115 -0.0038723052 -0.039871242 0.049084216 -0.031147573 -0.06310859 0.055260852 -0.00804586 -0.046962366 -0.05344399 0.052079663 -0.04983204 0.05552584 -0.04175733 -0.04019793 0.07269621 -0.027783554 0.07535325 -0.07452104 -0.04372611 -0.014108162 -0.025473565 -0.06674586 -0.06784094 -0.02646457 -0.07063855 -0.005307965 -0.06932486 -0.017672688 0.07547228 -0.063356474 -0.027756553 0.029208638 0.034098394 0.010061644 0.0131494105 -0.040333785 0.022738427 0.030247636 -0.06900728 0.035200775 -0.019369882 0.006806232 -0.037886348 -0.038384277 -0.034266282 0.05092895 -0.026409231 0.017083123 -0.0032074824 0.016756274 -0.059622336 0.008118205 0.041135065 0.03770297 -0.053396143 0.01693631 -0.039017573 0.043358386 -0.0667625 0.046918742 -0.040980358 -0.05709006 -0.039556883 -0.03515599 -0.061827637 -0.022049569 0.018855438 0.043828204 -0.0017438754 -0.07449436 0.068001404 0.0032260641 0.025515378 -0.01505553 -0.07246552 0.03487631 0.004709147 0.003897421 -0.0038487986 0.038509503 -0.0019560605 -0.007515043 0.06482047 0.04777076 0.06799407 -0.015685584 -0.07011091 -0.032851793 -0.025660977 0.0042542294 0.028789826 0.02036509 0.059979692 0.006902389 -0.035178624 -0.026381288 -0.044116866 0.015934944 0.046688683 0.027271122 0.039190844 0.026503757 -0.06740757 0.073318765 -0.02534296 -0.019401062 0.046567388 0.008649364 -0.0427941 0.06296882 -0.05257444 -0.033343926 -0.07176835 -0.010992244 0.016787857 0.058826715 0.05950357 0.037524074 0.062152892 -0.0095798895 0.040160768 -0.06413692 -0.03324777 0.03875693 -0.04939079 -0.0105674565 -0.06977866 -0.025642414 0.061836943 0.029944904 0.01085034 0.0686762 0.02147089 -0.06482463 0.07553789 -0.008768089 0.041555792 0.04177537 -0.0530173 0.009852886 0.034630075 -0.020337943 -0.029578265 0.031079575 -0.05798655 0.02434384 0.060581848 -0.045063417 -0.038130894 -0.015272059 0.029902674 -0.07549894 -0.044116523 -0.029989906 0.05075121 0.051596835 -0.01724904 -0.06688512 0.0593386 0.032535657 -0.070692234 -0.047208123 0.042762116 0.07350361 0.029344946 -0.055990104 0.034579664 0.017872214 -0.0363883 0.06796312 -0.030507866 0.03108611 -0.04001932 -0.07378559 -0.010420464 0.048778825 0.0018503964 -0.02269632 -0.008755431 0.054162785 8.250773e-05 -0.0145904645 -0.05175049 0.07145396 -0.044971913 0.06880449 -0.05913598 0.01491788 -0.060856134 -0.037647124 -0.06743071 -0.06041217 0.055591315 -0.032791544 0.036495306 -0.054236792 -0.04503922 -0.04849453 -0.046880998 -0.011600509 -0.045686953 0.06976296 0.05717285 0.036131874 0.02049654 0.065978095 0.0015911609 -0.02538653 0.0032249019 -0.05176907 0.016698033 -0.05162579 -0.0007366091 0.05318129 -0.029481672 -0.037546273 -0.05893857 -0.023510963 -0.02811316 0.002542369 0.029584765 0.012417071 0.012073472 0.021188222 -0.07090156 -0.0013257563 -0.07225028 -0.06621055 -0.01271376 0.056113258 -0.056009986 -0.071305625 0.025039792 -0.014119301 0.04136637 0.002197571 0.035590008 0.057624966 0.006439917 0.046534337 0.011753261 -0.031409234 0.06776899 -0.02429413 0.045225456 -0.034387127 0.03422887 0.01592017 0.04438597 -0.049140483 -0.026104815 -0.04901754 0.05392988 0.07278398 -0.017788079 0.05335082 0.05037847 -0.010577194 -0.02915654 0.0562689 0.05840154 -0.045847256 -0.04905753 -0.0071451813 0.06962605 0.0019032061 0.003354147 -0.01171156 0.06066686 0.00954517 0.009098113 0.06051746 0.012013599 0.031918697 -0.063530594 -0.06725688 0.05461733 -0.0629095 -0.053575896 -0.038540922 -0.07084915 0.04527171 -0.008487634 0.010328218 -0.062016174 -0.04467322 -0.05917035 0.026009358 0.053559348 0.0030367821 0.06537604 -0.053270847 -0.03771114 0.05690798 -0.032269854 0.015101522 0.0045280233 -0.013110653 0.023363575 0.07269299 0.065223426 0.014734216 -0.053407446 -0.042481735 -0.05886782 0.04551758 -0.028449066 0.014256947 -0.061965413 -0.006937109 -0.021360245 0.029271968 0.057122976 -0.030836038 -0.025859654 0.019262947 -0.06401959 -0.019909807 0.015585981 -0.06018593 -0.04331043 0.020464838 -0.040472373 0.001861319 -0.053215303 -0.042930663 0.043975003 0.017340675 0.055470005 0.022242486 0.07042661 -0.049610615 0.053369775 -0.045079753 0.056038946 0.043929398 -0.029851608 -0.017594565 0.02969221 -0.03918892 0.035710745 0.026621431 -0.02798386 0.042401507 0.04060772 -0.07457526 0.010614231 0.043311156 0.02639708 -0.06711543 0.045523085 -0.031315263 0.030087806 -0.0060568154 -0.055726 0.034810968 -0.0186119 0.05311194 -0.040992923 0.0744614 -0.04109944 0.06571357 -0.065116845 0.04935521 -0.015686851 -0.05323963 -0.05482798 -0.04618796 0.06046602 0.030782111 -0.07493424 0.0014422685 0.02254147 0.06298931 -0.0075522736 0.07203479 0.005045876 0.051847324 -0.03506669 -0.07297171 -0.06218046 -0.050446518 0.06640428 -0.01508702 -0.039354984 0.037766807 -0.010843255 0.047365114 0.043635435 -0.0724732 -0.005116828 -0.06435327 0.022574231 0.0057122335 -0.010796502 0.013775259 -0.033637043 -0.026565477 0.07175234 -0.01711737 -0.040160824 -0.038157694 -0.012058765 0.07061213 -0.07413823 0.028916702 -0.03174838 0.07040362 0.045993015 0.0005825162 -0.049722493 -0.008469559 -0.044647757 0.044650435 0.026988886 0.0719372 -0.039570756 0.016389653 -0.036407877 0.01704397 0.024544254 -0.015532345 -0.0058345124 -0.06291041 -0.04360445 0.0696249 -0.058168076 -0.032750454 0.07546581 0.009319462 -0.04238382 -0.033170134 0.027031332 -0.039996084 0.005728066 0.022108354 -0.022422709 -0.031562038 -0.06548593 0.061731547 0.02717311 0.04046622 -0.0011077374 -0.023817278 0.026664682 -0.024868429 0.021495067 -0.0056727976 -0.072238505 0.055845723 0.02002491 -0.017996605 0.021159723 0.010860078 0.040817045 -0.07138044 -0.020741161 -0.06769824 -0.05337101 0.03967204 0.027561426 0.030598499 -0.028387606 -0.017404307 0.043329336 0.056818828 0.039880857 0.012203895 0.06579791 -0.06567175 0.07264654 -0.066833906 0.05321087 -0.06799094 0.06461103 -0.0021869019 -0.041556843 0.033513136 -0.020818252 -0.048283413 -0.056709763 -0.06973842 -0.051109895 0.04815065 -0.01067432 -0.05531713 0.006888211 0.048054747 0.053857386 -0.015766948 0.008488789 0.044051044 0.015154801 -0.045519657 0.046931796 0.0052347183 0.008536436 0.017807528 0.050474957 -0.0700694 0.040990025 -0.050688095 -3.799051e-05 -0.036608182 0.07501799 -0.069388464 -0.046173185 -0.020453155 0.075925276 -0.05028415 -0.03753635 -0.026566546 -0.07404024 0.013978794 -0.030568965 0.028307311 0.044978052 0.06048815 0.042515308 -0.07493511 -0.007418342 -0.06406923 -0.036467906 0.049162045 -0.024354488 -0.043556552 0.0080768615 0.0018036366 -0.029943582 -0.030254953 0.02067756 -0.04871448 0.0139784515 -0.044156417 -0.02765556 -0.0150114335 -0.04113975 -0.009662069 -0.020408135 -0.015346453 0.015710212 -0.0058368966 0.03423544 0.07366726 -0.05375617 0.020691909 -0.026248492 -0.035173066 -0.03643944 -0.06906623 -0.066723764 0.022345833 -0.0076548085 -0.0034942925 -0.03165934 0.025292143 0.039785855 -0.020639315 -0.03390292 0.074302286 -0.048721276 0.05528325 -0.032883156 -0.0007498637 0.048429206 -0.06434161 -0.061339885 -0.07085179 -0.071905404 0.021178447 0.0754877 -0.0075970963 -0.06262408 0.03737793 -0.053099513 -0.05690837 0.0017652512 -0.016215313 -0.047240578 0.0376037 0.012532376 0.046813816 0.018489353 0.007439837 0.05205463 -0.055963013 -0.07181325 0.055353224 -0.070154354 -0.040109575 -0.036398605 0.059955 0.010438226 -0.065137416 -0.042518422 -0.05815303 -0.0007346347 0.031153768 0.043553904 0.0135347545 0.06394105 0.068495855 0.027987123 -0.05926383 0.0297871 -0.039707858 -0.073070094 0.0139464885 0.04159549 -0.02282276 0.02071847 0.035699263 0.05891466 0.025084034 -0.037311 -0.005412437 0.04436551 -0.067299746 -0.06941383 0.010454528 -0.03869887 0.026494056 -0.023397908 0.008937903 0.05937718 0.07529111 0.00781998 -0.062073544 0.03650695 -0.054665852 -0.07074355 0.056863233 0.06281027 0.017557003 -0.01958339 -0.06477163 0.033104867 -0.05459749 -0.06959726 0.07085554 -0.04627329 0.06487237 -0.043325096 -0.03620956 -0.06968719 -0.070769176 -0.0586383 -0.028172016 0.041436344 0.0496006 -0.013485897 -0.059695713 0.058695078 -0.054059193 0.02150146 -0.0638358 -0.045174498 -0.02460358 -0.030831512 -0.032143813 -0.005229734 -0.045455083 -0.045441933 0.055857316 -0.058003973 -0.05686804 -0.0691151 0.055664644 -0.021890808 -0.03746315 -0.065557934 0.047289148 0.0697197 0.067992434 -0.07508337 -0.050691664 0.04694947 0.021538109 0.05540313 0.07387553 -0.06026516 0.045882046 -0.07031503 0.01070264 -0.04768083 -0.031897783 -0.04456873 -0.02823355 -0.055523973 -0.03408825 0.010717452 0.042097352 -0.0019195378 0.0067652464 0.020094812 0.0011643693 -0.036837373 -0.05247268 0.05435872 0.024960168 -0.055044025 -0.025824703 -0.04257688 -0.06242997 -0.03442914 0.044933066 0.0033324137 -0.057369426 -0.06928379 -0.03327296 -0.024909064 -0.017124794 -0.032837432 0.050841585 -0.06991399 -0.03985688 0.051670134 -0.008666389 0.045125365 0.04276067 0.06963116 -0.03357308 0.0340401 -0.04389014 -0.045717195 0.0295915 -0.074932605 0.04147751 0.039512277 0.03912764 -0.009851508 0.049685717 0.03178431 0.053123847 0.07477826 0.009433113 -0.009440884 -0.07256664 -0.01222758 -0.05401314 -0.043522254 0.055728912 0.008391567 -0.060927756 -0.069547206 -0.053402245 0.030541345 0.050459072 -0.04998479 -0.05086957 0.05480221 0.019911885 0.047904402 0.05190687 -0.037632473 -0.011295266 0.041850463 -0.07100527 0.0150516555 0.05592726 -0.03015707 0.01428473 0.00083785504 -0.069956765 0.047560565 -0.030968815 0.033869855 0.024960637 -0.06493356 -0.023185901 0.006694369 -0.013430953 -0.0124469325 0.0068641976 -0.036826197 0.05100663 0.032859527 0.026399449 -0.015511807 -0.04508609 -0.0724245 -0.024704032 0.049784794 0.018009901 -0.064020894 -0.04577223 -0.04920294 0.019430801 -0.038739905 -0.0016925931 0.03762485 -0.0254529 0.04205671 -0.06535071 -0.006011583 0.02174852 0.052460715 0.0384503 -0.06158963 0.07280436 0.028944083 0.0035595596 -0.074886754 -0.046675734 0.033568412 0.072284326 0.07417713 -0.060445905 0.059640363 -0.0009370968 0.061385334 0.06288095 -0.032733396 -0.035448577 -0.014036506 -0.02553961 0.051812932 -0.019152515 -0.061917767 0.07359882 -0.04882013 0.01587879 -0.070195116 0.031580076 0.060888797 0.008359656 0.006470613 0.071009904 -0.029247936 0.02006784 -0.049548157 0.0331913 0.053161353 -0.070014186 0.051320195 -0.0009403378 0.07429457 -0.07361815 -0.019216783 -0.042195283 -0.06192907 -0.05726461 -0.016334455 0.062659234 0.021169715 0.018238887 -0.07545102 0.0058402866 -0.034513164 -0.027043596 0.06980722 -0.072605506 0.04968381 0.043626636 -0.068589136 -0.06248694 -0.021995168 0.040466852 -0.0020851493 0.01745154 -0.014162403 -0.021226943 0.013296582 0.07357326 -0.0724422 0.061593935 -0.044042673 0.07504389 -0.0051128566 0.069516614 -0.06866353 0.03437762 -0.041625585 -0.0418337 -0.049172394 -0.049459964 -0.0035315827 -0.008812062 0.016254537 -0.047194578 -0.00085955113 0.06566054 -0.047379382 0.06997317 -0.023932274 -0.012672901 -0.06577254 -0.014460042 -0.015147161 0.031670623 -0.057026237 -0.029899377 0.0062307417 -0.03607974 0.07425454 0.05972697 0.061423466 -0.018136624 -0.057394944 -0.07013436 0.057748884 0.04942806 -0.016927782 0.07158424 0.0111576915 0.06901272 -0.028395519 0.037405454 0.07323474 0.072827384 -0.0151282735 -0.020807948 -0.07237112 0.023128912 -0.0664348 -0.03921565 -0.038947906 -0.047658734 0.04954295 0.037604168 -0.022289913 0.037628904 0.060756654 -0.014826503 -0.011665486 -0.004416272 0.07439725 -0.023795638 -0.069448836 -0.010983571 -0.003491141 -0.02276541 -0.005658254 0.040602468 -0.059367053 0.05478537 0.0687131 0.053919584 -0.014637496 -0.055177562 0.011840619 0.06566037 -0.056680027 -0.06751831 -0.0055110976 0.016689502 -0.019290943 0.06762789 0.016388796 0.05587797 -0.07332685 0.010901116 0.035471357 -0.012653619 -0.06429666 0.030137837 0.0064010024 -0.010861024 0.04092074 0.059604466 0.016949914 0.051172584 -0.017731793 0.04413704 -0.010956205 0.06213723 0.023746543 -0.05448045 -0.04296016 -0.04493714 -0.07182835 0.044969395 -0.010030843 0.0058486685 0.07351433 0.03102173 0.052084744 0.06046109 0.038284242 -0.025727201 -0.01960932 -0.0045990273 -0.018269528 0.03074468 -5.7026744e-05 0.009780012 -0.0053145736 -0.016384814 -0.052585 -0.02744149 -0.015447285 -0.035615653 0.011085995 0.003505163 -0.013970535 0.034787178 0.017969824 -0.026150849 -0.029002864 -0.017774459 0.06633425 -0.022505976 0.034707583 -0.04168922 0.06889683 0.009672247 -0.05162818 0.035460204 0.0062518716 0.073550865 -0.03248778 -0.012323521 -0.065826654 0.021284781 0.012776524 0.025477618 0.056034088 -0.071777806 -0.031615805 -0.06704327 0.031745486 -0.020200476 -0.020745706 0.018214911 -0.0134970695 -0.041204855 0.04720302 -0.05682291 0.017365612 0.030726947 -0.0049194917 -0.0022682995 -0.04385488 -0.01987942 0.03442894 -0.009681754 -0.024773698 -0.035861306 0.03953521 -0.027696252 0.02657178 -0.044677094 0.061673507 -0.03840302 -0.03027958 -0.016489089 -0.06281517 -0.012031727 0.05291739 -0.02325977 -0.06617781 -0.040974706 -0.06469943 0.041328326 -0.029408745 0.056700602 0.041807853 0.056566715 0.024695247 -0.0737215 0.062247887 -0.0449917 0.040694952 -0.021732513 -0.0282798 0.01679644 0.031221732 0.019673519 -0.026266169 0.07242899 -0.03421813 -0.05093175 -0.035003997 -0.03378248 0.02949661 -0.0027380213 -0.07405395 -0.029702641 -0.066833474 0.011124641 0.03478232 0.024562746 0.052992254 -0.046197306 0.04934852 -0.052258037 -0.034533538 0.00451158 -0.026634473 0.037266433 -0.019487627 0.004857339 0.03093671 -0.043424573 0.0507593 0.06440619 0.07540414 0.01141116 -0.053883426 -0.01679653 -0.043242194 -0.036623992 0.0012147501 0.0058229715 -0.06316058 -0.02562159 0.06413467 -0.03908119 0.0131994635 0.025988117 -0.04424251 -0.031641718 -0.005729966 0.043081075 0.060554817 0.041516572 0.06608522 -0.05985888 -0.032473944 -0.07192998 -0.012322418 0.0016315505 0.036907382 0.0012312979 -0.031717524 0.025591187 1.937151e-06 -0.005670458 -0.011619002 0.049229786 -0.04407406 0.0013413504 0.039729938 -0.07426186 0.061379895 0.014303923 -0.05756421 -0.029417131 0.04513897 0.04090435 0.016217798 -0.045146517 0.06128207 -0.006568387 0.044260763 -0.014446642 0.049017668 -0.07230107 0.068283886 -0.050300904 -0.00066625327 -0.069474444 0.008278668 0.0050726905 -0.07003364 -0.07184611 0.07323328 -0.023959238 -0.017163727 -0.02444737 0.019468017 0.012921177 -0.016224403 -0.013595998 -0.065360054 0.05178924 -0.0710331 0.0048302636 0.072673544 -0.007640645 -0.055347953 -0.028031562 0.00707262 0.06258318 0.053341895 -0.021101102 -0.03392154 -0.07032731 0.02068276 0.044297308 0.00437022 -0.028622571 0.034881435 -0.03518272 -0.03792168 0.07579473 -0.0675304 -0.06753236 -0.018797882 0.0055767074 0.03253115 0.049794376 -0.024746083 -0.024879873 -0.010624483 -0.026245162 -0.039874192 0.072498605 0.0073528737 0.0029056892 -0.02535151 0.05695221 0.03794328 -0.021720454 0.052769914 -0.0028813705 -0.06409493 -0.038819097 0.033701114 -0.0037842244 -0.03501122 0.07535514 -0.011930712 -0.04339268 0.021510333 0.04114957 0.022532344 -0.004353754 -0.0070618764 0.038471274 -0.06656768 0.06278692 0.04642208 0.07216439 0.029410124 -0.07457797 0.0213053 0.012383245 0.03245783 0.008964047 -0.007959589 0.006042585 0.06385563 -0.06705228 0.040252693 -0.021170605 -0.0037673786 0.07490383 -0.03387916 -0.06629735 0.013613768 0.012492172 0.029806934 0.014328264 0.039268896 -0.06524213 -0.06700625 0.060832635 0.07572125 -0.05800569 0.016106188 -0.038239874 0.05050367 0.054395795 0.020684846 0.065522924 0.030606054 -0.027613383 0.04457827 -0.06350657 -0.061812624 0.03943474 -0.015497267 -0.035330452 0.004358068 0.0067858025 0.037716955 0.06361398 -0.0017606467 -0.033616524 0.02448377 -0.05218096 -0.06331888 -0.028139327 -0.065611064 0.023228422 0.04218681 0.049082577 -0.05576488 -0.0720834 0.05449599 -0.06900143 -0.059080005 0.0011301562 0.07387346 0.0064678937 -0.026847508 0.054657117 0.07314098 -0.06258049 0.03454359 -0.029563434 0.053945363 0.014205612 0.059621125 0.008200005 -0.0514175 -0.023722459 0.05466123 -0.0116385445 0.052111253 0.021181561 -0.031460825 -0.0040960237 -0.042333093 -0.07058088 0.055069238 -0.0042793974 0.045133695 -0.032024402 -0.017892208 0.0672556 0.047880717 -0.037454534 -0.01311779 -0.06325641 0.00036450475 0.02873043 -0.008963123 -0.03386299 0.05976671 -0.073423766 -0.025097728 0.039222367 0.045250505 0.01823201 0.057811886 -0.06993779 -0.03346486 0.06824392 -0.06292549 0.06883295 -0.014499739 0.05243559 -0.023019608 0.06642394 -0.024745394 -0.060663253 0.043111265 -0.050278936 -0.045123503 -0.04545907 0.013744347 -0.03674494 0.059409752 0.017634911 -0.038298115 -0.07278502 0.008542639 0.017711554 -0.03213049 0.06741661 0.03838948 0.022429643 0.05759351 -0.031392626 -0.01712154 0.014160861 -0.07889623 -0.025988996 -0.04413181 0.06897987 -0.09075949 -0.04108585 -0.026076019 -0.022050776 -0.011972972 -0.03630639 -0.01259144 0.033003524 -0.0088126045 0.06287571 -0.011712648 0.065599345 0.055557296 -0.060882207 0.054435298 -0.00010553998 -0.092851385 -0.05944969 -0.08643566 -0.02596352 -0.03910922 -0.061010417 -0.068105385 0.011265837 -0.018850373 0.03862625 0.0359659 0.015655799 0.00616327 -0.021041095 -0.09701989 -0.07913569 -0.029463913 0.05232799 -0.010057799 -0.046712153 -0.079242505 0.0058924314 0.012139653 0.057313867 0.051793747 0.0013457655 0.054793213 -0.025885174 -0.08881788 -0.0596656 -0.021864355 -0.00077067176 -0.09026663 0.02088796 -0.066781476 -0.018849306 0.033617377 0.0030476898 -0.07085316 -0.029863052 0.060924836 0.0041105226 -0.08435858 -0.014483302 0.021167867 -0.04111526 -0.04774739 0.05306827 0.046937626 -0.053075533 -0.016229073 0.04619432 -0.0514297 -0.04923291 -0.036952265 0.018319855 0.055611577 -0.030989552 -0.03666447 -0.03939663 -0.054076213 -0.021526342 -0.024119157 -0.03753664 -0.005648077 0.025514647 -0.04529016 0.0005474403 -0.05136436 -0.046457026 -0.028837357 0.017730406 0.0142587675 0.017990747 0.010630019 0.032619465 -0.032730233 -0.086858265 0.026295274 -0.0850852 0.034933574 0.014748306 -0.026333697 0.046300054 -0.07406793 -0.08228632 0.0015126305 0.01748143 -0.011952055 -0.0069416994 0.05805577 0.027523873 -0.07074279 -0.0002152074 -0.053376123 -0.11740979 -0.030346517 0.03182489 -0.008852011 0.019662932 0.060566273 0.04076776 -0.033679705 -0.018131744 -0.010831148 -0.07128544 0.040990863 0.038273297 0.030691974 -0.07926218 0.026578318 -0.06674124 -0.020985428 0.06335563 -0.076370604 0.029451523 -0.0760508 0.068042964 0.045759533 -0.014223207 0.039970353 -0.074905396 -0.021265943 -0.06271283 0.045039196 -0.06581187 -0.063123785 0.04101646 -0.05565125 0.041944493 -0.026221221 -0.0092914505 -0.059786763 0.049002435 -0.011392844 0.03440652 0.054961104 -0.0034498302 0.045059413 -0.012671666 0.0028916546 0.028735707 0.06728553 -0.03757919 0.04143104 -0.033058546 -0.05923153 -0.014703757 0.06256454 0.057806745 0.012694709 0.01071368 -0.053410735 0.05833846 -0.019456448 0.053118687 -0.04416452 0.010548423 0.0086708795 -0.025227817 -0.035648346 -0.05665392 0.05777267 0.008489815 -0.06626214 -0.006718359 -0.041980103 0.057549145 -0.0010879147 -0.02595657 0.020968787 0.07241271 -0.084113225 -0.022786504 -0.03990341 -0.0075332234 0.062053602 -0.016234476 0.055857956 0.00023197244 -0.04705291 -0.020186631 -0.04716234 -0.010639421 -0.026943749 0.0096034035 0.07301077 -0.036845595 -0.0010078213 0.0068065366 -0.06157454 -0.06059334 0.042915802 0.06743747 -0.09195032 0.07944919 0.04065474 0.017654574 0.044276126 0.010093689 0.0040053357 -0.15398003 -0.104089536 0.057734825 0.16707133 0.1979906 -0.010558648 -0.062454246 0.058130786 -0.039405365 -0.015892584 -0.023489736 -0.06456053 -0.09214336 -0.06377773 -0.061170675 -0.02826992 -0.02452679 0.045208238 0.030399354 -0.09405484 -0.0257809 -0.07086728 0.009227893 0.01579783 -0.067626216 0.042232193 -0.06568407 0.15023756 -0.06742397 0.082932726 0.32592824 0.30377916 0.17293978 -0.13855599 -0.10815886 -0.025631556 0.024203878 -0.13586168 -0.038504988 0.0042059156 -0.07574978 0.07489101 -0.07455548 0.04189454 -0.07618747 -0.027781203 0.011611555 -0.054176297 -0.07229891 0.03666071 -0.025018673 -0.034857556 0.042569406 -0.022498528 -0.0027621596 0.114036225 0.025656216 0.22627246 0.4056696 0.24889775 0.07962497 -0.14359677 0.06023481 0.18235758 0.07546244 0.006716484 -0.02269245 0.06907095 0.05513094 0.046144687 0.0802847 -0.0136016905 0.100138366 -0.060276337 0.0025621129 -0.034686346 -0.073262714 0.034038585 -0.060819536 -0.0348716 -0.032090582 0.058247853 -0.050673578 0.08957609 0.005632084 0.2915288 0.43869382 0.39651233 0.021243747 0.15033749 0.123854436 0.13899724 0.13022237 0.11086033 0.121781625 0.028129587 -0.037216637 0.04036144 -0.04250549 