256 784
0.028916046 -0.048042696 0.008569257 -0.0513198 0.003246127 0.0027255726 -0.026198398 0.012929548 0.026228094 -0.07857551 -0.04339428 0.038008794 -0.086230166 -0.08402274 -0.019708829 0.006891452 -0.03566292 -0.038466565 -0.03730988 0.038970724 -0.054847278 -0.048330106 -0.01674428 -0.022392211 -0.05772093 -0.06983534 -0.058190376 -0.0046577197 -0.053759687 -0.07009061 -0.08418352 0.03428279 0.024767796 0.02702463 -0.067695506 -0.13091978 -0.07148123 -0.12174137 -0.18067071 -0.059817486 -0.21613578 -0.19650948 -0.016405681 -0.13440312 -0.13787271 0.04518449 -0.07318997 -0.0144725 0.017725166 0.0014886853 -0.038775917 -0.08213886 -0.08960927 -0.0019167858 -0.023536755 -0.06036312 -0.027711924 -0.013274853 0.012893584 -0.10765649 -0.057375703 0.013416606 -0.097544245 -0.080570884 -0.10038038 -0.078993216 -0.1937455 -0.3117426 0.011442875 -0.030123526 0.12668115 -0.0035871677 -0.040886816 0.021258377 -0.097457364 -0.16556542 0.097177856 -0.00965657 0.02931341 -0.077149875 -0.041742094 0.009288518 -0.08219682 0.037163 0.0025306717 -0.05825326 -0.045150142 -0.023261089 0.0075831274 -0.02034149 -0.096538335 -0.03847423 -0.06808744 -0.028103782 0.0037041653 -0.020359112 0.08989857 0.025298402 0.15717636 0.24957749 -0.08538549 0.00034990627 0.123630226 -0.17630994 -0.13807966 -0.06200269 0.041331597 0.020514322 0.08853093 0.0021355837 -0.087938465 0.045506403 -0.009800817 -0.020955091 0.004661379 0.04726946 0.013933279 -0.11566239 -0.2039388 -0.17691068 -0.2849875 -0.2591895 -0.08342627 0.07719215 0.049169704 0.0029076845 -0.17308556 -0.05728217 -0.073612645 -0.20813964 0.059080187 -0.0065941336 -0.10542541 -0.054272227 0.0009840738 0.0744067 0.25454575 0.14611934 0.0046569314 -0.0746284 -0.025870461 -0.08614683 -0.020182356 -0.015544317 -0.12422008 -0.10627719 -0.057593808 0.00030785493 -0.031879432 -0.087637156 0.021449653 0.07155676 0.071196884 0.02577013 -0.1017822 -0.04300789 0.0124628935 -0.22464333 -0.14683722 -0.1303362 -0.036427516 0.16369253 0.044163354 0.21476209 0.22770686 0.1996035 0.19004463 -0.05485183 -0.0015587857 0.01314678 0.032766595 0.026792694 -0.017860416 0.13391204 0.15690877 -0.13855961 -0.023138355 0.034970805 0.15929806 0.10184825 0.103473835 0.012099994 -0.002859535 -0.13148838 -0.027253924 -0.053244554 -0.3015287 0.084132046 0.007161831 0.008879747 0.066665724 0.13368927 0.07063274 0.28796685 0.1546191 -0.070386946 0.018881707 -0.058227476 0.08659151 0.21694902 0.0983355 -0.021804456 -0.04653622 -0.012574636 0.00070400967 0.08163711 0.028822254 -0.023740232 0.14675929 -0.0075902655 0.043511048 -0.14850885 0.045049537 0.058099363 -0.08309735 -0.07960904 0.08884708 -0.0040663956 0.25776595 0.21230888 -0.028779173 0.1949017 0.028093027 -0.07084803 -0.09375179 0.08077722 0.08225357 0.15898386 0.08744165 -0.044499878 -0.110610224 -0.00892918 0.12059402 0.07178242 0.03237961 0.06979492 0.19641587 0.078881554 -0.25835317 -0.21717754 -0.12279567 -0.08017895 -0.043078683 -0.13905062 -0.19869769 -0.036426935 0.039130185 0.16621494 0.14886425 -0.04237073 -0.095967636 -0.07572883 -0.054509107 -0.0038823339 -0.0019207144 -0.007867077 0.014187396 -0.2909457 -0.2104419 0.019860676 -0.04832211 -0.059772886 -0.061779115 0.13938712 0.029836452 -0.19155766 -0.41325152 -0.3177879 -0.14325298 -0.22451928 -0.19661461 -0.20840403 -0.15183657 -0.044961434 -0.17795584 -0.055717394 0.11186808 -0.049977396 -0.15934707 0.049117394 -0.013962334 0.008195957 -0.09143318 -0.13116245 -0.1630358 -0.3021913 -0.27246025 -0.081407264 -0.12899728 0.15707807 0.10176717 0.1516009 0.11912798 -0.12291446 -0.24326448 -0.22004665 -0.13891575 -0.10139173 -0.18735197 -0.24905038 -0.15309161 -0.14847706 -0.11644966 -0.071874246 0.040161263 0.06273936 -0.14435782 -0.010407342 0.021456173 -0.026929297 -0.011889357 -0.055810794 -0.107727855 -0.12573367 0.029868783 -0.015591111 0.03329339 0.11617868 0.18235238 0.12053292 -0.013449457 -0.35005516 -0.2668665 -0.016724994 -0.06587159 -0.05831738 -0.101516955 -0.22721174 -0.25694302 -0.09954694 -0.22345084 -0.29124185 -0.10904836 -0.19225408 -0.22560625 -0.031191077 0.033310212 0.059715647 0.08527133 -0.0029344626 -0.083088085 -0.08263934 -0.14443813 -0.1959313 -0.13828099 0.1510422 0.2775726 -0.0118818 -0.25303242 -0.2332423 -0.064453915 -0.19068831 -0.06643604 -0.051438246 -0.16276434 -0.23751765 -0.33224726 -0.31331074 -0.1981468 -0.16755301 -0.043626316 -0.09828446 -0.187221 0.01675373 -0.07479006 -0.059085 0.06363197 -0.0920372 0.03621969 0.057915114 -0.23914105 -0.080879055 0.16554302 0.23718557 0.25784102 -0.18150236 -0.27824792 -0.22557752 0.036147494 -0.1300096 0.04818873 0.0828208 -0.28158733 -0.08971855 -0.035800967 -0.16793413 -0.1596163 -0.23897088 -0.027412204 -0.25761747 -0.2841536 -0.12436811 -0.07734868 -0.088319056 -0.04754063 -0.04714873 -0.014701457 -0.12900697 -0.18920209 0.010406333 0.0002899726 -0.020938436 -0.020042967 -0.09890548 -0.1217303 0.020559607 0.09220156 -0.01710859 0.057010937 -0.07771657 -0.13234642 -0.033187848 0.122924045 -0.06477042 -0.17142385 0.06999857 -0.0019740893 -0.10407716 -0.16793835 0.0052585984 -0.013231515 0.030965513 0.022233214 -0.026196348 -0.20832033 0.020697363 -0.14097957 0.10334564 0.044473406 -0.052219458 -0.05595874 -0.07290493 0.036380112 -0.0006985285 0.011557265 0.032040894 -0.12486851 -0.11972705 0.044710733 0.23193751 0.056828976 0.0018147946 -0.15412089 -0.13974728 -0.19985828 -0.04912563 -0.15675008 -0.028626831 -0.06334304 0.059643753 -0.05514432 -0.012386762 -0.23501097 0.027770888 -0.0907052 -0.03897978 0.09026161 0.18178375 0.24125934 0.023977939 0.1156881 0.11469005 0.09256623 -0.023924923 -0.13541123 -0.19730462 0.049865764 0.029089816 0.13394311 0.03379464 -0.071364455 -0.17825209 -0.16947179 -0.20490614 -0.23448752 -0.12662351 0.014834066 0.024228757 -0.00823629 -0.10250604 -0.14668703 -0.00811228 0.23819125 0.35940087 0.30426043 0.44094682 0.451012 0.41918662 0.27480265 0.113497846 0.12623087 -0.15610369 -0.061128292 0.033253174 0.15725544 0.10311864 0.05465647 -0.16278566 -0.10797481 -0.19136375 -0.04486417 -0.27769384 -0.31446636 -0.18197127 0.011470134 -0.07965333 -0.09624302 -0.07689469 -0.10982643 -0.01708734 -0.052782398 0.20215617 0.33975807 0.5308241 0.40348667 0.2418191 0.1844793 0.057476357 0.07973495 -0.0076473076 0.024457643 0.036118332 0.15036586 0.047603026 0.052099835 -0.14400837 -0.122894466 -0.033527654 0.0251133 -0.40623975 -0.15917712 -0.17089804 -0.04496624 -0.005876473 -0.010313976 -0.13653293 -0.16386124 -0.11953401 -0.00038880203 -0.1261274 0.07009858 0.12638684 0.066504985 0.08479304 -0.22382301 -0.09784539 -0.03376434 0.035153307 0.111402065 0.24918795 0.14974864 0.040069785 0.02001909 0.068904266 0.061889093 -0.17270991 -0.26128167 -0.31716904 -0.29566938 0.05594133 0.041128993 0.032609586 -0.07031697 -0.2069632 0.022209808 -0.16371551 -0.1446598 -0.07625124 -0.22388186 -0.091333486 -0.22043337 -0.2440292 -0.3534307 -0.2025406 -0.24019127 -0.0700767 0.14238498 0.100064546 0.1241063 0.20370401 0.02054489 -0.040161088 0.0041366452 0.07397306 0.014061105 -0.031122515 -0.07136481 0.0016159926 -0.049035244 0.02752357 -0.08034856 -0.09139746 -0.20067121 -0.30711737 -0.38320947 -0.35680637 -0.6038512 -0.46269527 -0.43666115 -0.48597983 -0.45517287 -0.32949802 -0.20355996 0.0788343 0.16724418 0.03752055 0.0439961 0.08019226 -0.0626098 -0.036126755 -0.028951654 -0.026138486 0.047505967 -0.033467475 -0.0345486 0.048540134 -0.041373245 -0.0692668 -0.04330911 -0.060802907 -0.1541567 -0.2360259 -0.14441402 -0.35076687 -0.5618094 -0.3576392 -0.465931 -0.3880424 -0.34971577 -0.30656928 -0.23362686 0.0017781196 0.042611144 0.12950888 0.015825942 0.028464828 0.10745602 -0.14052995 -0.05662378 0.09221634 -0.16879593 0.11747783 0.10156326 0.026385238 -0.062336084 0.024816595 -0.06812213 -0.027780112 -0.09046881 -0.10042264 -0.06530456 -0.1909465 -0.3297853 -0.22057746 -0.18017974 -0.08346459 -0.07803532 -0.015237566 0.016741928 -0.048759807 0.124509856 0.15042341 0.13441755 -0.04309787 -0.07180255 0.11561619 -0.08606808 -0.0026238607 0.08007456 0.050150637 0.008101905 -0.012938092 0.0039371 -0.030679068 0.012290968 -0.034842875 -0.04213947 -0.014179439 -0.043342452 -0.1763474 -0.22608523 -0.16459972 0.009666123 0.029596368 -0.047522012 0.15015687 0.21206842 0.1375908 0.09435761 0.23059055 0.11041723 0.060683858 0.10677697 -0.008888523 0.19558895 -0.02815503 -0.24136531 -0.20322414 -0.18110621 0.02088294 -0.083440825 -0.0024076402 -0.022391623 0.034160852 -0.05051871 -0.061687786 -0.12352244 -0.0058564674 0.13848376 0.014425907 -0.021925198 -0.069749944 0.15604308 0.25748593 0.08942936 0.07171692 0.17272025 0.17089759 0.35801646 0.21500964 -0.15815112 -0.33735505 -0.08210543 -0.20247366 -0.09533369 -0.21751358 -0.18622391 -0.009392309 0.040137958 -0.024095453 0.060902636 -0.088937595 -0.037381373 -0.04162772 -0.08944621 -0.008250167 0.014475256 0.014498786 -0.02353525 0.31065997 0.32025015 0.16069803 -0.059211504 -0.008465865 0.072025195 -0.079561666 -0.04701571 -0.024638012 0.15251392 0.12537897 0.10580774 0.015681937 -0.009176247 0.031963978 0.03742163 -0.00447661 -0.004149075 0.034140643 -0.06971359 -0.003633999 0.052111056 0.048424024 -0.07614802 -0.0017664939 0.010438027 -0.100189865 -0.04393109 0.009424431 -0.0497842 0.017852688 -0.036620818 -0.10380866 -0.07050331 0.11126507 0.032272812 0.09448107 0.04270884 0.058387488 0.05944086 -0.03516033 -0.04250304 -0.027445758 -0.07246588 -0.07520245 -0.06140078 -0.04493222 0.008332935 0.0652137 0.025236722 0.036842756 0.023540556 0.002205805 -0.0643326 -0.092635676 0.053097147 -0.032591954 0.024173673 -0.05418026 0.007128879 0.002516614 -0.06468788 -0.053633112 -0.03550527 -0.09219888 -0.0026036194 -0.015602691 -0.02403813 -0.047539204 0.051396985 0.03140137 -0.039163068 0.04616744 -0.02155811 -0.020434128 -0.06867022 -0.06585618 -0.07177954 -0.071970746 -0.025990045 0.0059335316 -0.023350226 -0.021518266 0.0118367635 -0.057018753 -0.057011604 -0.06418947 -0.056870084 0.059828583 -0.066441275 -0.0840887 0.043521255 0.03254599 0.02687489 -0.048039887 0.005447821 0.07159238 0.042665876 -0.041854527 0.021840563 0.0183242 0.044311218 -0.078822106 -0.009576226 -0.029345166 -0.01176122 -0.027734734 -0.09060371 0.02884237 -0.052571878 -0.11427089 -0.07437172 0.069462195 -0.16648391 -0.14310086 0.0073872404 0.15376638 0.21649036 0.15614869 0.050240926 0.034507502 -0.06424174 -0.058143377 0.023285333 0.07088532 0.0009841162 -0.068112776 0.012190411 0.060732335 -0.06568034 -0.032656785 -0.05998895 -0.0015117077 -0.021290217 -0.008764052 0.039091088 0.012443207 -0.055242613 -0.12999465 0.030729312 0.12548098 0.034249105 0.0072300117 0.07386198 0.17105383 0.20536357 -0.07960884 0.0067915404 0.13398394 0.03578406 0.06397665 0.04228651 0.079168595 0.077073365 -0.0017563456 -0.026383968 0.034327436 -0.017981578 -0.069741555 0.017663762 0.047443837 -0.009347009 -0.01717088 -0.1372834 -0.15876676 -0.12461228 -0.07428571 0.030746987 0.0067608827 0.018771762 0.0042298357 0.02198752 0.00031066133 -0.006036749 -0.039845828 -0.044327848 -0.14149322 -0.08015649 -0.10189826 0.053386476 -0.082285054 -0.13747805 -0.07818728 -0.06619822 -0.05861601 0.061033066 0.010465369 -0.07950216 -0.0575693 -0.04209155 -0.046671458 -0.10401029 -0.110888764 -0.27045947 -0.16315043 -0.31648672 -0.19097319 -0.12248595 -0.18404151 -0.056132946 -7.459028e-05 0.101962894 -0.10008659 -0.027097069 0.0256961 -0.07836924 -0.069074094 0.009775981 -0.20875832 -0.21605572 -0.19995306 -0.11215387 -0.016303655 -0.08090962 0.04980552 0.0020927368 0.021333072 0.000115045 0.026216988 -0.015453392 0.008137545 0.09640775 -0.15332152 -0.17104283 -0.1517214 -0.012165428 -0.04381485 0.008910637 0.28679484 0.08046013 0.029650176 -0.063665695 0.0020236576 -0.11739614 -0.1058142 -0.05278141 -0.09339144 -0.13891399 -0.097373754 -0.06993944 -0.011716804 -0.06797566 -0.007214895 0.11674333 0.11244646 0.24470173 0.09298577 0.17718865 -0.069762066 -0.05263481 0.030905219 0.0006588172 -0.09163834 0.051311463 -0.037783444 0.08783211 -0.008420919 -0.14211692 -0.20092213 -0.09480947 -0.12956594 -0.10013783 -0.10469568 -0.047177844 -0.13576095 -0.17171696 -0.17546725 -0.11363564 -0.048892226 0.032535538 -0.06264215 0.044099603 0.20982882 0.18232442 -0.011008099 0.026139742 -0.032946344 -0.009348634 0.024482394 0.012617111 -0.13979685 0.06142288 0.109591864 0.13831127 -0.071289256 -0.042780224 -0.08489066 -0.004814995 -0.01625478 0.088364914 -0.06718967 -0.028206583 -0.22784849 -0.17771594 -0.18252596 -0.06641863 -0.04684709 0.0046921074 -0.017045306 0.14839949 0.17873886 0.09063945 0.19539408 0.048478257 0.07666577 0.03641675 0.17202495 -0.10559558 -0.020347534 0.15585332 0.0818069 0.06367349 0.025768576 -0.111120954 -0.09059966 0.0277263 0.09272793 0.1278923 -0.037475348 -0.11072586 -0.16461512 -0.08175677 -0.04546806 -0.016073331 -0.009057015 0.04567882 0.026286524 0.13050632 -0.0015395975 -0.020328002 0.07553454 0.02045094 -0.17954662 0.07549733 0.011887615 -0.09229173 0.09060839 0.010982378 0.08454249 -0.17019811 -0.027472166 -0.17920662 -0.18991654 0.06354021 0.23261951 0.29633138 -0.043636978 -0.036602665 -0.13155873 -0.048155703 -0.05368539 -0.00083332194 -0.018154623 0.0053156256 0.0086073065 0.08982981 -0.101583324 0.06562256 0.09986396 0.049758434 0.009509017 -0.06019125 0.0047765644 -0.051571067 0.1631428 0.06028497 -0.19741966 -0.37957236 -0.24112344 -0.004663449 -0.14294823 -0.24329203 -0.0022002296 0.16893429 0.1499331 0.10082265 0.108606905 -0.04291398 -0.037933875 -0.023743272 -0.01782349 -0.0136120515 0.08907292 0.024664644 -0.0023329097 0.13665123 0.09223827 0.097369276 -0.1255456 -0.07369624 0.016773608 0.13003327 0.107052654 -0.09009324 -0.34511867 -0.38381684 -0.27682474 -0.09283879 -0.09873524 0.04736555 -0.0005756345 0.13731107 0.16660598 -0.089983985 0.00025636452 0.057691403 -0.15123107 -0.043195467 -0.045044474 0.047482923 -0.046079893 0.10080789 -0.020037793 0.041972954 -0.07814006 -0.08397925 -0.14447579 -0.09599902 0.07819026 0.19060753 0.22828561 -0.17716247 -0.32912073 -0.4092196 -0.3287007 -0.13974775 0.09969313 -0.018871667 -0.14633754 0.11706907 0.035116278 0.022219649 -0.17028487 -0.09514136 -0.084355436 0.0006155181 -0.0038654276 0.029779417 0.032738287 0.17524967 -0.017212585 -0.021413248 -0.08770052 -0.17616118 -0.41171387 -0.0614213 0.14271799 0.30629513 0.026505133 -0.1769587 -0.24404383 -0.21897434 -0.16942853 -0.05214906 0.057119686 -0.11897544 -0.065063484 0.17637992 0.054904845 0.119857974 -0.12625323 -0.010469071 -0.103283994 0.04129775 -0.08059641 0.0369255 0.031249527 0.04160559 0.0005727889 -0.03647751 -0.22653934 -0.261848 -0.29419166 0.04231853 0.108340554 0.3555353 0.12223882 -0.15276119 -0.3297257 -0.2632774 -0.19893795 0.107549906 0.19007173 0.14933948 0.008497249 0.035206664 0.016759843 0.0731605 -0.1711619 -0.04942409 -0.10600653 -0.13344833 0.048548628 -0.0015513203 0.016651044 0.035416882 0.055272464 -0.16265835 -0.40249604 -0.28789535 -0.17635173 0.16428956 0.21575284 0.2470437 0.089821935 -0.25867802 -0.28784424 -0.25143677 -0.124392614 -0.01354185 0.0051318696 -0.0017347145 0.083993055 0.07580421 -0.05659729 -0.0017488019 -0.10178548 -0.16399106 -0.05462058 0.029334934 0.074963115 -0.07865255 0.0002828877 -0.013972138 0.054814544 0.017088402 -0.18492599 -0.2871841 0.044644393 0.07415485 0.09662791 0.26953313 0.08696245 -0.2752368 -0.4383267 -0.33116737 -0.33200473 -0.017238285 0.09234342 0.04590324 -0.035154678 -0.0017104129 -0.23450135 0.004526293 -0.15528546 -0.26876348 -0.113923706 -0.06265564 -0.06922564 0.047669888 -0.05472504 -0.037071932 0.1070327 0.099027105 -0.061210103 -0.18418254 -0.03168971 -0.04622077 0.04631477 0.16032515 0.053169403 -0.3158994 -0.43238035 -0.46680897 -0.022826057 -0.0653508 0.06184753 0.039400164 0.0887682 -0.13295121 -0.12511562 -0.11839542 -0.31470376 -0.16956912 -0.11678157 -0.087930754 -0.050097473 -0.0074364734 0.05854436 -0.027926367 0.0033192437 0.1111807 -0.09928259 -0.09074865 -0.109667785 -0.11577158 -0.06583135 -0.0072066747 -0.022354046 -0.26806128 -0.3520847 -0.36319548 -0.25055543 -0.17870152 -0.06867365 -0.036624443 0.016341284 0.014321441 -0.08704316 -0.12087849 -0.18844335 -0.1230118 -0.08299104 -0.08119966 -0.04451353 -0.049342528 0.0018251457 -0.014848621 0.008163784 0.11151714 -0.10823981 -0.20715326 -0.13089065 -0.23453863 0.009286927 -0.03263053 0.13842203 0.21575749 -0.2065562 -0.12484112 0.077928714 -0.02494557 -0.0845377 0.023970414 -0.06607212 0.12901387 -0.18934736 0.0031501611 -0.11352971 0.004263552 -0.007471401 -0.025256585 -0.013560983 -0.06267682 0.04093894 0.025183855 -0.009110648 0.008560637 0.02770411 -0.1276388 -0.21091184 0.03612131 0.05295899 -0.19343863 0.07501863 0.095550805 0.123858914 -0.03256625 -0.038777675 0.04636291 -0.007137157 0.060209487 0.029001378 -0.021763971 -0.10493219 0.03016323 -0.07052188 -0.06331267 -0.034448866 -0.0046118614 0.038597487 0.030755736 -0.05377276 0.045360584 -0.042402215 -0.0070588184 -0.059035525 0.0155599285 -0.16058666 -0.17786075 -0.15459156 -0.2226706 -0.05573159 -0.034663588 0.13609342 0.01590961 0.0075415694 0.035183534 0.01612259 -0.1782842 -0.0028174252 0.13297828 0.21272263 -0.106795356 -0.094809085 0.05708548 -0.13523993 -0.04829579 0.05861809 -0.017908117 -0.0038207497 -0.015876096 -0.04424509 0.012425159 -0.008738947 -0.050449185 -0.08595956 -0.09073354 -0.16067922 -0.17172185 -0.059523117 -0.13785958 -0.14188416 -0.13609837 -0.16660917 -0.11340544 0.082885325 0.08269781 0.08579742 0.045223285 0.2142243 -0.16620632 -0.09110881 0.0037620387 -0.0073222364 -0.025705688 -0.029649453 -0.010108548 -0.07749504 0.018353043 0.03247278 -0.04024641 0.05087409 -0.0009576214 -0.043403335 -0.1079818 0.0760861 -0.014253039 -0.03089441 -0.19086252 -0.2017062 -0.0952163 0.13485387 0.09097205 0.009346831 0.12229701 0.008660318 -0.06255469 0.08543646 -0.10699081 -0.06910182 -0.0730466 0.018212343 0.046937153 0.040629406 -0.006117947 0.06363546 -0.060706966 0.04182318 0.06098213 -0.05476888 0.07879317 0.014714393 0.1914572 0.08552763 0.17280185 0.034235094 0.10715686 -0.101282716 -0.12531446 -0.0017584274 0.07865589 -0.03824299 0.10308132 0.22458297 0.045541108 0.098343305 -0.0073712133 -0.04670028 -0.04902497 -0.060015883 -0.058450222 0.007760851 -0.07064939 0.02379603 0.050701037 -0.014356898 0.05095082 -0.08793452 -0.025024028 -0.058913857 0.17334417 0.16596806 0.058166645 0.13907748 0.11738249 0.012310135 -0.1472203 0.03869205 0.0733172 0.097527854 -0.12343398 0.015083023 0.10947177 0.19197845 0.03197537 -0.061348476 0.007926051 0.0056904615 -0.026410244 0.009175072 0.024919944 0.01689937 -0.055557285 -0.07529167 0.071896836 0.03656248 0.029078912 -0.044019517 0.060651843 0.06976526 -0.031566232 0.021476079 -0.028027304 -0.016581452 -0.018144432 0.15630329 0.08744969 0.011011773 0.041794028 0.0077123824 -0.0027925456 0.13680358 0.0048724446 0.06689578 0.0051880954 0.046265174 -0.088636465 -0.06693884 -0.0020118856 0.086550504 0.01110199 0.0028929734 -0.062028673 -0.0030534645 0.022749001 0.019688819 -0.0033333867 0.048603393 0.0206135 0.04119082 -0.005827719 -0.0029724732 0.011234293 0.07134707 0.01932767 0.05561822 -0.0018596811 -0.07208687 0.009125363 0.029409451 0.10179155 0.08131508 -0.078760736 -0.023880547 -0.009766162 0.006130634 -0.031336438 0.022539008 -0.0023674234 -0.013042375 0.0025705984 -0.02742667 0.0009122407 -0.004442266 -0.030805487 -0.0058747865 -0.061627544 0.027612949 -0.020783588 0.045979924 0.038858637 -0.01337235 0.01982376 0.055066213 -0.021872079 0.031353254 0.022843253 -0.012079619 -0.06029875 -0.02667068 0.008011317 -0.0069033406 -0.012481855 0.016666979 -0.030544952 0.026753265 0.011945905 0.025159502 -0.06110489 -0.0064512603 0.03200935 0.034773894 -0.0045197634 0.023081854 0.015773186 0.007521946 0.010711436 0.03566062 0.0036740631 -0.018832188 -0.017623188 -0.0064741564 -0.025010869 -0.028926427 0.06179562 0.035308786 -0.02818383 0.028818067 -0.054825433 -0.0015322592 0.019782811 0.0010008531 -0.061569344 -0.03390183 -0.0036830993 0.030278513 0.014516117 0.08404195 0.045643505 -0.052981224 -0.033857785 0.048730906 -0.009183402 0.023035381 0.08134637 0.041241538 0.021293405 0.02467943 0.010867053 0.042703915 0.08787469 0.011830469 -0.011257297 -0.08487433 0.02389466 -0.01855627 0.037978984 -0.004999232 0.031292345 0.019943938 0.012759551 -0.025020983 0.022476623 0.026469886 0.034393087 -0.04329817 -0.02559414 -0.0142276855 -0.033122953 -0.002506912 0.07133623 -0.030566126 0.017010804 0.038119026 -0.027906345 -0.002646019 0.090687044 -0.048031434 0.03222163 0.039920807 -0.0045408686 0.0055377395 0.07612016 -0.03478642 0.020969475 -0.0017238924 -0.029734967 0.046002526 0.0047539724 0.05658476 0.0506349 0.010821917 0.013061274 0.041598264 0.045393933 0.0435504 -0.013909175 0.036639724 0.011001331 -0.009031095 0.060449924 0.108596355 -0.07815629 -0.039782897 -0.032037176 -0.032333992 -0.042345867 -0.02688371 0.011124515 -0.016849877 0.025977783 0.011195599 0.069520675 0.051990084 0.033915438 -0.013138168 -0.012828939 -0.096922755 0.009603401 -0.007284531 -0.0026526107 0.027654877 -0.0366933 0.07185473 -0.02936849 0.046154656 0.014911558 0.029415065 -0.07049024 0.024667194 -0.05179765 -0.05294723 -0.04845604 0.0036943771 -0.011439922 -0.025912061 0.08932909 0.035139006 0.016363617 -0.029004686 0.051828787 0.0039178967 0.0003816764 -0.048746135 0.040463664 0.027138984 -0.017109372 0.08358995 0.020694403 0.05082829 0.0686117 -0.0006169012 0.015055555 0.018172788 -0.01618623 -0.04885545 0.02200778 -0.008336307 -0.005545391 0.03268603 -0.018931365 -0.00043915136 -0.09097596 0.029861132 -0.012173281 0.0070977416 0.0024818275 0.03213491 -0.056015156 0.055460352 0.041324746 0.043957025 -0.035959303 0.015428701 0.02019717 -0.048702173 0.06826338 -0.011264396 -0.030298777 0.01733395 -0.04977674 -0.0037268298 -0.015175649 -0.028123546 0.034004074 -0.051252346 -0.017203972 0.080767795 -0.11791923 -0.07763152 -0.0031406237 -0.0052845352 0.016118197 0.025490267 0.053729177 0.03629183 0.008619641 0.02734036 0.045618568 0.09533051 0.019797243 0.047382303 0.03685878 -0.007007675 0.022922337 0.060679004 0.020799972 -0.05552476 0.006788451 -0.09350675 -0.13822669 -0.12704673 -0.10240107 -0.09133459 0.002543972 0.006049444 -0.15315679 -0.1397047 -0.047224313 0.014425053 0.031574983 -0.03381726 0.023428561 -0.06507659 0.05932433 -0.009658392 0.07614999 0.07396372 0.11723785 0.01470479 0.049467623 0.053452607 0.07390472 -0.0015509608 0.054405537 -0.01565771 -0.011028037 -0.1604298 -0.1285498 -0.05123457 0.0044429894 -0.006914466 -0.12660234 -0.24334326 -0.38189125 -0.19726592 -0.11965068 -0.043919787 0.0883626 0.034910716 -0.0055660075 -0.017131327 0.04638447 0.013516431 -0.012413597 -0.034653153 0.03819919 -0.007764506 0.045703173 -0.016439812 -0.01988178 0.10703591 0.014260444 -0.0051190564 -0.01867626 -0.10808186 -0.053581152 0.10638129 0.10125904 -0.006587824 -0.14221896 -0.39593107 -0.70771 -0.39802596 -0.1028983 -0.110213526 0.008063821 -0.0026823962 -0.05120436 -0.016385816 0.013830197 -0.011748143 -0.007961928 0.030702483 -0.00578054 0.046609633 0.04761127 -0.02613004 -0.0555832 0.033096436 -0.08018409 -0.016412677 0.01501413 0.0015904526 0.08226736 0.2749455 0.06519551 -0.12045711 -0.3211343 -0.4649761 -0.28033504 -0.22523476 -0.2048835 -0.12064437 -0.10086568 -0.015777888 -0.043187667 0.0020914366 -0.014034593 0.054408308 0.07825973 0.020687835 -0.019498378 0.06999094 -0.019803144 -0.0070904247 0.015513113 0.051840723 0.019488802 -0.053205173 0.039887372 0.06894022 0.18841457 0.3697271 -0.18167955 -0.47006246 -0.4508743 -0.4890088 -0.3577179 -0.13160965 0.018278925 -0.052916255 -0.035240978 -0.019792506 -0.01969474 0.025584927 0.009471038 0.010367116 0.02113885 0.0092279855 -0.033726033 -0.046697736 -0.013716132 0.05196951 -0.020758078 -0.019034099 0.023613757 0.030655535 -0.035671275 0.1306778 0.23621118 0.25314236 -0.24488957 -0.48545578 -0.38906237 -0.35740978 -0.111547954 -0.029356508 0.21511401 0.18208528 0.11923021 0.012347966 0.020839863 0.03984151 -0.04177556 0.019193163 0.04240227 0.059492644 -0.055824257 -0.038642257 0.012946761 -0.005047672 -0.050429054 -0.033632923 0.076200426 0.0640072 0.008003966 0.07360511 0.06884465 0.19083567 -0.16741754 -0.3799841 -0.27042934 -0.25372592 0.03783067 0.20504418 0.3491966 0.29556343 0.32661864 0.12330859 0.00039340445 0.0028418617 -0.002709096 -0.0607368 0.042690255 0.09087255 0.0022603169 0.041128244 0.01570187 0.10091386 -0.030755138 -0.04879436 0.06487004 0.09602652 0.093112625 0.09481697 -0.50759363 -0.20234647 -0.2717707 -0.36577898 -0.14952444 0.023428582 0.28585783 0.36584947 0.40700975 0.35302645 0.3119919 0.16233358 0.051639527 -0.03409212 -0.04564986 -0.033140276 -0.112874836 0.012293851 -0.014919371 0.091715544 0.04581806 0.042530797 -0.00048363893 0.04197301 0.019413011 -0.009919589 0.07773505 -0.022280212 -1.0853022 -0.9562993 -0.27997816 -0.101945914 0.23792587 0.20508729 0.22424102 0.2253743 0.26921773 0.18653414 0.21717423 0.0993415 0.1112034 0.027571972 0.054962277 0.0041196905 -0.014486354 0.038050357 0.012893823 0.06217155 0.056747224 0.024627578 -0.018283285 0.0005433116 0.07116781 0.077060804 0.09832261 0.024280144 -1.4943056 -1.5715401 -0.38484526 0.3359027 0.4868544 0.40147635 0.10483512 0.1160628 0.2053435 0.118734136 0.16533132 0.16711459 0.06458283 0.0018229573 0.096839614 0.036048476 0.056044545 0.06295724 0.01648364 -0.05055092 0.03693537 -0.028744888 0.044491645 0.04799172 0.10457351 0.06595337 0.043638118 -0.0059480644 -1.4325198 -1.5866127 -0.3431037 0.5497353 0.61244005 0.44266075 0.03550706 -0.09736486 -0.038702864 -0.014745447 0.02361387 0.15351024 0.096035175 0.048935827 0.03606317 -0.05285988 -0.015972985 0.018097004 -0.008281124 0.033161238 0.01531279 -0.04718376 0.08440516 0.022134969 0.024052676 0.08255421 0.015128586 -0.07562607 -1.1130689 -1.3425171 -0.50783414 0.37688655 0.5219402 0.38780883 0.05078994 -0.022312356 -0.1525646 -0.12434245 -0.06328676 0.04214546 0.010718914 0.07595246 -0.013794798 0.00585746 0.04796183 0.04139512 -0.0194331 -0.0047919443 0.011530318 0.024924261 -0.02495957 -0.02704465 0.03256038 -0.001532449 0.0020557393 -0.12971747 -0.59221977 -0.8650956 -0.42580357 0.06575711 0.24139825 0.28176272 0.22730413 -0.0060869856 -0.047878023 -0.07518981 -0.03429761 0.0152017595 0.1532159 0.08769033 0.022994548 0.06951729 0.04025687 0.06167159 0.013359153 0.04112808 -0.013253648 -0.01421822 0.051420152 0.0029062158 -0.0049604694 -0.022668732 0.05479392 0.04080645 -0.17272802 -0.60091025 -0.30867845 0.03766838 0.21494117 0.31003213 0.24961309 0.17279994 0.12478227 -0.0764021 0.0011367784 -0.06804649 0.068216465 0.05027403 0.019244052 0.011374325 -0.06082344 0.06762528 -0.051983126 -0.0041137026 -0.03439458 -0.008042717 0.010779201 -0.037513312 0.014597984 0.08189666 -0.01921749 0.09637913 0.13244411 -0.270688 -0.2958953 0.023022134 0.15515319 0.24663265 0.2281782 0.21317863 0.26572382 0.07434265 0.01651382 0.023653932 0.028556392 0.016653938 0.0037613693 -0.009381551 0.045036145 -0.0038284282 0.07612772 0.009300574 0.07288481 -0.02392172 -0.017655334 -0.017136231 0.038938865 0.009997303 0.024811983 -0.0017644012 0.3578516 0.028989317 -0.24216044 -0.11078662 0.14577769 0.2356564 0.28292808 0.16001305 0.25199604 0.1376088 0.077720046 0.077482775 0.067766495 0.04355416 -0.029655615 0.0301091 -0.0041089943 -0.034635097 -0.04920063 -0.045335025 0.021185905 -0.06747743 0.032115366 0.017561505 -0.00125185 0.0025337364 0.0672023 0.016490689 0.3970713 0.24494007 -0.03830229 -0.082889415 0.0970712 0.08322101 0.15805767 0.24509807 0.18890181 0.18652141 0.1302631 0.03858181 0.07865718 -0.019813541 -0.041519225 0.038669907 0.028310314 0.060197122 -0.02593964 0.082860835 -0.0016803322 -0.00013690857 -0.022114202 -0.019358415 -0.022796769 0.0038271546 0.07369187 0.06336818 0.30274215 0.21604155 0.08138285 -0.020933818 0.01820976 0.117552176 0.1643952 0.19707249 0.14592089 0.16607861 0.12331453 0.11055552 0.1670737 0.056568023 0.03297329 0.0049368045 0.020581232 0.053107627 0.038341552 0.0054617096 -0.0024870923 -0.06443177 0.031188281 0.09846589 -0.04205641 -0.023405408 0.045237403 0.09557926 0.26465547 0.36958042 0.21022022 0.11402678 0.03507781 0.08634737 0.17298757 0.17765914 0.22252159 0.21174943 0.13255884 0.12866114 0.00255413 -0.01225124 -0.061305318 0.012502915 0.008441834 -0.036657225 -0.031386327 -0.019009296 -0.0666589 -0.045025606 -0.03199234 -0.03234185 -0.07804023 -0.044686876 -0.0061546685 -0.044178452 -0.08061468 -0.02490414 -0.03262769 -0.019946938 -0.022172244 -0.043960083 0.0068313354 -0.012756807 -0.05473802 -0.08361572 -0.021479266 -0.0063288384 0.0010024334 0.043147784 -0.019419447 -0.027859297 -0.050974175 0.049838632 0.008516177 -0.050110437 0.023274811 0.057683267 0.033978283 -0.03261854 -0.064567275 0.010562172 -0.03379117 0.013319668 -0.0909222 0.012019213 0.047250498 -0.0884532 -0.004259973 -0.072778024 -0.07803505 -0.015518636 0.0018935228 -0.048944432 -0.090049915 0.029264066 0.049643748 0.021839172 -0.073291466 -0.07082174 -0.059589826 -0.0763393 -0.022828879 0.02319617 -0.056465693 0.019068811 0.038931996 -0.005092291 0.023452157 -0.088200256 0.021546401 -0.05215108 -0.013297878 0.007491691 0.0853938 0.112425774 0.08125631 0.09187487 0.15680075 -0.04091814 0.020301512 0.041789137 -0.08084786 -0.033964742 -0.03556382 -0.040095106 -0.04961918 0.033037364 -0.028216066 0.026955407 -0.066054255 0.0016060487 -0.07142054 0.051720023 -0.049936112 0.009560282 0.06902473 -0.057861786 -0.2007839 -0.19739707 -0.27140397 -0.06693523 0.06569284 0.02667962 -0.008017875 0.0249239 -0.03772908 0.1473517 0.04670283 0.08431268 -0.038081042 -0.04016212 -0.08470689 -0.05267809 -0.052482165 -0.058750764 -0.15576887 -0.017277868 0.050529808 0.0049429983 -0.08023774 -0.06846712 -0.076407626 -0.0009846892 -0.122039326 -0.29643127 -0.32533777 -0.20341152 -0.26212054 -0.025233522 0.0791709 -0.1258147 -0.06145522 -0.059913862 0.07162082 0.02503894 0.2282964 -0.011181649 -0.106821775 -0.46138322 -0.18821292 -0.23398712 -0.25745833 -0.20731491 -0.17769083 -0.0487798 -0.0135673825 -0.0050880476 0.051465396 -0.025519304 -0.0612072 -0.0039568795 -0.18637973 -0.40031478 -0.5119894 -0.3934232 -0.2220247 0.012050967 0.059220154 -0.035581384 0.071840286 0.12616861 -0.03403467 0.005438756 0.023529837 0.018968698 0.079889014 -0.036321394 -0.29773542 -0.10343608 -0.17686377 -0.09647158 -0.071281284 -0.10051555 -0.012342798 -0.032634355 -0.03162215 0.07745595 0.09212189 -0.018441949 -0.031045284 -0.26793492 -0.32022628 -0.4477495 -0.2911514 -0.04782964 0.13246568 0.051290803 0.0049962993 0.050136574 0.10408903 -0.08350624 -0.048891608 0.11855969 -0.0041079326 -0.09634597 -0.216605 -0.054921374 -0.1541044 0.045987785 -0.1454505 -0.10955331 0.038735386 -0.046331163 -0.033460394 0.10303558 -0.013988698 -0.0014279868 -0.12025059 -0.2744538 -0.29103175 -0.08029861 0.116143 0.20281702 0.24781378 0.014124966 0.04089115 -0.046155468 -0.15952574 -0.17027138 -0.10829456 -0.023257425 -0.04850423 -0.01251959 -0.0021916456 -0.04235857 -0.2208918 -0.25937715 -0.10181937 -0.047897696 -0.042675864 -0.03473731 0.027806567 0.041081622 -0.02236906 0.14625493 -0.12138911 0.08032211 -0.11421699 -0.055266466 0.060583945 0.17623915 -0.05651321 0.015509158 0.13185902 0.06689864 0.010824082 -0.04626053 0.009027839 -0.15600207 0.028916648 0.19925353 0.0104231015 -0.25103787 -0.21019858 -0.18564326 -0.08555131 -0.0018968409 -0.094924174 0.07771529 0.050689217 0.0070194495 0.04716735 0.04551381 0.021066498 -0.017390827 -0.2173668 0.02610507 0.18805014 0.06585572 0.045808647 0.0927369 0.073834665 0.16061051 0.031999413 -0.12067674 -0.012004179 0.011632795 0.020393936 0.01041923 -0.053549256 -0.17677732 -0.2599631 -0.12576334 -0.19794469 -0.030991446 -0.031038774 0.037171934 0.013922084 0.16279222 0.1305443 0.11774143 -0.030823326 -0.059737664 -0.1222829 0.038467333 0.23210743 0.014623587 0.06880899 -0.17336121 -0.08245625 0.09923472 -0.06633809 -0.012195606 0.13691409 0.27792913 -0.02216643 0.019427126 0.010877464 -0.24007553 -0.0284086 -0.15143366 -0.074217066 -0.0220848 0.0066015013 -0.051779717 0.120802924 0.077416964 0.21837187 0.22934258 -0.046065327 -0.17304389 -0.10620268 0.011899936 0.13311362 0.12637877 -0.03066211 -0.07279267 -0.32499176 -0.07020896 -0.06032727 -0.061721813 0.114516184 0.14730038 -0.053906474 -0.057361927 0.010206477 0.0982103 -0.10591664 -0.1872893 -0.16662377 -0.0779213 -0.021415947 0.03016686 0.026428102 0.090018675 0.22012788 0.1926863 0.17429598 -0.041456312 -0.09042758 0.22111733 0.12523761 0.102924764 0.094054624 -0.041963056 -0.23019601 -0.13989267 -0.23333102 0.0815375 0.2020531 -0.009773249 -0.07545888 0.13389327 0.07451617 -0.028158681 -0.22635767 -0.20470981 -0.07791361 -0.06366902 -0.051945463 0.085932754 0.050955664 0.21376096 0.075516105 -0.048714373 -0.12145369 -0.2224379 -0.003345539 0.15641163 0.055610746 0.040607054 -0.050427575 -0.051692054 -0.17761298 -0.21349093 -0.17360583 -0.029315477 0.071517095 0.01746462 -0.20612252 0.07423017 0.12907186 -0.15289491 -0.19713926 -0.17568915 -0.050643668 -0.080531605 -0.02142243 -0.027157973 0.057982307 -0.06281359 0.082662955 -0.077577084 -0.16865729 -0.3182774 0.07567756 0.15483065 0.20017317 -0.09026267 -0.09259387 -0.15283105 -0.13445312 -0.11253934 -0.1446889 0.023932282 0.10428384 -0.009520516 -0.16782217 -0.13984533 0.049331263 -0.129317 -0.15214245 -0.027050747 -0.033865754 0.05395556 0.03326835 -0.011962601 -0.025632944 0.08651698 -0.07747309 -0.17857307 -0.3155621 0.053825874 0.1636839 0.20972826 0.019000398 -0.224239 -0.2257125 -0.37555993 -0.3725004 -0.2686776 -0.1696748 -0.073016934 0.1452386 -0.09090939 -0.13147166 0.010353828 0.09307054 -0.160543 -0.12915 -0.091882825 0.021608558 -0.011762278 0.014157408 -0.009051195 -0.057424724 0.056057345 0.07704926 -0.10964949 -0.18177184 -0.028328108 0.20137171 0.18061258 0.022268616 -0.10586035 -0.14914289 -0.13431928 -0.08543628 -0.18343635 -0.09970797 -0.03143956 0.13285363 0.008677332 -0.1314135 -0.25874174 -0.07474355 -0.14629991 -0.07734407 -0.102176555 -0.0379729 0.06800558 -0.06415574 -0.071211234 0.013343762 0.14200085 0.10031355 -0.06432229 -0.2655633 -0.028949622 0.14487608 0.029918363 -0.15267602 0.065443836 0.09765773 0.21024062 -0.064261906 -0.10060917 -0.0786174 -0.006574766 0.018644478 0.045245152 -0.05400765 -0.2719466 0.050635297 -0.08538376 -0.22570804 -0.2371928 -0.121960774 0.0059026307 0.043382227 0.0021852283 -0.07360381 0.14188428 -0.0009087482 -0.021660436 -0.1670974 -0.05755538 -0.09589636 -0.091010325 -0.05124524 -0.14299674 -0.24195038 -0.043845944 -0.22939707 -0.17791466 0.06780782 0.03535062 -0.0020765772 0.2064579 -0.02505304 -0.21824555 -0.09629961 -0.11346874 -0.10558029 -0.099337466 -0.0981694 -0.0017605907 0.05651278 -0.004105431 -0.07656165 -0.004281383 -0.014403486 -0.04135083 -0.111754894 -0.22582106 -0.10070482 0.026529336 -0.05814077 -0.0064211492 -0.23053737 -0.28514844 -0.36008912 -0.23290205 0.073516145 0.11233055 0.059425347 -0.056481533 -0.12953937 -0.010237025 -0.082410276 -0.16132587 -0.17113127 -0.12053922 -0.09412145 0.013752932 0.03385161 -0.048012324 -0.05111831 0.081263505 -0.167173 0.04457134 -0.24568412 -0.2884726 -0.22466487 0.10328368 0.018113796 0.06248285 0.029645966 -0.20392194 -0.21783763 -0.086386226 0.1055973 0.08090638 -0.018835424 0.040428057 0.023070848 0.054419495 0.064439125 -0.16499606 -0.18194583 -0.088617735 0.041214053 0.01836359 -0.013432122 0.04658285 -0.06713935 0.03909099 -0.0011680849 0.12929864 -0.02143351 -0.20543149 -0.010167819 -0.10312673 0.010523105 0.20660913 0.27841303 0.07682911 0.012613074 0.16253503 0.20025356 0.17609762 -0.037426908 0.012827475 0.11408679 -0.079603024 0.035874322 -0.046817366 -0.00092297624 -0.06481147 -0.08116024 -0.09280823 0.014378455 0.037447598 -0.033842843 0.01197158 0.026370697 0.079322584 -0.07248321 -0.13681623 -0.190467 -0.081911445 0.026897037 0.13129804 0.16475053 0.060978446 0.017885638 0.0904277 0.030651199 0.046215687 -0.18271217 0.0044181757 0.027932616 0.18439491 -0.031000584 0.0024493171 0.10613036 -0.087195225 -0.10029194 -0.061561428 -0.097447194 -0.06929013 -0.06520351 -0.12934613 0.018122947 0.12527521 0.23269328 0.08417449 0.05277133 -0.14495365 -0.12286319 -0.02858584 0.12584421 0.27428335 0.1673267 0.038069315 -0.10867504 -0.067376696 0.07286282 0.1443508 0.05096578 0.02620937 -0.13927636 0.010036466 -0.02598014 -0.12700483 -0.053351432 -0.0034266985 0.07062878 0.06918377 0.0026470954 -0.039914526 -0.002430636 0.058664743 0.055871304 0.030247634 -0.19712852 -0.24773985 -0.24106473 0.010512853 -0.19435048 0.005006307 0.18040974 0.1967976 0.056805383 0.049598575 -0.01953107 -0.11666711 -0.117943116 -0.029881159 0.01506334 -0.037363965 -0.0005939598 -0.021561673 -0.01811459 -0.044820666 0.010337726 0.023728907 -0.058403842 -0.07327969 -0.011131522 0.022335997 -0.07529221 -0.06609577 -0.0820375 -0.1511254 0.05531461 -0.041974254 -0.052079283 -0.019954188 0.14323908 -0.03842217 -0.07328582 -0.16138807 -0.05987977 -0.07008732 -0.04118079 0.033479955 0.12015995 0.06575858 -0.011829788 0.047516193 -0.06484874 -0.020253347 -0.017555414 -0.003763417 -0.05981833 0.046264116 0.037991725 -0.039944816 -0.051102795 -0.046107866 0.008818888 0.029553121 0.040265977 0.21193567 0.15411404 0.13813673 0.3015137 0.09904326 0.13601166 -0.16176024 -0.22218256 -0.13285796 0.010555778 0.034877375 0.15812497 -0.04079812 -0.06757614 -0.05663694 -0.086081974 0.04667548 -0.030837119 -0.07092951 -0.0037615267 -0.013059011 -0.055558193 -0.04332543 -0.09557731 0.050552547 -0.03317492 0.06001786 -0.007911023 0.041111633 0.012752213 0.15239592 0.25439948 0.17481166 0.05310411 -0.045331057 -0.09331481 0.007824323 0.0004767249 -0.0027051477 0.15320903 -0.065777384 -0.008279598 -0.044895016 -0.029536793 0.051047944 -0.09475376 -0.037243906 -0.041258078 -0.087139495 -0.045812733 -0.022558765 -0.03612302 0.011913535 0.026835302 -0.056734804 0.006415031 -0.06622152 0.011395213 0.0070942002 -0.015448242 -0.052661028 -0.006884898 -0.05893089 -0.081918806 -0.034108296 -0.019036716 0.05333111 0.012464112 -0.05898584 -0.15201585 0.045619506 -0.07359001 0.024549806 -0.07539386 -0.044107784 -0.09057802 -0.012295811 -0.09234351 -0.08064521 0.019516723 -0.040546928 -0.05958416 -0.08451476 -0.08044765 -0.069782756 0.09508638 0.15957637 0.25643107 0.24361199 0.164677 0.019802034 0.0066862446 0.19699025 0.007792956 -0.05296493 0.061446637 -0.025006745 -0.025390493 -0.102431245 -0.05761981 -0.048500787 0.009194744 -0.016568078 -0.009390771 -0.030394638 -0.12359228 -0.15241413 0.0036329085 0.038223762 -0.10789906 -0.26337227 -0.27026445 0.10702324 -0.061138503 0.030462898 0.07445623 0.2710486 0.38063222 0.22638632 0.3268268 0.36077026 0.2345115 0.1795974 0.13886628 0.13393652 -0.016806683 -0.09863609 -0.14025724 -0.019164324 -0.082263455 -0.119803935 -0.01842524 -0.048471168 -0.060084853 0.035177268 -0.024922356 0.095078446 -0.24043366 -0.3059949 -0.23887828 -0.25348914 -0.12505123 -0.039639197 0.03963908 0.07485302 0.08115339 0.13735628 0.040659644 0.04383543 -0.06424032 0.07693553 -0.09411769 0.037603714 0.21679774 0.015055081 -0.02403687 -0.03456779 0.06293514 -0.08578814 -0.10505601 -0.017094448 0.017197927 -0.044217974 -0.05386061 -0.17761649 -0.28623453 -0.041886616 -0.007991527 -0.04953073 -0.019324243 -0.042701118 -0.043022007 0.11004491 0.0039311787 -0.054471087 -0.009162074 -0.012271024 -0.03934533 0.2057768 -0.11777839 -0.009281489 -0.0748451 0.14868572 0.09927818 -0.11581461 0.026473038 0.04144131 -0.07808 -0.049502917 -0.06269188 -0.014801695 -0.15720047 -0.17902705 -0.02862378 -0.055390056 -0.012546529 0.014944933 -0.10445823 -0.18701921 0.0020515355 0.053143512 0.0342841 0.051030945 0.108610466 0.043821648 0.17386925 0.046309885 0.1316852 0.087893195 -0.12587745 -0.041401774 0.03494004 -0.09237416 -0.0421444 0.028887345 0.026214615 -0.2980845 -0.14597094 -0.27678713 -0.33643058 -0.06756304 -0.24841759 -0.15716134 -0.16085942 -0.03572964 0.07885184 -0.031986803 0.01828721 -0.0040267743 -0.07557525 0.026433153 0.113933824 0.21752897 0.30068985 -0.022183979 0.040391233 0.1487177 -0.108518116 0.29274306 0.22860925 -0.11205234 -0.049535323 -0.069841705 -0.023433732 -0.25366014 -0.36823758 -0.2251766 -0.30892622 0.0039888467 0.021444766 0.1220522 -0.011650321 0.031172877 -0.08544528 -0.06259361 0.11200597 0.13094579 0.09977522 0.012888836 0.17865601 0.22563724 0.34997463 0.2908164 0.25319752 0.26829737 0.094403654 0.19422284 0.12678386 -0.04613947 -0.07417179 0.018087974 -0.10887696 -0.14404386 -0.3434018 -0.17751679 0.059032094 0.03442355 -0.0726261 0.028702777 0.028026376 0.027262524 -0.07452258 -0.007959289 0.1534746 0.06634672 -0.017152904 0.11662633 0.2505298 0.34993225 0.3381609 0.22208512 0.28656545 0.2270157 0.19734758 0.17317176 0.068921745 -0.06585252 -0.00073110947 -0.056552626 -0.06450605 -0.1940744 -0.22822626 -0.13329725 -0.03066661 0.034560993 0.026877526 -0.033465713 -0.044468332 0.079779275 -0.08778169 0.015191909 -0.22036697 -0.25900477 -0.3148899 -0.2518303 -0.19822842 -0.13273774 -0.08789512 -0.18725638 -0.104881674 -0.1576564 -0.009137117 0.115164615 -0.033481643 -0.07197896 0.100735836 -0.070839636 -0.15266787 0.10969092 0.09426846 -0.08805383 -0.08736424 0.06932568 0.038956106 0.07328107 0.114455044 -0.012078195 -0.078293905 -0.071366735 -0.2705893 -0.5287771 -0.57159674 -1.028231 -1.1424004 -0.83516824 -0.891955 -0.57497865 -0.55640817 -0.56822985 -0.32107463 -0.21766868 0.17971113 -0.0020797574 -0.017534386 -0.10026463 -0.053926278 0.12833138 0.1467237 -0.026920924 0.02994169 0.04041467 0.011354265 0.05939616 -0.02005734 0.010853669 0.03041771 -0.12523831 -0.13814746 -0.2652695 -0.28253788 -0.57697684 -0.95970017 -0.9777258 -1.1211613 -0.7478577 -0.7945185 -0.53832966 -0.32986444 -0.1257123 0.08259338 -0.030498598 -0.0050063916 -0.048359264 0.03200953 0.16179867 0.18091047 -0.075224094 -0.03948812 0.024893634 0.09493273 0.07234233 0.0108896615 0.16904229 0.17737447 -0.05446933 0.022707213 -0.13921838 -0.11558904 -0.13006891 -0.17644127 -0.4798864 -0.7304225 -0.7943244 -0.75993127 -0.69903374 -0.50722796 -0.30398726 0.042876657 0.043776654 0.014000608 -0.018278064 -0.025280764 0.12214973 0.049769517 -0.12117055 0.09621133 0.02242215 0.09220242 0.0038671547 0.17816576 0.18076414 0.0721837 0.1284457 0.07421072 0.089589775 0.01328708 0.07251635 -0.02466859 0.031581324 -0.27921313 -0.42201462 -0.43868586 -0.5960809 -0.38747135 -0.31554183 -0.098013714 -0.044649735 -0.0827875 -0.027844712 0.01329233 -0.2576703 0.050277762 -0.12134666 0.018504737 0.11987181 0.02995214 0.04685835 0.055926014 0.13694611 0.026246103 0.073812746 -0.046513055 0.06452752 0.08739584 0.14901027 0.14343259 0.15503718 0.22866772 0.012311143 -0.19885105 -0.15845357 -0.16705285 -0.20136617 -0.23202518 -0.08315896 -0.0055143796 0.021546975 0.010213046 -0.20907341 -0.17632796 -0.14137445 -0.15557753 -0.074939236 -0.08022304 -0.026679542 0.07123284 -0.083993755 -0.043953102 0.042423293 -0.06451386 -0.113800116 0.054169364 0.15695517 0.20628217 0.07268025 0.18345015 0.17083955 -0.13442348 -0.39666066 -0.21536046 -0.017959036 -0.33845666 -0.14783432 -0.005682826 0.021408271 -0.17060433 -0.040914033 -0.076822914 -0.2354601 -0.21469665 -0.13366196 -0.11801559 0.008331938 -0.099564455 0.026812864 0.055291627 0.044714473 0.06935815 -0.037122507 0.05599942 0.20147355 0.0014030936 0.025655901 0.15569358 0.23757625 0.16372702 -0.08682676 0.0029760743 0.1261313 -0.15198034 -0.19715641 0.0073198923 -0.07242546 -0.24316062 0.25685656 -0.009868778 -0.041900564 0.07954606 -0.021077318 0.051791094 0.018685395 0.09846716 -0.050617028 -0.021210734 0.020258302 0.065039106 -0.019905105 0.06878358 0.02630792 -0.0071244906 0.070545316 0.07544776 0.1836956 0.20462392 -0.029734677 -0.031408135 -0.123228386 -0.09558524 -0.016169822 -0.034271933 0.036762774 -0.11929759 0.18416779 -0.030411452 0.042169604 0.10430448 0.2853186 0.08693296 0.13115385 0.12869768 -0.03173175 0.022938365 -0.010603668 -0.0026869522 0.08462943 0.028080894 0.17003025 0.041415367 0.070825495 0.09993593 0.14361605 0.05976167 0.07801184 0.053305518 0.024219349 -0.2193409 -0.086259484 0.007942567 -0.11528433 -0.101740606 0.091651544 -0.048281424 0.076044515 0.2386195 0.013480889 0.15380368 0.22010034 0.10057274 -0.047405742 0.15476921 -0.03076722 -0.046996072 -0.0028587885 0.007953821 0.061991338 0.12501265 -0.004607953 0.03134359 0.045365136 0.044779006 0.13641688 0.36142263 0.17490716 -0.10662178 -0.021864358 0.023745663 -0.061221752 -0.02633885 -0.064552926 -0.029867517 -0.016079681 0.03963683 0.096573815 0.21722145 0.12207795 0.085372455 0.14366424 -0.034504455 0.043444116 -0.04534393 0.064224504 0.04789071 -0.053597856 0.06991976 0.029109837 0.040945884 0.13802491 0.08263656 0.05980613 0.29767093 0.38482705 -0.073690295 0.07609609 0.0054372344 -0.057062928 -0.16848533 0.023847887 0.13552707 0.07743745 -0.02335024 -0.14013131 -0.046677023 0.10701514 0.03549279 0.039774545 0.03942064 0.15357223 0.18821423 0.030911855 -0.028866736 0.06191459 0.05456993 0.003271827 0.08367213 0.021758974 -0.08083557 -0.012470824 0.10665767 0.14102127 0.06234585 -0.011561732 -0.017461447 -0.04981553 -0.1468579 -0.23790297 0.10910308 -0.23308054 -0.09749354 -0.19022758 0.028227823 -0.020922046 -0.06223558 0.0139059685 0.0343147 -0.0014710615 0.086459234 0.05532801 -0.07078326 0.00500479 0.10749623 -0.079875626 -0.08532454 0.009143336 -0.053920455 0.19513261 0.042637747 0.17446584 0.23274669 0.07114901 -0.09509997 -0.016274592 -0.09096514 -0.069005154 0.08574728 0.021372741 0.18181172 -0.0463982 -0.06501863 0.0684612 0.06377476 0.08077117 -0.002923294 -0.016371362 -0.023892572 0.10444593 -0.047525413 -0.24646938 -0.18989839 -0.13738959 0.12881017 -0.085119694 -0.18439075 0.07234987 0.011497241 -0.04378308 0.09464785 -0.026432127 -0.059450205 -0.047341436 -0.038427025 0.11180957 -0.1174646 0.01697371 0.028563283 -0.089798234 -0.2520173 0.06089662 -0.01210459 -0.025480032 -0.0088222055 -0.16695832 -0.1038743 -0.16755895 -0.13981369 -0.074578114 0.019558197 -0.061156284 0.03000716 0.04239542 -0.10504265 -0.1601585 -0.124678165 -0.08228933 -0.08438616 -0.063008934 -0.030950906 0.035060834 -0.02160531 0.094640516 -0.09879891 0.006447864 0.044969212 -0.048205387 0.01175755 6.0465773e-05 0.21884356 -0.05380504 0.07892161 0.017719505 -0.0033864651 -0.039271683 -0.09852124 0.024964241 0.13308261 0.065519154 0.23648609 0.20223096 0.31807855 0.18610258 0.057093993 -0.12178998 -0.11338413 -0.08929314 -0.08019764 -0.00059175724 0.046169817 0.014630618 0.004432192 -0.019873982 -0.025665024 -0.2028353 -0.21347405 0.05721858 0.10621209 0.03903612 -0.15773934 -0.04794967 -0.10002277 -0.005390534 -0.08607092 -0.081861556 -0.1941875 -0.105269216 0.07453028 0.15254782 0.16670412 -0.023251843 0.019488312 -0.04686496 -0.09775189 -0.044080198 -0.090928115 -0.029750785 -0.007705075 -0.05177192 -0.0050716996 -0.02242271 -0.05604118 -0.05137791 -0.032826565 0.06772931 -0.055539574 -0.007355208 -0.0107626105 0.007293987 -0.11050649 -0.042577717 -0.037026532 -0.08787543 -0.06952568 -0.0073542884 -0.0066562155 -0.093201414 0.033202868 0.01127768 -0.08896573 -0.060526367 -0.116990745 -0.115396306 0.0030756614 -0.054059442 0.07579106 -0.012593967 -0.00029439313 -0.035458483 -0.07040852 -0.07808923 0.069064766 -0.0034771173 -0.07904735 -0.07007489 0.02238515 -0.018267674 0.05532397 0.074623525 0.04172081 0.054284286 -0.058439337 -0.015698045 0.051730882 -0.011356674 0.052067485 0.059606418 -0.07824401 0.051273182 0.035940234 -0.056555573 0.049980905 0.029934498 0.05720192 -0.006057523 0.063719004 0.057319056 -0.027844239 0.021514945 -0.04915826 -0.0063242954 -0.06393265 0.08344198 -0.038914412 -0.0467152 -0.10651068 -0.08372338 -0.18062936 -0.17099613 -0.11499885 -0.020540183 -0.07509666 -0.051438596 -0.056483015 -0.010526673 -0.034249187 0.012537726 -0.00930181 -0.07075171 -0.00821919 0.023272127 -0.075834945 0.026603889 0.048297778 0.0030779934 -0.06357092 -0.04567101 0.023370665 -0.03490345 0.13263196 0.055737816 -0.01141571 -0.13456535 -0.10096469 -0.21936883 -0.31772074 -0.26497206 -0.22125277 -0.0058275945 -0.108507566 -0.106302835 0.008721284 -0.079444796 -0.0026192584 0.042675655 -0.02697995 -0.07647159 0.031872112 0.017019026 0.005783478 0.057279184 -0.008923731 -0.16995883 -0.08496378 -0.014779242 -0.04900463 -0.029429179 -0.017544137 -0.049923744 -0.17523795 -0.07828649 -0.09182358 -0.45514494 -0.410238 -0.35696897 -0.07183695 0.08971844 -0.03659826 0.0023363952 0.07444517 -0.0080049 -0.2542351 -0.16003715 -0.16105868 -0.008763195 -0.047780912 -0.019719033 -0.033159636 0.034663923 0.028792245 -0.039029222 0.061384805 0.22583838 -0.14387132 -0.32531288 -0.13520491 -0.07204384 -0.27318963 -0.5606825 -0.2912232 -0.61734074 -0.40807986 -0.33372527 -0.17282817 -0.036172252 0.063899465 -0.015150146 0.053886704 0.027992725 -0.21983415 -0.30544406 -0.29379535 -0.20860617 -0.06696077 0.006333103 -0.023357062 -0.027825965 -0.043503832 0.028079286 0.030623741 0.2509911 0.076713406 0.1892705 0.051753815 -0.06646252 -0.12619148 -0.16898538 -0.21252437 -0.32892072 -0.21377794 -0.22974308 -0.247337 -0.29184517 -0.3655059 -0.085889325 0.048434276 -0.16383365 -0.1936487 -0.30294487 -0.22560538 -0.04178361 -0.07359668 -0.007077352 0.11215585 0.09810882 -0.14067489 0.06250036 -0.20622388 0.0059623304 -0.11598694 0.01449158 -0.060481492 0.15601723 0.022192128 -0.27629706 0.034013107 -0.002861234 0.030998755 -0.013371789 0.06425218 0.0027911416 0.019320343 0.112626106 0.24560201 0.19118075 -0.052901097 -0.42889875 -0.18031149 -0.17817053 0.019962437 -0.05565596 0.15465519 0.20592947 -0.14061376 -0.26027194 -0.08588801 -0.0719767 0.09076423 -0.02929794 -0.14558487 -0.060084574 -0.11949614 -0.15879712 -0.19431713 -0.05985213 -0.0013105945 0.025363026 -0.021381063 0.19206439 0.12608048 0.07433182 -0.008357756 0.20550343 -0.031495616 -0.19110078 -0.058798112 -0.16042502 0.0007744613 -0.07117865 0.21150982 0.17693855 0.0069332505 -0.20425288 -0.14970948 0.06312298 0.08906229 0.060494184 -0.07336879 -0.10694894 -0.14032315 -0.084556244 0.044694908 0.008465325 0.12373792 0.13504317 0.08576001 0.12619798 0.13035782 0.09770806 0.035971057 -0.014796199 0.04563218 0.16867143 -0.042483144 -0.22152689 0.07218084 0.20841485 0.22668542 0.1261281 -0.12206655 0.039010447 0.15775074 0.2000782 0.047617808 -0.09529297 -0.092676684 0.0074810353 -0.043869354 0.0258534 0.0037705258 0.13585588 0.13521977 0.11575303 0.29558232 0.22851516 0.06328731 0.15832111 0.15129805 -0.04987626 0.10375934 -0.094732754 -0.08678034 0.106676765 -0.03236119 0.2893431 0.07898374 0.18947493 0.016579492 0.05705721 0.12561336 -0.10735602 -0.031227438 -0.0061086947 0.011327459 -0.061867647 0.038938317 -0.008315599 -0.07890032 0.040685304 0.26524678 0.2881596 0.225009 0.16560258 0.15819517 0.11128779 0.08388777 -0.15514484 0.032398168 -3.380105e-05 -0.09338804 0.051619057 0.10772207 0.07087448 0.09392947 0.04913064 0.20205687 0.02353094 -0.08741251 -0.092602536 0.13170885 0.024957038 -0.17297913 0.047576576 -0.007011666 -0.030264368 -0.04766896 0.075867556 0.15073487 0.13969906 0.106801316 0.1565004 0.071784645 0.030949943 0.036809012 0.0832886 0.15806004 0.02290448 -0.035639625 -0.075468406 0.054120135 0.00091888045 0.11951954 0.25552055 -0.2157609 -0.22953613 -0.14868014 -0.09140125 -0.016390424 0.10247896 0.031255357 -0.11749786 -0.1166506 -0.08515281 0.23069915 -0.0058571813 0.21286689 0.014006457 0.06087955 0.037162907 0.022688406 0.054236833 0.015692737 0.032995988 -0.13033798 -0.046903655 -0.22623436 0.0207562 0.014430142 0.03576493 0.23101732 0.20478866 -0.02516477 -0.24599478 -0.2059621 0.08682169 0.01751561 0.038972408 0.049516696 -0.02679768 -0.023957798 0.1199077 0.23267767 0.23760825 0.086229235 0.00941655 0.007407831 0.07406911 -0.022786226 0.13182153 -0.2189373 -0.25900808 -0.32834467 -0.008574364 -0.16866955 -0.10466769 -0.042653445 0.0004188123 0.080364406 0.18781617 0.030059757 0.06511019 -0.13158014 0.07423198 0.028431116 0.24729756 0.03361512 -0.0511549 0.029082408 0.16048063 0.13626644 0.117259584 0.11438627 -0.25675362 -0.07243546 0.1219336 -0.047615238 -0.1754451 -0.15879488 -0.261141 -0.3174667 -0.15398149 -0.24129792 -0.04676473 0.041686673 -0.03115989 -0.06821014 0.13889967 0.12004531 -0.09873844 -0.0903798 -0.070990056 -0.03132113 0.10176318 -0.00020719657 -0.08580941 -0.056622863 0.20003273 0.16123682 0.13659444 -0.0057889 0.11628989 -0.04405004 -0.07408202 -0.20963974 -0.08856834 -0.11647272 -0.2965848 -0.3738252 -0.29597637 -0.1708911 0.04028447 -0.03924855 0.016992208 -0.18266122 0.035546914 0.07946649 0.03176012 -0.11924458 -0.2922748 0.1361189 0.012945153 0.042489864 0.06906386 0.072360106 0.20018262 0.19147234 -0.011482519 0.094633386 0.16758856 -0.12512237 -0.025284993 -0.13036965 -0.1543939 -0.24744697 -0.34302732 -0.26025113 -0.34290668 0.014867719 0.007783269 0.051977586 -0.07714189 -0.05004222 -0.18619916 -0.16755114 -0.11586599 0.059357937 -0.3757102 0.026195476 0.16072828 0.016423391 -0.03879009 0.15850393 0.15805349 -0.06726724 -0.096470214 -0.088234305 -0.2329719 0.03487452 -0.09999414 -0.086923346 -0.006732302 0.055201393 0.14367056 0.12146447 0.1338489 0.0734062 -0.074759424 0.09554105 0.05015778 0.13226433 -0.28893134 -0.09253236 -0.2694977 -0.267811 -0.17631783 0.014051001 -0.111531556 -0.12344874 0.016368639 0.14404014 0.2699416 -0.080384225 -0.14942871 -0.020213924 -0.26805237 -0.22584698 -0.24983166 -0.13721623 -0.13902329 -0.123037495 -0.12606718 -0.096652485 0.19177325 0.18621887 -0.02513513 -0.027963845 0.08730533 0.12933171 -0.27372894 -0.21319105 -0.31645274 -0.21396679 -0.14744851 -0.14297901 -0.06546474 0.03747809 0.08677268 0.19607008 0.15759939 -0.20761056 -0.33920223 -0.36854023 -0.47318685 -0.69895834 -0.47739935 -0.19169547 -0.14396621 -0.21174122 -0.26769614 -0.18902834 0.023435308 -0.11509864 0.038262047 -0.02052194 0.12585194 -0.14121106 -0.29784757 -0.28438157 -0.10348246 -0.07049581 -0.25900513 -0.14966449 -0.120504685 0.033434723 0.19339223 0.37835532 0.023091692 -0.5232443 -0.4028373 -0.4803264 -0.6118419 -0.37954924 -0.43683222 -0.0063529382 0.06569213 0.16249123 -0.14970039 -0.07591844 0.010037403 0.07238884 0.06285623 -0.020901881 0.009644588 -0.150436 -0.22986121 -0.3151936 -0.06515594 0.067770086 -0.015639635 -0.07392948 0.005798653 0.08179123 0.3130873 0.19137041 -0.15693238 -0.6181108 -0.7088046 -0.37142235 -0.4220504 -0.084133156 -0.22402984 -0.19282727 0.05865948 -0.0562733 -0.0014780749 -0.06372909 -0.0016720635 -0.024737893 0.023067005 -0.008147426 -0.0054483414 -0.19468264 -0.23243223 -0.03642504 0.14810157 0.27353725 0.08171303 0.047951985 0.04608555 0.10492147 0.24824849 0.08354169 -0.094300754 -0.511482 -0.35250616 -0.37219474 -0.19477232 -0.26639122 -0.16259654 -0.2582308 0.109745026 -0.03378718 0.046597943 -0.0013899101 0.0368098 0.021113472 0.026821623 -0.048055846 0.015632063 -0.20241791 -0.45111832 -0.15274073 0.030912392 0.27041367 0.1694441 0.15580228 0.21481583 0.20777704 0.104710564 0.12965088 -0.2884851 -0.39940503 -0.45085225 -0.5164625 -0.24181943 -0.31864968 -0.29012534 -0.15807468 0.022494452 -0.09753882 -0.070636466 0.055438485 0.09763864 0.1250656 -0.06587146 0.06455976 0.029959815 0.06823387 -0.16399951 0.084454015 0.23942956 0.095250115 0.33656856 0.18117912 0.32139724 0.24851121 0.18424457 0.14612599 -0.007303506 -0.32262483 -0.5547719 -0.5036287 -0.5646972 -0.35163963 -0.4140472 -0.122450456 -0.16756445 -0.003553101 0.055095155 -0.021360712 0.11440885 0.05602443 -0.03869468 0.061705686 -0.054148212 0.02353821 0.25839952 0.32191336 0.26694217 0.02031332 0.042992458 0.2370487 0.2591073 0.03525969 0.08741134 -0.092076585 -0.2719229 -0.24747458 -0.60563934 -0.22936855 -0.08142765 -0.29361096 -0.17922077 -0.009252118 0.08221013 0.18413484 -0.028466873 -0.10173974 0.0017995568 -0.045331623 0.0020900315 0.048265632 -0.027529128 -0.026991993 0.17697357 0.3039833 0.0847214 0.15149306 0.3163588 -0.012610275 0.25651965 0.046491742 -0.15289699 -0.11038924 0.09249651 -0.014852614 -0.07225964 0.021648316 -0.08788604 -0.024745919 -0.037188187 -0.1729398 0.16611645 0.28409946 0.021211082 -0.0058130035 -0.049442742 0.017742015 -0.05402607 0.0010790701 0.0039940327 0.050287124 0.066447124 -0.048356816 0.13470824 0.2186748 0.06239119 0.20623584 0.38294947 0.2551621 0.1986816 0.12396062 0.2885836 0.16917874 -0.0055930135 -0.070638254 0.13071163 0.042020645 0.08695898 -0.036942843 0.19103594 0.26902968 0.064924195 -0.046652637 0.051660907 0.0016757429 0.055616688 0.055941757 -0.048006564 -0.049294565 -0.047878902 -0.07942445 -0.056588285 0.066877425 -0.010454983 -0.06845706 -0.032284264 -0.08138557 0.009520521 -0.026758948 -0.00041580078 0.00015850678 -0.0040375055 -0.06916928 0.07149245 -0.046067797 -0.021051202 -0.03835277 0.052718956 0.016794194 0.044104062 -0.04748458 -0.053821947 0.005480823 -0.05814121 -0.036022447 -0.025938077 0.053970456 -0.06558763 0.026474182 0.0491167 0.05842979 -0.012539872 0.018308604 -0.030059807 -0.06481121 0.14921856 0.13835445 0.08000975 -0.1260945 -0.088134736 -0.028561842 0.07903193 -0.014736786 -0.03224858 -0.080555074 0.015120265 -0.014534717 -0.020469254 0.0407942 -0.062263306 0.054157563 -0.062045053 0.022742413 0.05441374 -0.04155126 -0.03764958 -0.06506143 -0.050934203 -0.046978172 0.07969484 0.12294393 0.015614249 -0.049328938 0.058128715 -0.1467726 -0.11566523 -0.16034725 -0.24436787 -0.03484359 0.07644139 -0.070866354 0.023328999 -0.053280637 0.0055913934 0.05063345 -0.08012023 -0.08633282 -0.023260314 0.044043876 -0.050272733 0.014571983 0.018620675 -0.019107232 -0.0801333 0.033211984 0.0013417866 -0.16199894 -0.02608372 -0.12762702 -0.15656723 -0.13960345 -0.24695368 -0.38053194 -0.36155322 -0.0145682 -0.083002195 -0.2967558 -0.14351681 -0.04428259 -0.15797509 -0.13702719 0.019928135 -0.0896645 -0.04241623 -0.22718589 0.06311302 0.1738304 -0.0052056136 0.05626595 -0.081370495 -0.057313822 0.06959457 0.10356368 -0.12307193 -0.18522096 -0.11139913 -0.24697101 -0.30386218 -0.34030962 -0.4994743 -0.44811913 -0.23232506 -0.0035633852 -0.051155563 -0.073714934 -0.119525634 -0.004894426 -0.1333657 -0.29070514 0.051654086 0.27701336 0.05791943 0.023188837 -0.1287664 0.09054597 0.005174252 -0.040975574 0.047827832 -0.04259742 -0.004313999 -0.024023097 -0.05900169 -0.08731115 -0.223691 -0.33607182 -0.28812408 -0.57125056 -0.7127502 -0.4505026 -0.1492314 -0.12261754 -0.017618498 -0.02520606 0.0019717517 -0.12749536 -0.1658302 -0.18267986 -0.097122215 0.11766652 0.21162736 0.11269065 0.100900546 -0.09695144 -0.08407168 0.054186847 -0.011445165 -0.084066845 0.010249717 0.018313216 0.16106956 0.24922895 0.12802242 -0.16874681 -0.36857152 -0.5098557 -0.56806743 -0.3297849 -0.13730636 0.05957266 -0.060014125 0.11495198 -0.09618505 -0.014894818 -0.021582434 -0.08353026 -0.119822405 0.05941432 -0.046175655 -0.11781829 -0.06599428 0.04629464 -0.07761626 0.0304755 -0.24017172 -0.017211638 0.19368173 0.30377415 0.14447819 0.20113875 0.33461744 0.30186012 -0.10610877 -0.26260316 -0.42544308 -0.18197197 0.016024124 0.046159122 0.051226486 0.1602207 -0.054274257 -0.02134142 -0.047467064 -0.016002512 0.036702495 0.09400431 0.14577813 -0.020582521 -0.32213202 0.05368691 0.012473382 0.1778424 0.1213922 0.1317667 0.10835357 -0.104951575 0.24717644 0.28168944 0.26586884 0.08782423 -0.16040619 -0.2823653 -0.33882374 -0.005605826 0.18877843 0.032918096 -0.07508699 0.07822601 0.19854397 0.01575066 -0.018110875 -0.08455957 -0.035134 -0.08228882 -0.019043727 0.11289897 -0.0614511 -0.015146021 0.08613276 0.07848067 0.2813256 0.06499261 -0.027533306 0.23530343 0.18472825 0.110317625 0.054717697 -0.16618082 -0.24890752 -0.4055473 -0.3516802 -0.098484024 0.22387682 0.13928178 -0.016801395 0.15180182 0.03980388 0.2704249 -0.060343537 -0.12764251 -0.020619592 -0.06517527 0.059919037 0.11141598 0.032155193 -0.06198839 0.019813638 0.09349757 0.17445773 0.012116734 -0.083091095 0.32117996 0.036062256 0.030571075 0.0036475675 -0.014434246 -0.119519 -0.21574362 0.05585724 0.18297988 0.16879831 0.00757143 0.01212539 -0.012404708 0.031250853 0.14607035 0.047822513 -0.013282971 -0.018310115 0.083418235 0.11033896 0.0061419234 0.016407419 0.17559709 -0.03419708 0.028716566 0.24778841 0.546374 0.13564278 0.33994856 0.064432174 -0.04047173 0.12711634 -0.24520975 -0.30896133 -0.021006795 0.116146006 0.28546822 0.27792847 0.10902908 -0.09074643 -0.07445552 0.080875374 -0.003914566 0.07594357 0.007917639 0.18157645 0.13415775 0.0009444134 -0.0730837 0.013047269 0.077558815 0.018693486 -0.050920527 0.10990979 0.34268996 0.013619042 0.0490467 -0.0546887 0.013365551 0.055492755 0.11345961 -0.025359357 -0.07212394 0.21118388 0.34030518 0.2588904 -0.035292745 -0.2375824 -0.11655259 -0.12766792 0.11166717 0.20621414 -0.041421108 0.081965774 3.8245926e-05 -0.07451514 -0.22692771 0.02002736 0.040616978 -0.02794628 0.057937413 0.04678934 0.17618787 -0.09593667 0.039412104 -0.028644176 -0.17537391 0.11558385 -0.022457378 0.1968194 0.29155457 0.31919974 0.32494092 0.11198021 -0.03528786 -0.223009 -0.024920871 0.06102488 0.016675726 0.017742775 0.009052138 0.21694846 0.05523037 -0.11593671 -0.08321987 -0.07477279 0.018759573 0.003011564 -0.0364552 0.0448387 0.2875079 0.046062224 0.025553202 -0.09208501 -0.16359349 -0.12543187 -0.03642342 0.048430737 0.24371281 0.17954747 0.22862914 -0.16056134 -0.33785564 -0.400934 -0.04484849 0.089144595 0.13076071 0.06299795 0.18970537 0.00890155 0.0045224708 -0.010263504 0.034271855 -0.16975532 -0.13766445 -0.06652481 -0.080762446 -0.02557693 0.23944968 -0.021509344 -0.03572183 -0.06866629 -0.07973292 0.072870575 -0.24028067 0.04510125 0.2576806 0.085671134 0.06258325 -0.35104427 -0.30680597 -0.037225157 -0.06551201 -0.010084185 -0.0042814077 0.038337063 -0.08408984 0.05551673 -0.05940248 0.005527234 -0.034057684 -0.10496533 -0.14950915 -0.14853126 -0.0039797877 -0.015751597 -0.12241178 -0.04700015 0.17838646 0.048181295 -0.0019649726 0.09122377 0.09323813 -0.078772135 -0.004918336 0.106903724 -0.3089669 -0.34071887 -0.24535194 0.042953186 -0.068313465 -0.010422515 0.0532515 -0.024587218 0.071676865 -0.18407111 -0.21808097 -0.045523334 0.17044842 0.032185573 -0.14661069 -0.01629955 0.046328302 -0.0053599593 -0.022227578 -0.16614252 0.078105144 -0.014783813 -0.009457099 -0.037315097 0.12004427 0.11154862 0.11337161 -0.056797728 -0.14185354 -0.16442628 -0.03661359 0.27731425 -0.013083913 0.09882501 0.018437462 -0.055163555 -0.20782432 -0.4303525 -0.25048536 -0.22753438 0.0470592 -0.16422935 -0.095877565 0.116969645 0.09137466 -0.06748837 -0.14131996 -0.2652485 0.103493914 -0.024701664 -0.10820138 -0.082275055 0.14244859 0.11775501 -0.029136414 -0.13673148 -0.32908255 -0.15594853 0.086437136 0.055323515 0.12029881 0.079042725 -0.12790222 -0.12790115 -0.08885017 -0.39780793 -0.1550405 -0.11197145 -0.03168739 -0.26128814 -0.010068834 -0.078332655 -0.051839147 0.2462348 0.13532831 -0.26704448 0.10639491 -0.021817159 -0.085885175 0.025176318 -0.018406361 -0.10414831 -0.1312857 -0.1319672 -0.1583807 0.0061110463 0.105056524 0.12730701 0.16980276 -0.0117344735 -0.13912047 -0.09602147 -0.34257892 -0.2636567 -0.33922395 -0.24781871 0.10107589 0.004822215 -0.07418328 -0.072216615 -0.07617239 0.13379657 0.15658931 -0.263431 -0.11805725 -0.039953887 -0.094162315 -0.06081229 0.06464165 0.14060383 -0.13531569 -0.28959748 -0.180076 -0.060414243 0.05400536 0.22604169 0.23080087 -0.040219903 -0.07944546 -0.18434925 -0.30628294 -0.3737941 -0.2447694 -0.06180974 0.14168504 -0.02719075 -0.07155893 0.037513323 -0.057881072 0.010093068 0.08420607 -0.13661458 -0.15021646 -0.14034636 -0.013332052 -0.018631075 0.1670522 0.017572012 -0.109874144 -0.1347972 -0.38619128 -0.029783193 0.104661144 0.16906404 0.080099635 0.07815497 -0.07769017 -0.32989737 -0.11453458 -0.053374425 -0.2826103 -0.11917344 0.09422634 0.020050958 0.059199486 0.05045841 0.0029544597 0.017604483 0.11465589 -0.011694667 -0.16259764 -0.22347745 0.056314323 0.033732627 0.1315542 0.033079803 -0.023057777 -0.0858031 -0.005804206 0.10117868 0.114853896 0.078640744 0.060371853 -0.042739853 -0.18911098 -0.25777525 -0.18745239 -0.17095235 -0.20996223 -0.23544414 -0.02561882 -0.015925344 0.06321476 0.0356115 0.04193939 -0.053733483 0.0151447095 -0.1012398 -0.10816911 -0.038262658 -0.028161652 -0.033916786 -0.013997764 0.06361441 0.08561037 0.1242857 -0.0038439014 0.029157553 0.06415429 0.043517586 0.012619819 -0.03252884 -0.13235004 -0.43619588 0.02857142 -0.25622925 -0.25441045 -0.16342743 -0.011140359 0.040954404 -0.07411927 0.015218751 0.042126466 0.03779081 -0.0568161 -0.12926103 0.061177846 -0.008201594 -0.14598179 0.043051273 0.040577184 0.086694345 -0.013029522 -0.07304194 -0.09313055 -0.037799146 0.12337609 0.16472791 0.1431801 0.23713733 -0.012769375 -0.22902083 -0.12225106 -0.14549 -0.1515681 -0.015700947 0.09460087 -0.0058709173 -0.0571881 -0.054006886 0.016955934 -0.01162825 -0.0025868355 0.056996707 0.08331907 -0.043474033 -0.17027201 -0.20764093 -0.071133725 -0.06778053 -0.04353275 -0.10827473 -0.05089793 -0.052938502 0.1738394 0.26621845 0.106797405 0.040710352 -0.07320917 0.07738222 -0.062258832 -0.060201086 -0.1597322 -0.04712083 -0.013867116 0.064349 0.0048174206 -0.088362195 0.025221946 -0.042357486 -0.036801532 0.0049984083 -0.17212158 -0.13362023 -0.14318466 0.050426103 -0.084681265 -0.007698171 0.036275845 -0.19507809 0.25725776 0.06073528 0.23186366 0.19961132 0.21362673 -0.09281832 -0.07715623 0.15832591 0.02327547 -0.0121263685 0.00927286 -0.049910408 0.05875632 -0.008379084 -0.039218087 -0.06666835 -0.06632107 0.01708809 -0.013990153 -0.040217645 0.028776817 -0.038199715 -0.116111964 0.00832538 4.6375106e-05 0.24072403 0.17300056 0.09440799 0.32908845 0.3262402 0.4646675 0.08365688 0.08508878 0.21957847 0.0992402 -0.045169007 0.05264167 0.043209054 0.016381515 0.002075996 -0.0787744 0.018667756 0.038372602 0.002759068 -0.079357 0.026075859 -0.07291351 0.03258293 0.030039374 0.022429843 -0.007158556 -0.060001228 0.052440356 0.025217159 -0.029706558 0.048697557 0.047334883 0.026982665 0.035575777 0.051499475 0.030283948 0.06410126 -0.029457765 -0.029531809 0.04483839 -0.040806543 0.008759821 -0.039435945 -0.030478192 -0.031820383 0.053707197 0.054660592 0.05155515 0.023463322 -0.02413302 0.014979909 -0.021851424 0.045612928 -0.002837326 0.01359188 -0.036208037 0.024706068 0.010509479 0.046912294 0.009592633 -0.014225443 -0.06274994 -0.1506961 -0.04621848 0.042853497 -0.038028594 0.009388235 0.055257633 0.07361242 -0.01908814 -0.011406509 -0.0034711647 -0.06976915 0.05647749 -0.0036393108 0.06108632 -0.0045285197 -0.05653128 -0.071586154 -0.03625712 0.045528002 0.023158241 -0.036937602 -0.029084852 -0.16471797 -0.14602207 -0.06608796 -0.09854685 -0.22162612 -0.07823533 -0.16732152 -0.15278648 -0.12139743 -0.07666456 0.03114476 0.10387283 0.18594648 0.06952743 -0.07584914 -0.04255313 -0.06326057 -0.08163558 -0.057253793 -0.026117485 -0.0566597 -0.0007852686 0.041749533 0.05182703 0.016343333 -0.09095083 -0.07359607 -0.14586154 -0.17208275 -0.21679051 -0.14080733 -0.167551 -0.18575884 -0.06842689 -0.28492093 -0.41356477 -0.1970731 -0.12503526 0.11163284 0.06281882 -0.08803422 0.04200667 0.07193225 0.10712225 0.077930965 0.0001800322 0.036017567 -0.062742114 0.0155379325 -0.07292668 0.01584589 0.1275687 0.004827086 -0.15963075 -0.07038834 0.042795386 0.29920727 0.20409454 0.09390041 0.0646922 -0.15699157 -0.3144979 -0.36787096 -0.30425686 -0.32742533 -0.2466431 -0.07635067 0.058996744 0.18175071 0.20235227 0.1391877 0.045025293 0.015392595 0.028324263 0.016808286 0.008363408 0.025699105 -0.041510455 0.06551817 0.12289768 0.054009765 -0.19293633 0.041849583 -0.042876814 0.2056568 0.15918039 -0.006261199 0.23382507 0.03456891 -0.08247488 -0.29276654 -0.21864615 -0.2748129 -0.19989909 0.027053898 0.015225339 0.19850121 0.21706143 0.24522448 0.1842956 0.036048543 -0.061213747 0.024016488 -0.08162949 0.014960164 -0.04038728 0.11112863 0.16384132 -0.0506101 -0.002223243 -0.18265313 -0.163763 -0.009318766 0.23460612 0.26684824 0.13269466 -0.021356096 -0.1644145 -0.4030535 -0.40916723 -0.1511614 0.03574376 0.119241856 0.0484227 0.19048408 0.09941913 0.17103422 -0.003664584 0.099983215 -0.09215079 0.06837899 0.012809356 -0.22816122 0.0662977 -0.035172917 -0.09852689 -0.13888004 -0.08355837 -0.015366399 -0.24985985 0.14356303 0.3443466 0.3117448 0.023774246 -0.19723298 -0.43315774 -0.6222531 -0.3655837 -0.061159704 0.11436271 0.18926677 0.16791198 -0.07139339 0.16764669 0.24674791 -0.06588406 0.0035623708 -0.2093827 0.16693193 -0.01440981 -0.056081392 0.023823122 -0.08147922 -0.053479135 -0.03479943 0.030602288 -0.12017407 -0.37268707 0.016483394 0.2958708 0.32985643 0.113086306 -0.4641435 -0.73290265 -0.56057316 -0.07253684 -0.07925257 0.09432079 0.15597157 -0.017651008 -0.09420069 0.09613671 0.027244803 -0.10970739 -0.011310104 0.06161385 0.0021340626 0.06322584 -0.037715696 0.02953259 -0.02390415 -0.0987057 -0.054442633 -0.12798281 -0.36184624 -0.2851409 0.024387237 0.27665856 0.34284395 0.19657429 -0.39207208 -0.55581033 -0.35123134 -0.13857996 0.074707866 0.09456306 0.018607598 -0.17276424 -0.061124396 -0.09065546 -0.06805308 0.100968875 0.15806526 0.0736329 -0.047316972 -0.049588118 -0.010109254 0.15828341 0.076270014 0.025901437 -0.028779816 -0.38889238 -0.18776177 -0.27083158 0.014027517 0.16325705 0.18514909 0.111065835 -0.16776514 -0.24042536 -0.11584584 -0.16225073 -0.060440004 0.0700406 0.01623951 -0.1778984 -0.22774799 -0.08836345 -0.18310586 0.08252069 -0.15059903 -0.16175677 -0.06528829 -0.08583688 -0.055946026 0.043776073 0.043567553 -0.11883414 -0.037602887 -0.29170173 -0.3173955 -0.1508281 -0.007726176 0.17105897 0.08031619 0.17243807 -0.032269575 0.08909362 -0.062459163 0.03368066 0.053191222 0.2171616 0.03536195 -0.029552614 0.019319326 -0.0048416248 -0.10866518 0.014392008 -0.12910892 -0.16859317 -0.16646543 -0.02266281 0.01951949 -0.015064034 0.15916386 -0.102603585 -0.16206266 -0.15129046 -0.16991971 -0.1522726 -0.1529931 0.062193207 0.09035236 0.12150031 0.19601397 0.123229794 0.020260086 0.088462844 0.21757154 0.15417096 0.11119186 0.039635148 0.12116842 0.16815525 0.10055465 0.122608 -0.090084925 -0.26760122 -0.114350885 0.034321167 -0.05061363 -0.05352785 0.15267926 -0.19632892 -0.18931891 -0.13043655 -0.2765575 -0.23165447 -0.13552153 -0.028775955 -0.0075765303 0.1285698 0.15252554 0.21940225 0.10502012 0.13213311 0.11139847 0.110849075 0.029093204 0.06565674 0.023632536 0.08618275 0.10613232 0.08436641 -0.11211675 -0.15781647 0.004649894 -0.05846817 0.00053695287 -0.049714576 0.026885465 -0.17232542 0.023346668 -0.08843247 -0.30995947 -0.022445923 -0.026067983 0.059506066 -0.020531036 0.09192208 0.22023103 0.16519557 -0.00063753774 -0.018417004 -0.05142419 0.031532697 0.0015753568 0.09550663 -0.02494051 -0.009203284 -0.01889903 -0.047735617 -0.10575498 -0.04020039 0.03946623 0.014203694 -0.070199005 0.07768098 -0.062890425 -0.053370506 -0.23336326 -0.09272727 -0.13771419 -0.012448857 -0.11529263 0.03623397 -0.115272254 0.06068874 0.14313935 0.12366225 0.123689644 -0.013888554 -0.09379574 -0.058240887 0.04870518 -0.1809386 -0.13062806 -0.01976127 0.09135781 0.11821481 0.033560883 -0.025282186 -0.085104905 -0.005212585 -0.03266248 -0.017870199 -0.09398137 0.016777467 -0.08550245 -0.19994393 -0.12237746 0.015486518 -0.051813886 -0.21607286 -0.013870675 -0.079431325 0.07316009 0.0635022 0.083149076 -0.17461944 -0.023937868 -0.05160892 0.10000083 -0.2123339 -0.34054905 -0.23790915 0.011034112 0.20867382 0.04928719 -0.0837302 -0.1330501 -0.0034580769 -0.014639533 -0.008423178 -0.12368509 0.017929189 -0.07346235 -0.05927707 0.047098134 -0.041905057 -0.0244413 0.101162754 0.04329503 -0.1323234 -0.08381576 0.050867047 -0.050679266 0.033607535 -0.13210432 0.0020672176 0.039608154 -0.32259396 -0.2766735 -0.101246625 0.12472016 -0.012712735 0.2517551 0.057250623 -0.06381003 -0.04236861 -0.075349964 0.008996533 -0.07971228 -0.006818783 -0.18515413 -0.2735481 -0.036600247 -0.10057114 0.091661826 0.038097996 -0.1412615 -0.2248705 -0.21202745 -0.0031541064 0.06346028 0.082283996 -0.07670098 -0.007490558 0.050580774 -0.23828325 -0.21232107 -0.114479296 0.05353647 -0.02307563 -0.06851338 0.0005488995 0.028807225 -0.00019921864 -0.007467578 -0.16076325 -0.13701043 -0.30318043 -0.27066976 -0.1632962 -0.0017783615 0.2267829 0.050876435 -0.010652673 -0.21193773 -0.29999816 -0.32369342 -0.089084186 0.1873412 -0.041029777 -0.15881658 -0.07887733 -0.08801987 -0.26026168 -0.43884426 -0.09926807 0.015458843 0.01625067 -0.047898818 -0.017830973 0.014126659 -0.0014061609 -0.07216902 -0.113810636 -0.23030138 0.0036128021 -0.02245438 0.025952088 0.16045062 0.21267907 0.06635988 -0.07813488 -0.2850403 -0.3453921 -0.1950087 -0.016027568 0.02501471 -0.009068232 -0.019471908 -0.00018273422 -0.10510461 -0.16477449 -0.19398764 -0.24207738 -0.1646198 0.04539658 -0.015003919 -0.028710954 -0.081211366 0.02567844 -0.052433703 -0.069841996 -0.04156831 -0.05189119 -0.0552673 0.07288624 -0.13332984 0.06563346 0.22786099 0.0015666917 -0.15616539 -0.2204708 -0.15248065 0.037614882 0.21723215 0.04218159 -0.1128408 0.02883394 -0.017695453 -0.101294525 -0.013218929 -0.20606813 -0.106280625 0.092371546 -0.09509056 -0.08101636 -0.07101353 0.025938554 -0.0035646856 -0.09731831 0.054420598 -0.001091854 0.1383069 0.19913973 0.21255745 0.14596528 0.13668096 -0.022262534 0.0037578887 -0.09329728 0.09581434 0.013837533 0.051551513 -0.0043041734 -0.051128507 0.04295492 -0.05670927 -0.007854002 -0.030276207 -0.043815203 -0.07192674 0.08586114 -0.02668918 0.03339267 -0.038869444 0.03366028 -0.025533853 -0.045436088 -0.188152 -0.32423657 0.04183501 0.14856279 0.21860477 0.11460004 0.34580567 0.14346185 -0.02876208 -0.07809463 -0.20322439 -0.064932145 -0.08782112 -0.045928825 -0.207404 0.03336074 -0.039492227 -0.0039643534 -0.010523659 0.04390463 0.034222722 0.14870127 0.08644602 0.039666764 0.032779425 0.036647886 0.027412836 0.0021558811 -0.0376158 -0.4125918 -0.15206562 0.13584334 0.119264066 0.16875 0.21753797 0.29973474 0.14604712 -0.101444885 -0.12841004 -0.08242358 -0.061551798 0.15466046 -0.04907181 0.05519111 0.11706438 0.16967198 0.13219397 0.028560007 0.11787818 0.09785609 0.079294264 0.08315168 0.04685939 -0.008859811 0.05170143 0.059474055 0.076101795 -0.2914199 -0.31975603 -0.25548986 -0.23722701 -0.02118485 0.0638783 0.29326975 0.15566343 0.22930121 0.13026336 -0.1221336 -0.10058181 -0.17466088 -0.059402037 -0.24026339 -0.08545886 -0.2017401 0.10156599 0.055153836 0.041688498 0.00887469 0.054310642 0.11849278 -0.08908962 0.038956262 -0.051226653 -0.008573879 -0.019162312 -0.17546374 -0.31315377 -0.11324781 -0.14661284 -0.14629504 0.11295563 0.055219922 -0.03179732 0.028711418 -0.20970969 -0.37223276 -0.35167333 0.0138588995 -0.14927584 -0.1870497 0.040479433 -0.057366934 -0.041938916 -0.089540005 0.00060761266 0.034615036 0.06604209 -0.038658004 -0.055903833 0.043978456 0.02047815 0.029553166 -0.0054563805 -0.053056996 0.02012051 -0.0116695445 0.013503851 -0.038158316 -0.0014355255 0.00849331 0.111284785 0.1250272 0.0105985785 -0.079197794 -0.15203853 -0.02765318 0.018005025 -0.012536796 -0.06927198 0.019701941 0.009175448 -0.04168713 -0.074451946 0.043874037 -0.046701975 0.03905887 -0.011903882 -0.029346585 -0.019288346 0.01336489 0.0026265902 -0.031984642 0.018708669 -0.017090661 0.059253257 0.03282598 -0.053627856 -0.020213515 -0.02455376 -0.021320954 0.031205185 -0.035962008 -0.0738397 -0.004121638 0.021985903 0.027378924 0.0541233 -0.061278895 0.06692015 0.036353413 0.051568527 0.004708134 0.043172617 -0.038594477 -0.053091094 -0.058674626 0.04357156 -0.02897638 -0.020874057 0.027705371 -0.0042270334 0.00085007556 -0.06742104 0.04286347 -0.05098489 -0.0656837 0.015990607 -0.002405666 0.052243177 -0.0072695506 -0.07108986 -0.026690612 -0.050538626 0.0374364 -0.047545504 0.040480014 -0.02621404 0.053157017 -0.035379317 0.026076086 0.032378547 -0.05141558 -0.077314645 0.03535926 -0.017109966 0.056832835 0.0062165037 -0.078168385 -0.06547521 -0.06553624 0.059335783 -0.038053118 0.001854831 0.052608352 0.010753751 -0.08585681 -0.1157834 -0.014972971 -0.1871908 -0.18777435 -0.03531253 -0.023856949 0.058188718 0.009004071 0.028475346 0.03023041 0.059727315 0.0669194 0.068899035 -0.07918454 -0.056145795 -0.06232248 0.039178576 0.25004557 0.2357763 0.022079118 0.0243317 -0.09122411 0.091794536 0.09001459 -0.2533912 -0.1077621 -0.26262265 -0.110106446 -0.21726765 -0.14837378 -0.16368966 0.11741422 0.13859943 0.10179767 0.10972053 0.07620141 -0.114572026 -0.007846413 -0.0055742497 -0.010176642 -0.069147 0.018778607 -0.04901475 0.051910926 0.065761104 0.19887494 0.193916 -0.035159405 -0.06405992 -0.07939442 0.14298147 0.014740719 -0.48995996 -0.19600193 -0.1216935 -0.06032959 0.090794764 0.15574063 0.15638778 -0.035764214 -0.05489182 0.07164674 0.1603134 -0.09220139 -0.1643279 0.17278057 0.08298339 -0.010704821 0.021168005 0.03409261 -0.033560265 -0.0605374 -0.04785566 0.23104005 0.17494823 -0.06633714 -0.058350742 0.08038899 -0.061646506 -0.35759836 -0.5051737 -0.5085438 -0.24539645 -0.0025215535 0.11112531 0.010889075 0.04290294 0.07863037 -0.2324441 -0.034762867 0.062324557 -0.031799834 -0.044311304 0.036827877 -0.047421403 0.075292476 0.14560245 -0.04161584 -0.081194304 -0.044203002 -0.03926446 -0.023678819 0.072758235 -0.088183545 -0.107173555 -0.18820205 0.024803044 -0.26056266 -0.29903197 -0.5920429 -0.06422834 0.036296472 0.107419506 0.19071846 -0.0032345918 -0.010166691 -0.056139976 -0.05678852 0.051098716 -0.10467324 0.026736427 0.025480203 -0.062155094 0.008115869 -0.0006712034 0.06185726 0.06810975 0.020797096 0.02098985 -0.14148287 0.093072765 0.09326846 -0.1034515 -0.1468343 -0.058440983 -0.28433487 -0.2176301 -0.30374157 -0.018772615 -0.055689212 0.04477524 0.16796961 0.033925697 0.0022215312 -0.07015086 -0.0460527 -0.13389514 -0.063230984 -0.11772992 -0.13358079 -0.06642632 -0.01988043 -0.059886023 0.017949242 -0.006193691 0.05014758 0.0058512925 -0.08013201 0.008932183 -0.06712042 -0.0009985021 -0.017137669 -0.06794984 -0.3650685 -0.1009259 -0.13918485 -0.12311836 -0.20222081 0.01758382 0.13053377 0.07343282 -0.07014766 -0.015289187 -0.25792092 -0.31668258 -0.20654196 -0.12856749 -0.112351224 -0.077073395 -0.048143573 -0.0849913 -0.002221131 0.052224208 -0.06615277 -0.058284525 -0.01994041 -0.015327294 -0.027482327 -0.05748876 0.012168343 0.0700415 -0.045426734 0.2061207 -0.024125328 -0.2882776 -0.17994435 -0.124686815 0.12168184 0.08380323 -0.011947152 -0.10936391 -0.1779873 -0.2592098 -0.34545434 0.007052741 -0.04106534 -0.014110485 -0.013387748 0.06029781 0.047776554 -0.06965455 -0.018083557 0.0545356 -0.13109466 0.05686563 0.12041768 0.18235621 -0.095661104 0.08101019 0.06789661 0.15230936 0.13078229 -0.26455382 -0.13600239 0.0076446007 0.09838144 0.039045725 -0.064806156 -0.232825 -0.2858325 -0.14224435 -0.19996308 -0.06276955 0.18581991 -0.006856263 -0.2736027 0.1572523 0.18287206 0.021094728 0.047837887 -0.05443565 -0.048007008 0.016737819 0.2432716 0.008661771 -0.30264866 -0.3316711 -0.18519105 -0.13378383 0.049948208 -0.2067734 -0.110970624 0.007117071 -0.011224648 0.03182279 0.061574426 -0.2253593 -0.3964521 -0.24912624 0.0046349135 0.11622166 0.2310734 0.09564893 0.056806996 0.11195163 0.20657967 0.24604616 0.065612406 0.036273967 -0.041939337 0.10474308 0.20416248 -0.014538547 -0.19595224 -0.29145813 -0.16652554 -0.06697397 -0.081116386 -0.039506465 0.06470924 -0.047162503 0.13152574 0.09650429 0.10073784 -0.23333755 -0.5142667 -0.26559523 -0.035077494 0.09049233 0.1736139 0.049101606 -0.0061300234 0.114424996 0.06825008 0.09614705 0.074202284 -0.0057637542 -0.06136901 0.055690654 0.0974369 -0.07096797 -0.23487845 -0.20026591 -0.33608866 -0.2459418 -0.0020529118 -0.090232655 0.039050028 5.0343853e-05 0.14739451 -0.050463337 0.0576065 -0.45675522 -0.41150266 -0.0069303527 0.0106122205 0.00042828478 0.31234556 0.3207167 0.13120781 0.1098797 0.06598849 0.046551753 -0.04826413 -0.027139727 -0.0743512 -0.012666106 0.016232692 -0.042606756 -0.075680785 -0.11773938 -0.09002486 -0.04561323 -0.26224992 -0.057498466 0.13445081 0.039745715 0.12670654 0.15185139 0.035298653 -0.30515575 -0.22053203 -0.09789185 -0.028043872 0.096153915 0.08376832 -0.013717142 -0.18089211 0.006982612 0.04229508 -0.023610864 -0.047284532 0.020344958 0.028974794 -0.00902511 0.13963678 -0.11696612 -0.009958345 -0.062405504 -0.1808921 -0.05939545 -0.06684963 0.11112185 0.2081205 0.027568884 0.101319455 0.012408237 -0.12989303 -0.3968393 -0.3418535 -0.2583317 -0.2205042 -0.1218034 -0.23095788 -0.041943904 -0.17090032 0.041839153 -0.036628935 0.056297425 -0.06199019 -0.015781064 -0.01838789 -0.038368057 0.08590678 -0.06556139 0.0920253 -0.0013355576 -0.047733728 0.11038848 0.01833642 0.14933324 0.17924161 0.19719625 0.07978464 -0.101949655 -0.14206623 -0.3808302 -0.43587717 -0.24755538 -0.21828486 -0.16649309 -0.21637245 -0.10754016 -0.21528828 -0.0933675 0.038873293 -0.06799889 -0.0588448 0.0074012005 -0.07903546 -0.0075302045 -0.097168975 0.09363837 0.03937474 0.06393506 0.11295066 0.0059103835 -0.004831797 -0.048983637 -0.0046536527 0.20208019 0.23145716 -0.14305511 -0.21530543 -0.49955752 -0.2940969 0.04504563 -0.04806325 -0.23120013 -0.25400478 -0.18110274 -0.11290957 -0.033422645 0.1259679 -0.02269952 0.053218763 -0.012195904 0.0662438 0.037677523 -0.1763781 0.0021935452 0.08571196 -0.01592318 -0.12728491 -0.17369422 -0.16142933 -0.13259956 0.09602248 0.21235582 0.16612178 -0.112375386 -0.4285085 -0.41263708 -0.20939939 -0.051619403 -0.14599377 -0.28125343 -0.1237118 -0.18992494 -0.24644601 0.0362199 0.14391431 0.17313668 0.04700624 0.05869955 0.067682914 0.1390123 -0.08333339 -0.1251016 -0.10517758 -0.3121632 -0.15766852 -0.3569035 -0.2624309 0.06206129 0.0036030868 0.38325936 0.22087955 -0.06009215 -0.35183132 -0.49580583 -0.06889575 -0.06410343 0.039381195 -0.14596935 -0.19478285 0.031492002 -0.10851185 0.16609356 0.009379933 0.081878796 4.800409e-05 0.058588184 0.10593538 0.096536696 -0.11475293 -0.14652008 -0.12116732 -0.2231755 -0.28361294 -0.09374792 -0.17632945 -0.08000146 0.18492998 0.1780699 0.043109983 -0.017788067 -0.13096648 -0.2579313 -0.04618877 0.10438607 0.058676627 -0.10080832 -0.23733827 -0.023353139 0.017503157 0.21126802 0.14462931 -0.0471776 0.0102702705 0.020007864 0.0338666 0.015399006 -0.12390138 -0.13870338 -0.080657214 -0.094584614 -0.12987138 -0.0664557 0.06379111 -0.0729189 0.08130939 0.08444079 0.12667426 0.24572793 0.03950922 -0.20301336 0.14608398 0.06301017 0.0039656735 -0.009715878 -0.033884257 -0.0011468705 -0.18531501 0.04081329 0.16899343 0.026338592 -0.0061048106 0.012970232 0.051729035 -0.030986816 0.059034582 0.0002509866 0.027389653 0.016464297 -0.028074691 -0.083342165 -0.04019776 -0.04282884 0.060967498 -0.064703226 0.09136807 0.16851741 0.15263505 0.119479045 0.25369394 0.13888134 0.043274995 0.019252004 0.032587513 0.07785043 0.010240379 0.10359174 0.127907 0.02494409 -0.041016813 -0.08053976 0.031701963 0.057775624 -0.05467662 0.15318273 0.1031593 -0.12402263 0.07342106 -0.11189392 0.025112066 -0.028943451 0.00078168855 0.080813855 -0.004904505 0.12247122 0.2484845 0.22591133 0.15917486 0.043573588 0.09792349 -0.102165416 -0.124963194 -0.06634682 0.026410984 0.056724872 0.06938506 -0.035275243 0.065353796 0.011049777 0.0023737622 -0.028183443 0.07839245 0.021184957 0.03796346 -0.037027173 0.10149582 -0.11461771 0.083438404 0.1519453 -0.19391409 -0.14714655 -0.052788645 0.04578203 -0.07373876 0.22965641 0.09849015 0.052505054 0.120691426 0.13628805 -0.040350728 0.1371844 0.087266654 0.05627645 0.027244505 -0.06276995 -0.0601338 0.032418296 0.040147904 0.0027347205 -0.027635321 -0.033138074 -0.0058434135 -0.11172355 -0.041400205 -0.13563389 -0.22053204 -0.14696613 0.06619756 -0.052942708 -0.03389361 -0.16248699 -0.13275827 -0.16965543 -0.0053391983 0.10363454 0.13010089 -0.02339157 0.05553149 0.019421965 -0.00046799332 0.044818554 0.034597877 -0.02413718 0.038686696 -0.030667 0.025400423 0.0022048939 -0.074844114 -0.003817462 0.031524938 0.039010935 -0.039966285 0.028051648 0.07675964 0.113107845 -0.16738504 -0.24952856 -0.094259694 -0.03211485 0.039442427 0.020307485 -0.04876524 -0.036458876 0.0090370625 -0.07219478 0.037970927 -0.030563507 -0.04871947 -0.0018875445 0.026167572 0.019870348 -0.035116278 0.050254542 0.0069984198 0.0018093288 -0.057573054 -0.046668276 -0.06202965 -0.01447453 -0.07018212 -0.041038364 -0.07534175 -0.06837798 -0.06968245 -0.04287424 -0.0067380364 -0.040171728 0.06741691 -0.033749815 -0.05093342 -0.021645896 0.024462305 0.0050709476 -0.028595418 0.03335338 0.03845117 -0.00461921 0.057920486 -0.058731023 -0.05361802 0.025462754 -0.022055062 -0.058534626 -0.044676173 -0.074820146 -0.028901692 -0.026426967 0.017260399 -0.007347959 -0.033717092 0.025352355 -0.073791 -0.011839378 -0.039540645 -0.031733483 -0.024590928 -0.024897048 -0.0563179 -0.0074303704 -0.116252236 0.04065082 -0.023875652 -0.06299689 -0.029052595 -0.016681269 0.037400946 0.012072506 0.036260076 0.023964096 0.022658393 0.022146894 -0.03237451 0.049530935 0.0059687467 -0.006446409 0.020008411 0.054820027 0.05652296 0.038589936 -0.16262814 0.00074708415 0.11041124 0.10583406 0.045623817 0.021563582 -0.04356189 -0.0013851685 -0.13227543 -0.104222886 -0.00603439 -0.046806432 -0.03821383 -0.08744572 0.072540805 -0.10887793 -0.006420614 0.079810195 0.0125491535 -0.021606393 -0.10439881 -0.030179331 -0.07588041 -0.12222403 -0.074356176 0.10622263 -0.03695367 0.14464168 0.11814606 0.3215574 0.15641233 0.18122749 0.20824915 0.13944481 0.11042033 0.11536263 0.059794135 0.013424574 0.017807962 -0.0907214 0.032639645 0.020696282 0.03301463 -0.026983883 0.0322625 -0.013089224 0.030432139 -0.037277613 -0.0848895 0.042824306 0.006320152 0.058854423 -0.04115266 0.10312651 -0.0015805705 0.08712381 0.20183876 0.09397134 -0.039740335 0.04037692 0.1672322 0.17826982 -0.05360085 0.01880184 -0.08429399 0.044348087 0.053576972 -0.05779164 -0.00621106 0.050585005 -0.08132651 -0.10217888 -0.03473572 -0.038740084 0.095576555 0.10657915 0.09750299 0.046952542 0.16686596 0.23970015 0.008524623 0.022075862 -0.022502646 0.10658788 0.0374736 -0.101660445 0.00032313657 -0.045473393 0.025893632 0.017791912 0.039891798 0.108414456 0.083620176 0.062981576 0.014383676 -0.14848602 -0.03323301 -0.032601282 -0.085908845 -0.010779121 -0.022874318 -0.14074665 0.04299453 -0.010425418 0.0004225305 0.14657438 0.32824555 0.2963279 0.14772122 0.07386644 0.04065033 0.043989 -0.10578995 -0.08360048 0.12245268 -0.10093047 0.027469384 -0.048504137 -0.039315183 -0.08635446 -0.033562414 -0.04176007 0.04951766 -0.123440996 -0.086545974 0.018264523 -0.14767784 -0.05621444 -0.012573138 -0.0332894 0.05754362 0.1350966 0.054886665 0.10271407 0.24732654 0.12025462 0.17283328 0.23437124 0.10944348 -0.018306347 -0.09490356 -0.10800431 -0.06022803 0.03499823 -0.07389401 -0.027769817 -0.07005095 -0.047335763 -0.11299692 -0.07773554 0.17918481 -0.06033926 -0.09074128 -0.17190577 -0.0064269374 -0.004157477 -0.00026792713 0.080238774 0.2874146 0.096455224 0.060957834 0.00555727 0.1630341 0.19847268 0.12115478 0.18375616 0.06744234 0.083717436 0.22714594 0.18978688 0.0995994 0.12494464 0.1323182 0.118804514 -0.00859398 0.052167203 0.007498168 -0.022895109 0.114001304 -0.11793825 -0.23638417 -0.31728205 0.073741704 -0.026784798 0.010301783 -0.070985645 -0.056382168 0.026008163 -0.064271115 0.14836113 -0.061180428 0.18804349 0.14473091 0.061225995 0.13258724 0.262622 0.20567034 0.105654605 0.15696947 0.24919258 -0.019173384 0.09706185 -0.05533588 0.0090161795 0.045838766 0.14369395 0.27877563 0.067694016 -0.25352016 -0.34728622 -0.034952592 -0.09050149 -0.008325372 -0.0052833357 0.015377221 -0.030578116 -0.09552746 -0.10070038 -0.04187035 -0.036581 0.055163287 0.018591069 0.07494798 0.024847655 -0.031271853 -0.20200825 -0.17246783 0.062411748 0.025234666 0.06581389 -0.024418658 -0.15877764 -0.10049798 0.0595068 0.21329603 0.07711263 -0.33521444 -0.35873568 -0.12243623 0.040936947 -0.09746953 -0.053331275 -0.10908302 -0.007942495 -0.116003156 -0.10467356 -0.12146284 -0.099210285 -0.2189032 -0.2602516 -0.26116568 -0.57796097 -0.573602 -0.5971975 -0.46351212 -0.08591073 -0.07062554 0.030547822 0.01567059 0.07815334 0.055254675 -0.030035686 -0.06684557 -0.2265475 -0.5737844 -0.0053753317 0.0030508102 0.048006516 -0.093805134 0.0028642174 -0.12621666 -0.014911407 -0.2565705 -0.32812077 -0.27918735 -0.38271227 -0.5894045 -1.0374122 -0.9423413 -0.92626274 -0.93943924 -0.49180457 -0.14839269 0.013088442 0.031968396 0.00015357352 -0.0631261 0.03087833 -0.061542522 -0.086026326 0.022125678 -0.18152241 -0.21857136 0.09057733 -0.12621798 -0.0777237 -0.0045332047 -0.05752403 -0.16020353 0.049822684 -0.5060893 -0.45960626 -0.49953642 -0.5999951 -1.0096767 -0.8758461 -0.5287134 -0.32737982 -0.16191465 0.092993736 0.08762854 0.12132187 0.0011806061 -0.0118214665 -0.03924057 0.011025538 0.0011902592 -0.009993634 -0.037519936 -0.18456474 -0.19090615 0.14834361 -0.13087367 0.009422608 -0.08169281 -0.13860866 -0.026481422 -0.18500863 -0.62273985 -0.7705266 -0.7060155 -0.70789057 -0.507923 -0.30026862 0.027437028 0.10394435 0.2789191 0.20944867 0.11331668 0.074928515 -0.010780769 -0.059642855 0.022690779 -0.101218365 -0.027342035 0.062021557 0.095897004 0.17831498 0.17106825 0.26078123 -0.11987193 -0.10346209 -0.07496293 0.030712944 0.008160422 -0.06132148 -0.33558378 -0.34664392 -0.12021367 0.07434647 0.012701726 0.3847428 0.31864196 0.25910878 0.21511103 0.21626228 0.06835505 0.071000695 0.0558593 0.08265427 0.054874066 0.15482986 -0.11282777 0.10988406 0.071304604 0.04394118 0.30147287 0.18925631 0.04951904 -0.04209198 -0.011365621 0.14551729 -0.022143314 0.14443567 0.19519557 0.026392087 0.049173966 0.039468136 0.066070795 0.1268489 0.091703765 0.0543026 0.10169958 0.02522191 0.044259146 0.06411445 0.021489272 0.057805363 -0.008035298 0.11274858 0.027895452 0.026009807 0.11696992 0.26873735 0.18164258 0.108121425 0.21471733 -0.09509003 0.00074832846 0.045129858 0.032708596 0.141152 0.1848865 0.22218667 0.045868505 0.086769104 0.15111303 0.08511199 0.051099397 -0.035793483 0.082685955 0.04628385 -0.020362452 0.22382914 0.026294714 0.18264396 0.0755594 0.2051769 0.045940842 0.05540093 0.120461985 0.11677821 0.072203435 0.04698914 0.0057780463 -0.10098405 -0.0017313544 -0.016991049 0.13571076 0.15424672 0.1544263 0.182782 0.073240735 -0.0530439 0.12604158 0.08333303 0.03520463 0.0026640496 0.14116341 0.03090675 0.110334225 0.16051047 -0.046219327 0.028871594 0.1430438 0.037246343 0.0632713 -0.017648635 -0.024806399 -0.06496637 0.0130687095 -0.0856784 0.07373675 -0.03819435 0.065899424 -0.0022987428 0.07195961 0.05942309 0.048608236 -0.0957747 -0.01112551 0.0019493669 0.05555111 -0.0043694135 -0.16268232 -0.20474009 -0.02621268 0.055634476 0.12829778 0.1790514 -0.073774196 0.034077782 0.027039919 0.045684043 0.04869936 -0.049069792 -0.07619812 -0.11947847 0.06470246 0.061367206 0.1707725 -0.043159302 -0.052599076 -0.13817795 0.17437105 0.09573129 -0.012098155 0.08011828 0.055384923 -0.0577154 0.020140298 -0.15904129 -0.12552552 -0.16003229 0.0116257975 0.17651549 0.09843697 0.14253847 0.021743398 0.075356066 0.02363665 -0.055324297 0.15249743 0.0039126975 0.050308343 0.16361684 -0.038623203 0.08573116 0.056960553 0.06163102 -0.053623673 -0.14853501 -0.023739168 0.0110019045 -0.107302874 -0.048384268 -0.091600485 -0.05875444 -0.10439345 0.01415463 -0.07172261 -0.103306584 0.021309039 0.0626592 0.17999223 -0.05580153 0.010566634 -0.030882861 -0.036755417 0.003696733 -0.10165026 -0.0085269585 -0.041475665 -0.12162894 -0.1556842 -0.0037830593 -0.064489655 -0.004337365 0.0029478916 0.05706817 0.11450024 -0.05911485 -0.28642425 -0.22002763 -0.09023009 -0.049837712 0.027955467 -0.03139503 -0.017088784 0.025076786 0.06426562 0.010725678 0.04053632 -0.008353976 0.03957215 -0.07369149 0.0016086883 0.055845864 0.06960315 0.0009276083 -0.15340258 -0.23615637 -0.005787013 0.08920528 -0.08946692 0.001332115 -0.0808848 -0.027888678 0.13808876 -0.14400405 -0.10574162 -0.04750537 4.758167e-06 -0.047407787 0.0058703814 -0.08143575 0.027513154 0.010601816 0.10612609 -0.040043462 -0.103150435 -0.06847214 -0.03607971 0.08976512 0.0011800553 0.010748761 0.016908033 -0.020515634 -0.16616216 -0.017185058 -0.18493995 -0.08826608 -0.044383563 -0.07569441 -0.050038546 -0.10773994 -0.030701641 -0.11418191 -0.15254758 -0.007024598 0.0909882 0.045290593 -0.04838005 -0.00066925556 0.04686728 0.07571916 0.12630868 -0.013689052 0.13564672 0.088011175 -0.018103069 -0.0112127755 0.040754564 -0.038212247 0.10772445 0.008010894 -0.10415877 -0.12019658 -0.15871817 0.14247581 0.09266216 -0.05124053 -0.045315225 0.025536358 0.052668475 0.054891963 0.106859066 0.01086857 -0.067928225 -0.09446131 0.06680554 0.04142992 0.057175204 0.03633557 0.08733848 0.03356927 0.13750196 0.08093037 0.11254918 0.14541589 -0.2558395 -0.25311348 -0.010618057 -0.009796751 -0.24807577 -0.2688538 -0.12426661 -0.0041398103 -0.074106544 -0.024925943 -0.023312854 -0.05348454 0.042058088 0.06284876 0.18821305 0.27342406 0.082109116 0.21786022 0.15211982 0.014692607 0.05544734 0.08250003 -0.024479274 -0.14633706 -0.1085731 0.006732042 0.23675482 0.03310978 -0.16004214 -0.017123364 -0.04662865 -0.14689836 -0.24350847 -0.11996893 -0.10365737 0.031068308 -0.05936912 -0.023718404 -0.019372143 -0.020740144 -0.06477919 0.022440502 0.0058043688 -0.059315514 0.01174224 0.042727273 0.209399 0.13405728 0.27611917 0.062547036 0.044571087 0.017704677 0.09988914 0.16323422 0.20852937 0.1623537 -0.28014463 -0.05002605 -0.0034835453 -0.0065286807 -0.105215974 0.026919555 -0.047384582 -0.10538318 -0.068190716 0.013497498 0.041067075 -0.076994546 -0.08533633 -0.0038680194 0.01153343 -0.052834857 -0.08391249 -0.08163683 0.04473956 -0.07478451 0.035065517 0.07945252 -0.08172023 0.060624372 -0.11271561 -0.03782004 -0.06345683 -0.015917215 0.034410343 0.021072907 -0.010966427 -0.07579027 -0.10643961 0.043795753 -0.05794561 -0.049982682 -0.07276484 -0.10444697 -0.029493378 0.019399757 0.00031684924 -0.071640305 -0.08081665 0.011103615 -0.09371304 -0.09033009 -0.03194219 -0.09597738 -0.02042188 -0.121709585 -0.08880722 -0.04507643 -0.0038353258 0.03388398 0.0051111598 -0.061769255 -0.035868503 -0.105597 -0.0782554 -0.112318024 -0.09538284 -0.019007977 0.01031348 -0.11502369 -0.08975986 -0.13406251 -0.07895165 0.004950805 0.032623656 -0.051836725 -0.04697975 -0.025808288 -0.06786204 -0.02308172 -0.116533436 -0.07516234 -0.0043734116 0.01114606 -0.049297113 0.0054370523 -0.002103949 0.004936732 -0.044703998 0.013042522 0.0022121079 -0.021864712 0.007885351 -0.024279658 -0.06277756 0.0025267086 -0.0009352541 0.010518701 -0.0076483977 -0.029544216 -0.09271811 -0.03254967 0.0618729 -0.0664848 -0.02225588 -0.07190595 -0.0026449861 -0.09088167 -0.077380024 -0.1827943 0.11425667 0.12648366 0.11694742 -0.15834276 0.083996825 0.10429417 0.1988867 0.22231159 0.21467912 0.20149516 0.07072514 -0.0770454 -0.10431674 -0.046712242 -0.014948338 -0.11920765 -0.05905476 -0.0149121545 -0.06127644 0.009429992 -0.053163644 -0.07853294 -0.049272846 0.05571829 0.058931157 0.009897038 -0.054411277 -0.100125626 -0.13487223 -0.23073655 -0.12682728 -0.16903597 -0.18687038 0.0878359 0.07935259 0.0284148 0.18382558 -0.15551908 -0.21585788 -0.0061553996 0.021762537 -0.023352815 -0.017787132 -0.12930547 0.0007205623 -0.022197176 -0.1157618 -0.026175672 0.0009706324 0.12997676 0.06263125 0.11308777 0.08630354 -0.0025303673 0.01767489 0.067663744 0.12056619 -0.01341537 -0.065884784 -0.11450894 -0.0074868537 0.110979155 0.116127424 -0.0712045 -0.030310925 0.072567634 0.07168887 0.03725098 0.1318235 -0.0200998 -0.08621619 0.07455069 0.042040367 0.009436116 0.022172626 -0.10704381 -0.02791634 -0.019085322 0.17939149 0.27323627 0.15894744 0.008669884 0.049658578 0.00735374 0.048782695 0.061767254 -0.12751868 -0.17664255 -0.13276033 -0.09207626 0.059204668 0.12638167 0.20808597 0.04414859 0.19315603 0.13268283 -0.09392722 -0.09668909 -0.103480205 -0.1023302 -0.032208264 -0.040940538 -0.038983982 0.01866442 -0.15452768 -0.20133743 -0.038993344 -0.0060979775 -0.07815097 -0.15314177 -0.056355752 0.058664057 0.005495476 0.0443354 -0.10260259 -0.077658996 0.015377087 0.03695921 0.12672693 0.15305696 0.022143135 0.008114251 -0.020453367 -0.0912786 -0.025174925 -0.2738336 -0.02698291 -0.08182972 -0.1617229 -0.09500304 -0.013909297 0.20756118 -0.021418793 -0.020397598 -0.009605571 -0.18925898 0.084348075 -0.15747462 0.04099413 -0.075406894 -0.13386706 -0.03927047 -0.026520984 0.1615514 0.061324168 0.033348083 0.07347429 0.042577606 0.013202132 0.023838056 -0.07181705 0.069899134 -0.08218201 -0.48313397 -0.29283 -0.09896667 0.017165212 -0.0035221446 0.016584387 0.003303619 0.13433288 0.1534863 -0.069784015 0.072737314 0.006161754 0.02214736 0.10357172 0.004649848 0.061214 -0.08830657 0.09473535 0.034042954 0.009343543 0.1033773 0.095041715 0.036940444 -0.09525329 0.031556953 -0.025224287 0.05110802 -0.044966932 -0.20741709 -0.21994814 0.09938541 -0.152262 -0.027156472 -0.08298397 -0.11862608 0.06795628 0.25826752 0.037828047 0.016437367 0.18803355 0.10007421 0.0673835 0.049926396 -0.0027042304 -0.09040464 -0.11542243 -0.06511757 -0.20399174 0.06406459 -0.03990694 0.02167395 -0.11075573 -0.038396 -0.17480415 -0.043538522 0.07891453 -0.18938686 0.02885171 0.18923162 -0.026388146 -0.09169246 0.011643941 -0.10391796 0.03478015 0.3132073 0.024174947 0.015626883 0.028279703 0.046843633 0.12271219 -0.0010082265 -0.04958696 -0.1569279 -0.17764339 -0.12393873 -0.030894471 -0.01604922 -0.10259163 0.048857525 0.0070212157 0.06723807 -0.0027016979 -0.04128963 0.004673139 -0.077410474 -0.005103816 0.116449125 0.06948104 -0.014098082 -0.00222486 -0.088299826 -0.096959524 -0.0004356343 -0.015059281 -0.091787726 0.017708404 0.08077176 -0.050867304 0.07045496 -0.16507189 -0.3123878 0.06799357 0.07963878 0.07649806 -0.009826712 -0.0060893735 0.13115977 0.14281966 0.015783677 0.033482376 0.05982719 -0.069614954 0.07638631 0.03533508 0.012909463 0.06027225 -0.06269728 0.03608348 -0.075289056 -0.06522532 0.08873502 -0.18143713 -0.18375541 -0.19516145 -0.002141271 0.120885216 0.1463494 0.026916344 0.022327274 -0.050672196 -0.013503456 -0.055411965 -0.023680069 -0.15693948 0.018841444 0.10467002 -0.10726337 0.040896446 0.12446183 0.0078076804 -0.03154977 -0.103814654 -0.087268054 0.0024007636 0.015668772 0.017173408 -0.015916465 -0.13390155 0.030933496 -0.14136593 -0.1116886 -0.022639733 0.08042392 0.12943012 0.20394546 0.17221773 0.12803617 -0.041109387 -0.018242633 0.057747837 -0.0059817284 -0.057948627 0.00070521527 0.00080176996 -0.11374142 0.03056899 -0.045190815 -0.013083253 -0.08750179 -0.026366103 -0.06425231 0.02912496 -0.05854917 -0.0075683272 -0.043153558 0.026906231 -0.28179666 -0.27979806 -0.40722758 -0.19215578 0.02886871 0.056154095 0.07011583 0.18319008 0.116831265 0.13650134 0.17430924 0.16767482 0.0482612 0.013208606 0.01538372 0.093617365 -0.11774645 -0.037261687 -0.08124477 0.036762744 -0.11195828 -0.25436836 -0.18152648 -0.1145314 -0.08707044 -0.07357325 0.12044531 0.06397651 -0.029172607 -0.5008788 -0.60845524 -0.47134098 -0.4738246 -0.22858994 -0.04938461 0.083188124 0.23246244 0.39529255 0.2186538 0.111401536 0.056543328 0.077771544 -0.005026665 -0.022514155 -0.0616059 0.04502908 0.16598748 0.008839342 -0.12213735 -0.26568344 -0.25774184 -0.03399424 -0.097471744 -0.0117603075 -0.0044608023 0.18552957 0.09754191 -0.39351282 -0.44382766 -0.71917063 -0.7870222 -0.8291688 -0.56885827 -0.14322169 0.00063057384 0.25085106 0.21741071 -0.0051118284 0.027044 0.04519057 -0.052495696 0.07290824 0.049483594 0.17703155 0.02149007 0.18898042 -0.12472958 -0.13482718 -0.31157044 -0.12375515 -0.11796838 -0.022561282 0.11907785 0.18807884 0.13450025 -0.3325202 -0.28113613 -0.51201516 -0.3779662 -0.8440903 -0.9879951 -1.0264553 -0.6786602 -0.51141745 -0.4567753 -0.15503627 -0.056926094 0.040985838 -0.014846689 0.20734023 0.032600116 0.020168338 0.24808851 0.06603848 -0.09781632 -0.19824603 -0.37350318 -0.0030553301 -0.167445 -0.07150049 0.020672552 0.24929515 0.2988338 -0.08973211 -0.20947823 -0.0962542 -0.2110945 -0.3911446 -0.5993375 -0.71151114 -0.89974856 -0.76765215 -0.5823115 -0.24851435 -0.080278024 0.037427068 0.021904422 0.12899578 0.041641798 0.064388506 0.07759718 -0.06296868 -0.18107189 -0.31141233 -0.2873122 -0.081227966 0.027035274 -0.08899115 -0.12719718 0.05982726 0.22689097 0.031005947 0.11086356 0.020363139 0.09328748 0.024132626 -0.02210845 -0.11913971 -0.19118176 -0.33173376 