256 784
0.051041882 0.052453 0.060349077 0.018884962 0.016349921 0.036572713 -0.04307462 0.014479635 0.03484808 0.06358253 -0.027831072 -0.07468216 0.06767179 0.062817514 -0.022488974 -0.03698203 -0.06483818 0.066035464 -0.07966078 -0.063519605 -0.037578586 0.00053639 -0.076907024 0.03743674 0.023327986 0.022143345 -0.04244193 -0.029580751 0.008471139 -0.0426609 0.035147324 -0.045703754 -0.0022641767 0.021750877 -0.04714756 0.020954708 -0.037500255 -0.033893675 -0.027765004 0.0067095356 -0.07504491 -0.020033088 0.062483743 -0.02821376 -0.051676992 -0.014839731 0.05270614 0.046011113 -0.018644266 -0.025631225 -0.022880148 -0.0013560947 -0.0042880336 0.04639722 0.028815286 0.055072933 -0.013248601 -0.05976099 0.021456035 0.005168157 0.05604176 0.042801704 0.039942794 0.0043317094 -0.036273073 -0.06753273 -0.07895816 -0.032809094 0.022382818 -0.026939647 -0.061727338 -0.06699112 0.025364235 0.049578518 0.051429365 -0.009612418 -0.0091496445 0.049876858 -0.031543925 -0.07173487 -0.01785602 -0.01096739 0.060459502 -0.008150859 -0.076057844 0.06355215 -0.041011587 0.0095092 -0.0052693714 0.045914315 -0.016609043 -0.040827125 -0.061356176 0.062386073 0.05959877 -0.066855036 -0.07016103 0.05175248 -0.07375573 -0.022526871 0.022772424 0.006496217 -0.073109426 -0.08207391 -0.008455655 -0.02182225 -0.00017185518 -0.030087743 0.010755543 0.0038152258 -0.036176853 0.018768877 -0.051896308 0.06776782 -0.01296351 0.04252384 0.030592872 -0.060794648 -0.059713155 0.022706145 0.022197267 -0.070532516 0.04988742 0.018691907 -0.033924296 -0.053345107 -0.05957473 0.0145387435 -0.0019421967 0.033179592 -0.013627609 0.010764145 -0.07035278 0.03277306 0.054159846 -0.0472145 0.05558018 0.030595034 0.0031289384 0.05653582 -0.034783266 0.06003421 0.048957583 0.06369121 -0.058605082 0.0076403883 0.0066839433 -0.055275727 -0.04660026 0.06033567 0.05866372 -0.022353664 -0.055719264 -0.03187287 -0.019332835 -0.0387254 0.045275472 0.005714744 0.04664142 0.01772785 0.013716725 -0.06797164 -0.054965325 -0.07923266 -0.016121218 -0.0084644975 0.058083378 0.024621487 -0.08051366 -0.08064441 -0.008551755 -0.0004384251 0.05362516 0.053985983 0.053823784 0.06558446 0.029842284 -0.062178604 -0.033713385 -0.034883786 0.03302117 0.0045709843 0.04526921 0.017674023 -0.06837528 0.060088903 0.06724254 -0.07821409 0.049829725 -0.060442083 -0.015233987 -0.07520787 -0.06783775 0.036090065 -0.02769238 0.038000505 -0.004802317 -0.010003222 0.023534032 -0.02941292 -0.073874645 0.0045898557 -0.06468327 0.01725793 0.053946566 -0.07205797 0.061935097 -0.04388962 0.06407132 -0.012927577 0.010225983 -0.05169245 -0.05115806 -0.051147398 0.025781788 0.009737268 -0.030971678 0.047778722 -0.04057028 -0.067058936 -0.035662502 -0.08426621 0.04943472 0.03994085 -0.04283011 -0.049754355 -0.06464538 0.008030888 -0.031167684 0.041342523 0.060600165 0.032145403 -0.004137874 0.011513807 0.012769602 0.079073854 0.025928317 -0.044279378 0.009118049 0.04571399 0.023912737 0.02373882 -0.012861171 0.06466833 0.035508696 -0.0166225 -0.0063668704 0.04531515 -0.029363068 -0.064667046 -0.049655244 0.039495498 -0.048936438 0.02309091 -0.012038011 0.016371889 0.011926899 0.039625335 -0.055233598 -0.051459618 -0.071100794 0.031319182 -0.03347138 0.0050748675 0.04516664 -0.00830337 -0.040036093 -0.064358264 -0.044528995 -0.03960136 -0.032851804 -0.03346852 -0.079374135 -0.04566458 0.004420296 0.05876432 0.067510925 0.05081504 -0.07141473 -0.06212217 0.015221103 0.03711154 -0.032714948 0.056337275 -0.07212324 -0.0005646065 -0.01828729 -0.04973147 -0.025726315 0.0334188 0.06732071 0.04486442 -0.04989132 0.03539898 -0.022076713 0.018330332 -0.0023971489 0.01839669 -0.024354039 -0.02371416 0.030191053 -0.027798982 0.028271414 -0.08064075 -0.0420445 0.03174697 -0.00762207 0.048126884 -0.043809343 -0.05500369 0.051361106 0.026945243 -0.053176504 -0.049012084 0.072686546 -0.062472075 -0.06198934 0.0029212667 0.016759777 -0.04371454 -0.07229414 -0.0072442554 -0.038101975 0.0028533812 0.011031006 0.037759166 -0.023469081 -0.0485437 -0.022109909 -0.042335223 0.00017269127 0.059521638 -0.050470598 0.050247416 -0.056175865 -0.0069390205 -0.01030595 -0.04745446 -0.001119942 -0.014463196 0.042401552 -0.054959834 0.037013467 0.0039687604 0.038311794 0.053203404 0.02080503 -0.0066775572 0.0073961737 -0.011208078 0.028088406 0.020119455 -0.01190502 0.057851437 0.004146193 -0.024703557 0.008153794 -0.04967213 0.026197447 -0.04765793 0.03133684 -0.05278229 -0.0016737895 0.02834736 0.017391846 0.03700088 0.049098082 -0.073638864 -0.042016838 0.045662016 -0.00287489 -0.029374529 -0.016865185 -0.039748777 -0.04332954 -0.0095796175 0.025927352 0.0032636193 -0.022720208 0.0439767 0.051599037 0.064779535 0.002309918 0.060986727 -0.0014124576 0.0030961218 0.053280387 0.006824384 0.047603995 0.079351485 0.03232589 0.030522387 0.013631557 0.056045078 0.010464468 -0.07277415 -0.064618714 -0.068671115 -0.00459031 0.054532886 -0.02570855 -0.06845957 -0.008761374 -0.017724188 0.04996897 -0.0129140355 -0.04339408 0.06603768 -0.016700467 0.025807241 -0.024867104 -0.011097163 0.015050729 -0.019897107 -0.009452197 -0.07356809 -0.01008597 0.003528487 -0.040196408 0.003349937 0.013731809 0.05025423 -0.017472135 0.05798846 -0.072193824 0.04169874 -0.02823645 0.034373134 0.08146236 0.038885087 -0.060142756 0.05576744 -0.046336863 -0.034207772 0.014914268 -0.04432405 0.012583552 -0.06410389 0.05042959 -0.04920342 0.060466066 0.021651361 0.041919705 0.0012012916 0.058406483 -0.069599226 0.0368389 -0.052743707 -0.01617494 -0.020678326 -0.04331062 -0.00016675792 -0.004195917 -0.08298842 0.039988272 0.046702817 0.02990101 0.057862483 0.06208139 0.019660689 0.036277317 -0.079047434 -0.021246258 0.0037155868 0.025042623 -0.041129656 -0.04472666 -0.064827114 -0.06313719 0.020026417 -0.037517507 -0.056362525 -0.024024135 0.021411156 -0.081196345 -0.015622229 0.064594656 0.044154875 -0.029867295 0.0222286 -0.044972762 -0.075087674 0.05772195 0.005018821 -0.045930933 0.07766109 0.06286294 -0.029657573 0.003192383 -0.04348135 -0.038737323 0.0633257 -0.0291552 0.01220937 0.03626469 0.06321453 0.06096353 -0.0013768523 -0.056081824 -0.05208722 0.013613046 3.267718e-05 0.016660037 0.021717621 0.032332692 -0.074825145 0.056516983 -0.02978973 -0.033953518 0.0066220434 -0.034216188 0.0041467138 -0.014443575 -0.058768485 0.062308993 0.0028557242 0.055549644 -0.055411495 0.04612172 -0.011066521 -0.048437603 -0.07191605 0.03665679 -0.07699779 -0.060793046 0.053261388 -0.06429142 -0.03692025 -0.029424548 0.007996057 0.011853512 0.059463475 0.006120035 -0.011049988 0.04408928 0.021434871 -0.03195579 0.059014916 -0.022968836 -0.025996793 0.062885545 0.023673521 -0.02967952 0.014355385 -0.014166649 0.06852512 0.017781058 -0.049645778 0.07502392 0.062377837 0.07011548 0.016659074 0.015970556 -0.031318318 0.018089637 0.012099173 -0.015367976 -0.03884097 0.032380257 0.06535455 -0.058909412 -0.024217237 0.006585313 -0.029873183 0.033312622 0.049614668 0.016662257 -0.0048511676 -0.05176403 0.053950105 -0.04083133 -0.06582339 0.0028229337 0.02324449 -0.04288537 -0.028300747 -0.049610432 -0.059102856 -0.0036453956 0.020539846 0.0605416 -0.04249732 -0.07500748 0.036541753 0.06347921 0.011456595 0.036077682 0.025678484 -0.038840704 0.013877498 0.039170295 0.0028153656 -0.07665468 -0.055672072 -0.077274226 -0.01129724 0.049329847 0.059131663 -0.0395873 0.06422874 0.008026609 0.046522684 -0.009865336 0.012855075 0.05393103 0.060476143 -0.061104797 0.0044947295 -0.06311355 0.012541477 0.020754892 -0.051497377 -0.07389125 0.03744578 -0.078278266 0.0072920206 0.050826624 -0.060108833 -0.0321003 -0.03059794 -0.05305409 -0.01631206 -0.047120232 -0.0067150765 0.0389811 -0.074933246 -0.017625336 0.0014773464 0.043324605 -0.06339853 -0.02262409 0.016788729 -0.01999959 0.07868727 -0.05889816 -0.07876133 0.006959358 0.048784375 -0.015842086 -0.036961198 -0.022110047 0.03940265 0.033203006 -0.01318152 -0.026199697 -0.05771095 -0.06800721 -0.06142627 0.011124515 -0.044754457 -0.023189995 -0.020072408 0.019823473 0.0149246855 0.013347223 0.047533352 -0.061958972 0.0032693546 -0.048252355 -0.043353807 0.013552139 0.025758306 0.018449055 -0.03708751 -0.00718108 0.020982087 -0.06294875 0.029627653 -0.0037162043 -0.07018524 0.008965708 0.016225943 -0.046620272 0.02839714 -0.034100138 0.042318035 0.05007862 -0.053421617 -0.065716185 -0.059210557 -0.034624252 -0.042823166 0.020994652 -0.046069957 0.047237284 0.050041884 0.035634927 0.040880755 -0.053751085 -0.018015288 0.038110696 0.009176366 0.0006451038 -0.049674273 -0.006372758 0.031367157 -0.027675094 0.023693573 -0.02477972 0.02679742 -0.011391531 -0.06221161 -0.0049992385 -0.020288974 -0.006315221 0.023923032 0.06009501 0.021107858 -0.07597234 0.0038665936 -0.019110508 -0.060854826 -0.07728255 0.06268136 0.0026961514 0.047431633 0.06866009 -0.05483918 0.026255043 0.007739028 0.022314275 -0.017180437 -0.010479369 -0.037384298 0.034943722 -0.07671102 0.0009728377 0.048091505 -0.017052157 -0.06446812 0.050348256 0.0052313632 0.051786873 0.027970802 0.053831477 0.060139373 0.026823344 0.00533593 -0.006276332 -0.022173822 -0.049285736 -0.06213548 0.026770508 0.028710939 -0.050595865 -0.030811166 -0.06333415 -0.063560456 0.029721836 -0.053328477 -0.015957808 -0.047088616 0.026133917 0.012819101 -0.08121003 0.031957418 -0.025479723 0.0015618599 -0.04307026 -0.034001328 0.00076446834 0.0118374005 -0.04085847 0.001210063 -0.076544724 0.0019182976 0.0016271056 -0.054005146 -0.04361424 0.0070615583 -0.012627523 -0.08217705 -0.048677485 -0.057830088 0.059102695 0.0035613556 -0.07870698 -0.012479785 0.014497859 0.043957256 0.04422526 -0.081594095 -0.08436975 0.019567557 -0.0785656 -0.067674965 -0.07852786 0.002029013 0.06738708 0.05543487 0.03148363 0.041125346 -0.06339451 -0.082030565 0.057089586 -0.05094383 0.009804808 0.05924773 0.054002948 0.0029017557 0.011184808 -0.07451073 0.020517448 -0.072726354 -0.045422077 -0.05894982 -0.041394144 0.0011150076 0.05252673 0.052072797 -0.01872856 -0.0032319573 -0.0043524313 -0.040450785 0.008470847 0.00092515105 0.065406576 0.034707606 0.043890648 0.04622243 -0.08225418 -0.06433985 0.035071254 -0.05068929 -0.045359094 -0.017469341 -0.042289656 0.008810315 0.029650887 0.026208742 -0.064461835 -0.06035448 -0.04205803 -0.013839446 -0.08561559 -0.022634225 0.04345139 0.031608384 0.003052507 -0.042963404 -0.017990801 0.022628648 -0.032851648 0.014288929 0.004108769 0.021730857 -0.06764865 -0.030361325 -0.07005026 0.051475946 -0.02941632 -0.069369435 0.035275437 -0.012057665 -0.042032953 0.0074957153 0.033572126 -0.033274285 -0.061821114 -0.047920037 0.032653842 -0.014570858 0.03937044 0.0038828321 -0.042842362 -0.03981988 0.0008309716 -0.0760512 -0.001997021 0.034110002 -0.0118017765 0.048023537 0.045628253 0.012354299 -0.058655452 -0.008583766 0.038272295 -0.064391635 -0.022005966 -0.015438711 -0.08698748 -0.039200485 -0.07539684 -0.058016274 -0.028266778 -0.025478667 0.04737671 -0.009132181 0.004434072 0.028545791 -0.05337082 0.012605516 -0.058470022 0.0025281443 0.04547656 -0.05025564 -0.042488016 -0.042131037 0.016543929 -0.0021644346 0.02583609 -0.016974833 -0.008646826 -0.028855655 0.040422313 0.029688826 0.022140041 0.0427065 -0.08818459 0.025380027 0.017825114 -0.074380614 -0.023169639 -0.008993912 -0.06989072 0.0159756 0.0068434784 0.0030949642 0.03904065 0.0090737 0.03495524 -0.005237291 0.028767038 0.043356296 0.055816118 -0.06593721 -0.044257216 -0.027906585 -0.046695117 0.030571498 -0.0613425 -0.039458975 -0.010164056 -0.03464105 -0.056741178 0.033268917 -0.041355412 -0.049693115 0.05324742 -0.020423358 -0.107415505 0.037829544 -0.002234707 -0.060613703 0.038754947 -0.06452514 -0.035648346 0.06239581 -0.012387801 0.04550942 -0.013183497 -0.054194916 -0.027400803 0.03467809 -0.05355441 -0.082199514 -0.07614196 -0.051102646 0.005359057 0.07609904 0.009137856 -0.010096054 -0.06617304 0.07185035 0.03451332 0.011234228 -0.09121471 -0.01324625 -0.07368635 -0.11171906 -0.10105067 -0.06471281 -0.07939488 -0.035167467 -0.09043472 -0.030877603 0.023076342 0.10355202 0.007252696 -0.06269638 -0.020407604 0.030098727 -0.07648436 -0.06866625 -0.047125306 -0.07450063 -0.020189919 0.057413936 -0.013111217 0.05082977 0.08419246 -0.042945903 -0.073091134 0.021801198 0.045410864 0.012082713 -0.03779082 -0.06678609 0.044401776 0.03470601 -0.0365085 -0.06437027 -0.043238726 -0.030897157 -0.01071025 0.02575552 0.045615997 -0.05779278 -0.04714671 -0.018430362 -0.033348776 -0.0026382585 -0.065822214 0.056165766 -0.0099989055 0.020152729 0.07585361 0.011792139 0.02845374 -0.048925437 -0.03592774 -0.051569622 -0.03913272 0.032592278 -0.05208974 0.043953862 0.032553483 -0.024912272 -0.06444311 -0.073544584 -0.033374324 -0.043821573 0.11644378 0.014605108 -0.067210786 0.010937728 -0.0077936035 -0.037180644 -0.068498 -0.04803205 0.01298737 -0.01839485 -0.016633648 0.047151443 0.042707544 0.0016315341 0.0049353847 -0.07118314 0.004412598 -0.07041445 0.027136272 -0.08397669 0.020518085 -0.07115322 0.00900177 0.015303672 -0.026276879 0.022944327 0.03315376 -0.024207728 -0.027598642 0.048953827 -0.031150563 -0.07282445 -0.023930283 0.052631818 -0.09008085 0.025002562 0.03473411 -0.09545109 0.036805384 -0.03193165 -0.029917017 -0.07813194 -0.09548104 -0.092370115 -0.01641887 -0.02141048 -0.0073509985 0.043448627 -0.038464695 0.0041360143 -0.07595657 0.035903186 -0.07534095 0.039221834 -0.05460273 -0.04614641 -0.0767669 0.020512216 -0.008805036 0.020449044 -0.08296224 -0.06433066 0.038627665 0.061545186 0.0072729522 -0.022272527 -0.044454306 0.009070269 0.033786308 -0.094753556 0.025697263 -0.03822979 -0.0014866324 -0.061143924 0.0059329816 -0.029545642 0.084127866 -0.0313111 -0.08191698 0.07463809 0.010989878 -0.00954588 -0.0076055005 0.052853383 -0.045689374 -0.037467655 -0.037535276 -0.01830839 0.01498466 0.07164885 0.04324489 -0.04362259 0.017711759 -0.08176236 -0.048016798 0.0549096 -0.028721958 0.022919752 -0.070478834 0.025433596 -0.080208406 -0.07608183 0.04978607 -0.06347368 -0.023980288 -0.0076789255 0.053587086 -0.07446153 -0.0025164168 -0.06485113 -0.039866116 0.023750784 0.067702785 0.039111666 0.014640232 0.038632218 0.0647671 -0.011210056 -0.03933857 -0.038421873 -0.015641296 -0.061835367 -0.062793285 0.017843794 0.04968047 0.030543573 0.02902224 -0.035118263 -0.02275113 -0.06600364 -0.012495053 -0.004446347 -0.005961957 -0.052871805 -0.01681566 -0.09382451 -0.009519167 -0.048054133 -0.034355883 0.044846665 0.019856412 0.043823164 0.014980223 0.036573615 0.026945766 -0.020404322 0.067394115 0.053449377 -0.028597726 -0.0058521605 -0.071793884 0.042069323 -0.055556234 0.004997307 0.033279255 0.049691685 0.06933884 0.007587638 -0.0077855615 0.028856393 0.0276116 0.031860035 -0.08443583 -0.0018717445 0.02027069 0.032788698 -0.073257625 0.017587047 -0.0010343023 0.062382665 -0.017022626 -0.07007066 -0.027591333 -0.048315976 -0.025217623 0.042733923 -0.08388219 0.0115201315 -0.0016515076 0.056817386 -0.057398386 -0.007662335 -0.06571761 -0.06901722 -0.043241095 -0.022500163 -0.035483904 0.078084745 -0.017092958 -0.02465789 -0.08318252 -0.057698026 -0.08818409 0.041602515 -0.09403357 -0.015533796 -0.05785604 0.02255709 -0.0086110085 -0.0075088493 -0.017207209 -0.072870374 -0.047111385 -0.0073341387 0.051247004 0.017244585 -0.05956894 -0.0029484055 0.008444481 -0.053140894 0.008164354 0.06432925 -0.00870704 0.060077615 0.009639549 0.10275267 0.042952072 -0.030414727 -0.09932152 0.07366571 0.0370974 -0.10542879 -0.060020246 0.02229499 -0.07245456 0.018367728 -0.04730843 0.022428151 -0.059835877 0.019517954 0.025773074 0.044769343 0.016277507 -0.0647546 0.02958233 0.012433915 -0.10067783 -0.05930644 0.039690025 -0.025021054 -0.018748486 -0.062341824 0.02849976 -0.043612797 -0.043618485 0.008530151 -0.072276264 -0.023551539 -0.06541386 0.066441745 -0.025328312 0.04538483 0.023699244 0.045157596 -0.07984794 0.0666964 0.033846915 0.025779247 -0.047793012 -0.093291305 -0.0009958093 -0.10337577 -0.10723639 0.00073692703 -0.10378437 -0.10121579 -0.10395301 0.028486187 -0.0611398 -0.08375223 -0.020667303 0.07756479 0.009345708 -0.030843142 0.028425472 -0.069584616 -0.084431425 0.053788513 -0.016467817 0.028390627 0.025450813 0.023414655 -0.03392373 0.046314992 0.04860716 -0.06303033 -0.07088411 -0.06981458 0.0432537 -0.06483763 -0.11352174 -0.019900363 0.017787486 -0.016663726 -0.010771404 0.03913793 -0.054905355 0.047317803 0.11104054 -0.01603259 -0.04349821 -0.020214606 -0.050109614 -0.0061561726 0.053396925 -0.063150935 0.0014106187 0.029431053 -0.045348402 -0.03775102 0.024749244 -0.038310118 -0.027222367 -0.005812026 -0.10104618 0.054771364 -0.09462378 0.014551912 0.022586646 -0.02423828 -0.02058199 -0.049104244 -0.04167337 0.02949373 -0.056102633 0.018701259 -0.06497485 -0.016012587 -0.08459362 -0.07204712 -0.014849319 0.012948635 -0.024590125 0.00602898 0.03489133 -0.030048722 -0.04825342 -0.018437821 -0.038555678 -0.016812775 -0.04737704 -0.050322954 -0.036035426 0.054233003 -0.011835375 0.019722648 -0.08333243 0.0035948206 -0.018786542 -0.10892097 -0.06284425 -0.07138008 -0.01800119 -0.022031961 0.035487603 0.014724293 -0.050314847 0.018905189 -0.009216356 -0.06948543 -0.038567647 0.0346677 -0.0019992234 -0.06752658 -0.052592307 -0.016741406 0.05467497 -0.077782445 -0.0629272 -0.0050155013 0.024099125 -0.08613713 0.022644253 0.055661622 0.053983558 -0.053490166 -0.039197013 0.0182627 0.039377004 0.009046435 0.049981516 -0.06828509 -0.01737155 -0.0042457688 -0.019814199 0.017978862 -0.03495504 0.023110881 0.010455967 0.047341187 -0.05553365 -0.006966849 -0.004912729 0.051241633 0.010328425 0.0382022 -0.10692715 -0.015982542 -0.07055604 0.031284623 0.04735366 -0.08197211 0.04989727 0.0291999 0.028089987 -0.013560245 -0.060518634 0.029314373 -0.078439035 -0.055996884 0.03262285 0.0048229294 -0.022264557 -0.05343772 0.034602284 0.041523736 -0.010569893 -0.018349588 -0.07382618 0.063902445 0.049673036 0.020856837 0.039644968 -0.09431608 -0.029920941 -0.086329676 0.049934693 -0.07619504 -0.0048093377 -0.041029703 -0.075641416 0.029958172 -0.009862236 0.05176328 -0.06513617 0.056137048 0.029715527 -0.009130378 0.007522582 -0.0056317016 -0.043513857 -0.063312456 -0.077324286 0.08008846 -0.0036426438 -0.08099907 -0.07793683 0.05365114 0.0008313106 -0.091835245 -0.033159435 -0.06005002 0.033459615 -0.04240474 0.033178467 -0.097630054 -0.022244215 0.00064206036 -0.06622467 0.059068434 0.040913384 -0.015807873 0.0681451 0.064821675 0.025246054 -0.034355015 -0.013158996 0.040799502 -0.06816025 0.038008466 0.0032092337 0.043777637 0.0521441 0.041944806 0.044357296 0.06855161 0.013132811 0.06715566 0.053987686 -0.077456184 0.0022832162 -0.025941981 -0.085125856 -0.04287654 -0.077001676 -0.0027274874 0.049519766 -0.0683089 0.020500146 -0.0819625 0.006536543 0.04811499 0.023449583 0.021072537 0.03645142 0.052103918 0.016809987 -0.071847476 -0.058495976 -0.03914735 -0.01526985 0.024866246 0.05441956 0.013039967 -0.09016669 -0.044780225 -0.0076387357 0.04697773 -0.05700786 0.051106762 -0.060398422 0.045108754 -0.002930777 0.050419062 0.03338214 -0.014798248 -0.05950237 -0.0583906 0.059295356 0.03731218 -0.0028785197 0.012362527 0.0057191467 -0.06785216 -0.015330598 0.0382278 0.007641879 -0.0617012 -0.006551041 -0.07219026 -0.09250906 -0.053210266 -0.037615646 -0.061149105 -0.07052825 -0.06853413 0.01691496 -0.016614951 0.012051882 -0.03611527 -0.08813385 -0.071281195 -0.039161272 -0.029157583 -0.08481021 0.007507811 -0.094293416 -0.100416295 0.006019924 -0.101290956 -0.072558954 -0.05432068 -0.110244766 -0.07565595 -0.034923907 -0.018050253 -0.032477245 -0.033748556 0.0072379573 -0.08040612 -0.054737266 -0.08776998 -0.030070264 -0.050878156 0.010978783 -0.0063294005 0.017406644 -0.038861807 -0.008924566 -0.09160174 -0.096366234 -0.0012092536 -0.11365759 -0.048045855 0.01080131 -0.072624765 0.027468309 -0.087544434 -0.045022894 0.0100111365 0.058646075 0.04064587 0.010002851 -0.05420932 -0.03317594 -0.07023689 0.020554563 -0.013618868 -0.034518685 0.011538736 0.024799433 -0.07100306 0.024175122 0.0057073683 0.091684505 -0.0021468732 0.0047842865 -0.08663915 -0.07628518 -0.010225202 0.014091579 0.009474116 -0.08332721 0.01952863 -0.03004367 0.0946939 -0.02195991 0.039383918 -0.08268157 -0.04590333 0.017138246 -0.099681474 -0.058472738 -0.07930313 -0.0696437 -0.04920502 -0.016412612 -0.06378212 -0.0431373 -0.037522424 0.044260766 -0.14233272 -0.06975809 -0.012615305 -0.029385041 0.0059610098 -0.056189284 -0.049615428 -0.012316561 -0.010156 0.051233206 -0.02631898 0.036145866 0.047385015 -0.030980606 -0.01964887 0.034161124 -0.055387553 0.084853195 -0.013025719 -0.062791795 0.015476917 -0.06195202 -0.015614818 0.077314734 -0.06439393 0.0017939148 -0.036417503 -0.083159134 -0.098793 -0.05229597 -0.023277216 -0.07859301 -0.02632697 0.016889505 0.036924224 0.08424869 -0.043825485 0.08505169 -0.048973083 0.062023595 0.16853206 0.07672333 0.0661795 0.09649611 0.035523243 0.07825314 0.07020656 0.021716543 -0.03465708 0.043895602 -0.03144901 0.040800076 -0.022275196 -0.040359598 -0.020606423 -0.024491102 -0.06374147 -0.06615294 0.014497655 -0.011786264 -0.040846974 -0.0034208472 0.09900562 0.051409375 0.045153037 0.08721421 0.123196386 0.100679606 0.17810933 0.20084582 0.20871708 0.07115561 0.1517998 0.09052127 -0.011840071 0.07890216 0.0052177194 -0.032370757 0.0042237295 0.0896749 0.03237774 -0.053574022 -0.07722583 -0.054919686 -0.05578796 -0.010028879 -0.03437681 -0.07979688 -0.005119738 0.022456402 0.04678163 0.09533187 0.13082278 0.0781214 0.03379918 0.06718559 0.012408366 -0.044096652 0.24431953 0.3264821 0.3016515 0.2302971 0.15737109 0.12156537 0.04130286 0.016014125 -0.052759472 -0.06987544 -0.043556325 -0.07953419 0.029714594 -0.13498373 -0.07687231 0.015496777 0.06550411 -0.034776643 -0.037864115 -0.0037377728 -0.0007822311 0.08929563 0.05688016 -0.0010883643 0.069943115 0.058215123 0.019202266 0.29806957 0.44695246 0.48399132 0.37340143 0.20056403 0.22227092 0.066273525 -0.07694182 -0.10890992 -0.09584952 -0.13176923 -0.09685955 -0.06453263 -0.052489374 -0.09053435 0.042613022 0.006928244 0.0066018933 -0.037083015 -0.02816769 0.014492448 -0.0002692216 0.08645211 0.09043012 0.07472381 0.03628433 0.078398675 0.15051474 0.39585176 0.4377258 0.36077327 0.20412649 0.09020387 -0.051833276 -0.22472934 -0.17626885 -0.24529156 -0.31435674 -0.25260723 -0.1732287 -0.024737548 -0.095175155 -0.019737592 0.0021465311 0.016503619 -0.09752941 0.014705001 -0.15010712 -0.07410475 -0.023802193 0.06124261 -0.13829556 -0.24615969 -0.36245623 -0.4623379 -0.17826729 -0.071666144 0.15576497 0.0037953078 -0.131502 -0.40121764 -0.4763976 -0.38632914 -0.35452992 -0.3751283 -0.2742321 -0.19930264 -0.18004298 -0.10305165 0.01712021 0.012745926 0.021118112 -0.0078018866 -0.098407894 -0.07006084 -0.09430451 -0.05234614 -0.0011599548 0.023376856 -0.110479236 -0.59143233 -0.85774285 -0.8367553 -0.8780835 -0.6017353 -0.5252978 -0.5374409 -0.6748906 -0.70280915 -0.6569665 -0.40259883 -0.2913912 -0.21743418 -0.22739574 -0.272577 -0.00023456421 -0.040612746 0.032138612 0.0071021435 0.035277084 0.035929784 -0.080721945 -0.14582881 0.018158378 0.0051290393 0.052212108 0.030955631 -0.11606434 -0.45059463 -0.5551482 -0.6442408 -0.62468886 -0.42293024 -0.22358896 -0.1815518 -0.290304 -0.40940815 -0.31573948 -0.41666734 -0.14304112 -0.035012305 -0.02700971 -0.09672849 -0.0380016 0.006021883 0.037607327 0.014833625 -0.008373286 -0.099071994 -0.012938203 -0.11563219 0.041262135 0.06344666 0.062659994 -0.06535755 -0.08238735 -0.17377476 -0.18728872 -0.2768164 0.12271577 0.38543904 0.4435424 0.50396305 0.34901297 0.09072516 0.03712335 -0.035028152 0.0033322752 0.11248503 0.1297018 -0.02795058 -0.0008887027 -0.002876818 0.031828355 -0.05890773 0.008205337 -0.08336691 0.017043725 0.017167723 0.073898755 0.044358194 0.05027826 -0.04810612 -0.04347425 -0.109316915 -0.049989015 0.24448127 0.4408373 0.5816045 0.64484537 0.501309 0.38919637 0.27360046 0.2750605 0.12543729 0.036825206 0.077902734 0.13999079 0.03781659 -0.06881641 -0.017647123 0.0041094194 0.037882008 0.03183782 -0.03386338 0.03447243 0.08193378 0.08011124 0.06288108 -0.05777527 -0.13367966 -0.025089774 -0.080993935 0.03381072 0.2926773 0.29190248 0.49716058 0.20818506 0.25125024 0.19720209 0.1596146 0.15547124 0.0518472 0.19297394 0.09347122 0.14684363 0.06935989 0.012731946 0.0056511946 0.024537224 -0.042963594 -0.005744459 -0.005898026 0.032149646 0.02856935 -0.013374054 -0.062974855 0.028202347 -0.021640796 0.050404545 0.038503528 0.15272671 0.42199168 0.31179535 0.2419529 0.13527143 0.15042074 0.059920236 0.16432022 0.24511144 0.15610503 0.07623278 0.055981092 0.06096719 -0.0021091092 0.07114015 0.018333165 0.007876987 0.01712484 -0.035539612 0.05714372 -0.042279936 -0.060460996 -0.0027869372 0.0073855272 0.01993075 -0.028230667 0.05350632 0.28998542 0.14831796 0.20591667 0.4285913 0.28179997 0.1408321 -0.009233069 -0.124970935 -0.087183595 0.21368755 0.19051203 0.15492782 -0.016560432 0.063738585 0.015006408 0.047662817 0.031242605 0.024720196 -0.021453114 0.0013851395 -0.008425531 -0.0072726985 -0.048678894 -0.13201612 -0.10020712 -0.04362736 -0.0068429955 0.17865223 0.34289804 0.41447094 0.23069774 0.3043702 0.12972906 0.068828896 -0.059020326 -0.22988312 -0.1008187 0.10709665 0.11991144 0.12249091 0.11234425 0.03470758 -0.022120602 0.02027053 -0.012972632 0.036626417 0.033983167 0.008003577 -0.14388795 -0.0029061146 0.11878142 -0.1399297 -0.10464468 -0.050216928 -0.10344858 0.1126737 0.47454128 0.29622263 -0.035644688 -0.0275415 0.091684714 0.076281115 0.007736674 -0.23584378 0.073626064 0.10217695 0.15853152 0.14955245 0.035418574 -0.08277767 0.07114477 -0.021360956 -0.016314752 -0.06064896 -0.052989755 -0.06174176 -0.08687565 -0.032081645 -0.042378403 0.052120775 -0.08507167 -0.08052162 -0.06809178 0.08487577 0.4258123 0.30567294 -0.14831948 -0.19200556 0.02690445 0.18888071 -0.0024997753 0.11138809 -0.04871304 0.07599307 0.18515758 0.17223395 -0.01548848 0.010622765 0.07801724 0.00081433484 0.013848224 0.04510586 -0.0421344 -0.006650524 -0.004546872 -0.0077553345 0.0969361 0.054300677 -0.0548528 -0.06818708 -0.004445986 0.1347376 0.21397062 0.22023027 -0.22728649 -0.09335434 0.17088856 0.25111076 0.07754267 -0.019659765 0.021368947 0.041592162 0.066015705 -0.07132743 0.058008928 0.023090666 0.04559419 0.022575183 -0.061341777 -0.053137712 -0.03176237 -0.0067049544 -0.076014824 -0.05187982 0.018345213 0.05597044 0.011288557 -0.08537959 0.0295572 0.0544541 0.23406926 0.1217821 -0.02246084 0.18303141 0.23842122 0.22673339 0.28406042 0.03552052 0.100224145 0.10658162 0.07969435 0.04190445 0.056966767 0.031042406 -0.035190035 -0.08231134 0.021463154 -0.058681067 -0.07291343 0.046558924 -0.055668604 0.020988392 -0.047099706 -0.022321608 0.013753081 0.022198586 -0.025971403 0.016811928 -0.041360993 0.025872326 -0.09082771 0.08404449 0.1670423 0.093561664 0.10545155 0.0523696 0.055148438 0.00068788126 0.033361606 -0.030628124 -0.048585307 -0.0068153213 -0.0443298 -0.020931264 -0.10619506 -0.042665053 -0.0101587 0.037178725 -0.03721747 0.06030111 -0.047573708 -0.02980367 0.004447666 0.005822232 0.050520714 -0.03973037 0.071809836 0.097658634 0.052282866 0.08804349 0.2649506 0.19299997 0.18828627 0.11972856 0.03147447 0.07612087 -0.010774447 -2.3003318e-05 -0.021697279 -0.071413435 -0.11184692 -0.011584102 -0.044403438 -0.016578699 -0.047338124 -0.05231556 -0.0028529044 -0.015554392 0.028923126 -0.077401996 0.005736916 0.021768205 -0.098299526 0.03151324 0.046980444 0.082704715 0.04280212 -0.03297293 0.08011342 0.15702862 0.10480687 0.027068567 0.031975605 0.075582795 -0.03719419 -0.0007694693 0.047972374 0.06515122 -0.046618383 0.03982554 0.037576903 0.032229856 -0.049800843 0.013206813 0.07203868 -0.09021587 -0.13991603 -0.053221796 0.006394668 0.06844449 -0.025063585 0.028426103 0.09266908 0.06976334 0.06696162 0.04571985 0.09124515 0.14520009 0.049387094 0.018551107 0.06028456 0.0062322165 -0.0032367685 -0.041313984 -0.020088142 -0.026749764 -0.018939912 0.022765493 -0.027327457 -0.028540354 -0.098899946 -0.053462636 0.010838216 -0.06980815 -0.04489644 -0.07839598 0.0457919 0.05002016 -0.016656276 0.05922485 0.16667159 0.12824053 0.029152034 0.008882512 0.060447942 0.028203862 0.07847201 0.031151675 0.11644476 0.13414153 0.006620584 0.021060815 -0.120503366 0.043478943 0.005447369 0.039381403 -0.03463224 -0.057122074 -0.028058263 0.039736707 -0.13430901 0.022242744 -0.09626318 -0.0873041 0.0066457307 -0.061731927 -0.07036119 0.060124096 0.03225979 0.09815642 0.17797689 0.17972587 -0.014103658 0.014311905 0.039421547 -0.016825285 -0.0017764244 0.016337134 0.0011869421 -0.007947628 0.002373021 -0.035670158 0.037742995 -0.013595469 -0.07609769 -0.030551061 0.018224062 0.0038538456 0.015943447 -0.08853412 0.0026096925 -0.039275773 0.0103106275 0.04147936 0.050809942 -0.06712279 0.085099 0.032246485 0.05769766 -0.074678026 -0.016245982 0.038635626 -0.0601158 -0.033604957 -0.007033336 -0.02178639 -0.014250143 -0.0024244285 0.026542278 0.0163696 -0.010894862 0.0017571365 -0.024637477 0.013393139 0.014294827 -0.02497372 0.030459834 0.07467764 -0.0616962 -0.007103393 0.05164305 0.053971004 -0.052844588 -0.096909866 -0.013360058 -0.008867341 0.007865164 0.008494518 -0.007257129 0.041064892 0.03592282 -0.042733062 0.040865276 0.08834585 0.047886524 0.019119514 0.03685194 -0.019856116 0.041306745 0.05945753 0.0013934763 0.062864825 0.025631424 -0.07164709 -0.08029475 -0.054151155 -0.037685536 -0.06667998 -0.036819395 0.053880442 0.0455401 0.014933987 0.016653271 0.055332985 0.0041500786 -0.012808515 0.053840075 0.025278976 -0.014291644 0.07164363 -0.031933293 0.017919699 0.072659545 0.0044200714 0.030826252 0.015662445 0.012470511 -0.061634503 0.004484868 0.037509378 0.036524992 0.036550388 -0.040810782 0.006796739 0.026498705 0.009383067 -0.012904454 0.06765232 -0.011331288 0.045408987 0.08990931 -0.023153886 -0.018757386 0.037332326 -0.03901857 -0.069960296 -0.12829526 -0.021664318 -0.042478874 0.013558726 0.029345622 0.04365433 0.006667414 0.052889273 0.002832496 0.08678734 -0.03658051 -0.00073773565 0.015616725 -0.060798228 0.0023154025 0.06500257 0.043612324 0.0065411567 0.05311942 -0.04761954 0.095238 0.09676917 0.05677971 0.012686896 0.009644218 -0.089406036 -0.13941658 -0.060865875 -0.12315007 -0.22699761 -0.13319527 -0.13085707 -0.076396555 -0.017397216 -0.0009520848 0.02750731 -0.08674566 -0.008804323 -0.073760085 0.05609128 0.042609863 0.104055196 -0.014209113 -0.01559886 -0.052783255 0.012523946 -0.07672292 0.11800112 0.06946345 0.033988077 0.023472155 0.0842392 0.09283012 -0.030179622 -0.08307962 -0.13208681 -0.21934158 -0.30737916 -0.3450028 -0.25901204 -0.17805372 -0.09935635 -0.026751535 0.0058085322 0.0068718055 -0.010159488 0.035775628 -0.008395122 -0.040344533 -0.011588207 -0.008378139 0.02605 -0.042170107 0.005524522 0.06991744 0.062623434 0.0075585707 0.065287046 -0.039075173 0.030992867 -0.03227931 0.026448382 -0.0665586 -0.16005349 -0.26146632 -0.32024306 -0.36331978 -0.36255622 -0.1857949 -0.13024826 0.07072089 0.016326759 0.010481161 0.014953863 0.022417309 0.07897801 -0.01193006 0.011460519 0.006121683 -0.007018352 0.06855308 -0.027669692 -0.009217862 -0.007253142 -0.020262523 -0.11262008 -0.13379315 -0.016399357 -0.21865724 -0.1915756 0.012260737 0.049944714 -0.077372395 -0.30829138 -0.3440184 -0.40106383 -0.23537712 -0.097231306 -0.07482186 -0.047164597 0.012185057 -0.026177201 -0.005314758 -0.004541971 0.008444596 -0.08184386 -0.0052378257 0.00044355175 0.04313376 0.001982244 0.03738045 -0.035375774 -0.043035675 -0.15367965 -0.2709428 -0.13421373 -0.06829676 0.033591233 0.20455585 0.34776625 0.01719916 -0.51943856 -0.56214094 -0.48052496 -0.30164573 -0.1708506 -0.034442745 0.10702719 0.16609569 0.060163487 0.049189553 -0.027855847 -0.0008250262 -0.0289086 -0.028431153 -0.008642066 -0.014315881 0.14577876 0.09287502 0.1003609 -0.02394665 0.00819463 -0.046908066 0.14398572 0.27125952 0.42152187 0.6990816 0.5030462 -0.121514 -0.6463962 -0.88178706 -0.6079202 -0.39208183 -0.11202981 -0.04022941 0.13040784 0.17121698 0.056180343 0.087336764 0.016277753 -0.045219 0.025215331 -0.003787052 0.036695402 -0.003053106 0.07177066 0.21007839 0.07278494 0.1755135 0.24616244 0.29923755 0.455392 0.44634223 0.86296225 0.7592177 0.28829953 -0.5226652 -0.9056918 -0.98077744 -0.67646104 -0.30189878 -0.028215708 0.024141533 0.13516425 0.13459642 0.011805121 -0.062273797 0.010792046 0.016139826 0.004213327 -0.009932226 0.070144914 -0.0018080756 0.15761115 0.16579533 0.24877366 0.26704082 0.29474455 0.44949228 0.47146133 0.74835545 0.6070336 0.4364944 -0.08323056 -0.8089859 -0.9894076 -0.668015 -0.42682168 -0.18562174 0.008668373 0.0520155 0.15810178 0.08552401 0.048313618 0.0951718 0.013100594 0.03156876 0.08848967 0.015458946 0.070286885 0.08547433 0.19093274 0.10122666 0.22451703 0.24330156 0.38003066 0.26409402 0.4088338 0.51549435 0.2760059 -0.08431591 -0.3731753 -0.6778667 -0.64239544 -0.41302568 -0.13489711 0.016335638 0.14617121 0.14860605 0.10078481 0.06944306 0.108966365 0.05204029 -0.009908148 0.020362953 -0.06855567 -0.07858214 -0.02490877 0.019151846 0.11870618 0.09231572 0.20466767 0.22085719 0.23105104 0.12566848 0.15717658 -0.042760745 -0.2604846 -0.28457335 -0.38613713 -0.33615077 -0.39244363 -0.09178308 0.14221805 0.0915251 0.17487715 0.1693818 0.091851436 0.04786035 0.059650626 0.0021227007 -0.043092214 -0.028451344 0.0029062098 0.027430844 0.03217144 0.033292074 0.004516202 0.1059518 0.049364477 -0.026961839 -0.09666104 -0.049374823 -0.024185112 -0.2885882 -0.3867806 -0.15150736 -0.18914789 -0.32726714 -0.41794804 -0.09687774 0.06323386 0.123724125 0.14602308 0.034801636 0.11163732 0.10347243 0.023724368 -0.05734452 -0.004879557 0.0060441373 -0.039497845 -0.009793894 -0.012272125 0.033960845 0.08089616 -0.032057155 -0.09052281 -0.06658247 -0.004031654 0.07115417 0.0006884674 -0.17594612 -0.2347803 0.04732591 -0.18024415 -0.2576061 -0.16715252 0.025230447 0.0433329 0.17881562 0.08197494 -0.012962095 0.05782445 -0.033874847 0.106405646 0.06321611 0.026318204 -0.03895821 -0.1235077 0.035133388 -0.1099059 -0.099735595 -0.008924577 -0.038325936 -0.12716159 -0.1561576 -0.08780264 -0.017439712 -0.09227695 -0.16797386 -0.050115906 0.047899127 -0.07777744 -0.1155176 -0.07229065 0.007315168 0.1223037 0.13098712 0.097415805 -0.03886811 0.059391677 0.0018762912 0.110010795 0.03378288 -0.025069045 -0.0013476687 0.04045717 -0.0034411328 -0.06125763 -0.068052895 -0.09745887 -0.06670206 -0.099394836 -0.10260972 -0.15963075 -0.03181318 -0.096168384 -0.097508244 0.032750662 -0.09332031 -0.067608036 -0.06628744 0.08841939 0.04431441 0.07894664 0.07586598 -0.038823288 -0.046975773 -0.020548541 -0.05789912 0.08924907 -0.052283686 0.025683384 0.042174485 0.04658962 0.004072007 -0.037092708 -0.009260653 -0.0507207 -0.11729977 -0.07034437 -0.07410764 -0.0053760717 0.11271927 0.1372443 0.21969005 0.08445521 -0.220406 -0.2073267 -0.10284617 0.12322302 0.0067285765 0.024183366 0.090779215 0.034362763 0.106513515 0.08281289 0.0026825697 -0.021220293 0.030748248 0.15409473 0.0043302625 0.00693378 0.04669593 -0.08564528 -0.10748573 -0.1415119 -0.06214995 -0.07317151 -0.0252185 -0.007815099 0.2522812 0.3435378 0.41530794 0.0502724 -0.045491897 -0.20697764 -0.02186744 0.041474454 0.030389804 0.19891931 0.052799072 -0.022522656 -0.009555818 0.11126275 -0.0866367 0.017500112 0.033780485 0.017671669 -0.06263746 -0.017613573 -0.02114974 -0.055830423 -0.18491915 -0.08654797 0.003601345 -0.0664694 -0.03293522 0.05595386 0.22707474 0.45867166 0.3803891 0.1393407 0.007767411 -0.027726842 0.08341121 0.12467711 0.033041164 0.07296885 0.014743458 0.08580449 -0.0022556628 0.08699221 0.049159523 0.015931249 0.096955046 0.049167976 -0.05236861 -0.009633856 -9.349246e-05 -0.050082076 -0.10717398 -0.1051479 -0.17779818 -0.20979534 0.023302764 0.062451806 0.2327074 0.2255099 0.101879686 0.018289495 -0.028583184 0.014333491 0.035312235 0.115050495 0.030839063 0.034127887 0.09087291 0.093149126 0.010593485 0.10305463 0.017163843 0.024815602 0.005696026 -0.09613974 -0.00791025 0.07533151 0.010676489 -0.005083052 -0.017341366 -0.16366939 -0.030056221 -0.1184733 -0.098756306 0.04919189 0.1802524 0.14694695 0.1908433 -0.10069887 0.15603079 0.14247318 0.057594284 0.10993702 0.05517645 0.03006654 0.1268481 -0.055786874 0.095525466 -0.06220187 -0.013374868 0.03608052 -0.0032174492 -0.022792285 0.015977435 -0.07338406 0.046975236 0.045753915 -0.11098834 -0.035089407 -0.06921469 -0.088524364 -0.12533644 -0.0015128318 0.16181906 0.13110858 0.1503706 0.124481596 0.17801629 0.103417225 0.10902042 0.09863595 0.06745885 0.09072582 0.089405954 0.13727246 0.101252675 0.016228314 0.021453094 0.009965331 0.0015325571 -0.0872598 0.016000696 0.108763 -0.017895814 -0.03603629 -0.04036036 -0.046168704 -0.13531378 -0.096301906 0.007132456 -0.07730898 0.088612065 0.12755084 0.033612046 0.11369577 0.19740728 0.23074706 0.020303315 0.036423188 -0.014460955 0.070687614 0.04915646 0.05279426 0.040050134 0.05475715 0.023048773 -0.029235344 -0.024204161 0.028186055 -0.042361263 -0.08034311 -0.00047854654 -0.020670263 -0.01728152 -0.062386822 0.007378068 0.0262633 -0.10024393 0.020110188 -0.025878148 -0.042854708 0.018790144 0.020421274 0.15754883 0.10733792 -0.0030213287 0.055642556 0.05994778 0.049649145 0.0008318773 0.050517436 0.08332166 -0.056504685 -0.00046438334 0.06671258 -0.03923379 -0.016580408 0.018519778 -0.030976957 0.07135745 -0.008023763 0.062882714 -0.08045717 -0.028772442 -0.026062805 -0.068091735 -0.084604785 0.0005365665 -0.13862465 0.042550474 0.06479431 0.082480036 0.041564777 -0.006614028 0.09960682 -0.011543525 -0.04893858 0.041916914 0.020295484 0.0029776953 0.028468018 -0.06322433 0.03802999 0.05245906 -0.045176193 0.0055339504 -0.028925113 -0.008239746 -0.00826862 0.057079114 0.020823425 -0.026272314 -0.019792063 0.030054478 0.08317008 -0.043968797 0.01303002 0.07721788 -0.025264211 0.037096046 0.095058605 0.041171573 0.054128133 -0.0072096665 -0.00028725356 0.013207618 0.0034312909 -0.07103375 -0.024869392 -0.028136486 0.103130214 -0.00062844955 -0.009770869 -0.07610321 0.005853947 0.06772784 -0.019429917 -0.01983543 0.096236445 0.032718454 0.03424367 0.007482176 0.0075439936 -0.050455216 0.0009642016 -0.04282076 -0.0023139117 -0.069425546 0.033150136 -0.0007252455 0.021223594 0.0076688607 0.061093625 -0.031256646 -0.030646713 -0.048629805 -0.02853882 -0.023290081 -0.05482558 -0.03519094 -0.0072861644 -0.098481484 0.04043473 -0.026292622 -0.014476448 -0.08593654 -0.034854356 -0.022656428 0.07754817 -0.028420635 0.09479196 -0.0645498 0.044245165 0.00047224836 -0.08103429 -0.05274994 0.0016985603 0.06945664 0.041272145 0.09521033 0.09337067 0.006951352 -0.035837803 0.08172617 -0.034581974 0.019413298 0.021173723 0.048103243 0.0326465 0.029759638 -0.01687917 0.037455905 -0.014461309 -0.035340704 -0.004688706 -0.015440867 -0.022256391 0.02511507 0.0108298855 0.059767913 0.014342927 -0.025449945 0.004581921 0.05350784 -0.04071862 0.017700767 0.08755954 0.085375704 0.018979367 0.08877545 -0.007153428 0.031983767 0.005500613 0.048524898 0.11311727 0.013863623 0.088124596 0.0020653096 0.02256864 -0.04408688 0.09200879 0.027044702 -0.0066355267 0.02697551 -0.0676823 -0.02397777 -0.026000498 -0.07071381 -0.016874652 -0.034987472 -0.06849337 -0.0029856295 0.13351917 0.135326 0.06806077 0.00718239 0.051766887 -0.0010392395 0.050692607 0.043127146 0.104340255 0.02833809 0.019389158 0.031229978 -0.0005452635 0.06029254 0.11415587 -0.025207862 0.07167299 0.07804946 -0.017936874 0.009455025 -0.12171178 -0.15418431 -0.075203046 -0.17445554 -0.28748682 -0.18058886 -0.14092687 -0.06905083 -0.004820856 0.013634344 0.0399689 0.06316941 0.0035014015 0.0515157 -0.047516603 0.0061214734 0.006785606 -0.049707472 -0.010650567 -0.031287316 -0.02557972 -0.002954707 -0.041632216 0.02921762 -0.045330483 -0.017953346 -0.053421874 -0.0014963438 -0.11567959 -0.2376659 -0.24048707 -0.38762522 -0.3986806 -0.4494202 -0.42676252 -0.3136827 -0.3208734 -0.21541035 -0.19391848 -0.06534227 -0.091775246 -0.04265378 -0.15250467 -0.17219092 -0.1067297 -0.10413722 0.069013104 0.066894144 0.04399713 0.053651128 0.091390155 0.12073569 -0.07212065 -0.11397738 -0.013735202 -0.18628527 -0.20268074 -0.26268744 -0.1829914 -0.3578214 -0.33364242 -0.43336454 -0.40162364 -0.36425576 -0.26360694 -0.10566719 -0.18555482 -0.1780133 -0.06499883 -0.1571716 -0.060210817 -0.13447176 -0.21978931 -0.1546738 -0.099366345 -0.043626223 0.043978035 -0.08139869 0.008121055 0.03336741 -0.009855651 -0.022298854 -0.17305903 -0.11187631 -0.19754452 -0.1128244 -0.16489531 -0.088368066 -0.0024132335 -0.04736816 -0.13303879 -0.11332592 -0.12781666 -0.08295966 -0.19852991 -0.24260524 -0.19077562 -0.09781238 -0.11179927 -0.14036691 -0.048848126 -0.10233605 0.03804827 0.031759534 0.0329125 -0.03705077 0.010747903 -0.037315063 -0.05356635 0.004348544 -0.12351546 -0.11860961 -0.15818773 0.012312847 -0.0367418 0.077817634 0.19673862 -0.08224825 -0.10672308 -0.31135136 -0.26639798 -0.20641434 -0.21442822 -0.2518894 -0.1939871 -0.0645245 0.005833219 -0.14342639 -0.019311635 -0.0064718924 -0.08584878 -0.033733547 0.01265462 0.049068406 0.06278538 0.0025914547 0.009950003 -0.013807961 -0.075719856 0.0415774 0.0143633 0.06313909 0.21597914 0.1797172 0.2620538 0.13047877 -0.21186377 -0.1963935 -0.08011491 -0.067397684 -0.04488435 -0.1709357 -0.10289948 -0.0014290346 0.012540947 -0.028800452 -0.09787694 -0.0059113717 0.038684577 0.07521359 -0.05327695 0.008692593 -0.0005538668 0.06869313 -0.044830307 0.1260248 0.037801072 0.12578651 0.16265817 0.15722546 0.2022479 0.2298401 0.17533675 0.007658963 -0.06603711 -0.00010588578 0.20223099 0.15569031 0.20830607 0.20726448 0.002799609 -0.050118502 0.12975189 0.13141124 0.115314595 -0.018298384 -0.04314868 -0.054481234 -0.027272353 0.05040474 0.06718225 -0.0029516611 -0.054539323 0.06933718 0.042986635 0.08360421 0.08322104 0.11758074 0.20400327 0.04158114 -0.069535404 -0.15014984 0.01903903 0.18427908 0.34871072 0.44005644 0.15416889 0.07302655 0.1182033 0.1448853 0.11398143 0.21046975 0.24622293 0.019382065 -0.020327475 -0.013533574 0.04659822 0.019964322 0.03879676 0.005474526 -0.013940472 0.078735895 -0.05334831 0.054866105 0.039731648 0.03309263 -0.036837164 -0.06473215 -0.14872873 -0.10309883 0.081006505 0.12333827 0.3517268 0.25045064 0.23314686 0.14333856 0.11913838 0.17089331 0.085730836 0.26377404 0.15514526 0.15407027 -0.044797774 0.07217554 -0.023783077 0.07627066 0.09242642 0.07879358 0.034949187 0.0011258905 0.07787659 0.044636793 0.14252795 0.13461767 0.004865587 0.13738018 0.047354028 0.115081236 0.12017632 0.2370342 0.3050206 0.17744741 0.11872116 0.13789107 0.04991548 0.11032101 0.12100692 0.091014236 0.12541482 0.06250908 0.081281565 0.06831709 0.0056211674 0.10642869 0.047858365 0.025395844 0.06133435 0.04851108 0.09488961 0.15013252 0.15291075 0.20624624 0.14557905 0.33725145 0.3376101 0.27894497 0.22700073 0.22288193 0.15197751 0.21946138 0.19113193 0.20439154 0.14220361 0.04359801 0.07651307 0.08167326 0.0648784 0.09712473 -0.021634977 0.15048712 0.0797046 -0.032780472 0.02071539 0.011420603 0.15580529 0.06298527 0.16685636 0.13140185 0.27389488 0.18990935 0.21926534 0.46912953 0.31476438 0.3832962 0.2834048 0.036694188 0.067046955 0.045982942 0.13499819 0.12442437 0.011893548 0.09055923 0.120495506 0.058488082 0.062589936 0.069024675 0.04023441 0.03704768 0.028771492 0.12799995 0.04866744 -0.028473422 -0.07147098 0.07731857 0.0017021243 0.17155309 0.23929574 0.29019684 0.34936696 0.4376282 0.45418036 0.26433265 0.1265342 -0.109348886 0.003326416 -0.0651925 0.07596479 0.065041006 0.16202521 0.08809164 0.020541206 0.031066423 0.04342485 -0.01990375 0.082998015 0.034333974 0.017683508 0.0063854153 0.009460437 0.027838781 0.026028715 0.022234993 0.049573924 0.1836897 0.22268397 0.26814154 0.26785502 0.20241962 0.39062175 0.2621962 0.06899753 0.08377553 -0.047974344 0.053278897 0.20293918 0.16071059 0.06394906 -0.0064761224 0.06756386 0.0760243 0.060415246 0.019307323 0.11934387 -0.009892636 0.021817157 0.056292437 0.031155711 0.05168679 -0.007026479 -0.035639126 0.0054550017 0.17214549 0.17866606 0.23939744 0.21820962 0.2064941 0.28416678 0.3044154 0.11893995 -0.15448648 -0.09486819 0.048058376 0.19180705 0.13113624 0.0838894 0.09156799 -0.032202322 0.0846053 -0.05811435 -0.033537112 -0.009504498 0.033526827 0.0056744325 -0.04334188 0.07545928 -0.08748389 0.08766235 -0.011623615 -0.031060383 0.03862092 0.054266997 0.10639829 0.10283897 0.23351957 0.17065491 -0.133845 -0.17569399 -0.28698418 -0.27716368 -0.2409394 0.053123005 -0.0013746556 -0.022595827 -0.1063611 -0.1254649 -0.08526015 -0.040818404 -0.020265196 0.063193575 0.03420863 -0.004776311 -0.06021077 0.07810556 0.06387996 -0.0071357237 -0.021314887 -0.179063 -0.008158767 -0.03210758 -0.108374 -0.062160876 0.019130811 -0.19376287 -0.27285588 -0.47443646 -0.403347 -0.48697874 -0.35132784 -0.21119842 -0.23855254 -0.14977352 -0.17842276 -0.25560018 -0.120473996 -0.025966667 -0.022285322 0.012309374 -0.039243042 0.11203254 0.013091695 -0.07542149 0.11559734 -0.031768817 -0.13605641 -0.11707694 -0.09796196 -0.1580967 -0.16826016 -0.30153602 -0.1757363 -0.2968291 -0.35253826 -0.38906735 -0.44987085 -0.5439476 -0.5481425 -0.53575456 -0.3977263 -0.2941823 -0.25630233 -0.17344163 -0.15863629 -0.16716538 -0.05171345 -0.058432877 -0.026575504 -0.045272045 0.016901014 -0.016937776 -0.033682812 0.055288635 -0.1233201 -0.13175076 -0.17436627 -0.17550354 -0.22918336 -0.30235088 -0.2965312 -0.14139268 -0.2885418 -0.25994605 -0.34571838 -0.41784945 -0.47762161 -0.51949745 -0.35446686 -0.22459616 -0.20215787 -0.15891409 -0.14314185 -0.03217683 -0.05334479 -0.013729757 -0.06392477 0.07180375 -0.030607816 -0.023906339 0.052136052 -0.014445861 -0.008252126 -0.07004029 -0.07858637 -0.073220395 -0.17370822 -0.27008376 -0.046512455 -0.086559504 0.0390762 0.036883347 -0.083694115 -0.20826194 -0.25121936 -0.2949205 -0.2812232 -0.17538506 -0.22422966 -0.04567793 -0.021051427 0.00619319 0.0016034156 0.011632191 0.1054156 0.102442734 -0.050979726 -0.023650963 0.081248805 0.030224692 0.026493011 -0.0028664027 0.009347907 -0.009829807 -0.099223115 -0.019189823 0.17764863 0.18562625 0.16134275 0.20364226 0.0932201 0.010791593 -0.091150664 -0.13741481 -0.16133587 -0.08887088 0.049123064 0.089897 -0.016843863 0.020828981 -0.004995207 0.027391132 0.06793864 -0.0003512194 -0.025362669 -0.03552359 0.027902331 -0.04108422 -0.0062067974 0.116845444 -0.015299078 0.04025492 0.06713915 0.16537564 0.15898348 0.29416487 0.31569168 0.33091673 0.1331257 0.05012352 -0.02580046 -0.07373634 0.027975367 0.10129877 0.08438673 0.08140427 0.08011976 0.017362302 -0.09551444 0.011927542 0.06889887 0.031931397 -0.024642726 -0.011990085 0.032631975 -0.025360825 -0.060626406 -0.03315978 -0.04461565 -0.038391 0.057345554 0.048504394 0.14152057 0.28650424 0.17895956 0.28929943 0.11108729 0.04348391 0.016032066 -0.07182469 -0.113640495 0.022764362 -0.00062782574 0.14727165 0.100794695 0.004723289 0.055151056 -0.014789134 0.07566212 0.027800944 0.006235208 -0.026590295 0.06722747 0.04946218 -0.026363617 -0.13079418 0.0792324 0.00028558134 -0.034238458 0.04573214 0.15142323 0.28509906 0.20525838 0.11361845 0.10062582 -0.06358538 -0.09090453 -0.04656148 0.0794372 0.13089101 0.056776475 0.029462514 0.027774883 -0.040273923 0.00451751 -0.034061413 0.009680162 0.037545018 0.058565304 -0.018023303 0.055208422 0.10612867 0.047247976 0.049675733 0.02716036 -0.020521782 -0.0092938645 0.0001419661 0.03309679 0.017806137 0.055038027 0.0695251 -0.02471088 -0.074236214 0.092729 -0.016366065 0.012108756 -0.008662128 0.06470509 -0.01023506 0.054517947 0.025150953 -0.058386523 0.02932591 0.0552824 0.024481911 -0.062849596 0.04527025 0.07979783 -0.062842734 -0.0194553 -0.019192453 0.028612802 0.06703419 0.0027224547 0.04672875 0.043501634 0.056334242 0.11615808 0.0046412814 0.030408643 0.00087861234 -0.04532863 0.010069026 -0.002162862 -0.019391747 0.002665429 -0.09722899 0.041829918 -0.04619153 0.015553337 -0.046965104 0.040827237 0.054131914 0.06817852 0.039443083 0.0065327445 0.031881034 0.059814975 0.09363591 -0.0055110604 -0.03484693 -0.020210663 -0.08333136 -0.062260855 -0.012754798 -0.01977925 0.03283726 -0.011081121 0.09406695 -0.06953379 -0.05729924 0.020074496 0.005163284 -0.016023377 -0.005817915 -0.0720715 0.007268386 0.13824995 0.04705689 -0.06984853 0.013799432 -0.005650189 0.033836305 -0.030713005 -0.045479093 -0.031858444 -0.003823536 -0.006510776 -0.009057041 -0.008234873 0.110618256 -0.05598206 0.120957926 0.015843099 0.08129405 0.10796146 -0.066673346 0.0334947 -0.0287668 -0.0046583917 -0.030806504 0.030722355 -0.053336594 0.04254394 -0.08047824 0.08104949 -0.013283557 -0.059328318 -0.025475983 0.023292687 -0.049180266 -0.04705628 0.014116603 -0.033487454 -0.03629391 -0.03396936 -0.029316243 0.109947525 -0.034439232 0.0833143 0.03985727 0.072279416 0.13497142 0.071472645 0.0522598 -0.00940695 -0.0057554236 0.045294233 0.008264344 0.04990314 -0.0029018514 -0.041827403 -0.07051787 -0.004265164 0.05666526 0.1175091 0.11310346 -0.010581545 0.028592585 0.021248935 0.03599134 0.03006498 -0.0027182407 0.0062018367 0.08238351 0.011366705 0.043304034 0.08896239 0.028660482 0.17138438 0.103356495 0.13873993 0.092209965 0.07577469 0.04363113 0.028231477 0.07240575 0.03712759 -0.01711466 0.014781865 -0.0030014021 0.037013344 0.07141124 0.045668453 0.09433865 0.0649443 -0.007237366 0.05342055 0.06824836 0.014454146 0.009361792 0.10413205 0.102456175 0.037370134 0.13916853 0.15921143 0.24836937 0.31758678 0.3176287 0.2388137 0.3625089 0.22725655 0.17099564 0.04957462 0.14184192 0.13506669 0.028284816 0.023734778 0.0012806784 0.011465555 0.07172773 -0.024007449 -0.037141703 0.014347876 0.03909662 0.057958364 0.004473341 -0.016676508 -0.05805326 -0.00025317306 -0.010693313 0.039162055 0.12769309 0.18586047 0.23724428 0.34380448 0.25389296 0.3729545 0.4772155 0.34919995 0.30519533 0.09501764 0.099527515 0.10804863 -0.044858627 0.022841081 0.03174549 -0.023953024 0.021191621 -0.03722444 0.036259715 0.06870326 0.02086825 -0.074701406 0.036230575 -0.012955808 0.044197418 -0.0612153 0.048405375 0.16809636 0.099102385 0.22716281 0.24478635 0.14319344 0.17376606 0.29149938 0.3553913 0.3032024 0.23452112 0.05221556 0.10503081 -0.017644137 0.029586418 -0.11444691 0.081460886 -0.0339629 -0.050702266 0.0478512 0.047974266 0.029537436 0.044672515 -0.023851315 -0.025324129 -0.016062327 -0.02516707 0.015631344 0.041114625 0.18969454 0.0937273 0.06152869 -0.021480052 -0.16504839 -0.11772372 0.05156695 0.16826501 0.0052011106 -0.011011247 -0.10335445 -0.10849659 0.030363118 -0.06628586 0.031217575 -0.046578508 0.038283184 -0.027798621 -0.02573145 0.08496603 0.054116473 0.05510927 0.03407119 0.034737173 -0.051969465 -0.01990076 0.07103255 0.02728457 0.04829602 -0.0185005 -0.18208891 -0.42160282 -0.40972427 -0.20129235 0.08634513 0.08562629 -0.20368902 -0.24561465 -0.25365293 -0.22028862 -0.13150473 -0.080427125 -0.07296472 0.05414836 -0.0018293997 -0.020328676 0.009208607 0.01228543 -0.05778866 -0.0013024899 0.037749022 -0.0395096 -0.006838649 0.050587106 -0.09254822 -0.068538524 0.0444341 -0.085443154 -0.30240995 -0.37091237 -0.4550876 -0.23902442 -0.002738844 -0.124288544 -0.29926535 -0.506927 -0.47433472 -0.3328065 -0.1644352 -0.05579214 -0.14044924 -0.08022968 0.048871983 -0.03449535 -0.08723899 -0.12758137 0.048795987 -0.007177473 -0.009450828 -0.05751172 0.021546766 0.0733176 0.001313702 -0.06552767 -0.06810687 0.0051841824 -0.24296814 -0.23083666 -0.11037776 0.16261847 0.22887251 0.042686924 -0.312737 -0.5812064 -0.5801409 -0.4595389 -0.26109084 -0.14496945 -0.19963014 -0.1366197 0.034600876 0.060942803 -0.045517348 -0.038667835 -0.09557852 0.050629627 0.058204114 0.07575694 0.026356712 0.030510072 0.016968176 0.025490118 0.06405477 0.027968377 0.06218939 0.06466662 0.15470071 0.39034933 0.4354604 0.26926795 -0.164474 -0.4239546 -0.5267886 -0.3558243 -0.18273193 -0.20814823 -0.22789182 -0.12859493 -0.12023573 -0.022665838 -0.069415435 -0.06321739 0.07262538 0.067176595 0.07467836 0.07997481 0.043278087 0.047841582 -0.06737187 0.09868041 0.05763847 0.09611685 0.1880562 0.32186297 0.24876057 0.39423758 0.51312375 0.45891765 -0.03968028 -0.50339305 -0.4854692 -0.40440413 -0.22797263 -0.23431857 -0.18793555 -0.27161145 -0.13556565 -0.111910254 -0.10201012 -0.0689552 0.018836353 0.098937206 0.005177528 0.010838157 0.063704506 0.020123849 0.023004925 -0.12921931 -0.008263434 0.004234992 0.27753982 0.3043878 0.14112398 0.23192547 0.42883125 0.36404625 -0.08342183 -0.5339394 -0.49286145 -0.34850964 -0.32659584 -0.1323057 -0.124068595 -0.09693859 -0.11644047 0.056727625 -0.042976804 -0.17215843 0.044634074 -0.0047328994 0.049310848 0.010688492 0.03350633 0.055959933 -0.04383697 -0.078056246 -0.046214186 -0.10042861 0.25843164 0.09003657 -0.08365981 0.21312475 0.20214087 0.06975347 -0.18839952 -0.18417811 -0.24292582 -0.2994366 -0.30884922 -0.03968744 -0.04710763 -0.10515667 -0.03004501 -0.0209101 -0.10952171 -0.06845795 0.0021873899 -0.012451289 0.06287737 0.01863974 0.005292076 0.020924611 0.05436544 -0.08709681 -0.10108536 -0.14600445 0.071951725 -0.0692676 -0.30985296 -0.14667268 -0.0370651 -0.1298786 -0.12991257 -0.27634138 -0.19616883 -0.22013284 -0.09862258 -0.11104109 -0.06877068 -0.07266324 0.0063552177 0.03444702 0.0010990294 -0.042667083 0.049436618 0.043748833 0.03217037 0.08562662 -0.06807587 -0.019625919 -0.040524397 -0.011137826 -0.017254308 -0.20042937 -0.07188362 -0.082948364 -0.26565439 -0.28554755 -0.07489397 -0.14988829 -0.26008728 -0.17233047 -0.26079977 -0.040476218 0.01605347 -0.06455069 -0.059403695 -0.03209751 0.095712565 -0.0029008123 -0.08259872 -0.02309363 -0.030522576 -0.012238402 0.059156053 0.008411497 0.13244984 0.03528198 0.01138742 0.044536524 0.06676378 -0.11229831 -0.17222607 -0.27183515 -0.2797892 -0.21524823 -0.14803797 -0.20809862 -0.20475197 -0.07430758 -0.13907309 -0.0008748757 0.1496233 0.0168164 0.05939846 0.071852885 0.013394507 -0.018792091 -0.04449926 -0.08920095 -0.046372093 0.049040895 -0.058904517 0.012024277 0.018848004 0.1084406 0.07864043 0.12340741 0.09633543 -0.14956047 -0.19905704 -0.16011184 -0.17795916 -0.14630671 -0.18942845 -0.3061513 -0.2033497 -0.18349703 0.0018618611 0.12820464 0.11778933 0.12143627 0.030599827 -0.0029983893 -0.0015754085 -0.060949314 0.027762618 -0.05275075 0.04586635 0.009591541 0.065675706 0.08773769 0.07696885 0.06386752 0.19613783 0.14505608 0.17980437 0.044593167 -0.19284195 -0.2213869 -0.12061473 -0.22195417 -0.24203224 -0.36827898 -0.3306179 -0.17811087 -0.0068402914 -0.036139343 0.17420065 0.15620378 0.015657473 -0.07440357 0.07629073 0.023208674 -0.055660382 -0.07230504 0.051871218 0.006378956 0.021194207 0.06814402 0.016637918 0.043251924 0.104475126 0.16577213 0.114669144 0.13222775 -0.049628064 -0.07700667 -0.026464965 -0.008255886 -0.17987801 -0.32176077 -0.30996838 0.05889 0.008913835 0.12825665 0.15594643 0.048890155 0.07898837 0.009509119 0.007386363 -0.008976919 -0.056251276 -0.02643081 0.03238849 -0.0070194355 0.04098244 0.049333565 0.092322215 0.015288198 0.1464434 0.12120267 0.06204176 0.062685706 0.015383334 -0.0750231 -0.07723305 -0.06277425 -0.13789696 -0.27860454 -0.11107163 0.1080242 0.1807918 0.136729 0.18162195 0.1361006 0.081490114 0.05472326 -0.052867554 0.014872141 -0.13391303 -0.027780382 0.08576745 0.03804582 0.041128006 -0.026292065 -0.009856119 0.10029893 0.054642726 0.085837565 0.03802821 0.013312467 0.042967495 -0.08579644 -0.06055118 -0.08641922 -0.13243636 -0.035773274 0.06622837 0.085414454 0.22957017 0.21135695 0.09832839 0.117484614 0.06575758 0.076798484 -0.03188301 -0.027314778 0.054308638 -0.038051616 0.036580067 0.074481696 0.038197543 -0.02980066 -0.027214993 -0.081848636 0.041637648 0.07649883 0.04289439 0.09073657 0.1516408 0.027891012 -0.005358944 0.13840686 0.077515565 0.081633426 0.03920251 0.13481762 0.22133335 0.23555703 0.11961979 0.03999181 0.063204564 0.01581842 -0.008822888 0.057601523 -0.0015562084 0.03645523 0.0013446144 -0.008748549 0.004598006 -0.01127776 0.034102604 -0.057084523 0.0001927356 0.074638 0.052538864 0.06878918 0.071938135 0.041263245 0.009210029 0.00018475368 0.07104777 0.20940985 0.11258071 0.20740306 0.23599416 0.14405678 0.029879417 0.11741169 0.019376485 -0.046898548 -0.006527801 0.05100398 0.0001662744 0.0076742647 -0.012841413 0.08143984 0.09388662 0.03847763 -0.016778553 -0.032898393 -0.00073095545 0.020061519 0.023939166 0.0664239 0.030508177 0.045876816 -0.07258397 -0.018241683 -0.071396284 0.13494317 0.042601526 0.16512966 0.16887777 0.14923412 0.10051261 -0.016030045 0.0676302 -0.043509014 -0.087062754 -0.0373777 -0.032823727 0.08294796 -0.056183886 0.028760899 0.046290647 -0.0014078468 0.009435378 0.04751271 -0.035734255 0.055324238 -0.06476064 -0.013385688 0.026301047 -0.05864572 -0.0042512543 0.01955447 0.037147846 -0.065642014 -0.027718423 -0.07156066 0.035556145 -0.0017198473 0.016598282 -0.017868886 0.027432978 -0.03604205 0.026370347 0.012936077 -0.03563617 -0.03684947 0.036480453 0.04516947 -0.00435835 0.040324546 0.015754296 0.0509304 -0.06479347 0.06644456 -0.038384013 -0.052630197 0.011802175 -0.029886236 0.039654613 0.031431038 0.03935855 -0.023062024 0.023121681 -0.0017499657 -0.069613315 -0.037965562 0.0050428775 -0.0035472705 0.034920182 0.0076727844 0.01076271 0.02678076 -0.053880297 0.06235293 -0.07701009 -0.013666449 -0.0036572139 0.061134957 -0.018889816 -0.012022101 0.036044817 0.033938095 -0.02004309 -0.060455427 -0.08000732 -0.0738505 -0.0065840543 0.066761844 0.048004005 -0.05481291 0.0059268163 0.020277709 0.069543116 -0.009556603 0.06547424 0.038275987 0.017250776 -0.06671085 -0.031242449 -0.044708308 0.043383356 0.06952895 -0.05256134 0.055390973 0.05408957 -0.011862767 -0.0800454 0.0060169427 0.0641415 0.06616034 -0.07512842 0.055790324 0.015194221 0.024824578 -0.077429 -0.07277757 0.033397183 0.03901992 0.014807649 -0.06874752 0.047023147 -0.004395476 0.027361756 0.04219561 -0.07921944 -0.078135215 0.0312149 -0.013502014 -0.06759932 -0.032927744 -0.055982094 -0.016154738 0.006169911 -0.036170293 -0.0081339795 -0.06185527 0.054398503 0.023223922 0.032992233 0.022042122 -0.0036025948 -0.01205138 -0.044918902 0.023616865 0.017752025 -0.032864407 -0.07905147 -0.03368534 -0.028475706 -0.06360683 -0.041341648 0.025894556 -0.01470746 0.04739757 0.027597407 -0.016747594 0.04685583 -0.035521608 -0.052984957 -0.003477663 -0.043453664 0.027262393 0.04898418 -0.006594461 0.057964 0.046912223 0.05296204 -2.035962e-05 0.02459323 0.045759343 -0.05869898 -0.020521408 -0.029403087 0.048496906 -0.00083344156 -0.057122365 0.0049584596 0.05055227 0.05458311 0.059181605 -0.042333934 -0.014737379 -0.054619372 -0.030630382 0.050341494 -0.04272897 0.02921075 0.029611861 -0.056173507 0.008360003 -0.055132486 -0.024029471 0.011092953 -0.079270214 -0.039654866 0.010012707 -0.028612956 -0.022257347 0.024246717 -0.04464879 0.070107296 0.049562503 -0.041250154 -0.012740875 0.07036715 0.016266895 0.06788177 0.04165422 -0.044657625 0.010492697 0.015199577 0.044288546 -0.07288814 -0.04349192 0.011314071 -0.009625386 0.0015478673 0.027651612 -0.013001679 -0.041891854 -0.018171333 -0.040755328 -0.013859601 0.017768353 0.0049243793 -0.08040088 0.010071185 0.06521924 -0.013657233 -0.028453503 0.063660085 0.042024456 -0.024768824 -0.0025211961 0.07402618 -0.064394265 -0.017698994 -0.001218063 0.04600975 -0.05148817 -0.057442553 -0.057198394 -0.01371494 0.06152602 0.052693065 -0.026500678 0.011553958 0.019871892 0.028442977 0.022683777 -0.0319252 0.039894972 0.0042178463 -0.00957655 -0.04795223 -0.05721157 -0.027917271 -0.032003883 -0.051730245 0.0118303755 -0.06867311 -0.021031525 -0.04574313 0.0202315 -0.062164955 -0.026242852 -0.026592577 -0.057722576 0.017302115 0.058280796 0.030895462 -0.019878149 -0.018400874 0.036589004 0.055487465 -0.029181771 -0.07102081 0.039747648 -0.012611636 0.024483794 -0.010331717 0.06969488 -0.004650025 -0.018704902 0.04494874 -0.038658276 0.012605979 -0.054021355 -0.011419654 -0.012711117 0.04920185 0.06934934 -0.015836231 0.07368034 -0.044107314 0.057685345 0.014185804 0.034776166 0.0311674 0.034887977 -0.005948849 0.035077807 0.02870629 0.008214596 -0.03956521 0.03027937 0.039608814 -0.04883861 0.039149936 0.003942187 0.053235833 -0.044126052 -0.027612478 -0.04132495 0.01742729 0.004105466 -0.011929995 -0.009269698 0.051873222 -0.014708102 -0.0140223345 -0.037455216 0.038730968 -0.03384179 0.048903868 0.021380397 -0.01574075 0.02434837 0.02798712 0.05369421 -0.03697326 -0.03494872 -0.038945824 0.05526076 -0.0787957 -0.0063892826 -0.01592144 -0.044630554 0.018927211 -0.059590075 0.0065375227 0.023380242 -0.06327978 -0.029008139 -0.057843838 0.048330132 -0.023979185 0.065468766 -0.0017719124 -0.021373186 0.0019402996 -0.07089217 0.024301331 0.026450664 0.031945467 -0.06723674 -0.06265315 0.027991256 -0.057746533 -0.04565881 -0.04678363 -0.033872113 0.0066128946 -0.0684818 -0.030240903 -0.07165755 0.009250436 0.049837407 0.05730166 -0.07324679 -0.03532108 0.027057141 -0.029511807 -0.0739759 0.048142955 -0.07527968 -0.039651323 -0.02673749 0.017719777 0.06836356 -0.047098584 -0.06720037 -0.025895668 0.049831238 0.0120299 -0.056251507 0.058749042 0.024138853 0.03092197 -0.06738579 0.05234173 -0.028426854 0.052510507 -0.053830177 -0.03046213 -0.02913202 -0.010236751 -0.0061590374 -0.05319735 -0.014304374 -0.014645038 -0.05628339 0.029899448 -0.071731314 0.010670489 -0.0068184366 -0.06518617 -0.05573645 -0.06955992 0.008503308 -0.008824415 0.026451396 -0.029710103 -0.07491762 -0.07257995 -0.0058220327 -0.06395358 0.04886923 0.033713926 0.043596815 0.059353065 -0.060230047 -0.04500756 0.031805653 -0.01964419 0.0048206868 0.024933638 0.046450924 -0.011088907 -0.031068886 0.05795928 -0.056543496 -0.0032860045 -0.02426348 0.042223323 -0.024899399 0.02753053 0.007122669 -0.0032876965 -0.07346993 0.040300537 -0.07275618 0.07171662 0.06654799 -0.047345586 -0.053869624 -0.021097045 -0.052090492 0.02872076 0.010876707 0.029706715 -0.017730378 0.016499095 0.03495984 0.010996743 0.011046706 0.02247524 -0.059601676 0.02415607 -0.020699158 -0.055433054 -0.04746139 -0.02433256 0.05697455 -0.05178607 -0.006491233 -0.013108571 0.035831977 -0.031549938 -0.044128582 0.03898703 -0.035787806 0.06603841 -0.049142823 -0.0043739663 0.04675 0.0022873576 -0.06217657 -0.07995599 0.008715795 0.044141553 -0.048038792 -0.01799865 -0.069151185 -0.037628684 0.05721829 -0.049986552 -0.08016377 0.06433788 0.009498927 -0.07082908 -0.0094150985 0.06502822 0.01421769 0.035437185 -0.01477157 -0.040040202 0.054253574 -0.059135824 -0.03787429 -0.061092023 -0.016592342 0.04430476 0.057867795 -0.07829984 -0.0042506885 -0.0013196606 -0.023728011 -0.07247096 -0.024804128 -0.00084458163 -0.036079686 -0.025098907 0.048376266 -0.02494397 0.043786883 -0.020150295 0.015434881 -0.053727828 -0.07344686 -0.039572235 -0.048142735 -0.008479029 0.06666778 -0.078425854 0.024964042 0.029870357 -0.017516332 -0.010302007 -0.00035075232 0.029331924 0.010400637 0.05329065 -0.049760584 -0.07332632 -0.050899122 0.07999869 -0.049419045 -0.060865056 -0.055203553 -0.056281045 0.011782084 -0.07995219 -0.032838166 -0.012607343 0.024568064 -0.009365342 0.059028342 0.044768006 0.019918887 -0.057314094 0.033444673 0.03699663 -0.07275965 0.007551372 -0.011280313 -0.03063934 0.019303946 -0.022274872 -0.024850225 0.03680503 -0.0628224 -0.059403248 -0.031140117 -0.008632418 -0.014695366 -0.058330327 -0.034290675 0.060158696 0.006603037 0.036044385 -0.03918503 0.029229429 -0.030690812 -0.020286515 0.026329383 0.053462222 -0.060072336 0.05622592 -0.06827615 -0.057833645 -0.0037736944 0.029291399 -0.032957744 0.020966891 0.012364991 -0.02116838 0.064448096 0.009726629 0.0043474315 0.051918197 0.041342612 -0.037291348 -0.07624428 0.057577547 -0.032801088 0.005222038 -0.064592384 -0.03347861 0.04370571 -0.06491111 -0.03703042 -0.07647732 0.027346043 0.050703954 -0.01715333 -0.055101 0.043905143 4.501845e-05 -0.040584527 0.0145094255 -0.06384813 -0.043239042 0.03205273 0.018338457 0.036569737 -0.03513042 -0.003646274 -0.073195316 -0.07280956 0.0014172792 -0.050132897 -0.041535888 -0.05822971 -0.0336652 0.029777495 -0.012492532 0.021409295 -0.076107316 -0.051972568 0.053355288 -0.056715615 0.05094143 -0.07064339 0.021095067 0.048201796 -0.07114173 0.010698442 0.03926471 0.023537325 0.008401238 0.05334353 0.029842269 -0.05099364 0.017927064 0.05090913 -0.06492757 -0.07989955 0.04245942 0.040121946 0.036374122 -0.025008712 -0.015825907 0.07748769 -0.06820186 -0.06013205 -0.020138113 0.06799187 -0.07243486 -0.005466006 -0.07363144 0.060997974 0.06288412 -0.03163745 0.05192405 -0.035746824 0.06687957 0.06978625 0.024447769 -0.0069682444 -0.02540631 -0.07673646 0.02585167 -0.03263747 0.027264617 -0.07480936 0.019399874 0.009507195 -0.03772632 0.0065660654 0.05440256 0.06563273 -0.06387723 -0.021109711 -0.05531781 -0.021519125 -0.0034552237 -0.061614137 -0.031251036 -0.028988196 0.048347753 -0.04563324 0.041946698 -0.060733963 -0.032183394 -0.07030188 0.0017239456 -0.020150946 -0.0013713131 0.007581742 -0.060535982 -0.044706486 0.012126752 0.022583542 0.012212871 -0.002507239 -0.0562731 0.04298078 -0.021100331 0.038853448 -0.031484853 -0.008642666 0.05474279 -0.013196807 0.023295917 0.068935424 -0.047411457 -0.039467204 -0.06708738 -0.02181615 -0.054842398 -0.072703235 -0.073505335 -0.022057064 0.045173064 -0.019716306 0.019641086 0.01497214 -0.04150458 -0.041250236 0.020760218 0.025172688 -0.05977918 -0.06626122 0.05832492 -0.040395245 -0.009239987 -0.009352738 0.065130755 0.005441113 0.039216015 0.06052595 -0.043581456 0.060420122 -0.0073364675 0.016262533 -0.059625298 -0.03234978 -0.018745814 -0.0025649415 -0.06117417 0.016034283 0.013734702 -0.07620408 0.00033146763 -0.07780913 0.003044524 0.014511451 0.011173453 -0.005370203 -0.01005549 0.048632894 -0.070041984 -0.0577634 -0.0056874435 -0.046202775 0.06749644 -0.061067015 0.044443313 0.06920962 -0.043135248 -0.037424974 -0.03678694 0.027329415 0.012801559 0.05711143 0.03764335 -0.0736317 0.014780523 -0.015621176 -0.009076636 0.0025344708 0.06269577 0.05649988 -0.04936902 0.019790124 -0.0063200197 -0.017176468 -0.048318755 -0.034019902 0.042261895 -0.05941312 -0.0020767052 -0.018876359 -0.051155344 0.0008211654 -0.024310999 -0.075259686 0.03517452 -0.02121512 -0.054803394 -0.07554482 -0.02279436 -0.07105024 -0.032228906 0.06419809 -0.029402616 -0.05406732 -0.060516376 0.052629713 -0.032193065 -0.057478935 0.0011791965 -0.05181475 -0.047048908 -0.0774907 -0.069338374 0.031056238 -0.016262973 0.065123685 -0.066345036 0.022682445 0.052338507 0.019730188 0.020884985 0.00085133617 0.06982816 0.04880614 0.014071924 0.0030563553 -0.002043726 -0.008338468 -0.05924511 -0.03758809 0.0033997349 0.04089511 -0.05215792 -0.019662315 0.07478282 0.06955052 -0.0423126 0.04215493 0.06663774 -0.037636004 -0.06359634 -0.017531034 0.028273841 0.060574204 0.024284175 -0.023958191 -0.011575202 0.041904036 -0.043801162 -0.011342737 0.003970445 0.060578935 0.008476926 -0.014670052 -0.06834593 -0.010260293 -0.01623978 -0.02816204 0.0085806595 0.03863036 -0.014964171 0.066029556 0.0630641 -0.065514185 0.063620545 -0.04833586 0.028107075 -0.031702284 0.008467935 0.052975558 -0.02006784 0.07037349 -0.026169742 -0.016590018 -0.0006597521 -0.009425828 -0.022175416 0.06388101 -0.05712405 0.046603527 -0.04087558 0.016227126 -0.068722025 -0.023869598 -0.07904509 -0.05233481 0.013949641 -0.06161513 -0.0732798 0.0006105499 0.012529029 0.004652797 -0.06012003 0.019948483 0.027055457 0.025058795 0.053896874 -0.014608721 0.06768177 0.044963356 -0.069205604 0.0462715 -0.037549336 -0.07494124 -0.0480182 -0.028632645 0.066628866 -0.04126173 -0.08172253 0.036256377 -0.0052894424 -0.022495665 -0.03801721 -0.020230379 0.0013421377 0.009688472 -0.032209538 -0.04004956 -0.049483422 0.0346979 -0.049009178 0.030680276 0.03403791 -0.042364683 -0.06660246 0.02723378 -0.073408484 0.066647165 0.060711004 0.06434899 -0.054518193 0.035994798 0.040570945 0.055657115 0.067131594 0.008040589 0.054460436 -0.056224715 0.013037923 -0.0029984345 -0.06451587 -0.07305732 0.03514223 -0.033283766 0.038335934 -0.036816634 0.0015181882 0.016616171 0.021442056 -0.0023676578 -0.030894764 0.04155263 0.0525216 0.01951161 -0.002613045 0.05333405 0.043969683 0.049306046 -0.06689767 -0.07392198 -0.03339217 -0.05303581 -0.018444553 -0.0016506257 0.0266995 -0.018752947 -0.03438701 -0.059497062 0.010411333 -0.02742876 -0.02228862 -0.014383646 -0.013269513 -0.018484475 0.0731399 -0.037343442 -0.048372507 0.048107892 -0.038156766 0.042233367 0.023601072 -0.0022895292 -0.054497056 0.07859905 -0.06563734 0.004065161 0.060289897 -0.07317185 0.045922704 -0.023238895 -0.040932138 0.058281817 -0.041801717 0.060776006 0.07141946 -0.0041486314 -0.008476187 -0.018180298 -0.031049408 -0.064688735 0.055044793 0.0034252752 -0.052649748 0.0038173723 0.017992206 -0.044872016 -0.0021341862 -0.0033324554 0.064390786 0.05603473 0.05037037 0.055637684 0.03541266 0.0064553353 -0.0018430878 -0.0061820843 -0.032597665 -0.02959829 0.07162344 0.070383556 0.030771777 -0.03785417 -0.021816114 -0.008434868 -0.030001441 0.025717748 0.014038219 0.056142945 0.02199825 0.038274974 0.04856281 0.016549885 0.07192498 -0.05212081 0.06272031 0.03512885 -0.008033684 0.04676136 -0.026049126 0.033276897 0.011051036 0.061766822 0.042080123 -0.07754655 -0.04819596 -0.00060517946 -0.02967226 0.036691498 0.047905102 0.06614947 0.0077865073 -0.047169287 -0.036747545 0.06484002 -0.060419988 -0.014877574 -0.032705545 -0.036081668 -0.047837444 -0.024191186 0.074004844 -0.033209417 0.027194085 -0.066305615 0.011072696 0.033118356 -0.047546413 0.05812554 0.046425745 0.0077279373 -0.04272606 -0.07041991 -0.033631515 -0.07851734 -0.0647742 0.04118286 -0.066203475 0.04317849 -0.015571425 -0.06540972 -0.05499933 -0.06679655 -0.07392414 -0.045280825 -0.05133424 0.053794082 0.00826673 0.027176367 0.024898142 -0.03303011 0.069129385 0.020621575 0.010237518 0.034798395 -0.06371539 -0.066968106 0.04638917 -0.00387417 -0.0088912975 0.05606563 -0.04177181 -0.03404033 0.07083849 -0.039288133 -0.052927215 -0.053923402 -0.039326143 0.014592973 0.007805799 0.027812108 0.06140583 0.014372776 0.02558598 -0.029928286 -0.06812185 0.052876785 0.05300334 0.047016457 -0.08048576 -0.0099552935 0.06972155 -0.063459836 -0.006241471 0.0006532673 -0.044803765 0.059262894 -0.011361252 -0.049838006 0.062495098 -0.0038887572 -0.035879817 -0.03690247 0.035314366 -0.022544673 0.006486317 -0.03370331 -0.060263105 -0.01140303 -0.08186952 0.04374232 -0.0026158348 -0.0063224025 0.06339354 -0.016958274 0.03821795 -0.006999461 0.051802162 0.02961962 0.034576237 -0.017544677 0.050340246 0.040523812 0.015955385 -0.05538464 0.014990061 0.06812821 0.0684244 -0.02779819 0.06853389 0.03640794 0.024054045 0.061769497 -0.011294411 0.03552883 0.05297668 -0.030089237 -0.08368236 -0.021280365 0.035293862 0.06583993 -0.050685897 -0.03227961 0.019253878 -0.06919367 -0.016550476 -0.015570945 -0.036042176 0.035198227 -0.0053767213 0.044909835 -0.07679174 -0.004463253 -0.00056661107 -0.071307205 -0.07756652 0.04899544 -0.029524371 0.055779744 -0.08130249 -0.021036938 -0.0065211197 0.06925777 0.035520572 -0.08223557 0.04930297 -0.07284242 0.057696525 0.034698244 -0.06339589 0.011318653 -0.018526817 0.053731132 0.017443437 -0.03246159 -0.06371035 0.06982422 -0.07007357 0.008236456 0.013659928 -0.003830824 -0.044258993 -0.027368104 -0.022643756 0.021722918 -0.009803863 -0.05416625 0.011842399 -6.9891175e-05 -0.017299278 -0.02987543 -0.020150606 -0.03412019 -0.0077789477 -0.07324711 0.045719557 0.025474122 -0.006844742 -0.034655277 -0.01353173 -0.02409816 -0.0005565728 -0.021358743 -0.017036553 0.06658923 -0.038863245 -0.07269597 -0.08520825 0.054411396 -0.05826889 -0.009222955 0.041113548 -0.07447685 -0.06384874 -0.010589854 0.04163448 0.04688095 -0.0047066384 0.03485452 0.018445868 0.0427773 -0.01941581 -0.037820622 0.04799366 -0.049570177 0.067542225 -0.019145204 0.06494689 0.037814632 0.013057437 0.040630594 0.0057490813 0.054576375 0.06563031 -0.031248821 -0.018116446 -0.079675786 0.022604633 -0.011281122 0.03561584 -0.029652039 -0.07220813 0.02631324 0.054158043 -0.06810383 -0.051108573 -0.07395352 -0.008124555 -0.07757617 -0.020056171 -0.016426979 -0.019136222 0.014343816 -0.05514984 0.035096925 0.025592202 0.04587281 -0.07782429 -0.051885433 0.05231578 0.028698953 0.0038943011 -0.05382343 0.050330184 0.020834459 -0.061943006 -0.019054836 -0.011463341 0.016317884 0.041295327 -0.042883754 0.0025171477 0.0327241 -0.06460981 0.012465229 -0.049715247 0.065364376 -0.07821987 0.024599666 -0.0061263237 -0.02129069 -0.009561873 -0.020641327 0.0206641 -0.038239863 0.037379853 -0.059836764 0.050006837 0.032059032 -0.07764336 0.0026877096 -0.014064387 -0.048174467 -0.074106656 -0.059210584 -0.023812594 -0.062292997 -0.0741844 -0.029978182 -0.00010708161 -0.008929345 -0.02365501 -0.067251064 0.04174591 -0.07030019 0.022481008 -0.013103698 0.05891923 -0.023664424 -0.028387083 0.008718107 0.043623287 -0.07754145 0.063039966 -0.023440512 -0.029183604 -0.01063975 0.038162213 -0.0109740645 -0.023483379 -0.017954296 0.043768734 -0.036076766 0.05128798 -0.049887206 -0.048525248 -0.027319912 -0.044318743 0.056126118 -0.038342364 -0.02401188 -0.0072758226 0.030936928 0.04877848 -0.058851045 -0.055826 -0.03293127 -0.06303147 0.0716695 0.009242494 -0.040502727 0.060790468 0.013504002 -0.054498732 -0.0027145564 -0.080224425 0.05964583 -0.061648022 -0.037110206 0.06525171 0.009672756 0.017336382 -0.046623427 -0.059467208 -0.046019804 0.047450993 -0.014113695 0.0588287 -0.022048704 0.01551254 0.012066361 -0.052951325 -0.035880562 0.04840948 -0.07749497 -0.05236879 0.065860644 -0.024478646 -0.03539664 0.07615308 -0.01860185 -0.048870638 -0.0011688954 -0.017614719 0.059857056 0.002346392 -0.078803964 -0.0210384 0.017878884 0.009854493 -0.059882786 -0.021197878 -0.056976713 0.06296726 0.005575085 -0.017353825 -0.06281811 -0.04726463 -0.040073838 0.02510956 0.028367918 -0.06918265 0.024922337 0.060139246 0.026185615 0.04348529 -0.05281277 0.050556187 0.02603774 -0.06584401 -0.061667584 0.06878416 0.034064576 0.016222619 -0.050636012 -0.046360023 -0.041526563 0.012041052 0.030844793 0.029437132 -0.055211168 -0.061561 0.036300976 0.005692305 0.06991481 0.021392139 -0.06476496 0.031497322 -0.07130558 -0.07281872 -0.053786915 0.00026575392 -0.07506492 0.024508245 -0.028491272 -0.059984688 0.012189934 0.028569188 0.0007562503 -0.029380744 0.02455081 0.01666913 -0.046262383 0.059046365 0.025705371 -0.06448147 -0.05537817 0.06317242 0.03474388 0.030222826 -0.062420934 0.0554473 0.0072259055 0.06070813 -0.06092561 0.039974958 -0.043566212 -0.039068755 -0.052370988 -0.08097112 -0.07705391 0.037579685 -0.06588486 -0.07306166 -0.00022592105 -0.045032535 -0.00077586295 -0.0048588063 -0.033300593 -0.0708397 -0.03281618 -0.04526108 0.059194904 -0.055024114 0.058913603 0.042437416 0.036937684 -0.0067890813 -0.040653154 -0.030633548 0.06565666 0.056996856 0.03761447 -0.015597863 -0.021470303 0.067689836 -0.06137018 -0.044833943 0.026459306 0.02465993 -0.056815363 -0.0043179416 -0.09368322 0.042259943 0.011868629 0.04373166 -0.07922578 -0.0860572 -0.05479753 0.06739229 -0.07356232 -0.066469744 0.06519421 -0.022557545 -0.06282897 0.045781415 -0.011407795 0.031243227 0.055749126 0.045130014 -0.06416227 0.0066476963 -0.017026996 0.012211841 0.03398157 0.025488166 -0.047070622 -0.074719876 0.03135968 -0.050414816 -0.0805729 0.041125823 -0.034860086 -0.020637034 0.03541618 -0.017825494 0.05333419 -0.034806978 0.047402393 -0.052385774 0.06997456 0.0035050719 0.009391217 -0.01904007 -0.04596448 -0.061673585 0.026581533 -0.039819527 -0.020993648 -0.00087200396 -0.025206849 -0.059773125 -0.060496178 -0.03404157 -0.073906034 0.029950853 0.005756221 0.04685128 -0.06363356 -0.083111145 0.036888253 -0.049846083 0.0041180905 -0.06515002 0.05519971 0.054700248 -0.007209615 0.04218395 0.028673071 -0.050251223 -0.074361034 0.069499254 0.04830777 0.014584818 0.02048131 0.015763184 0.03420073 -0.038803324 0.05986431 0.07056182 -0.004303038 -0.0041987454 0.03405428 0.0326261 0.0012431367 0.026399843 -0.021799024 0.023199502 0.028407719 -0.035078723 -0.029966325 -0.033163402 0.0016482635 -0.03742101 0.015112989 0.026467742 -0.03209189 -0.063447714 -0.07704345 0.02321265 -0.047912013 -0.04885046 -0.0121201305 -0.05608472 -0.0065356316 -0.06774447 -0.05769224 -0.045505606 -0.01519566 0.03260514 0.010655162 -0.061315753 -0.004823775 0.010035864 0.04579175 0.039603937 -0.042111807 -0.04477113 -0.05726537 0.014716455 0.016807768 0.04507848 -0.008511705 -0.012805261 -0.02152502 -0.023400666 -0.05084134 0.06968971 0.031645123 -0.040431883 -0.080143414 0.058763612 -0.07145335 -0.074101016 0.06518272 0.052597005 -0.039350294 0.0038143883 0.048355505 -0.035709865 -0.06630573 -0.07675765 0.033647947 -0.06219454 -0.07578122 -0.07084948 0.012174106 -0.028548045 -0.015187166 0.066999644 0.0046629743 0.06584317 -0.002959221 0.043180995 0.015823895 -0.019829545 0.0023317325 -0.02470134 -0.03727777 0.0067864647 0.061998177 -0.07945009 -0.047017183 -0.046033252 0.0037788397 0.038598016 -0.051198814 -0.05127054 0.04539039 0.037313044 0.06647971 0.020294385 0.048614614 -0.01815965 -0.047926757 -0.070399165 -0.045922082 0.040101998 -0.022673741 0.04139784 -0.0349098 0.06580659 -0.065473415 0.038942445 -0.039176043 0.042872787 -0.08041199 -0.04649059 -0.07584942 0.047286328 0.019542297 -0.03933643 0.068872325 0.04729376 0.010066135 -0.0045324042 -0.07695695 -0.022174463 0.036550205 -0.044105556 0.05797177 -0.056877907 0.02077469 -0.074487105 -0.020902015 -0.026651988 0.068996705 0.0027769462 0.052850522 0.03858381 0.02124506 -0.05789222 0.043478943 0.068570964 -0.07476416 -0.055358093 -0.0028638106 0.054481927 0.03545191 -0.021950085 0.050928067 -0.068443246 -0.07219019 -0.03192863 -0.058583934 0.07650674 -0.026732048 0.0043346463 -0.03394672 -0.026999345 0.060171433 -0.006912872 0.018407866 0.053296484 -0.024928147 0.007307127 0.016664589 -0.030719422 0.03612478 0.05066424 -0.0056761056 -0.074503936 0.06783348 0.012726423 0.010960032 0.0072200974 -0.058768526 -0.039974663 -0.0132616665 -0.00081013265 -0.021282222 0.049187746 0.003322343 0.0599458 -0.03187902 -0.055230696 0.014541937 -0.07781821 -0.023485474 -0.06326672 -0.016586933 -0.057201486 -0.036414173 -0.06665483 -0.028637437 0.020403408 -0.05809756 -0.02673457 -0.014349921 -0.07346791 -0.025426734 -0.054793194 -0.007060215 -0.026165567 0.06669818 0.060327366 0.02535469 0.02728673 -0.016993087 -0.005286848 0.0056584748 -0.08016068 0.040017735 0.05167669 -0.07043682 -0.056837723 0.011293058 -0.037848957 0.014887132 0.0270928 0.006938187 0.04849283 0.018155405 -0.05933989 -0.041105546 -0.037982747 -0.057667572 -0.0076195295 -0.026088443 -0.055110704 -0.032397788 0.0009035489 0.012908886 -0.060837355 -0.028850606 -0.058973614 -0.017035577 0.05697336 0.0019076497 0.031820837 -0.06398634 -0.04634518 0.017265728 -0.044483796 -0.072885215 0.015831245 -0.0036650833 -0.010019041 -0.010283227 -0.021632738 -0.055161655 0.062576845 0.038743384 -0.06236463 -0.027896171 -0.059397884 -0.08026654 0.053885434 -0.06325683 0.031021167 0.028909026 -0.024157377 0.024055192 0.03208873 -0.044256628 -0.07692764 0.016220707 -0.03888725 0.027794011 -0.07013694 -0.030682014 0.057345755 0.040642604 0.0630477 -0.00351687 -0.040418837 0.068743154 0.04487824 -0.08105954 -0.0049862755 0.057110462 -0.056645125 0.04251616 0.057095837 -0.033691023 -0.02018662 -0.07474532 -0.038400117 -0.060921185 0.053665146 -0.056467593 0.009001009 -0.045615084 -0.04913577 0.026309395 -0.013476583 -0.060253687 0.05332078 -0.039627474 -0.03594405 0.023979768 -0.0072210454 0.014019916 -0.04666113 -0.02302528 -0.023932617 0.018144567 0.021801451 -0.057663415 -0.075992554 0.04441003 -0.015332154 -0.027382419 0.035377916 -0.055327374 -0.06356429 -0.00576912 -0.021875205 -0.037522387 0.047459513 0.00944717 -0.03315005 -0.063432954 -0.05936745 -0.06864391 -0.002984292 -0.018736562 -0.08026548 0.056064382 -0.071878016 0.008617249 -0.022401672 -0.07015223 -0.04695228 0.062820695 -0.004775919 0.036350638 -0.0069247414 0.021906309 0.0009154281 0.025339553 -0.06971436 0.054573424 -0.05715685 -0.06741642 -0.010051186 0.07074925 -0.07192047 -0.03944562 0.005519878 0.03954379 -0.0672604 0.042295292 -0.026819061 0.039766863 -0.07372502 0.06649423 -0.07043708 -0.06255375 0.040956415 0.0140385 -0.014619699 -0.051983166 -0.009839464 0.008923792 0.01113686 -0.01805912 0.008224252 0.037121464 0.046968095 0.023468507 -0.0013967842 0.06496961 -0.070683815 -0.07406015 -0.065269545 0.0630637 -0.055557817 -0.013697779 0.070333146 0.015177927 -0.07892327 -0.0067949328 0.04217638 0.04697778 0.057104204 0.01566254 -0.03602794 0.07046161 0.012196824 -0.07388983 0.052244056 -0.0075383773 0.0066367164 -0.0553075 0.015594525 -0.06508028 -0.071099326 -0.061464317 -0.048490696 -0.023719857 0.06146379 -0.018172996 0.04869027 0.06645462 0.032234907 0.0055637085 -0.025579195 0.018961623 -0.034806233 -0.04278508 0.058605514 0.006790066 0.057726733 -0.052574836 -0.054247674 -0.00891578 -0.03969806 -0.032852992 -0.050672565 0.068794 -0.061878268 -0.027439965 0.0013815921 -0.045209043 0.026506007 -0.04428528 0.009467147 0.053605128 -0.05070015 -0.012799531 0.0550975 -0.033760887 -0.033484984 0.011424894 0.026159707 -0.04675209 0.029269727 0.026190896 -0.077109486 0.06941138 0.018233906 0.025532354 0.008123971 0.020451216 -0.06520027 -0.047404017 -0.06795691 -0.06311116 -0.02124423 -0.022207616 0.055731438 0.0020413287 -0.018427132 -0.080105886 0.0066572786 -0.00153476 0.028745115 0.026880398 0.036018092 -0.06766903 0.044444453 0.0588126 0.03356318 0.040019613 -0.06287404 0.019392157 0.01459152 -0.07113254 0.012943685 0.023645895 -0.013576692 -0.01802283 -0.0119850235 0.057181485 -0.053947076 0.050600193 -0.021992251 0.058527555 0.045216862 0.025464337 -0.009965663 -0.012973305 -0.011429994 -0.042716023 0.04339748 0.031538837 -0.08055622 0.011136759 -0.063629076 0.019270752 -0.0027573928 0.014079006 0.06366442 0.041169565 0.061747964 0.061369184 -0.005588241 -0.08068082 -0.031192953 -0.06760116 -0.069893554 -0.021498367 -0.02027483 -0.048410594 0.05013014 0.055559415 0.010180734 0.018613206 0.017441083 -0.04098729 0.006962647 0.016962083 0.03571536 -0.00293495 0.046866544 -0.06466934 -0.020776184 0.042218134 -0.01737072 -0.027176049 0.053899515 0.016846154 -0.07788634 0.0724926 -0.011963673 -0.024217587 -0.07025585 0.066532366 -0.06339337 -0.037522856 -0.043082662 -0.00041740338 -0.050301313 0.016431395 0.06316193 0.00985801 -0.057201218 -0.02154654 -0.04578837 0.01583507 -0.017302265 -0.0016689863 0.06773848 -0.02033242 -0.0070487084 -0.012199013 0.05814895 0.011391576 0.046450518 0.036091484 0.051619444 -0.0478362 0.010331684 0.0194228 0.026564425 -0.06330071 -0.01002917 -0.01999129 -0.0065883747 -0.07971469 0.015568759 -0.04649017 -0.0781555 0.045663808 0.038049705 -0.048941668 0.069583006 -0.029960006 0.05545818 0.018531423 -0.016150437 0.069294974 -0.041514345 0.04923193 0.048548456 0.018025285 0.023845874 -0.023939187 -0.075169556 -0.020226216 -0.02148558 -0.03125301 -0.037051197 -0.020321302 -0.0147692785 0.0012261942 -0.07963884 -0.029723935 -0.0027130963 0.04300836 -0.07143285 -0.056552175 0.0007432956 -0.016610404 0.042590607 0.031299338 0.030469064 0.059730105 -0.0027500999 -0.050456222 -0.008155501 0.01172151 -0.01987142 0.014914791 0.0038089957 0.020508008 -0.065674275 0.023769908 -0.054365825 0.052253928 0.0026202146 -0.00087543746 0.010883153 0.0026342447 -0.007009678 0.03267973 -0.055608276 0.055297248 -0.022570927 -0.016789138 -0.020976204 -0.06805563 0.00078172813 -0.016019035 -0.049255215 -0.009420525 -0.0008093178 0.058899906 -0.013238801 -0.009901991 -0.05354252 -0.033206712 -0.04825546 0.066383794 -0.029012734 -0.009098547 -0.012897361 -0.056477256 -0.043674443 -0.058793377 -0.060217224 0.049174055 0.027512535 0.050622385 -0.018361835 -0.022496503 -0.034505628 -0.06395061 0.04874356 0.004939534 0.018904235 -0.0022040992 0.021622827 0.06839658 -0.03235522 0.0058889403 -0.00776304 0.038673107 0.0018416002 0.027609158 -0.004753885 -0.036127266 -0.054448463 0.0243895 0.05196494 0.013564564 0.021063695 0.03551281 0.013845066 0.05922094 -0.010511343 0.0037807592 0.03887222 -0.075169876 0.05068168 0.037825614 -0.052194264 -0.018450873 -0.06990503 -0.004877962 0.050510574 -0.06016406 0.007247382 0.00034655796 0.0246234 0.04044562 -0.053666256 0.024232376 -0.035833057 0.014155894 0.04500518 0.046863582 -0.0349145 0.04393757 0.047150448 -0.0015702649 -0.0042987824 0.048293315 0.03486423 0.014618657 -0.07803997 0.024838122 0.036460567 -0.03132408 0.025843708 -0.016158484 0.03631232 0.039958052 0.043527193 -0.081007674 0.043022443 -0.034969673 -0.0587668 -0.032135334 0.025421493 -0.033114865 -0.04738119 -0.048853353 0.05933623 0.04021581 -0.043014344 -0.06888687 -0.062229533 0.045444183 0.041562375 0.06595187 -0.008626402 -0.061037306 -0.016385142 0.002861896 -0.06614234 -0.077902995 -0.04397069 -0.035431206 -0.0039708023 -0.04753915 0.0033654883 -0.022104716 0.07025067 -0.01976343 -0.016980696 0.04670764 -0.07702503 0.007261168 0.010716008 -0.053919774 0.04980679 -0.079963945 5.8665364e-06 0.032530718 -0.03414918 0.05217754 0.034207195 -0.080466785 0.04037419 -0.06423143 -0.0026057474 0.0007744905 -0.007808944 0.06958876 0.046752404 -0.023550536 -0.021710975 0.025763912 0.028799016 -0.019123469 0.018850638 -0.04609424 -0.047163103 0.0678458 0.033538967 0.03824014 -0.0050940067 0.0014272832 -0.053352572 0.017713016 -0.0711143 0.037872873 -0.022967864 -0.0708585 0.041482404 -0.013563798 -0.01866704 -0.079153016 -0.06770784 -0.03624479 -0.07674594 0.019027721 0.049203366 0.04677877 0.013055227 -0.07955529 0.06372568 -0.020364072 -0.057314787 -0.015903281 -0.055929497 0.06757763 0.029817041 0.060828757 -0.017916445 0.020346409 0.020765025 -0.036070175 0.039224673 -0.073554896 0.04268125 0.007913086 0.03448762 0.052031048 -0.013592846 -0.016024081 0.039602138 -0.05976378 -0.04569491 -0.044788726 0.05873223 0.04374022 0.058293656 -0.05874508 -0.009939676 -0.066094935 0.05831817 -0.043433454 -0.08015219 -0.0308179 -0.049614977 -0.018006502 0.03632265 -0.04345347 0.001579017 -0.027862288 0.053833347 0.027464176 -0.043560054 0.0028638158 -0.05839193 0.029747784 0.004804174 0.02770124 -0.061714735 0.05570017 0.058543306 -0.038455393 -0.021371564 0.031742882 -0.0033012186 -0.054864988 -0.051795967 -0.058057833 0.057126697 0.039552383 0.046773903 -0.023130437 -0.026469206 0.03217512 -0.07723122 -0.063076705 0.06535625 -0.0028921822 -0.03214423 -0.059591126 -0.024692506 -0.0610229 0.0670262 -0.038567964 -0.047359757 -0.07024652 -0.019380424 -0.00416471 -0.019010847 -0.038062 -0.0265235 -0.056761816 0.061050627 -0.004205783 -0.07047288 -0.060622107 0.036757525 -0.049253203 -0.030346803 -0.069739684 0.0022187193 0.025683872 -0.054371048 -0.039838735 0.02087 -0.001716502 0.063988894 -0.023811106 -0.020252293 -0.024009857 -0.04330687 0.048986588 -0.032532446 0.012500642 -0.00819368 0.012264786 -0.033130232 -0.065562405 0.04143411 0.06420221 -0.007830143 -0.0074239103 -0.07380279 -0.018934185 0.046637055 -0.067791104 0.066142775 -0.06650213 -0.042969465 -0.064679176 0.022392955 0.008291774 -0.058179416 0.040654406 -0.06458629 -0.04566294 0.06331455 -0.01640056 0.06767241 0.060298845 -0.073969945 -0.024586732 -0.01616889 -0.0371007 -0.06702746 -0.06706744 -0.0058122026 0.042671327 -0.040223166 0.06426194 -0.028906304 0.006133321 0.008632828 0.0052702967 0.059560437 0.018075328 0.025277574 -0.007830429 0.0015461037 0.041364174 0.058828183 0.019877981 -0.019047642 0.06369282 -0.030998481 0.06723663 0.00012876783 -0.07668455 -0.061155085 0.060922716 0.00971953 0.0649782 0.067371465 -0.024228156 0.026499266 -0.013822314 -0.04697604 -0.045121416 0.0477453 -0.046431586 -0.077651374 0.052679706 0.0122571755 -0.036711063 -0.08264789 -0.0585712 -0.047605515 -0.0032668158 -0.05126778 -0.071591295 0.050049238 -0.06493327 0.061751537 -0.02100044 -0.027092675 0.0026409742 -0.045567673 0.013410062 -0.021265984 -0.04274573 0.04500242 -0.045566775 -0.0055996003 -0.035747327 -0.074925914 -0.043302875 -0.0021326263 0.0034864242 0.042415395 -0.06475826 -0.040211618 -0.036062602 -0.05613874 0.016249921 0.035894424 -0.06741213 -0.021144914 -0.06331194 -0.043895766 -0.013250133 -0.07495959 -0.055739105 -0.011185144 0.057893936 -0.06449452 0.0649604 0.025321258 0.052784298 -0.0815606 -0.04711412 0.033159334 -0.04377276 0.03026543 0.025118709 -0.039572123 0.0010008008 -0.06800261 -0.020877905 0.05261504 0.008432867 -0.06653543 0.0029892887 -0.0831251 0.0005249344 -0.03353133 0.029983468 0.061858013 -0.031298853 0.0057385056 0.053973243 -0.027824685 -0.051354606 -0.037211988 0.017952424 -0.019322777 -0.043791875 -0.048372753 -0.06060307 -0.0059534633 0.047918834 -0.07252673 0.047042925 -0.0593139 0.028032433 -0.067177385 -0.021475112 0.057954133 0.037085958 0.06285701 0.057044044 -0.034907192 -0.078942075 -0.08204542 0.059439797 -0.07973977 0.0002904851 -0.022568734 0.06311025 -0.048916925 -0.07630319 0.020441562 -0.029767415 0.0521239 0.039556798 0.030575601 0.010774283 -0.013640289 0.025396671 -0.07491098 -0.060514048 -0.02697143 0.054883175 -0.07958183 0.01403299 -0.019117476 0.011605081 -0.07947946 0.03707899 0.025952794 -0.011268106 0.02918069 0.016019767 -0.042449195 0.024524128 -0.066537544 -0.0064663542 0.01334989 -0.04648237 -0.063560985 -0.042218905 0.06668763 -0.07810339 -0.02551418 -0.043478522 0.056384858 -0.0503532 0.052299507 -0.082040675 0.02216573 0.05151398 0.053535637 0.012435924 0.05655264 -0.06519969 -0.076444246 -0.015195354 0.06973652 -0.051163323 -0.047361277 0.05132902 -0.030115288 0.032306843 0.048319098 0.029159084 0.014782449 -0.081226036 -0.012106542 -0.003400662 -0.054707326 -0.056722943 0.02422849 -0.03754617 -0.0808952 -0.0729266 -0.047894694 -0.07676928 -0.07097668 0.015390713 -0.07234298 -0.036291838 0.06337952 -0.012723585 -0.04879572 -0.044570316 0.023191044 -0.06709809 -0.054556716 0.02177399 0.04346616 0.021676324 -0.052160688 -0.011761459 0.02421172 0.056200895 0.0396212 -0.0068433434 -0.016903456 -0.017466228 -0.06675831 0.033854097 -0.006943739 -0.042210676 0.031010464 0.041301154 0.018053502 -0.030540459 -0.0733367 -0.047646273 -0.014641248 -0.055950664 -0.042093184 0.029181704 0.012460934 -0.0036725518 -5.4845664e-06 -0.06657481 0.054026544 -0.049927875 0.018353198 -0.01502754 -0.024515245 0.012481756 0.042959135 -0.03025349 -0.08224988 -0.06886027 0.049076453 0.06281251 -0.02855891 -0.04339164 0.064376295 -0.06304924 -0.005124955 -0.016612059 0.03551491 0.033605367 0.06609358 -0.075692885 0.045277648 -0.06773353 0.028414436 -0.032476176 -0.08242322 0.012230114 0.031510152 -0.007823426 -0.048584174 -0.0720119 0.026635425 -0.074971974 0.05730935 -0.07349733 0.0552122 -0.008434736 0.024394747 -0.013541217 0.016057773 -0.060120758 -0.02859456 0.02161266 0.04292778 0.053479206 -0.06716085 0.00561073 0.067729555 0.042790245 -0.055903345 0.01172058 -0.04010369 -0.011987798 -0.0062227193 0.06519309 -0.08180797 -0.032059886 -0.035922714 -0.056505177 -0.04077588 0.059576206 -0.0830124 0.04621619 0.002439203 -0.0056576 0.015170722 -0.07995453 0.0028872492 0.0012276683 0.022781137 -0.009647368 0.056127235 0.06645968 -0.05209742 -0.001856163 -0.043035287 0.009570884 -0.03290864 -0.064207405 0.028865522 -0.031923186 -0.064194426 -0.009978935 0.021281201 -0.02213514 -0.022169665 -0.022169545 -0.06992662 -0.06717159 0.019607328 0.022332931 -0.03947954 0.04346821 -0.04592514 0.0055612247 -0.0018640176 0.064322926 -0.06903039 -0.0056435196 0.042911615 0.067563884 -0.02557386 -0.055640228 0.033179272 0.015079902 0.05467332 -0.04179284 -0.08114891 -0.06819051 0.0042701126 -0.043691844 -0.019493304 -0.04709611 0.027079046 0.006630576 -0.010976059 -0.02089114 -0.0549226 -0.06705269 -0.0013007207 -0.011459568 -0.042288724 0.05154544 0.041038904 -0.05136895 0.03407525 -0.051441863 0.06683087 0.018641587 -0.047975153 -0.020773767 0.001325282 -0.05670867 0.020376261 -0.030797934 -0.06459544 -0.052367985 -0.054830637 -0.0041607423 -0.0010050822 -0.07428014 -0.0047936887 -0.03263932 -0.03832483 -0.022388335 0.049438104 -0.01649892 -0.08226832 0.019690009 0.07129295 -0.07198272 -0.026020713 -0.023684649 0.061934575 -0.07272516 0.011965403 0.069378585 -0.051544167 -0.08255459 -0.023110315 -0.057002395 0.03464606 -0.056625534 0.06449679 0.050349172 0.052106764 -0.034853965 -0.0742102 0.067788355 0.050424084 -0.04801819 0.030474959 -0.077263996 0.04931173 0.024336161 0.009253705 -0.057439517 -0.062409382 0.054849483 -0.0053856745 -0.019627865 0.021228788 0.063062504 -0.01353663 0.06839272 0.04092979 -0.0120416535 0.020276671 -0.038197145 0.01822111 0.009026618 -0.045121465 0.053000417 0.04808587 -0.069613904 -0.04935333 -0.00430165 0.041911192 -0.03156895 0.041413657 0.028466752 0.06536563 0.04273425 0.053957056 0.034061622 -0.04821181 0.027934562 -0.0724359 0.03538683 0.051364284 0.004277184 0.04246977 0.03823545 -0.023181124 0.0062582027 -0.025687143 -0.068061605 0.07427452 0.0059257834 0.0153836 -0.051502325 -0.040133007 -0.018209018 0.025362264 0.05934588 -0.062388208 -0.04794519 -0.028458714 -0.0632428 0.04248051 0.01967752 -0.08073881 0.04797045 -0.05617512 -0.032977067 0.00015051634 -0.03521399 0.012032832 0.011565194 0.014737132 -0.06026734 -0.07041074 0.015149587 -0.018778814 0.03916114 0.05117033 -0.0762572 0.04344333 0.040887 -0.0008931393 0.023256078 0.045866407 -0.07515793 -0.06305192 -0.038362455 0.06259537 0.03015618 -0.00926109 0.04537248 0.034248486 -0.0011562826 0.03549572 0.0020009652 -0.0077185943 -0.018796507 0.030707862 -0.03888999 -1.3051609e-05 -0.07897614 0.05131327 -0.018956812 -0.015670214 0.06796357 -0.053003985 -0.06484725 0.025590874 0.018535744 -0.0022114506 -0.012817885 -0.070482746 0.057775203 0.028264465 0.019450545 -0.07125682 -0.016986188 0.0039552627 -0.018709064 0.03532912 -0.03954762 -0.074568324 -0.06256985 -0.0034941004 0.050643407 0.06696995 -0.045192417 -0.06911258 -0.06763498 -0.082235046 0.0010850315 0.052421644 0.0034294182 -0.014909553 0.024391513 0.013734716 -0.021304946 0.055841405 0.06555296 -0.040169492 0.004865411 0.033540055 -0.006127089 0.04930952 -0.037867326 -0.061225064 0.021796593 -0.07324145 -0.05304627 -0.04061544 -0.00017734981 -0.04574412 0.0038159639 -0.07137465 -0.061497174 -0.021886852 -0.0014844032 0.060511943 0.0076285196 -0.024998194 0.045745056 -0.047355026 0.05596841 -0.00047053045 0.03512418 -0.016632473 -0.0012741974 -0.023326667 -0.027329748 0.032646988 -0.05200619 -0.048443384 -0.011904218 -0.047173124 -0.074960604 0.03190332 0.034473576 -0.032670695 0.0019501393 0.06371774 0.004676213 0.00739875 0.06029184 0.055063106 -0.022278946 -0.03923028 -0.011829368 -0.059648246 0.049457066 0.011027992 0.047673583 0.06289837 -0.06222449 -0.057783585 0.015863314 0.017792452 -0.024224468 0.0031992784 0.054248776 -0.07678691 -0.07413696 -0.0429569 0.03300785 -0.07671673 -0.054359745 -0.045453005 0.0011157152 -0.018177016 -0.04757124 0.032493625 -0.044714868 -0.011295856 0.017090064 -0.07191069 0.016158847 0.01310046 0.027121836 0.015523555 -0.029255886 0.037455987 -0.03977001 -0.076475605 -0.025087263 -0.022749532 -0.03744261 -0.05300892 -0.05248679 0.03313437 -0.010094425 -0.06667463 -0.037502732 -0.014067668 -0.02883716 -0.02661923 0.007591806 -0.021576969 -0.038679715 0.009399068 -0.022108238 0.015188951 -0.039282676 -0.00017369432 0.061359465 0.019318104 0.004032752 -0.028271664 -0.027407888 -0.033729926 -0.021454299 -0.060450256 -0.060049374 0.060521275 0.016846951 0.045033768 0.03445071 -0.023407789 -0.050378952 0.014682848 0.06772554 -0.07179239 0.03472029 -0.02851957 0.05588572 -0.040999558 0.06807373 0.056816775 0.01953181 0.038100343 0.011075548 -0.0602007 -0.04208136 0.03854067 -0.058255102 0.033693332 -0.01256473 -0.04579383 0.04850595 0.060322285 0.04242649 -0.041629534 0.054495394 0.006725904 -0.04594857 -0.02916383 0.010801926 -0.0067884033 0.06293453 -0.00749294 0.029717641 -0.0733401 -0.029596101 -0.06781597 -0.05414856 0.018344987 0.032942325 -0.07768585 0.027267963 0.05427966 -0.0065958914 0.005795553 -0.0012580272 0.037680574 -0.009076974 -0.06819983 0.033335447 0.008984249 -0.07108585 0.06299602 -0.075938985 -0.06933141 0.032258745 -0.023375737 -0.07100797 0.0012552879 0.045223624 0.035998356 -0.036653563 -0.022527948 -0.034348823 -0.06536046 -0.0054607596 0.013788988 -0.06615307 -0.006707477 -0.056427326 -0.016474752 0.053567495 0.032150656 -0.042284302 -0.04249161 0.03834714 0.032555737 -0.010464571 0.044198565 0.045075223 -0.040911708 -0.03220791 -0.02653395 0.040907197 -0.034018904 0.03349239 -0.046047222 0.0055853426 0.008975145 0.06813133 -0.052740518 -0.026359538 -0.07734613 0.071487494 -0.00897055 0.00950442 0.018786691 -0.050816398 -0.033394396 0.040993124 -0.033175703 -0.016051384 -0.03277278 -0.010433816 0.03567563 -0.050276477 0.06376479 0.058248512 -0.07197194 -0.06479515 0.04800236 -0.051192842 -0.0661517 0.031603813 -0.0769931 -0.01671467 0.05027815 -0.030730842 -0.04424004 0.054904405 0.061541073 -0.026955368 0.040796656 -0.010978162 0.0099544125 0.038349953 -0.07888814 0.05524396 0.009881245 -0.046892952 -0.0010505382 -0.029661437 -0.028864322 0.06662526 -0.020785645 -0.023300909 0.0045395875 -0.07805667 0.03436295 -0.072174914 -0.028543089 0.010136517 -0.06638128 -0.035693273 -0.03271002 -0.0069213673 -0.07257831 0.06553227 0.04799526 -0.0774925 -0.040191185 0.013117211 0.04674491 -0.051970124 -0.06480102 -0.07031712 -0.011719743 0.04372514 -0.0502235 0.019109128 -0.052677598 0.04833933 0.051368356 -0.023964781 -0.011482061 -0.063962124 -0.011959684 0.008771383 -0.022714844 -0.0027879723 -0.04201435 -0.07394734 0.037680417 0.017811507 -0.051005792 -0.07926201 -0.039876584 0.06861935 0.04017378 -0.0006162632 -0.016535517 0.021709807 -0.0632105 0.020107763 -0.003029662 -0.021533053 0.0037169026 0.026597356 -0.06315061 0.018911513 -0.052311093 0.019887464 0.0015483988 -0.019026823 -0.0055494136 -0.06449143 -0.005614703 0.058797706 -0.06648946 0.06956368 -0.03385026 0.054691102 -0.032623 -0.06890767 -0.044031706 -0.020029275 -0.048263654 0.048462715 -0.019171854 -0.034344792 -0.04719755 -0.002990579 0.044547584 0.008709827 -0.0005319968 -0.04426619 -0.03946002 -0.0037413838 0.06448959 0.008654138 0.0029038526 -0.009296751 -0.024308512 -0.0305093 0.04115461 -0.04282644 0.034968317 -0.032554734 0.026768027 0.025526164 -0.059084788 -0.06829932 -0.028966766 0.05214232 0.011017663 0.02022655 -0.0132078575 -0.010324258 0.03265306 -0.046350926 0.039635945 0.060756564 0.06245566 0.051683165 -0.015458671 -0.04259069 -0.058275472 0.057022076 0.018745577 -0.05143873 0.035820216 0.032209612 0.017326213 0.05651031 -0.054762024 -0.026838947 -0.020387802 -0.04782589 -0.021611726 0.020108812 0.07122738 0.032907072 -0.022345582 0.04737497 -0.047352813 0.056360994 -0.035627894 -0.03975928 0.054927297 -0.032736618 0.006728356 -0.009037176 -0.051799137 -0.037943557 -0.034993533 -0.043998726 0.031157985 0.013598053 0.019792356 -0.056038458 -0.042482108 -0.06332666 0.037725594 -0.0041228468 0.038483 -0.051003892 0.047577158 0.043611947 0.01284659 -0.04250445 -0.07651634 -0.05659136 -0.02969614 -0.009908854 -0.013621587 0.02058115 -0.036889423 -0.052924473 0.06038073 -0.039318494 -0.055921905 0.07434237 -0.035615623 0.071860306 0.07821152 -0.045703556 -0.06650036 0.040709972 -0.05429992 0.034283508 0.0030947085 0.042223543 -0.079471596 0.035576433 -0.07143301 -0.042302124 0.011100114 -0.04680023 -0.0714206 -0.034230728 0.054559782 0.036859762 0.069329284 -0.007263659 -0.043345515 0.06442394 -0.053099427 -0.011125888 0.05272055 -0.063548945 -0.00028550037 -0.014877529 -0.018038021 0.009424918 0.0320333 -0.010717305 -0.052205086 -0.02715415 -0.082705945 0.03501696 0.031025104 -0.009608182 0.055279937 0.04742158 0.01743883 -0.06634715 -0.07369976 -0.07421172 0.04956763 -0.0057273908 0.0010847606 0.027645834 -0.06721807 0.0550071 0.07169948 0.034099698 0.06105831 0.04249574 0.07185534 -0.014931804 0.05439234 0.039700333 0.059463315 -0.04377164 -0.07875209 0.0013421992 0.022024386 0.028492536 -0.06440878 -0.015323931 0.023246562 -0.058024652 0.008870662 -0.030727401 0.008078741 0.052494437 0.06873612 -0.026145855 -0.0744688 -0.06608004 -0.040233966 -0.033651162 0.018238492 0.0718574 0.0046888264 0.068842106 0.06052744 0.069102824 -0.047593083 0.073757574 