128 256
-0.038076073 0.014836878 -0.091283694 -0.022322983 -0.00010406971 0.079540744 -0.0993474 0.049107857 -0.09655091 -0.0008416176 -0.036224816 -0.045678616 -0.053411245 -0.09037829 -0.15452781 -0.044414967 0.056081355 -0.08658571 0.00017544816 -0.013702735 -0.032778732 0.011712113 -0.096919864 -0.060507294 0.044997513 0.05335232 0.085617214 -0.040620152 0.09747608 -0.0379657 -0.09900995 0.07550706 0.003692001 0.11503267 -0.07431939 -0.03998834 -0.07819892 0.073343694 -0.00065248023 -0.039224297 -0.093459606 0.09354762 0.06150958 -0.119905464 -0.078500144 -0.0569593 -0.11883432 -0.015676677 -0.026075684 -0.020025551 0.059981182 0.082757145 -0.038327575 -0.08877897 0.09325257 0.021159355 0.10216808 -0.11942636 -0.06716919 0.06728085 -0.024960937 -0.06410577 0.054123122 -0.057659827 -0.06713619 0.020489423 0.1136415 -0.057203323 -0.010409072 -0.070356034 -0.10949072 0.11692667 -0.082119346 -0.11203575 0.04410568 -0.07567456 0.025364647 0.1151104 0.07606202 0.105582505 0.119202614 -0.11844185 -0.08161901 -0.06411785 -0.13112508 0.09945778 0.060280446 0.035238296 -0.09009932 0.031250004 0.0842682 -0.13738814 -0.022295313 -0.022658793 0.061028272 0.11107717 0.09414747 -0.063961625 -0.025643297 -0.04098034 -0.008485614 -0.026033238 0.04359296 0.06946951 0.11918789 0.03770448 0.02928684 0.045381285 0.06627706 -0.024677344 0.020475022 -0.038439717 0.05488929 -0.12799987 0.11631068 -0.12436128 -0.063068524 0.10735692 -0.092387676 -0.013269573 -0.021130623 0.06325778 -0.018278958 0.010673211 -0.09974939 0.051408228 -0.0977066 0.116073936 0.07786692 -0.029321477 0.051465422 0.10734356 0.093548395 0.07835737 0.10582448 0.044996172 -0.06312453 -0.023094399 0.05897519 -0.12572223 -0.02780247 0.04679608 0.052232664 0.1103762 -0.09867714 0.0081024 -0.11355421 -0.045094114 0.108056456 0.079754576 0.026957035 -0.06550209 0.057755686 0.005898028 -0.0459706 0.011596292 -0.068357214 0.03439797 0.09645939 0.037480235 -0.06330424 0.06500235 0.07504175 -0.07509316 0.04822753 0.09427589 0.05201006 -0.0964756 -0.073794216 -0.037352767 0.121260345 -0.10129029 -0.0387572 0.06265685 0.10727953 -0.08994362 0.017753243 0.015861765 0.08380981 -0.09053272 0.036541104 -0.093599565 -0.037768453 -0.05818532 0.09710004 0.113401785 0.09815108 0.09643373 -0.008521186 0.112685144 -0.09856171 0.086304456 0.11475605 0.09141031 -0.061066017 -0.110761695 0.047689795 -0.07747186 -0.10864848 0.06501964 -0.11103484 0.0068656206 0.08383094 0.030993044 -0.04001096 -0.03763488 -0.1120817 0.0040652826 -0.013874292 0.12230903 0.12111834 0.082788765 -0.103713825 -0.1366394 -0.0725182 0.037980303 0.042466253 -0.009388089 0.10125935 0.027223438 -0.00275743 -0.094482854 -0.1186344 -0.118811145 -0.09122645 -0.1040203 -0.07652396 -0.012947112 -0.04385996 -0.037046548 0.050098483 -0.010049809 0.07232103 0.10758212 0.015279063 -0.011798558 0.041588172 -0.08527018 -0.043972008 -0.0813359 0.0076839896 -0.007127288 0.025394633 0.058708936 -0.0038395596 0.08161561 0.09442455 -0.11353612 0.038918763 0.10972758 -0.0351899 -0.11024666 0.042905997 0.023444295 -0.0068390965 -0.009147972 -0.08572358 0.09957439 0.049528338 -0.061568856 0.05224359 -0.07873698 0.1019454 -0.11227576 -0.03535229 -0.06713712 -0.117720954 0.067825556 0.11276471 -0.03105508 -0.02844023 -0.07298553 -0.010305107 -0.038760245 -0.012558406 -0.08705765 -0.04389713 0.12216997 0.0615243 -0.09824406 0.056947116 0.05800502 -0.054261085 0.081594765 -0.11238287 -0.04458541 -0.10750495 -0.11998049 0.038026482 -0.08480977 -0.0305492 0.024238944 0.05942292 0.0026352406 0.045637835 0.043096125 -0.07301406 0.09387308 -0.07727635 0.10557286 0.018327342 0.065955855 -0.11365712 0.025390208 0.066415444 0.0062673986 -0.08798953 0.063054144 0.048000097 0.08017808 0.088776596 -0.0637406 0.040014874 -0.05634438 0.10679853 -0.0787078 0.081306 0.052467376 -0.060416296 -0.028383715 0.0704766 -0.14174233 -0.035998095 -0.102552146 0.0076624877 0.07363297 0.06602454 0.09140015 0.058219492 0.06771876 -0.03423215 0.08087681 -0.022762889 0.029094547 -0.07468123 -0.028009802 -0.11820963 -0.052783843 -0.0039157365 -0.070827365 -0.13178807 -0.04974108 0.04162613 -0.082442924 -0.017051656 -0.0016033291 -0.12275986 0.058394756 0.022285912 -0.10054277 0.0065149665 -0.087761655 -0.096553 -0.0018399922 0.004310172 0.10873705 0.069682464 0.02151319 0.09059453 -0.08510032 -0.030805558 -0.07196445 -0.09711699 0.089631006 -0.095033765 -0.019571995 0.02605824 -0.0058148787 0.06841132 0.035937898 0.11336344 -0.03630951 -0.024075788 0.024442926 -0.036549747 0.063503005 -0.02365949 0.06715962 -0.024549944 0.1037087 0.079781905 0.06827443 0.039453577 0.063785255 0.013513521 0.097963415 -0.056230187 0.008231484 -0.08477484 -0.017307295 -0.052737646 0.056765944 0.043644924 -0.08904598 0.008122593 0.11151257 0.006746335 -0.045178976 0.110214174 -0.057925127 0.04814673 0.077779636 0.030616641 0.010885721 0.09250323 0.036296774 0.015562654 0.07021641 0.12206004 -0.09303081 -0.040048033 0.0030967891 0.053894743 -0.04315358 0.001313645 0.078074664 0.08129693 -0.06997923 0.07379872 0.0047436655 -0.10242152 -0.0219872 0.08502182 0.0359787 -0.052164376 0.077100575 0.01496017 0.011221313 0.030504622 -0.099970914 0.01947106 0.076985225 0.08322877 -0.054301485 0.068697594 -0.07566919 -0.042592376 -0.04235235 0.10101479 -0.0993285 -0.024583474 -0.049115263 0.1185106 0.04370895 -0.0032000134 -0.0009048773 0.08255045 0.045388073 0.12766546 0.017446632 -0.017971793 -0.10673683 -0.0010989606 -0.06310441 0.005105257 -0.12211862 0.08091232 0.029413551 0.058795348 -0.0110138655 0.08333504 -0.06831893 0.028965767 0.01563561 0.08945531 -0.08691844 -0.07622608 0.043500226 -0.09693669 -0.24262801 0.07839203 0.0017330496 -0.029720038 -0.0775986 -0.00039912894 0.049930066 0.051416844 0.04903061 -0.010229732 0.11557195 0.080703266 -0.08062789 0.09817582 -0.049276352 0.07596457 0.04428882 -0.09478948 0.07264371 -0.06500158 -0.02067396 0.024441762 -0.055326913 -0.12933034 -0.058520373 -0.12100394 0.12416422 -0.025885219 0.08612291 0.03130064 -0.1171498 -0.032573834 -0.096338056 0.093056165 0.019533187 -0.13293521 0.079293326 -0.05283718 -0.049034372 0.036141854 -0.06672588 0.039951306 -0.09599775 -0.096443474 -0.07364699 -0.07611027 -0.051050663 -0.10727346 0.06965898 0.06554733 -0.030418428 0.055285722 -0.12374544 0.06837965 0.013274872 -0.11573182 -0.06107505 0.11459401 -0.0924499 0.005592972 -0.040890723 -0.06544031 -0.041457903 0.19210261 0.017594798 0.120156765 0.06993208 -0.0885121 -0.2192365 -0.040596515 0.1977549 0.09764081 -0.081122816 -0.047544755 -0.09430962 -0.026649386 -0.068738334 0.0070221317 0.013293147 0.031061735 0.10134709 -0.11341802 0.044769004 -0.12089988 0.17110364 -0.12475741 -0.03839232 0.02668905 -0.09344666 -0.12390539 -0.02098345 -0.0039958716 -0.065253735 0.122391574 0.02813083 -0.120005906 -0.04321748 0.047641892 -0.059495445 0.027288226 -0.008100245 0.0233953 -0.09238427 -0.04892999 0.123252004 -0.07838315 -0.20384517 -0.056901958 0.23200503 -0.05043262 0.10747503 0.081493564 -0.028550243 0.034071386 -0.02317842 0.027665555 0.023670666 0.010265549 -0.08247516 0.0019728101 -0.07276037 0.086540535 0.11794552 -0.07748142 -0.08146166 0.006049762 -0.101213664 -0.25092497 -0.1119122 -0.10537376 -0.013232566 0.004542346 -0.08606899 0.07866693 0.07689965 -0.042061005 -0.043492142 0.11920905 0.016139818 -0.09577885 -0.072366714 0.096016504 -0.013193965 -0.06051873 0.074693315 -0.016938627 -0.014714233 -0.05036527 -0.042606667 -0.013415634 -0.019215576 0.050213188 -0.09945395 0.06978259 -0.043821268 0.11373815 0.18361266 0.07899515 -0.061027095 0.121789634 0.13314588 -0.04179391 -0.057777207 -0.05636943 0.02651462 -0.0782361 0.0029304824 -0.10794751 -0.06349075 0.114408664 0.095116824 -0.10168748 -0.40102077 -0.0071443156 0.10059163 -0.07863395 -0.008439378 0.101182505 -0.027279586 0.031525835 0.11130936 -0.04040438 0.09093697 -0.013168259 -0.27454337 -0.073048025 0.10482415 0.09600393 0.09414844 -0.029010028 0.0825294 -0.08366179 0.016466811 -0.071400404 -0.17860298 0.071753845 -0.10208541 0.06912322 0.11112648 0.011083554 0.11838928 0.06486754 0.08470911 0.095219105 0.043718264 0.094880864 0.16160831 0.04104513 -0.05465272 -0.038740754 0.075012505 0.11337487 0.012677757 -0.011638105 -0.14018741 -0.067705065 0.12711416 -0.07639197 -0.12111894 -0.0020844522 0.021363303 0.09625193 0.13248499 0.044062197 -0.083969325 -0.023589373 -0.10633978 0.12605107 0.029246503 -0.07029737 0.04949814 0.14653529 0.002562529 -0.049174305 -0.010579735 0.070189565 -0.011751457 0.031540275 -0.16547774 -0.0588499 0.10829422 -0.05841454 0.04554838 -0.115944 -0.09342618 0.054713525 0.016451567 0.026970632 0.112594694 0.09267332 0.1030054 0.102104574 -0.023743361 -0.12424301 0.04120598 0.030128412 0.13677575 -0.032328308 0.23244251 0.08212644 -0.013170302 0.08711294 0.046280444 -0.029672781 -0.08426621 0.033980165 0.08407888 -0.01684663 -0.09318883 0.025916189 -0.042835563 -0.035687793 -0.025791826 0.01553876 -0.024752961 -0.029579138 -0.064442486 -0.072983146 0.08393701 -0.02208985 0.120462425 -0.2713721 0.11739957 -0.114997834 0.13151596 0.11279591 -0.088635586 0.040520225 -0.09286775 0.0335874 0.12274465 -0.29730377 0.048379328 -0.033786338 0.102421805 -0.026623178 0.0827443 0.075264595 0.04097399 -0.08825803 0.09459373 0.07166529 -0.05093071 -0.031134248 0.1189433 -0.09324524 -0.023045987 -0.031593144 0.093146205 -0.05431194 0.12313098 0.09939894 -0.045084458 0.120268546 0.11133361 0.059960693 0.21541472 0.042774335 0.09921795 0.14411739 -0.018925084 0.08241892 -0.4692606 -0.1101934 -0.10944951 -0.10265346 -0.044267993 -0.046721254 0.100477025 -0.0714283 -0.05374615 -0.004243523 0.05714163 -0.070617616 0.109702736 -0.0765872 0.0057813823 -0.02379197 0.07850826 0.04458919 -0.13702255 0.07766685 -0.03747792 -0.5490941 -0.08724886 0.11550301 -0.082819045 0.09402781 -0.040493608 -0.05434104 0.035935342 -0.03155133 0.052273303 -0.041764677 0.1212096 -0.08775076 0.093826406 -0.05561194 -0.13061509 -0.07777934 -0.031944655 0.15457131 -0.013109816 -0.04101549 -0.34399185 -0.088400155 -0.061997354 -0.4024735 -0.09059254 -0.058844626 -0.0596883 0.072980255 0.10851256 0.059304036 -0.046955436 0.03603114 -0.062426597 -0.07102209 -0.0048516393 -0.11646986 0.09137283 0.048997276 -0.10513887 -0.27286056 -0.094487615 -0.030776229 0.019667566 -0.020876741 0.01821916 -0.10376059 0.1940779 -0.029359436 -0.05289861 -0.04044223 -0.12735194 0.0036158562 0.08408383 0.08990718 -0.05445859 0.10889146 -0.07297232 -0.030112833 0.063966334 -0.11087233 0.05038268 -0.043153796 -0.017470129 -0.063699275 0.11623612 0.0038401582 -0.049043704 -0.073320985 0.21705666 -0.02614414 -0.005063623 -0.004013709 -0.13304292 0.061767727 -0.097716354 -0.1052566 0.111049056 0.09486887 -0.013222925 -0.013363779 -0.041217577 0.13686025 0.032941997 -0.087003335 -0.28263235 0.08219522 0.05874812 0.07607143 -0.07141164 -0.07718943 0.04647118 -0.0010744628 0.061724104 0.03300938 -0.115463495 -0.058705468 0.25392234 -0.06053762 -0.06606131 -0.057085615 0.10142315 -0.04656446 0.0445446 -0.08487287 -0.3678069 -0.10156834 -0.08614612 0.027047666 -0.051522303 0.07613596 0.014623284 -0.116039775 -0.0988839 -0.03843519 0.004860401 0.06101221 -0.05773301 0.091370374 -0.040751737 -0.0022853003 -0.06415641 0.1244373 -0.04685839 -0.01653117 -0.09238194 0.06222707 -0.20233835 -0.024176737 0.041042864 0.076773085 -0.04320521 0.10500237 -0.12574884 -0.25768694 0.17260553 -0.062266856 0.055748187 -0.03640628 -0.8356621 0.017674102 0.118707925 0.041282825 0.11882797 0.33883184 0.08277533 -0.082344316 0.061080158 0.090171754 0.0222344 0.021102158 0.117912546 0.066004634 -0.047565185 -0.0809322 -0.10728407 -0.072470546 -0.007226765 0.117127076 -0.11234394 -0.10261536 0.0008046627 -0.013306716 -0.06307884 -0.07963437 0.06359574 -0.105867386 0.10586335 0.053209618 -0.028591186 0.0789631 0.1308102 -0.118887514 0.107331604 -0.08533989 -0.061402738 0.08489415 -0.008249569 -0.039946303 -0.10341203 0.0050483127 -0.116443545 -0.08029598 0.07855281 0.01050517 0.009618261 0.09098246 0.043912977 -0.09472552 0.11948681 0.028691076 -0.058696393 0.040970564 0.2610429 -0.015906641 -0.10322541 -0.09073746 -0.3090939 -0.076648146 -0.11674437 -0.067054 -0.12336079 -0.008923459 -0.03779635 0.02006587 -0.09841159 0.079438254 0.07755172 0.05826532 -0.09517121 0.020214468 -0.011612296 -0.06134978 0.051320434 -0.120372355 -0.025816828 -0.045052826 0.10576531 -0.0066127186 0.05343744 0.0034319758 0.09073228 -0.26945046 -0.08353883 0.08061916 -0.07700828 -0.46840665 -0.07439083 0.08635658 -0.04437567 0.022396045 -0.060560018 -0.12914798 -0.00022118469 0.10136539 -0.05168848 0.1140908 0.13083994 -0.113721624 0.2981605 0.25091964 0.03241463 -0.02447012 0.07076266 0.11986184 -0.09704413 0.12578592 0.10978958 0.0023747196 -0.056082428 0.062292397 0.06336549 0.15762168 -0.083597794 0.011911184 -0.016989842 0.022046065 -0.048787564 -0.06876397 -0.0041007996 -0.02963175 0.12183252 0.114261195 -0.045225143 0.034768105 -0.094585806 0.0022311667 0.018585244 -0.10154477 -0.07900089 0.017782956 0.01277777 -0.08912277 -0.09443587 -0.03963136 0.42923722 -0.1246385 -0.1077228 -0.11843768 -0.008222461 0.077776626 -0.035369217 0.05549586 -0.0063386858 -0.05057898 -0.102205485 -0.0042592883 0.049792618 -0.028492242 -0.07521188 -0.0011487305 -0.07703322 -0.080824405 0.08471802 -0.004707811 0.11465484 -0.012345081 -0.011276263 0.12029746 -0.023914218 -0.071222916 -0.090818554 -0.071849704 -0.12376107 -0.03992159 0.00027528725 0.010033101 -0.022261843 -0.033135295 0.043036725 0.06217607 0.021172583 -0.120901585 -0.052639335 0.11932829 -0.03916964 0.016130835 0.23760988 -0.06460819 0.092053056 0.02540204 -0.10078898 -0.013526201 0.048604093 0.096184075 0.19360587 -0.024906158 -0.052515328 0.35770023 -0.09919258 -0.05639285 0.115765065 0.064804696 -0.055537313 0.098038584 -0.07382293 -0.09426761 0.043683637 -0.14114255 -0.09462693 -0.034428686 0.027842138 0.09334406 0.11998871 0.06813884 -0.020425562 0.020117113 0.030819774 0.008652319 0.015769703 -0.1178436 0.11944398 -0.06981471 -0.017366612 -0.04378727 -0.048480406 -0.04027487 0.0010042489 0.10610297 0.117044926 0.043530345 0.25834742 -0.10918349 0.10812801 0.012066376 -0.049422115 0.07208061 -0.011814117 0.0593614 -0.039418325 0.034419686 0.013830066 -0.08034149 0.034789313 0.11183548 0.12814976 0.020760521 -0.05828473 0.04536003 0.095223635 0.082796484 0.025112942 -0.033329725 -0.005961839 0.013970889 0.02149441 -0.16053785 0.05597809 -0.08431113 -0.09822676 -0.5621457 -0.04299458 0.100859255 -0.048484836 0.0639922 -0.02627671 0.04576655 -0.022219094 0.10730359 0.064291716 0.33061132 -0.06819999 0.04940781 0.102182984 -0.095295414 0.059721887 0.004157197 0.14625262 -0.04225862 -0.028669536 0.02791676 0.005165279 -0.07176381 0.018686175 0.06146748 -0.042817622 0.10432908 -0.03589934 -0.087640196 0.02936703 -0.07412428 -0.010406107 0.06309137 -0.06738958 -0.031642735 -0.22981474 -0.023051381 -0.03391731 -0.02649352 -0.09763715 0.034784943 0.021646261 -0.030700028 -0.0010641217 -0.1328418 0.039224625 -0.1353558 0.050887108 0.09844267 0.09280887 -0.02371031 -0.042880774 -0.07320702 0.03880894 0.051614434 0.11241695 0.070594266 -0.118478715 0.048460245 0.077444226 0.05039481 -0.07794374 -0.1043829 -0.6004456 0.035977304 0.068347454 0.022102207 0.11484835 0.010735694 -0.037284404 0.15939339 0.043586254 -0.12494308 0.07842407 -0.03294091 0.06558162 0.009675443 -0.047037095 -0.056895107 -0.12071028 -0.039671957 0.086640745 0.019357413 0.1003352 0.09238503 -0.12666686 -0.11547151 -0.02537167 0.040642474 -0.042702496 0.023259014 0.1158003 0.2131213 0.09380439 -0.067894995 0.19701041 -0.10933168 0.015220102 0.057075128 -0.09511562 -0.06658989 -0.42139727 -0.00879544 -0.05100436 0.12587915 0.04589534 0.16258726 0.06428677 0.08697538 0.079827376 0.042100012 -0.07547063 0.0576596 0.053731322 -0.04325393 -0.07484704 0.12986094 0.10564777 -0.0016034816 0.1160604 -0.09948248 0.09110615 -0.13271748 0.10075031 0.034712553 -0.008473247 0.16752934 -0.09592998 -0.0017175853 0.037537485 -0.063409805 -0.045382857 0.033694033 0.09314468 -0.02939684 -0.0011896119 0.1170443 -0.103601955 -0.11492596 0.019397113 0.13348688 -0.09752447 0.10500991 -0.30866846 -0.011566788 0.048546255 -0.09618439 -0.0044636573 -0.05451712 0.10765827 -0.103704005 -0.10538599 -0.028386176 -0.086947024 -0.04864487 0.031167 0.06627223 -0.08494696 -0.100641936 -0.042581372 -0.05984786 -0.014932394 -0.1295399 -0.112900436 -0.059644718 0.05635968 -0.013281301 0.063423164 0.03353426 0.119443364 0.10356647 -0.028362138 0.065415025 0.10976032 -0.041486025 0.025494238 -0.049251527 0.028547257 0.008229515 0.06770321 0.064234585 -0.050203174 0.04088542 0.20478062 -0.084644906 -0.08485739 0.123766094 0.005850573 -0.0877679 0.0052137524 0.056348503 0.34213486 0.09348138 0.09895396 0.10102175 0.09515549 0.05311498 -0.11307883 0.06288291 -0.08114505 0.046982154 0.060671598 0.10741159 0.040113956 0.00076057174 -0.06512505 0.037201904 -0.16416971 -0.047540426 -0.11638472 -0.07696112 0.07532941 0.01885633 -0.0797137 -0.042889223 0.112190835 -0.12357253 -0.00056027836 0.11133968 0.27186033 -0.12911724 -0.06493885 0.08512391 0.10471572 0.116042495 -0.03052789 -0.10284443 -0.22557351 0.11719608 0.012176652 -0.013724825 -0.13052876 0.014211448 0.047368854 0.047056735 0.011773739 -0.021127164 0.100105286 -0.10055001 0.019320874 0.060441494 -0.020308632 0.060805026 -0.07315013 -0.049228102 0.11782974 0.023770213 -0.20512691 0.037446946 -0.5936327 -0.10758791 0.005333036 -0.06559059 -0.0016079756 0.10654724 -0.009211396 -0.089338906 0.09371804 0.046469986 -0.00587021 -0.0704214 -0.46468022 -0.07104252 0.102961645 0.12846723 0.09853825 0.10968748 0.11242922 0.06996648 0.059156924 -0.07657173 -0.09194173 0.0063742455 0.063750446 0.039456517 0.08694244 -0.07302478 0.12190792 0.12054673 -0.10112372 0.061965957 0.0301601 0.08572009 -0.040947884 0.029003313 0.061803427 -0.068439215 -0.06849939 0.03156984 0.017329765 -0.00057680334 0.3545038 0.09928602 0.022110175 -0.10359806 -0.075519204 -0.085667074 0.04514742 0.049178213 -0.09563898 0.18858151 0.1275806 -0.112194456 0.098856285 0.028265238 -0.061528385 -0.043852545 0.0067154947 -0.0476556 -0.11637499 0.015922785 0.04508719 0.067430146 0.115315475 0.08517775 0.10098829 -0.007343481 -0.10002783 0.024984675 -0.1009607 0.10964098 -0.09274307 -0.0022453964 0.019687431 -0.018854044 0.0670082 -0.060309406 0.0838592 0.21164364 -0.12784044 0.029304644 -0.11480281 0.02867636 -0.06449059 -0.047405362 -0.04465434 -0.10565336 0.0018316507 -0.060998797 -0.11134061 0.026494898 0.0050412747 0.0794256 -0.053775012 0.040334716 0.036006153 0.08809036 -0.032461416 0.058267206 -0.0831939 -0.08036232 -0.4077398 -0.102514155 0.04377066 0.19322458 0.10439653 0.032118052 0.088909954 -0.119320355 0.12724823 0.07132348 0.14589679 -0.038469143 0.021373283 0.057510078 0.05391684 0.118354976 0.12428349 0.049983393 -0.091430336 0.06269405 0.08442572 0.09996134 0.115914285 0.3081928 0.016682561 -0.12149772 -0.009517079 0.073723555 0.04596137 0.045345515 0.03659592 -0.2685202 -0.06826842 0.08530106 -0.10373777 0.059500784 0.090459496 0.017618429 -0.29840985 0.09824088 0.056114737 0.023449272 0.04439812 0.031100126 0.016500501 -0.20514452 -0.018692896 -0.11800104 0.1929079 0.026692688 -0.02253738 0.08306247 -0.11577466 0.0051394105 -0.09397882 0.05568543 -0.063458 0.019837538 -0.030370176 0.03758754 0.049824923 0.100512 0.013176858 0.0762499 0.0990687 0.1016958 -0.041714907 -0.24517846 0.00990174 -0.06247676 0.10025716 -0.064331286 0.041709386 0.008259936 0.22067143 0.045116615 0.032295737 0.08743286 -0.022633562 -0.0581699 -0.11806607 0.2533875 -0.10500583 0.07184102 -0.03471727 0.019576997 -0.06138149 0.0126644075 0.032877028 0.075551726 -0.028201848 -0.047171295 -0.073835045 -0.07680262 0.12106772 -0.11478901 0.067290425 0.059773814 0.08352056 -0.15075253 -0.12264109 0.10516685 -1.3066194e-05 -0.088396825 0.0866569 -0.012550524 -0.05883837 0.106097005 -0.12630218 -0.004284634 0.08643994 0.04309105 -0.30237618 0.052011997 -0.04255246 0.0055978894 0.10662995 -0.10434803 -0.013044089 -0.016654475 0.05364123 0.052121073 0.11945896 -0.03394037 -0.29029143 -0.09050954 0.0968722 -0.13160829 -0.049714293 -0.024647564 0.12397915 -0.084534064 -0.08107734 0.06096059 0.038972262 0.08955343 0.01902074 0.001160627 0.0732488 0.1055854 -0.10423452 0.02428226 0.03621739 0.059063602 -0.094736435 0.059458315 0.031416465 -0.11574983 0.027246505 -0.03347239 0.10911187 0.122002065 0.030703742 -0.09258357 -0.2165553 0.093768045 0.11715622 -0.06313368 -0.07222979 -0.12225792 -0.09823598 0.06271914 0.19625227 -0.04713902 0.081288286 0.08241278 -0.29178357 -0.12454378 -0.060642205 0.014144335 -0.10636735 0.20010155 -0.094044134 0.039575074 0.013468504 -0.092351526 -0.08378068 -0.10742219 0.017162628 -0.11457342 -0.0375506 0.0148949325 -0.031643808 0.048048913 0.010690749 -0.017603703 -0.006311089 0.0010129511 -0.005489528 -0.07560051 -0.073867515 -0.04977879 -0.03823185 0.02929312 -0.120310985 -0.029845158 0.06940305 -0.031202406 0.13145453 0.05124858 -0.11866608 -0.01586348 0.12321198 -0.009345174 -0.08591674 -0.065812536 0.024275143 -0.1100218 -0.03720382 0.076530606 0.123449 -0.055676013 0.051407427 0.082874455 -0.10760367 -0.048345298 -0.11222842 -0.124436095 -0.041547112 0.043496773 -0.01261733 -0.295272 0.07803476 -0.044401653 -0.35076326 -0.10108885 0.056316108 0.07203144 -0.03772112 -0.16788675 0.06320536 -0.08199467 -0.07564996 0.09886579 0.055061255 0.06656145 -0.028567702 0.08855224 -0.009832382 -0.12185517 -0.062559426 0.018918633 0.10407436 0.06569263 0.115327954 0.11497956 -0.10508439 -0.031309545 0.09913063 0.0870518 -0.115279995 0.09203848 -0.11837375 0.12421157 0.064681314 -0.096504 0.0675226 -0.031778634 -0.013223529 0.108276516 0.03126201 -0.024386108 -0.010660218 0.011212915 0.038809482 -0.0035517216 -0.20111318 -0.3457832 -0.11680181 -0.044803828 -0.012933582 -0.009065956 -0.05399373 0.025838666 0.008902848 -0.048360735 0.02484861 -0.09014943 0.070184305 0.07973131 -0.30282578 -0.11923742 -0.03807035 -0.04989792 -0.098165676 -0.08985236 -0.020130932 -0.13844128 0.1078828 -0.060340405 0.018312722 0.06810129 -0.07845014 -0.123304516 -0.09242937 -0.035256535 0.07711959 0.05137238 0.008475035 0.09035677 0.013887554 0.076531604 0.03670038 0.0041879714 0.049925122 0.018690258 -0.057020623 0.042167686 0.028989255 0.019652456 0.06626595 -0.10471216 -0.11346698 -0.069034696 -0.03061238 -0.07875225 0.028021067 -0.04324442 0.00046759844 0.0695228 0.10615012 -0.04712361 -0.030617356 -0.03076428 -0.10178242 -0.077246994 -0.110194035 0.02865283 0.0867849 -0.02005732 0.08987409 0.07642134 0.025895804 0.078300714 0.10564169 0.0011571944 0.040616184 0.019494334 0.039046854 -0.10766485 0.006518811 -0.026665956 0.05298111 -0.103244185 0.08150667 -0.070797205 0.013887286 -0.09318912 -0.03828278 -0.01785022 -0.07750192 -0.050403208 -0.4784166 -0.00076946616 -0.0703 -0.12831773 -0.072771244 0.081568 -0.084322065 0.069467664 -0.002657324 -0.103045486 0.0819995 -0.03834784 -0.04309964 0.10946861 -0.073949605 -0.02946037 0.06478393 0.079657845 0.12174696 0.011757106 0.040481 -0.0237352 0.05389729 0.10265124 -0.053824514 -0.10560566 0.06102103 0.12354791 0.14450482 -0.051130414 -0.09630646 -0.09550083 -0.087378114 0.06220293 -0.027284533 -0.011398971 -0.003812285 0.056330383 0.02964343 0.017004669 -0.09093419 -0.10661325 -0.057239205 -0.121022075 0.04676469 -0.11342019 -0.0027605593 0.113461465 -0.06863743 0.10412425 -0.002543926 -0.122879714 0.05473259 0.11059728 0.11658248 0.07196335 0.019587059 -0.035891175 -0.011397028 -0.08575125 0.010658503 -0.14871682 0.030239722 -0.10403544 0.058497906 0.25516292 -0.043073863 -0.10228571 -0.06978821 0.008961141 -0.027906772 -0.027159104 -0.08624878 -0.054974586 -0.023947984 0.050992947 0.06409046 -0.07611665 -0.034953713 -0.07880911 -0.05771917 0.049887475 0.085412264 -0.013172418 0.05338478 0.12779808 0.005580634 -0.120937854 0.10959567 0.09158856 0.10985479 -0.08524333 -0.11997932 -0.07690275 -0.07183338 -0.11190134 -0.055752907 0.061959267 -0.07316327 -0.10324243 0.0679827 -0.07366854 -0.046329763 -0.10382795 0.040707976 -0.091395795 0.09561512 -0.09851814 0.04755342 0.119916946 -0.03721711 0.011481231 0.10798858 0.09446946 0.04713738 0.012495545 -0.06666377 -0.05937946 0.104789376 0.03408 -0.11061336 -0.043163776 -0.074847996 0.06843892 -0.15116173 0.20031935 0.0910632 -0.032776177 -0.0065398356 0.03239733 -0.054019608 -0.014990509 -0.09829682 -0.012755911 -0.03215304 0.036824245 0.015213877 0.10332523 -0.014436305 -0.07842758 -0.12377194 -0.07421702 -0.06430599 -0.023275971 0.018760562 -0.0594892 0.044151306 -0.057718605 0.027935168 0.07540743 0.08945902 -0.119392484 -0.07498482 0.040704254 -0.04479939 -0.047748614 -0.087885596 0.015968602 0.04078922 0.09367308 -0.062531546 -0.089325376 0.08553483 0.06308288 0.028404336 0.117984444 -0.1272181 -0.12305126 -0.062531106 0.087058716 -0.3052682 -0.18403734 0.0030521837 -0.034319017 0.09318616 0.10026276 -0.07389472 0.066529855 -0.03581199 -0.025843175 0.10114199 0.059592698 -0.061615538 0.21457185 -0.18663695 -0.08673039 0.0030354746 0.06659615 -0.026708577 -0.0529266 -0.0075340173 -0.1504736 -0.069515884 0.108238466 0.10566607 0.09132436 0.058277667 -0.08923009 -0.3075933 -0.085386604 0.10737268 -0.11662772 0.074217804 0.04637551 0.11197941 0.117212035 -0.11202385 0.094388604 -0.12298538 0.119634196 0.11426144 -0.0564126 -0.0072287256 0.12488884 0.0047489083 0.06955576 0.075922586 -0.005259356 -0.12369692 -0.12731954 0.01130715 -0.0652815 -0.109515786 0.1093311 0.11341736 0.1210086 0.10303509 0.25547 -0.027648916 0.115179054 0.116407156 -0.120328836 -0.045088954 0.0071285623 -0.22601976 0.0693545 -0.057092983 -0.0042172372 -0.014685426 -0.11294219 -0.003479295 -0.12724675 0.038659513 -0.029605865 -0.010588109 -0.044527322 -0.053754088 -0.115644544 -0.07059953 0.068457656 -0.011531626 -0.03531617 -0.0434399 0.02303295 -0.08002504 0.07005332 -0.16086848 0.06465127 -0.07467694 0.23407641 -0.085948974 -0.08529185 -0.05674725 0.07037913 -0.027511358 -0.07358498 0.055458937 -0.048196778 -0.05396344 -0.12167312 0.02388072 0.07420692 0.09366007 -0.051487517 -0.06019123 0.117407925 0.013902018 0.0042463155 0.04355374 -0.005821817 -0.12979673 -0.11116868 0.053325802 -0.12016925 0.0583514 -0.12595883 0.10840817 0.04006179 -0.03574058 0.113645315 -0.073222876 0.050526254 -0.16856506 0.031440377 0.0529187 0.10302603 -0.08290974 0.1024118 0.124426425 -0.07131646 0.098244466 0.03147461 0.034618765 0.09665814 0.05039291 0.0870359 0.028509025 -0.037688985 0.07313007 0.008975536 -0.028320272 0.076390274 0.07623713 -0.045778483 0.2082608 -0.0033752797 -0.027877139 0.0016619756 -0.109742284 0.020309491 -0.07659108 0.1218356 -0.19372302 0.032182068 -0.049272604 0.037609965 0.14678527 0.09747337 -0.06694532 0.10132335 -0.009505093 -0.10637079 0.0043570558 0.10214588 -0.016976565 -0.022871077 -0.014506082 0.029378116 -0.110698916 -0.086015195 0.098265365 -0.04471628 -0.048185855 0.11397526 -0.054249723 -0.11538048 0.075087816 -0.10196924 0.035057098 0.0681594 0.02832634 0.0535883 0.049582068 -0.123753816 0.004365604 0.015753614 0.10140461 0.10138604 -0.20257434 -0.08735621 -0.035972655 -0.026352784 0.1209698 -0.08449398 0.052982494 0.03354597 -0.089026704 0.12635098 -0.033287022 0.035241276 -0.022725075 0.010816468 -0.01776554 0.1086675 0.104714476 -0.026942248 -0.053258322 -0.08414005 -0.029635116 0.07494524 0.13012515 0.2010657 -0.06030193 -0.077405415 0.25924686 0.031753715 -0.026998855 -0.013876553 0.051360145 0.09232471 -0.030736715 0.052904774 0.07396123 0.1153743 0.0042962427 0.00035090835 0.10625114 0.09027334 0.053028613 0.11444649 0.020165265 -0.030327063 -0.09216431 -0.09474975 -0.0016604033 -0.07608232 0.04071333 -0.046372056 -0.024065495 0.025102077 0.06535795 0.037675034 -0.004966428 -0.091939546 -0.03406173 0.06654549 -0.21568805 -0.026436396 0.012851203 -0.23629656 -0.02783776 -0.045468003 0.25203714 0.10343711 0.21553765 -0.02118424 0.14136444 -0.07132165 0.075030416 -0.11927453 0.10679283 0.116119534 0.10054537 0.020908708 0.06845179 -0.08778585 0.058472604 -0.00920374 -0.12340957 -0.050102856 0.11552069 0.008118749 0.10452973 0.12988529 -0.11600682 -0.0062280595 0.07010245 -0.31954205 0.084426224 -0.0038481746 -0.12128118 -0.10038328 -0.09966311 0.025668146 -0.21912064 0.04081431 0.005757464 -0.09406608 -0.03125232 -0.040576544 0.025189305 -0.1568181 0.037852556 -0.016404215 0.25410202 -0.032586616 0.008227289 0.01295865 -0.103163496 0.0027079284 -0.026912808 -0.078912824 0.08524157 0.1003203 -0.0042946013 0.0006717231 0.118653715 -0.068746105 -0.0699029 -0.09264305 0.104445815 0.009421117 -0.072121024 0.16035518 0.081685156 0.11284651 0.021483418 0.08059507 0.10608447 -0.018664213 -0.23819174 0.0956824 -0.090084985 0.017341465 -0.06858494 -0.017840087 0.007477421 0.08158876 -0.1165407 -0.07568602 -0.024428803 -0.064758986 -0.09829442 -0.043763578 -0.41138735 -0.07806916 -0.027300168 0.026028842 0.0012108791 -0.11015909 0.12513313 -0.09404889 -0.25406188 0.02576227 -0.11601767 -0.010218909 -0.044234864 -0.031658817 -0.07513892 0.115049586 -0.09275544 -0.008549424 0.010346655 -0.036548506 -0.028091537 -0.1453494 -0.11586982 -0.10056949 0.01911753 0.09381214 0.002966579 -0.041131433 -0.11165753 -0.11257476 -0.11938596 -0.014625849 0.10466086 -0.0510782 0.12681688 0.042547442 -0.25101098 -0.009942418 -0.0036013408 -0.03841358 0.0037660715 -0.044223756 0.05212469 0.0021431777 0.09135874 0.040928602 -0.05281185 0.035660923 -0.10976147 0.059565764 -0.099701256 0.12420225 -0.048699193 0.049649358 -0.06555331 -0.07485111 0.024679748 -0.073635235 -0.10234333 0.11414498 0.032730132 0.09832269 -0.050961163 -0.030730247 0.108293094 0.086609006 0.4010167 -0.06963691 -0.016170029 -0.0011871902 0.018965075 0.07013047 0.025028348 0.23343937 -0.18567677 0.11439702 -0.06716801 0.036078304 0.124345124 0.12592013 0.06928612 0.01087667 0.0076798797 -0.15548998 0.0026021786 0.0031956863 -0.114355505 0.042053163 0.0011625935 -0.09843057 -0.17524183 -0.07591033 0.014019267 -0.022109091 -0.006100923 -0.053580165 -0.10048425 0.035061534 0.051242292 0.07827745 0.0028142035 -0.027781589 0.018179027 -0.106485695 -0.06411329 0.06864464 -0.019971834 0.011429801 -0.08287887 0.06852862 -0.29928404 -0.020088375 -0.07424614 0.09520401 0.05336255 -0.0051722657 -0.102195986 -0.031584043 -0.012467769 -0.0050115306 -0.13904817 0.11165166 0.089760095 -0.09665314 -0.02051445 -0.060589705 -0.021463763 -0.11607567 0.12109223 -0.008624495 -0.056456305 -0.09530583 -0.27185997 0.1769343 -0.10594764 0.032950692 0.17992558 0.07878538 -0.09586778 -0.07805761 -0.086150244 0.17477044 -0.08404809 0.07741306 0.05882208 -0.106230706 -0.023707466 0.088189125 -0.08027464 0.12134048 -0.0027352273 -0.08443141 -0.046206117 0.11501971 -0.12469751 -0.12235454 -0.069034785 -0.049110204 0.036119223 0.043305665 -0.06852728 -0.088109076 0.10127023 -0.038301915 -0.05860147 -0.05659026 0.104451954 -0.027109593 -0.015311575 -0.09769702 0.028547734 -0.0063331323 0.06265175 -0.05607128 0.073682934 -0.08009219 -0.12070701 0.04657924 0.061232816 -0.09123535 0.052501768 0.032808274 -0.11166641 -0.092895865 0.024576277 -0.039067008 -0.09504092 -0.11753434 0.0665597 0.08268896 0.016305298 -0.037953593 0.093450256 -0.11771688 0.06689936 -0.12754686 -0.053824693 -0.10946232 0.020852089 -0.07307556 -0.06731555 -0.10637772 0.042455137 -0.06309858 0.07748222 -0.042019993 0.0044840183 0.039637238 -0.068065315 0.08965427 -0.048489958 -0.11698389 0.04908961 0.013909416 -0.13297729 0.050270736 0.045060057 -0.07132751 -0.11413741 0.087812185 0.030024707 -0.05751875 -0.04640177 -0.0816682 -0.11510807 0.08437157 0.09671861 0.11743513 -0.104531884 -0.0738087 0.11364108 -0.010393053 -0.11254081 0.011461377 0.044123143 -0.065198556 -0.02489528 -0.025273949 -0.07790461 0.07003686 0.004847914 0.087042004 -0.042667374 -0.020055562 -0.07763845 -0.10514426 0.021569066 0.118386775 -0.0106116235 -0.033436872 0.0039941072 -0.0046817064 -0.07708496 0.051689357 0.06075421 0.066524 0.03948182 -0.045221407 -0.10832909 0.05111152 -0.055099994 0.109613 0.07805839 0.014291108 0.031604126 0.10748863 0.020649433 -0.0429871 -0.076252155 0.10013065 -0.079756975 -0.06424406 0.09880036 -0.025459766 0.054165363 -0.05350861 -0.06816524 0.007161625 0.059078038 -0.1237984 0.023219995 0.08871716 -0.05972922 0.026843429 0.057300746 -0.061823517 0.05107978 -0.06819254 0.013269514 0.116550505 -0.061045825 0.07809934 -0.08700717 0.0014947653 0.107503384 -0.071024686 -0.041305304 0.06692442 -0.03924966 -0.03692001 -0.083011694 -0.1006445 -0.1154485 0.104368 0.0025583506 0.074718475 -0.013704538 -0.036253124 -0.03126821 -0.106649786 -0.11624098 -0.03727591 -0.11296967 -0.036057174 -0.0050857607 0.10550472 0.10122123 -0.10635179 0.016151547 -0.07674748 -0.1382483 -0.097916454 -0.088814065 0.07440406 0.09835702 -0.12031484 0.12173149 0.0007716119 0.076171964 -0.123457015 -0.035414457 0.0917829 0.056414306 0.06344196 -0.14027588 -0.056257635 0.0123695135 -0.11224556 0.064946204 -0.12537111 0.07657713 -0.08086139 0.07069239 -0.082080215 0.04376045 0.05617228 -0.060903825 0.0016013682 -0.052432984 0.12491971 0.0007571578 0.0073741376 0.04822901 -0.048001707 -0.044704318 -0.012583733 0.009663105 -0.08142649 -0.09802474 -0.121478766 0.07575086 0.026937366 -0.0010876656 -0.11966106 0.05697586 -0.118825465 0.067175865 0.120476425 0.02965179 -0.10624087 -0.02419284 0.07665697 -0.044945717 -0.006484237 -0.09377098 0.000869751 0.09346012 -0.0022632778 -0.05164182 -0.005037427 0.019907266 -0.11952549 -0.085812956 0.009563774 0.059556752 0.091373116 -0.10332143 0.018636495 0.095188245 -0.09688557 -0.008515626 0.059649765 0.07476752 0.027883053 -0.10225657 -0.04430133 -0.12320626 0.061043043 0.06371489 -0.088015646 0.09324202 -0.12315354 -0.0015952885 -0.06774548 -0.011552066 0.094732136 -0.10677734 0.05138412 0.07194683 -0.09657174 0.08277136 -0.00594607 0.094449826 0.029546024 0.11009299 -0.048921704 -0.089897424 -0.080502816 0.036723644 -0.0011330683 -0.0460082 0.05376995 -0.092634335 0.037140757 -0.19966005 0.012232036 -0.05609357 0.09817288 0.115918376 0.016268551 -0.20103177 0.02034646 -0.10156457 0.044346627 -0.16815606 0.03543245 0.09974955 -0.024699863 -0.04727773 -0.01838404 -0.102706544 0.051061947 -0.030575484 0.09356214 -0.08882609 0.07377583 -0.03539923 0.30874795 0.11255914 -0.0849053 -0.051555663 0.03894021 -0.08557093 -0.020878285 -0.040355545 -0.06111644 0.051749617 0.07476152 -0.07165319 0.08505422 -0.07006964 0.020726899 0.17423904 0.071964465 -0.048371997 0.06699449 -0.040170263 0.10426398 0.03340583 -0.14027254 -0.07677466 0.001987281 -0.18144694 -0.07574811 -0.0902445 -0.032612726 0.003406857 -0.093889296 0.04718426 0.038367867 -0.05090349 -0.10261535 -0.023191795 -0.08009095 0.063212395 -0.029296177 0.02211216 -0.028482437 -0.10094862 -0.04388121 0.033311486 -0.19300206 -0.096426606 0.11960503 0.0003512758 0.002113845 0.098268956 -0.059408918 0.20725137 -0.038864933 -0.030953223 -0.037803918 0.0016086361 -0.11312267 0.026230004 -0.085937954 0.008767992 -0.03224756 0.11077442 -0.003774345 0.0016317028 -0.0027864873 0.12520236 -0.013967329 0.018542837 -0.04497391 -0.12929542 -0.029703394 -0.039655045 0.106217116 0.079756476 0.097026214 -0.08042142 -0.0134026585 -0.06145336 -0.12067428 -0.009904501 -0.08003664 -0.08906788 0.11417202 -0.074451834 0.11622824 -0.1163547 -0.11172101 0.102787316 -0.014195901 -0.31567594 -0.028922558 0.06623761 0.0015939195 0.02623334 0.10268349 -0.07713619 0.010383674 0.014638937 0.061938047 0.061787482 -0.033932988 -0.081634864 -0.048560113 0.05935091 0.08293678 0.07353398 0.0054637194 0.08092858 0.0467435 0.024562182 -0.101284504 -0.11279453 -0.10048048 -0.0054269396 0.003159349 0.0047695935 0.02016305 0.10554075 0.08224563 0.12315059 0.03707701 0.06517397 0.08370649 -0.013839517 0.104691476 -0.11155757 0.09485823 0.056144953 -0.09177056 -0.16103716 -0.11272997 -0.5869941 0.10465968 0.10803581 0.10491568 0.045757573 0.018737614 0.10289971 -0.18384 0.17862667 0.10591462 0.06193426 0.025503814 -0.34531242 0.07349828 0.07638129 0.04445886 0.09426296 0.0730168 0.06718675 0.016673854 0.01483497 0.044675108 -0.06746618 -0.11253283 0.15236393 0.07180527 -0.002365262 -0.080109 0.12281734 -0.100568 -0.09060988 -0.059969556 -0.0021007657 0.1124883 0.10822335 -0.09713462 0.04933231 0.03481856 -0.051336344 -0.035227995 -0.07926516 -0.11247473 0.24315137 -0.058775753 0.16571803 0.00854677 -0.02358511 0.08753433 0.09379825 -0.056675643 0.029413639 -0.029005207 -0.119329445 0.022239268 0.116108894 -0.110253304 0.088106245 -0.0017723441 0.030846754 0.109883904 -0.121477745 -0.104817614 -0.06765186 0.09998469 -0.13004832 -0.07905169 -0.09198521 -0.47596633 -0.09377119 0.037200402 -0.38261372 0.06086766 -0.0057486 -0.046099283 -0.04802239 -0.11921564 -0.11677918 -0.0108072525 -0.08976808 0.03807416 0.04276422 -0.12622477 -0.11496028 -0.016568838 -0.08114809 -0.06824431 0.03319916 -0.10574576 0.04326123 -0.008323044 -0.062953025 -0.08074871 0.080079764 -0.055628896 0.12029266 0.081106834 -0.09431574 0.037798703 -0.096806675 -0.01785507 0.1113365 -0.099616855 0.038130265 -0.0755254 0.004755676 -0.09837534 -0.098112136 0.03518945 -0.009965124 -0.037356287 0.100713104 -0.11505219 0.015087381 0.05442206 -0.11354482 -0.021481663 -0.09199834 0.09045783 -0.11039421 -0.01276194 0.091534734 0.11147758 0.0405415 0.014832765 0.0700506 -0.036214896 -0.085274726 0.054178268 0.05255279 0.049423892 0.083332926 -0.08952057 0.11083338 -0.08622131 -0.053672284 -0.07640424 0.094946 -0.06619716 0.08357379 0.04697895 0.101963796 -0.052901894 0.04954353 -0.10308576 -0.02138418 0.093680054 -0.08729172 0.083228946 -0.097111635 0.011409104 -0.14496435 -0.05727151 -0.06324956 -0.068132624 -0.041360736 -0.04566121 -0.10048169 0.013284534 -0.061695278 0.062695056 0.10041529 0.09294742 -0.019413203 0.068779975 -0.11009455 0.12237972 0.09834236 -0.08298373 -0.018842429 -0.028843988 0.09130791 0.011876076 0.061049998 0.06507182 0.08192465 -0.068636626 -0.12318073 -0.010265082 -0.11107552 -0.030523479 0.050584838 0.03194025 -0.021621019 -0.076274164 0.08382103 0.011418015 0.1068221 -0.11135554 -0.102550924 -0.0491547 -0.07302086 0.027130742 -0.021527141 0.05879146 -0.010836154 0.09546751 0.04705277 -0.07620132 0.011147393 -0.10420689 0.12171796 -0.055323437 -0.041073617 -0.010398984 -0.12268028 0.0023490489 0.08847734 -0.09487316 0.008979261 -0.06248969 0.11291984 0.03325849 -0.016812295 -0.028621823 -0.06521918 0.04589656 0.039018154 0.0448561 0.08668247 -0.072055474 -0.08379322 -0.1004304 0.021452397 -0.0740017 0.09217724 -0.11979401 -0.058914322 0.073415846 -0.00759843 -0.09207422 -0.0057184696 0.082154304 -0.060511112 -0.10096362 0.015954023 0.11982933 -0.0490577 0.035969466 0.036344856 0.09255001 0.06515509 -0.016012609 0.059428602 -0.035791934 0.009024501 -0.06526166 0.07320744 0.03864041 0.0055806707 0.10267651 -0.11138022 -0.08456242 0.11958578 0.07027468 -0.13572149 -0.0061745346 0.018385 0.020537555 -0.025516003 -0.088736996 0.095695615 -0.11669472 -0.07749358 -0.14299384 -0.030772876 0.0019933581 -0.03972298 0.066293925 0.062447406 -0.04423493 0.017599374 0.040896893 0.11231905 -0.07552288 -0.1124019 -0.10763994 0.009157956 -0.06629613 0.01579845 -0.030422091 -0.08882014 0.090022594 -0.025779128 0.06198117 0.11527988 0.11276978 -0.012936741 0.036835045 -0.09302679 0.10079488 -0.040056765 -0.04529275 -0.14794439 -0.039063334 -0.037370592 0.08650419 -0.08311799 -0.07620025 0.0068991035 -0.119472325 -0.033854935 -0.012550175 -0.018159747 -0.06095496 0.08494437 -0.08474547 0.009696603 0.010690262 -0.102561355 -0.08970362 -0.06211856 0.06555021 -0.03774774 -0.010052562 -0.07982132 0.039708227 -0.0036931634 0.08201963 0.021698028 -0.11497393 0.08110866 0.10972804 -0.15410487 0.008149907 -0.11815587 0.07805559 0.0020387254 -0.043509275 -0.07567009 -0.032352 0.04020199 0.022608792 -0.091819614 -0.095216274 0.12380499 -0.042970072 0.054740816 0.010722756 0.122484475 -0.08852759 -0.0642598 0.10567567 0.1111922 0.06288864 0.11892122 -0.043647885 0.008868634 -0.11536903 0.12162235 -0.124881744 0.08004883 -0.016627762 -0.05829552 -0.1126602 -0.013512889 0.1547497 0.04297805 -0.035360366 0.09178442 0.032662645 -0.0992754 -0.10767547 -0.09661808 0.015814781 -0.10502755 0.08706959 0.027259132 -0.062315315 -0.23030485 -0.25192663 -0.005376299 0.022254745 -0.0106156375 -0.030109823 -0.05262342 0.118479885 -0.050863117 0.024922479 0.008010417 -0.022845063 -0.03896427 -0.30461085 -0.048061565 -0.10091758 -0.056443892 -0.0004714109 -0.0152536165 -0.015361577 0.032316476 -0.020156108 0.011624187 0.100101046 0.06534794 -0.090711564 -0.08278927 -0.12440895 -0.43030962 0.0002451046 0.067537785 0.0904932 -0.06457295 -0.028107893 0.12143269 0.15947637 -0.20786084 0.117242225 -0.1987363 -0.110006124 -0.11227095 -0.018268043 0.057377454 0.07025376 0.10861716 0.054712534 -0.08272146 -0.06643442 -0.042419046 0.07563674 0.017609924 0.036931954 0.04788506 -0.03066817 -0.06130595 -0.12879781 -0.09572062 -0.04645132 -0.017982382 -0.0959902 0.0043613315 0.040467735 -0.085728556 -0.021328598 -0.16442724 0.12066472 -0.040776487 0.100611 0.01874229 0.02356854 0.044870663 0.14770174 0.06260225 -0.045860056 0.06409351 -0.06526336 -0.014341712 -0.10577148 -0.19596224 -0.017111521 0.04820452 -0.084052145 0.089015186 0.073325455 0.05660962 -0.07394135 -0.07667387 0.13000557 -0.0038748682 0.13026956 0.028619776 0.06657338 0.055454385 0.0814474 0.12300423 0.11785065 0.013276299 0.033390973 0.10578529 -0.016567413 0.059975535 -0.029318953 0.19231501 0.026271582 0.04874595 0.017300822 0.10477978 0.026209971 -0.038517416 0.07560632 0.00023526902 -0.07768023 0.0029236285 0.010791048 0.26059443 -0.09372352 -0.0947746 0.1082329 -0.0144300135 -0.114659995 0.011991895 -0.04036819 0.050062146 0.049171686 -0.050860144 -0.022916514 0.057632975 0.120128684 -0.0011797249 0.08376133 0.0927435 0.07084949 -0.12244025 0.0075441794 0.06771812 -0.06655991 0.3124113 -0.0005493255 -0.12205744 -0.082478225 0.10298545 0.04344833 -0.46261573 -0.025957286 0.13689412 -0.067102134 0.124691546 0.07958078 0.05874203 -0.0006625056 -0.083170205 0.15551274 -0.30320537 -0.03880748 -0.077980034 0.09833613 0.18042538 -0.06421752 0.054528527 0.08342889 0.008776486 0.18295863 0.085233726 -0.09785913 -0.110192865 0.09395361 0.1043516 -0.10784436 -0.1006585 0.029083699 -0.0269005 -0.10495624 -0.05903864 -0.11694342 -0.03888035 0.06547822 -0.051331967 0.06515232 0.039135426 -0.099105895 0.20582463 0.016044438 0.070963115 0.07736114 -0.08655247 -0.07586052 -0.073107734 0.11730802 0.077882856 -0.08284336 -0.092072815 -0.025710855 0.10290754 0.0029155016 0.0599049 0.17887819 0.08759169 -0.079313114 -0.036965936 -0.08712435 0.00043046474 -0.08527413 -0.042763285 -0.066553764 0.05729648 0.081513256 0.105765164 0.082129166 0.080414645 -0.10645928 0.054525714 0.12526922 0.05061096 0.10798315 0.10403806 0.011929488 0.0767062 -0.033673465 0.02434079 0.008688402 0.10089162 0.15743841 0.007813002 0.033010896 -0.06209642 -0.08342709 -0.06268293 0.008174539 0.09667209 -0.041545004 0.08268651 -0.023509257 -0.05774939 -0.052085698 -0.014593097 -0.0032200634 0.0695849 -0.022302806 0.024793625 0.05574375 -0.005983687 0.009466549 0.040803034 0.26937014 0.009840052 0.09324527 -0.14505354 0.12447001 -0.09405754 0.016057968 -0.07301676 -0.021545947 0.10854946 0.06046491 -0.30273414 0.02631973 -0.06986228 0.15348716 0.017042207 -0.054929398 -0.040979154 -0.00818333 0.024845622 -0.09656363 0.093479395 0.10033156 -0.08822861 0.11166444 0.094154924 0.13988152 0.042571716 -0.040752977 0.037167076 0.12827477 0.037085406 -0.00908947 0.115803115 -0.13443278 0.082036555 0.045306914 0.10061666 0.035977066 -0.11886409 -0.052880388 0.18928707 -0.0007510514 0.0480785 -0.11946964 0.11342403 -0.029630445 0.0031336814 -0.031043516 0.5626501 0.04410034 0.29002562 -0.117299505 0.11686718 0.14611237 -0.04429193 -0.08996859 0.07474898 -0.039673 0.017380448 -0.032875117 -0.026633266 -0.06282641 0.06537086 0.08914524 0.08234882 0.10745466 0.110806 -0.056143325 -0.022488356 -0.06253316 -0.016318705 -0.07994611 0.09556958 -0.017535726 -0.066552 -0.10047652 0.11765138 0.07084465 -0.12536265 0.0945068 0.0059506265 -0.12344316 0.040769763 -0.46537748 -0.040835887 0.11037685 -0.018916544 -0.008245915 0.06813942 -0.124871105 0.16271667 -0.07312439 -0.1066107 0.086997986 0.1218401 0.03314329 0.079138435 0.09242025 0.007366436 -0.0327961 0.0801262 -0.34590954 0.017197842 0.022662876 -0.08209166 0.050220467 0.09710947 0.0025376382 0.12101767 0.095102385 -0.017259337 0.07247614 -0.06186238 -0.026807204 -0.067778476 -0.03969137 0.033747736 0.062857755 0.028610185 0.0360182 -0.026754528 -0.0021939077 -0.016288681 0.07279962 -0.05127272 -0.09378482 -0.13800399 0.040532064 0.01829981 0.08561716 -0.013191678 -0.012325972 -0.09205988 0.07722288 -0.020950109 0.041205913 0.10760588 0.11536341 0.0036189272 -0.11528574 0.10997555 -0.06786586 0.0017613514 -0.038208086 -0.022481173 0.06503505 0.025871448 0.1056092 -0.37623265 0.032602455 0.07269558 -0.041120857 -0.050656658 -0.12078979 0.07058963 0.003134638 -0.012541449 0.045666963 -0.10271614 0.08761366 0.01830432 -0.08912576 0.07950814 0.15467711 0.02302884 -0.020823985 -0.1178285 -0.09774217 -0.04153957 -0.049234934 -0.014921174 0.013546357 -0.025194824 -0.33448866 0.12099637 0.08368208 -0.09162864 0.036923613 -0.09669314 -0.038226403 -0.0435436 -0.033908755 -0.046192054 0.10714536 0.045077235 -0.122419685 -0.038858294 -0.04694558 0.07921934 0.002306937 0.029610664 0.03915012 -0.011698633 -0.07804954 0.05140477 -0.03364246 -0.015987054 -0.057588235 0.2107551 0.075163305 0.088547625 0.10265267 0.043450445 -0.03235633 -0.11234161 0.12232584 -0.019339385 -0.14907943 0.122416325 -0.095019005 0.07964528 -0.03656274 0.054222703 -0.09214173 -0.00095772406 0.06383879 -0.013350349 -0.027289484 -0.118069276 -0.011550724 -0.106533304 0.036441356 -0.24440329 -0.088940166 0.07594299 0.05091492 -0.30878723 0.110683076 0.012361395 0.12280034 -0.08703992 0.058078956 -0.103948474 0.13391471 -0.036163177 -0.08927803 -0.062914036 -0.11948382 -0.016046379 -0.049250297 0.08778271 0.038986146 -0.03260255 -0.090703815 0.030189335 0.049208462 0.08605456 -0.034849435 -0.108383775 0.057421178 0.038827658 -0.10995835 0.09218201 -0.04762733 0.0513961 -0.07283217 0.083485335 -0.09015891 0.018143265 -0.026480913 -0.06984061 -0.018113852 -0.08311027 0.08874875 -0.019500475 -0.054624885 0.04146258 0.07765064 -0.013781786 -0.0987041 -0.085911095 -0.06687817 0.0027399957 -0.08753812 0.090528965 0.07507622 0.022998542 0.081567496 -0.10198474 0.08665919 0.023047268 -0.1339675 -0.09907225 -0.0067548156 0.011258513 -0.10814594 -0.06948513 -0.10279322 -0.025425076 -0.10620562 0.0632689 0.09436414 -0.022720575 -0.054444134 0.09517631 -0.017217398 -0.057724703 -0.08953959 -0.05527374 0.051453054 -0.06269848 -0.04297954 0.047582924 -0.13191122 -0.042638153 0.07443324 -0.08096594 -0.10378215 -0.053797036 -0.11283472 -0.07655132 -0.0035385191 -0.015486747 -0.06995854 0.079937726 0.029880047 -0.07845661 -0.12424639 0.06549448 -0.02101031 -0.042441785 -0.117426366 0.041308492 -0.076621324 -0.01434958 -0.13981873 0.11881021 -0.017476112 -0.047754556 0.059592664 -0.12370053 0.034412205 0.063862376 -0.049952567 -0.04362288 -0.005867541 0.08996397 -0.08790162 0.10699096 0.0127222985 0.06212589 0.008653462 -0.0915024 0.054647714 0.109422505 -0.046519846 -0.043467995 -0.06352177 -0.08376324 0.008480102 -0.07165757 0.024073958 -0.1120258 0.018788546 -0.05533892 0.00889644 0.087234885 -0.062405143 -0.08373061 -0.0016625822 0.010246277 0.09741664 0.045961857 -0.00067412853 -0.10103333 0.08551374 -0.023903579 0.07297686 -0.041769087 0.048782617 -0.011108231 0.091148466 0.06931412 0.032331288 0.038799524 0.04044926 0.006341547 0.04298976 -0.07059148 0.09649566 -0.11814904 -0.09274337 0.06981642 0.049314737 -0.110700846 0.09478611 -0.03644377 0.07613492 0.034531802 0.1104756 0.051235363 -0.016741991 -0.09287103 0.115770936 0.06437212 -0.088374674 -0.06738359 0.08864188 -0.037844688 -0.11703783 -0.11232653 -0.003477484 0.002790153 0.0058122277 -0.15011011 -0.074852556 -0.03129238 0.03768316 -0.07786739 -0.051404595 -0.059447736 -0.074129164 -0.033484187 -0.030513138 0.029217511 -0.06513962 -0.03655851 -0.06631842 -0.016598761 0.016344965 -0.099413544 -0.023604155 0.098564625 0.0703862 -0.09498033 -0.088404685 0.062428087 0.02087304 -0.06866923 0.016808648 0.024745405 0.019550562 -0.066470414 0.03535226 -0.070644885 -0.036340386 0.040293645 0.0299654 0.017205894 -0.050574243 0.046450406 0.03823015 0.07904032 -0.11927703 0.073936254 -0.11505377 -0.117569625 0.05627355 0.0469597 0.034713805 -0.11648965 -0.036018908 0.03045559 -0.050847888 -0.11492491 -0.09833145 0.008233894 -0.095695436 0.0021911561 -0.09446263 -0.088433534 -0.005545497 0.09266487 -0.071766794 0.010918349 0.077347994 -0.034385502 -0.018882066 -0.034971476 -0.028460056 -0.11038807 -0.10394934 -0.07222846 0.084711015 -0.049886048 -0.025688827 0.094961226 -0.08761254 -0.08467191 -0.11635317 -0.07679957 -0.005479187 -0.0047900467 0.09828827 0.031785488 0.034315914 -0.007189989 0.0137429265 -0.07657549 -0.14770491 0.0029747188 -0.09323743 0.11607921 -0.0839954 -0.12492287 -0.07717869 -0.050382912 0.10469958 -0.102811515 -0.09666664 -0.11150685 -0.024592757 0.10036587 0.07820713 0.07505553 -0.00096940994 0.09403658 0.15508701 -0.027197726 0.000789991 0.07688264 0.21622168 -0.08965549 -0.032376945 -0.017602846 -0.010608933 -0.09026591 -0.021242399 0.030405862 0.10310051 0.04850455 0.06909773 0.0141503075 -0.052696478 0.3069246 0.1852909 -0.118026465 0.07906063 0.10723342 0.05180475 0.06906304 -0.08111473 -0.115211904 0.068068594 -0.070133984 0.086015485 -0.1099034 -0.013124687 0.015096009 -0.09398836 0.1196548 0.11063862 -0.01460203 0.06982702 0.042790234 -0.030877084 -0.05927658 0.10884548 -0.12466511 -0.011709154 0.042364 0.07429201 -0.010114851 -0.118393876 0.08264383 -0.011537969 0.11933026 0.051653147 -0.08751473 0.04270473 0.055949256 0.03925727 0.050592728 0.032903895 0.045271754 -0.033336513 -0.039725672 0.108968735 0.10694489 -0.034391075 -0.11340909 -0.027004477 -0.09464296 0.11246807 0.042750746 -0.06774711 0.005215466 0.025541306 -0.10562657 0.054816812 0.09798393 -0.17111464 -0.097285084 0.10101634 -0.09291803 -0.041358266 0.05833097 0.089834996 0.067490846 -0.10664118 -0.0013104385 0.023045033 -0.10991546 0.050883144 0.025166791 0.040777557 0.016277641 -0.006782906 -0.111176446 0.03187391 -0.07940871 0.011418939 0.06188394 0.12590806 -0.113901824 -0.09676081 0.018477604 0.12666538 -0.09570601 0.060427044 -0.11021572 0.08974125 -0.050060295 -0.2441043 -0.025204679 0.10859604 -0.036577683 -0.03415015 -0.054361463 0.099828735 -0.094903916 -0.05522574 -0.10598233 0.07813491 -0.07769731 0.112564325 -0.15215649 -0.029307246 0.055182397 -0.07669186 -0.09365085 -0.029391604 0.016566068 -0.0055360743 0.0908425 -0.10432643 0.025361892 0.036054794 0.032202523 -0.041815937 -0.029054986 0.06743104 -0.08710499 0.10105032 0.054605033 0.01786191 0.122847065 -0.048451304 -0.27306357 0.021374807 0.10039596 -0.093117796 0.111527264 -0.013466451 -0.12777601 -0.11119165 -0.049398303 0.040057294 -0.0027566804 0.05413645 0.0049453615 -0.034949224 0.116446584 0.030696154 0.09766224 0.011570379 -0.13305809 0.02113396 0.111136496 -0.045830317 -0.049775876 0.06203616 0.03003495 0.07775399 0.057270963 0.0073961616 -0.0128936125 0.06894711 0.093606666 0.07255688 -0.18151557 -0.0886767 0.031110516 -0.036908377 -0.032813966 -0.13417384 -0.031068433 -0.066340275 0.10811368 -0.054188013 0.12582698 0.10590064 -0.09456454 0.025013924 0.08016015 0.107400395 -0.0985401 0.106537074 0.05829679 -0.04874419 -0.09482807 0.028272815 -0.08452636 0.009726552 -0.019087568 0.043213725 -0.107933305 -0.04649341 -0.11386881 0.11915749 0.10609862 0.010165483 -0.11839153 0.022971362 0.058130145 -0.11551234 0.036513597 -0.015957832 0.014263612 -0.095871866 0.12452804 -0.13116014 0.08182827 0.057237506 0.025581121 -0.13640966 -0.078451574 -0.041049324 0.019313665 -0.09685512 -0.042807624 -0.055965967 -0.008456136 -0.034545872 0.015884781 0.03763486 0.033218384 -0.03219153 0.13892926 0.018171024 -0.01615011 0.12495491 0.109707944 -0.059366576 -0.053555876 0.029830411 -0.004204051 -0.22493967 0.099026315 -0.017962039 0.04220924 -0.028054822 -0.01431793 -0.04150358 -0.08027655 0.09113431 -0.0012805164 0.10304037 0.057939846 0.0597126 -0.027765328 0.060952187 -0.1140798 -0.06774921 -0.037682366 -0.10389665 -0.08125132 0.09630801 0.046573438 0.07129139 -0.12895498 -0.11537755 -0.081818685 0.04465076 0.061803203 0.032073706 -0.07089963 -0.10263423 0.06321228 0.008872526 0.016457923 0.124515995 0.04726587 -0.048010506 -0.002050251 -0.10281855 -0.10767565 -0.010945603 0.07626405 -0.058873735 0.11759853 0.05453153 0.019657876 0.15033771 -0.18613157 0.08711997 -0.034606688 -0.04715681 0.06489104 -0.023528934 0.11980904 -0.2599276 0.117319286 0.07208956 0.043004334 -0.010045856 0.06398103 0.09605319 -0.04807429 0.028774338 0.0636557 -0.017078876 0.024130171 -0.07135882 0.031152153 0.086837575 0.3456333 0.10669015 -0.25779575 -0.11079546 -0.08820594 0.1078922 -0.11673629 -0.083886504 -0.08424012 0.033682197 -0.10173131 0.04880998 0.10981012 0.107290946 -0.028325647 0.07316129 -0.12207633 -0.1019364 0.054416362 0.051475488 0.10455477 0.18901236 0.07999955 0.097092375 0.116861545 -0.078284346 -0.10778896 0.035721403 -0.32601088 -0.08290094 0.050941996 0.107801795 0.07569287 -0.05729428 0.12001669 -0.62449515 0.026642889 -0.06933125 -0.11935085 0.06407997 0.090397745 -0.012744069 0.022650864 0.040928073 -0.008290145 0.0826222 0.1294151 -0.05829361 -0.045154884 0.027391374 0.13386185 0.0666066 0.015605653 0.19942735 -0.11261723 -0.111244984 0.09732852 0.014787751 -0.11133897 -0.013119004 -0.046221085 0.04826119 0.054199953 0.07682118 0.12023854 0.05138938 0.13506255 -0.010437475 -0.07691665 0.001479761 -0.022342836 -0.13492979 0.0050172806 -0.05731209 -0.00013101492 -0.044160753 -0.07162895 0.04498789 0.07622006 -0.030384824 0.04927934 -0.054386437 -0.089555055 -0.017844647 0.033284284 0.018718237 0.050433274 0.03367552 0.07565496 0.009807817 -0.024788244 -0.00556476 0.08199471 0.008131048 0.107888855 -0.06782433 -0.0759168 0.08569026 0.013122545 -0.080824725 -0.08774298 -0.04140991 0.066039085 -0.010932565 0.05109956 0.037903387 0.11651934 -0.10895187 -0.035384417 -0.120698266 0.10630896 0.02132338 0.055888128 0.044823706 0.09253663 -0.065535486 -0.109366626 -0.1054261 0.092133 -0.096616864 0.044664975 -0.11868244 0.014949059 -0.09412881 -0.051324844 0.15379444 0.07345706 0.075420156 0.10329738 0.013491935 0.11306855 -0.016177898 -0.045011465 -0.08626211 0.04234529 -0.070973866 0.10273656 0.0045284927 0.0072959065 0.017706504 0.12024537 0.0023529192 -0.07798082 -0.10464938 -0.07701752 -0.12142354 -0.12189835 -0.0051932824 -0.02550522 -0.006274224 0.114397764 0.03463772 -0.05696156 -0.045146108 -0.063459665 0.044710167 -0.06828931 -0.12036323 -0.122915275 -0.05533527 -0.015582648 0.075634085 -0.078677684 0.007341355 -0.051806718 -0.06051105 -0.01133699 0.07171906 -0.08870093 0.09015644 0.07762912 -0.04672677 0.006242659 0.0053748842 0.05476421 -0.3093803 -0.040106356 0.05873148 -0.10563959 0.07530121 0.058782086 0.10646646 0.044659905 -0.024991183 -0.06994268 0.121199146 0.032432552 0.08469526 -0.11442877 0.020381821 0.04120905 -0.105014585 0.083001584 -0.012143552 0.057778656 -0.07619967 0.09707728 0.014855266 -0.060604777 -0.088105135 -0.015464501 0.0823521 0.026281089 -0.06809796 0.04310016 -0.018262628 0.11304124 0.044738427 0.05708717 0.0018684566 0.14861843 0.07936657 -0.038859848 -0.13838828 -0.023141274 0.04123658 0.09879955 0.07528625 -0.23694602 -0.11898626 0.073061936 -0.005716933 0.03843913 -0.02030326 -0.06591624 0.06190625 -0.08465869 -0.03567265 -0.0978384 -0.056499917 -0.0062209666 0.072582975 -0.060453128 0.2836541 -0.050851606 -0.0067779124 0.11700377 -0.117843024 0.041173752 -0.058593303 0.001932705 0.26321164 -0.09752539 0.102142416 -0.061831534 0.022158086 0.071507365 0.088724874 0.08396403 -0.013595034 -0.02857232 -0.075487435 0.040315267 -0.056846935 0.02089616 -0.003372085 -0.24114928 0.020720625 0.21565722 -0.002264682 0.027616775 0.091681235 -0.050644726 -0.067321986 0.031760417 -0.03998241 0.10605073 0.08569165 0.077066824 -0.04432235 -0.02439019 -0.059138626 -0.073331356 -0.09986773 -0.049794234 0.06496117 -0.0046666265 -0.18875037 0.019740032 -0.101249084 -0.079099014 -0.010831952 0.04957707 0.09908096 -0.114413984 0.09427744 -0.11907271 0.019109398 0.048948668 -0.072369576 0.065190434 0.1450877 0.07776165 -0.08500606 -0.106707186 -0.10891923 -0.043562245 0.025383562 -0.10581077 0.09546125 0.11007872 0.0700002 -0.028619885 0.059188556 -0.12017984 0.11203241 -0.12714595 -0.012507067 0.035643645 0.00087496353 -0.11036278 0.09590377 -0.09734257 0.08722545 0.004859656 -0.023177685 0.015020174 -0.021793084 0.007820103 0.0564762 0.11587274 0.048889656 0.052375827 0.048448116 0.1055978 -0.005004474 -0.0048852605 0.12038274 -0.076897144 0.011060792 -0.031240765 -0.09017241 0.022684233 0.072864465 -0.18486483 0.10520813 0.06610373 -0.11368154 0.03640111 0.05535662 0.049263757 0.06495746 0.18003717 -0.106773496 -0.044684585 -0.085185945 0.11775945 -0.09758218 0.03393233 -0.11882173 0.07134087 0.028055215 0.009599268 0.027242191 -0.0035621074 -0.08305427 0.09477805 0.08299633 -0.07744318 -0.058681846 -0.046589106 -0.00048008395 -0.23405132 0.01422289 0.06283596 0.066983394 0.115318805 0.05387224 -0.06922391 -0.07688613 0.011331689 0.14049421 -0.011304068 -0.11277521 -0.0999338 -3.257394e-05 -0.2363769 0.09815454 -0.097805895 0.09263542 0.07847661 -0.08285002 0.11785329 -0.0015579485 0.07853827 -0.054981414 0.102667265 0.03689532 0.18970148 0.09045005 -0.11972373 0.013085679 -0.045541316 0.1151506 0.029682873 -0.05189689 0.015050232 -0.076061964 -0.10001564 -0.020246252 0.13264558 -0.08657411 -0.0308058 0.036263913 0.04326736 0.016715363 0.03821129 -0.058994085 0.0557778 0.06696707 0.09332681 0.087356426 0.07261285 0.029634858 0.072602086 0.08954151 0.009144333 0.01773681 0.09935219 -0.034916162 0.009775102 -0.10192857 -0.034474768 -0.008924187 -0.024132416 -0.08308889 -0.09033618 -0.09740447 -0.018901337 0.03972596 0.03351322 -0.04503122 -0.087378144 0.018249761 0.15194939 0.1030432 0.00020034252 -0.07903221 -0.102598526 0.13133256 -0.048757344 -0.16988298 -0.115861654 -0.047861274 0.075171605 -0.09014418 0.12118998 0.08249196 0.04950854 0.0870654 -0.09839234 -0.019736918 -0.1238794 0.107548416 0.008779346 -0.11273447 -0.07354156 0.103022754 -0.10207498 -0.022086998 0.023204297 -0.044015378 0.07186716 -0.14058201 -0.009864688 0.033655524 0.09295096 -0.07847937 -0.11953547 0.08020453 -0.08052902 0.049580455 -0.24262907 -0.031111926 0.029999468 -0.028503623 -0.21945895 -0.029706296 0.07697463 0.014528671 0.0461866 -0.11574277 0.067145914 -0.06862784 0.096092194 -0.07726624 0.0064341426 0.06635067 0.101343215 -0.14812645 -0.19909407 0.05509156 0.10861587 -0.107040256 0.043501917 0.1112878 -0.014904082 -0.024639325 -0.10410863 -0.033867795 0.027453989 0.110321194 0.094566345 -0.09139754 -0.12001443 0.034541033 0.020681104 -0.040226072 -0.12099294 0.0845494 0.096287325 0.06141405 -0.061941225 0.042316023 0.022042476 0.044065345 0.03374341 -0.07866617 0.11636004 -0.12292111 0.023233145 0.122157395 0.11326837 -0.008524185 -0.03341499 0.030634083 0.09689465 -0.11059162 0.09059581 -0.10434449 0.101809 -0.0064445385 0.039250046 0.053058077 -0.0013438844 0.011113926 0.0023327768 -0.084159896 -0.013405113 0.10321636 -0.044093203 0.11264047 -0.06977164 -0.109871656 -0.09594554 -0.06623614 -0.020618351 -0.2117709 0.0262824 -0.06875479 0.04244664 0.011841208 -0.06559011 0.059494942 -0.12120246 0.028982071 0.101725645 -0.0032732189 0.08516469 -0.0023238177 0.0040740077 0.001842916 0.042094193 0.07362972 0.026986837 0.051056344 -0.08986284 -0.05579576 0.005871565 0.07914147 0.04463181 0.09501472 -0.075050294 -0.11312723 0.032526508 -0.046421405 -0.0071825087 0.09118464 0.011531596 -0.03556171 -0.048964042 -0.06408531 0.0042379797 0.11603558 0.1004436 -0.07739926 -0.009747552 -0.12076822 0.018270226 -0.046301268 -0.051260997 0.13047324 0.020888465 -0.041940954 0.05661756 0.009909809 0.033297494 -0.08131962 -0.23105223 0.049268603 -0.07224415 -0.05176586 -0.12137106 -0.0122014275 0.07997584 0.07693626 0.029939659 0.024335027 0.05316305 -0.124175236 -0.004066799 0.04592285 -0.1095605 -0.1081002 -0.0063176453 0.09644124 0.11165497 0.06993288 -0.089727364 -0.12106255 -0.101858914 -0.09367838 0.04808083 -0.03510826 0.014099032 -0.11074093 0.045295767 -0.0358725 0.06846408 0.027527362 -0.08831179 -0.01422295 -0.11090582 0.07384658 -0.102580965 -0.117468275 0.12292579 0.036370847 0.017113024 0.07183292 0.08301163 -0.08815798 0.11211926 0.11451265 -0.13037694 0.09758097 -0.039816998 -0.06734538 0.03486204 0.04294485 0.117990434 0.10657908 -0.11187613 -0.08138606 -0.11053792 -0.017380306 -0.067763284 -0.1076369 0.11842677 0.056915224 0.0951329 -0.11511237 0.031737115 -0.072814584 -0.037908904 -0.10939276 -0.039247215 0.11507205 0.10587749 0.09365797 -0.089552246 -0.043729205 -0.10137308 0.004796617 -0.089209974 0.11965716 -0.018918127 -0.024601042 -0.055143267 -0.0863844 0.046256203 0.1135632 0.029833764 0.062037162 0.003049552 0.016428594 -0.035252903 0.033596687 -0.07649028 0.070319735 0.0031931908 -0.002547111 0.10698691 -0.064268224 -0.08493784 0.09422618 0.004232496 0.026877815 -0.0005182793 0.08659814 0.01127119 0.09905617 -0.08185491 0.011534065 0.102580905 -0.030591547 -0.123787075 0.098502934 -0.10885009 0.008286595 -0.06616092 -0.009090537 -0.023261795 0.037663996 0.018887639 0.0043396666 -0.0859175 0.06561485 0.108011335 -0.10476932 0.09731543 0.06532705 -0.079304285 -0.045596983 -0.085714914 -0.08141559 -0.12252203 -0.03430569 -0.05209067 0.1166762 -0.08938629 0.09396024 -0.14259405 -0.11773716 0.048302807 0.0034445706 -0.0963408 0.06465945 0.11604273 -0.020922175 0.08920196 -0.0029824048 0.010667533 -0.06885644 0.09948462 -0.09133042 -0.042065717 -0.039346814 -0.040242214 -0.06782947 0.10670367 0.058879465 0.061095178 -0.07124136 0.041706175 0.109989256 -0.0072616935 0.058941007 -0.0396083 0.10317226 -0.10871235 -0.09181725 0.07606921 0.011013299 0.05676072 -0.005723582 -0.08632937 -0.034767117 -0.07792066 0.06366119 0.07438252 0.071006455 -0.044588774 0.06913346 0.056435518 0.10305056 0.09202677 -0.047641695 0.027262844 0.00325647 0.08188218 0.015620509 -0.06576806 0.11695346 0.044041783 -0.0513798 0.103659615 -0.064970575 -0.08959353 -0.039722 -0.030952688 0.043261446 0.10423672 0.07682603 -0.041747905 0.09103047 -0.09127877 -0.07503191 -0.088200435 0.064171135 0.057272315 -0.017181426 -0.05331961 0.066782825 -0.053308576 0.07674326 -0.002516403 -0.1077621 -0.03840205 0.11842814 -0.08183938 0.042952415 -0.010685869 0.06853628 0.10081686 0.036946207 -0.0033579315 0.03066957 0.10168318 -0.03906564 -0.11696994 0.0742072 0.004312993 -0.0671134 -0.009531892 0.083398506 0.006303638 -0.060191512 0.012000013 -0.01936002 0.068823025 -0.08937909 0.019764364 -0.029368171 0.052061573 0.04976237 0.109017245 0.030334884 -0.024154812 -0.05473749 0.10907176 -0.09392219 0.049801506 -0.00036808848 0.06815056 0.028352547 0.028109146 0.013101537 0.028151518 0.008560564 -0.015458487 -0.1015079 -0.06629499 0.032562457 -0.06751268 -0.09119657 -0.076814726 0.07245541 -0.03215723 0.08901125 -0.10385871 -0.0059241336 0.09724882 0.064318806 0.042651027 -0.1151677 -0.01057382 0.09302141 -0.025163146 0.08204447 -0.03649631 0.050183 0.09584986 -0.049168557 -0.03702574 -0.01663047 0.033457868 0.06619423 -0.005582124 0.088949226 0.040464263 0.031472772 -0.030000305 0.0065145525 0.05592299 0.014175385 -0.1172114 0.026022822 -0.16484678 0.10129011 -0.023475002 -0.12816164 0.036058128 -0.115036055 0.020415656 0.0412938 -0.035276175 -0.057792425 -0.122379415 0.018954692 -0.08849696 0.052131236 -0.060702436 0.0065504014 -0.12304312 -0.10568106 -0.018565953 0.080695055 0.09283307 -0.11800873 -0.08990884 -0.09882192 -0.1163944 -0.06739822 0.051535696 0.063453555 0.0075842654 0.08730686 0.0017526454 -0.008434355 -0.07801118 0.10527316 -0.10684982 0.04309845 -0.11252767 -0.03818497 0.10041804 0.022274159 -0.040826622 -0.02334382 0.05047056 -0.018722594 0.07284954 -0.0932934 0.1226402 -0.081991084 0.12404155 -0.052617595 -0.110679954 0.057670366 -0.10096674 -0.011035667 0.052666374 0.077448905 -0.03083089 0.057762068 -0.051426828 -0.02748874 -0.017019033 0.0027368704 -0.1096476 -0.06754562 -0.060501367 0.09282759 0.0711784 -0.05348251 -0.050857674 -0.05823687 -0.07048589 0.07833797 0.0006607473 -0.05882585 -0.041653693 0.06613899 -0.08302322 -0.08156383 -0.107536286 -0.11751328 0.090880126 0.08113524 0.0656707 -0.16309533 -0.06296858 -0.10388473 0.11434936 -0.37429568 0.047819853 -0.014539391 0.048924148 0.029710654 0.005439519 0.012549991 0.08327191 -0.04258588 0.02135847 -0.036770876 0.18467788 -0.104585044 -0.11456177 0.1388091 0.054364175 0.054937948 -0.073811434 -0.02227518 -0.01577267 0.047063917 -0.013254762 -0.004677856 0.03947434 -0.032247163 -0.112986326 0.44067803 -0.09616669 0.07170531 0.08756171 -0.11142668 0.042922974 0.0806064 0.08482462 0.16506496 0.094569236 0.014640931 0.007965207 -0.021903932 -0.031222641 -0.057028163 0.19727471 0.08398967 -0.11339868 0.067008734 0.09491767 -0.10723172 0.1176079 -0.40283397 0.11342903 0.04269822 -0.058390092 0.077761546 -0.012053013 0.051367648 0.11222247 0.03520918 -0.03029123 0.026008427 -0.11622058 -0.09251402 0.12204006 0.025145916 -0.018752933 -0.08134328 0.014919072 -0.09247902 0.03742285 -0.12042222 -0.0036592185 -0.03442771 0.07007332 -0.025881592 0.09035066 -0.109177165 -0.043859813 0.035865467 -0.01109225 -0.099661484 0.09971343 -0.09850699 -0.038636155 -0.035025865 0.07645718 -0.3282247 -0.017737716 -0.10951107 -0.04487061 0.030275822 0.0775613 -0.046578854 0.1318221 0.06609126 -0.07931436 -0.045835048 -0.0053903847 0.10080844 -0.02543505 0.013031334 0.09101794 -0.015629409 0.0150944535 0.2949198 0.114233695 0.005037791 -0.0652965 -0.020064065 0.10409039 -0.12650295 0.012707442 -0.026970947 -0.0015706443 -0.07092089 -0.0037335753 -0.055834543 -0.65366733 -0.04084584 -0.09054768 0.030441537 -0.013236016 -0.10841627 -0.0968 0.11856085 0.015885927 0.025487155 0.0900045 -0.12747477 -0.32496 -0.062603354 -0.053841494 0.10430212 0.064211525 -0.06460354 0.08792845 0.037229866 0.14263198 0.07183209 0.09268541 0.11034449 0.049131837 0.041864224 -0.0043134987 -0.09420694 -0.04720137 -0.065843076 0.018808037 -0.10491566 -0.07088322 0.06365561 -0.07186468 0.08857949 -0.089925855 -0.058322728 0.08072531 -0.108376384 0.23714618 -0.10937601 -0.2234211 0.1055935 -0.009662036 0.11275692 0.07692963 0.048062146 0.01529366 -0.33073688 0.23602675 -0.040851682 0.077081226 0.011742204 -0.028520467 -0.08727815 0.096749045 -0.042840198 -0.029302329 0.30775785 0.05087057 -0.074243054 0.042121977 -0.08183658 0.11523932 0.058213923 0.21675533 0.099154055 -0.09580354 0.029518425 -0.041986316 0.11664048 -0.008679718 -0.09596546 0.011271834 0.013213664 -0.019423723 0.13044915 -0.12805045 -0.044198424 0.020873517 0.060663056 -0.051329095 -0.033669114 -0.11359566 0.11044186 0.034340575 -0.12362072 0.002455324 0.11370887 0.06481144 -0.061825033 -0.013254433 -0.13846701 0.004287185 -0.10902556 -0.025905333 0.10437065 -0.0403139 0.08498558 0.048459385 -0.10455776 -0.071477436 0.08631335 0.036486596 -0.0018340573 -0.04170862 0.10654837 0.24787001 -0.44131047 0.12220183 -0.008738007 0.021166857 0.040435366 0.0865047 0.015077152 0.11498345 0.10084577 0.030041367 -0.5363585 -0.0022017187 -0.07042816 -0.03368341 0.124574095 0.07100201 0.0076627736 0.090893 -0.04438743 0.085691035 0.103122294 0.027103573 0.10633063 -0.013907075 -0.0344584 -0.1038042 -0.067884445 -0.015524387 -0.13784361 0.12244955 0.029155105 0.07053131 -0.4145875 -0.08500999 -0.012983859 -0.03416131 0.03592211 -0.1154629 -0.025451472 -0.071564764 0.107652366 0.07531931 -0.07949653 0.092594415 -0.03469944 0.2777991 0.11874778 0.049913168 -0.0026482642 -0.08525464 0.07415196 -0.009419948 0.16676821 -0.042976886 -0.015063137 -0.043759882 -0.05679694 -0.085865915 0.17000164 -0.0140533075 0.04356134 0.020822227 -0.0680726 -0.042218804 0.0988037 -0.049238056 0.028565584 0.035953283 -0.028436005 0.08078331 0.10847604 -0.07548201 -0.017876983 0.23470059 -0.036769688 0.037398607 0.046836704 0.0045776367 -0.07457766 0.09680128 -0.3644187 0.026764767 -0.005636722 0.19412452 0.027118444 0.06926897 0.16833958 0.08622265 -0.01301977 -0.06338927 -0.098287195 -0.11094707 0.10568124 -0.0126591325 -0.06692803 0.11851743 0.09548208 -0.059259504 -0.0037976205 -0.07324961 0.034317166 -0.066380054 0.021324508 -0.062936425 -0.061219275 0.09390974 0.11036202 -0.09165087 0.024913758 -0.026234066 0.020550221 0.06594175 0.0660736 0.036539603 0.034661055 -0.005392939 0.13401683 0.08074024 -0.12460649 -0.091641426 0.050174385 -0.026120484 -0.069410086 -0.056044184 -0.09332906 -0.114168346 0.091030955 0.11949879 0.092737556 0.07766774 -0.09956804 0.09329188 -0.07907948 -0.016364396 0.23825297 -0.060110867 0.104162395 -0.0015482306 -0.11128187 -0.045185477 0.043435484 -0.1151022 -0.11710921 0.05897385 -0.08022434 0.046033055 -0.055021316 -0.10344354 0.08485249 -0.058227062 -0.09965238 -0.027115554 0.06864061 0.108222246 -0.04838541 -0.11295056 -0.033426404 -0.06103605 -0.032463342 -0.32082245 -0.08433741 -0.103152156 -0.03894303 0.09487787 -0.070032984 0.0010426939 -0.095701516 0.2914019 -0.006151378 -0.195232 -0.07326472 0.03163737 -0.100601554 0.032753855 0.06824151 0.06646204 0.036898315 -0.08776814 -0.079879254 -0.048413157 -0.094355404 0.036087174 -0.049321264 -0.08464894 0.026920676 0.12002948 -0.11958498 -0.038666207 -0.008568525 0.105701536 -0.03886333 0.10867238 0.06891257 -0.102196604 -0.09104639 -0.061753333 -0.33510685 0.11169143 0.033546418 -0.059254855 0.04434222 -0.13315952 -0.09090938 -0.028760523 0.08859542 0.09366587 0.28479657 0.096215844 0.037623078 -0.07110649 0.056041688 0.09697035 -0.08994655 -0.0061580343 -0.09836462 0.08848092 0.05270943 -0.026078701 -0.097112685 -0.053871363 0.10786158 0.05979711 0.08683643 -0.09373763 -0.09797261 0.07655824 0.07017216 -0.09307572 -0.08522743 0.044763535 0.0011498928 -0.3234905 0.116844594 0.09742227 -0.017098278 0.06357491 0.10433632 0.085014075 0.05557549 0.018819332 -0.05260152 0.0962072 -0.031425714 -0.07321584 -0.050016165 -0.053324223 0.007020861 0.040352553 -0.052011847 0.02249062 0.11292407 -0.024067491 -0.030510664 -0.03660083 0.103871405 -0.085108764 -0.12669994 0.11304289 -0.10759643 -0.7578102 -0.112716556 0.01244691 0.043222845 0.07958278 -0.32031295 0.077964276 -0.29001793 -0.111157805 -0.22929649 0.009070545 -0.026275873 -0.07891908 0.08690831 -0.11044499 -0.047855645 0.1140365 -0.12856331 0.07232195 -0.027039915 -0.032756247 -0.013202168 0.042191517 -0.08674124 0.08873403 -0.09271665 -0.10416007 -0.06965643 -0.107604615 0.037449714 -0.01917839 0.057426333 -0.10078286 -0.10090809 -0.07756901 -0.070114546 -0.06230403 -0.012534857 -0.11954238 -0.04134587 0.030227883 0.026465638 0.020540014 -0.10239375 0.07293648 0.07130495 0.114273414 -0.109650254 0.03377661 -0.04934978 -0.06327465 -0.090381056 -0.04979354 -0.020623285 0.09277943 0.022623165 0.08549005 0.04155141 -0.058694433 0.09657167 -0.07626663 0.035629988 -0.03481555 0.05480901 -6.738305e-05 -0.0884495 -0.07398385 0.09349927 -0.04288113 -0.08878051 -0.10424038 0.041078493 -0.09607039 0.028586358 -0.04227757 0.05348925 -0.015977323 0.10002456 -0.061425548 -0.03377894 -0.142688 0.101052664 0.005231887 -0.013673913 -0.12050123 -0.011849642 0.063221514 -0.121592194 0.01025021 0.07375254 0.08803001 -0.090389594 0.04657629 0.049399737 -0.07891372 0.117046535 0.016394245 0.058619 -0.006926626 -0.09328532 0.11278179 -0.055194046 -0.09595224 -0.0728305 0.049023077 0.035945117 0.07052277 -0.023121633 0.075004965 -0.014321953 -0.045409195 0.048026085 -0.04104662 0.02274483 -0.12414873 -0.0798891 -0.04849137 -0.026459128 0.11934565 -0.06349155 -0.05400845 -0.09584373 -0.08696104 -0.11625144 0.05594481 0.0821565 -0.060496926 0.0796853 0.005896148 -0.015720189 -0.07774624 -0.005961435 0.038125716 0.10661283 -0.076661415 0.11493373 0.07344428 0.10700985 0.11632219 -0.09470513 0.10804817 0.09988664 0.10691139 0.032696236 0.013654602 0.029661268 0.027393242 -0.080460824 0.010198772 0.0762038 0.076251924 -0.13008183 0.018175812 -0.1076498 -0.07294545 0.113310546 -0.055422593 0.022246804 0.062497143 0.021511503 -0.017949017 0.03199774 0.07007297 -0.068672605 -0.10890988 0.12112737 -0.06810572 0.028857179 -0.101331845 0.09319067 0.10098398 -0.10693865 -0.03514175 0.11348094 0.020450056 -0.083706014 -0.04310013 0.07232566 0.07972065 -0.09138698 -0.11622992 -0.102069795 -0.073733754 -0.0024019778 -0.079661906 0.042487472 -0.11100481 0.047956586 0.11003661 0.06405444 -0.11427493 0.12043905 -0.040161464 -0.016964149 -0.047908135 0.044251233 -0.08432381 0.0087353885 -0.08921439 0.008566476 -0.05583999 0.016957184 -0.051786155 0.10625436 -0.059406962 -0.10914608 0.1139555 0.11814287 -0.108980164 0.096188076 -0.017022673 0.070928216 -0.07146147 0.04216045 -0.08679131 0.077254176 -0.057077974 0.10046454 0.10816872 0.038378477 -0.030591398 -0.044245757 -0.12591624 -0.087243766 0.11702967 0.08547416 -0.048588354 -0.01826691 -0.03684331 0.04426229 -0.10261087 0.0011952221 -0.1247372 0.11601435 -0.07746625 0.016647607 0.029292412 0.07036128 0.057198133 0.05415382 -0.107967705 -0.06772393 0.12046775 0.05973664 -0.11237174 0.11147813 0.12176641 -0.0018601167 -0.044774234 0.022052458 0.090070285 -0.092124954 0.020408796 -0.080191106 -0.004416615 -0.067776114 0.045841374 -0.06540706 0.11145815 -0.03278369 0.004715366 0.08442644 -0.06418803 -0.093024075 -0.026199114 -0.029667191 0.10047514 0.08351065 0.12054193 0.064177126 -0.065122604 0.11766875 0.12078503 0.019293666 0.09607637 -0.10505721 -0.025865376 -0.056874663 -0.09045723 -0.10331771 -0.07516149 -0.038709983 0.09590703 -0.028054267 0.0054534078 0.0055957427 -0.0980939 -0.06481284 -0.056104165 0.00486058 -0.10146281 0.07857615 -0.10390526 -0.10745531 -0.11554389 -0.06813291 0.016956082 -0.019420505 -0.115942895 -0.091338575 -0.014137477 -0.029021382 -0.0074044764 0.10899365 -0.043916285 0.08967332 0.05924326 -0.11118668 0.034044236 -0.07302067 0.03970182 0.0505564 -0.03891255 0.09024528 0.100275934 0.018798089 -0.056277096 -0.03727421 -0.009886295 -0.057671748 -0.09873906 0.105748 0.019980133 -0.009396881 -0.11019209 -0.06837812 0.084895924 0.082375556 -0.12304738 0.0061060786 -0.055674583 -0.08445594 -0.033893704 -0.0592126 -0.06969751 -0.10228464 0.04442011 0.09463671 0.07775229 -0.14683755 -0.10094249 -0.034657776 -0.09044027 0.008482426 -0.04610899 -0.08946782 0.10060689 0.03412783 -0.07200369 -0.102933586 -0.04592991 0.05423805 -0.0399473 0.11293116 -0.12385067 -0.0046289396 -0.10432941 -0.08755779 -0.008586377 0.077263445 0.019913375 0.096669376 -0.13829555 -0.0014657378 -0.06296283 -0.061261833 -0.09335691 0.06537813 -0.01682502 0.03362098 -0.07009283 0.1058884 0.10045493 -0.02002582 0.06673485 -0.08396727 -0.039933886 -0.06423226 -0.11668709 -0.0018229783 -0.03570971 -0.06898129 0.07188895 -0.05162701 -0.0062100957 0.0021086037 0.02608785 -0.135031 -0.07321021 0.0839282 -0.08083743 -0.11857873 -0.032280087 0.08639902 0.07742959 -0.06466657 0.11943832 0.095837146 0.09564698 0.06310359 -0.13202946 -0.104154915 -0.036524028 -0.010919213 0.08500624 0.0017133057 -0.07325795 0.09899175 -0.02554354 0.038742006 0.06035161 -0.12257746 0.00261856 -0.11130425 0.05406627 -0.06999391 -0.069922 0.107629895 -0.09329975 -0.122308224 -0.0053915787 -0.07335463 -0.018376557 0.07884398 -0.11051068 0.08505359 -0.021795541 0.054500878 0.0741272 0.09061864 0.10906091 -0.07749528 0.09582031 -0.112647355 -0.034247257 0.013090372 0.09008208 0.12132734 0.114189595 -0.0944702 0.060220405 -0.015923917 -0.13429478 0.08626154 -0.10677618 -0.100838244 0.029227257 0.022724867 -0.036286622 -0.049761858 -0.12458573 -0.017772824 0.0092612505 -0.08411661 -0.05890552 -0.12398335 0.07320994 0.06084615 0.028376997 -0.039291587 0.015250713 0.033453435 0.06962407 0.047371924 -0.05094561 0.06865516 -0.09008499 0.0025590658 -0.002919525 0.117114335 0.09907344 -0.035444915 -0.090326905 0.05618018 -0.028354138 -0.080138534 0.04601586 0.043259114 -0.14845173 0.038762093 0.0747177 -0.028821588 0.091685385 -0.06290728 -0.06412219 0.014383316 -0.10349791 -0.016813785 0.068636805 0.094647855 -0.004154861 0.049070537 -1.6748905e-05 -0.08280825 0.08600694 -0.010818422 0.1127058 0.099912405 0.07415676 -0.01979956 0.11424413 -0.008975685 0.10078329 -0.051114112 0.05023855 -0.102612585 -0.06249699 -0.046566337 -0.11739069 -0.13637087 0.04839936 0.04591444 0.0354473 0.06706864 0.08663064 -0.10348591 -0.08262324 0.070619196 -0.0772053 -0.13399346 0.108165205 -0.15148237 0.10264349 0.03212315 0.121661305 -0.013168901 0.10396385 -0.029988408 0.004263371 0.04123078 0.047817558 0.06797746 -0.020111298 -0.025494564 -0.10042763 0.12482631 0.12188423 -0.07061069 0.09130487 -0.110544756 0.08526057 0.12101668 0.0342232 -0.07692659 0.18237571 0.10922967 0.10997287 0.13716775 0.10925643 0.021905094 -0.28715125 0.115562335 -0.17999505 0.03404148 -0.1867924 0.0068701436 0.089456476 -0.06295629 0.11800668 0.03151518 0.023872446 -0.10787547 -0.06869948 0.023301804 -0.11710557 0.089481324 -0.10046342 0.17828597 -0.31934112 -0.03478554 0.10785971 -0.5185536 0.029583441 0.093438864 0.006930355 0.24740313 0.03975275 -0.111603655 0.036859572 -0.06410086 0.034229964 0.077146254 0.13704525 0.027297758 0.00056479854 0.10069525 0.008978367 -0.08217917 0.069423385 0.13347925 -0.0734373 -0.071006976 -0.18655775 0.12839724 0.10114397 -0.32115322 -0.052205276 -0.11144608 -0.11736217 -0.05852753 0.09859281 -0.008408224 -0.072677255 0.01848818 0.09687832 0.06400823 -0.011528671 -0.10246739 -0.09812545 -0.015389779 0.014302522 -0.5351927 -0.04564744 0.076377474 0.053154558 0.11170823 -0.059156865 -0.0035350425 0.14966325 -0.03675837 0.044736814 0.02242273 0.11365646 0.11252034 0.13054939 0.016913153 0.12137696 0.1029693 0.108089484 -0.017831326 -0.08099858 -0.05436662 0.13371037 -0.033816684 0.0062601087 0.067040175 -0.009993148 0.12155864 0.070312686 -0.10083419 0.10480097 -0.0958782 0.025336226 0.22662742 0.1062523 -0.07304096 -0.10525314 0.08636497 0.09215471 0.10230642 -0.10846736 -0.015007819 -0.03884174 0.11873251 -0.1083194 -0.07772609 -0.30921757 0.036353674 -0.067464374 -0.03582225 -0.028295519 0.11494152 0.03630331 0.024657955 -0.04751258 0.034041643 0.080362596 0.001938958 0.20724829 -0.10699938 -0.0035089597 -0.069894455 0.08613521 0.100102186 -0.06854513 0.042558774 -0.3654992 0.019428551 0.0043802666 0.051070992 -0.034095995 -0.055848386 0.11495945 0.021601811 -0.0020950113 0.073772155 0.029407173 0.064947635 -0.06530129 -0.10723197 -0.14148231 -0.032691617 0.055202335 0.02456212 0.09972537 0.029265523 -0.22046278 0.08009043 -0.6688174 0.11809071 -0.016641892 0.09727095 -0.08090942 -0.10786576 0.06073664 -0.33031812 0.019161832 0.044822723 -0.085093446 0.027943403 -0.4442533 0.09907716 -0.1082775 0.018722584 -0.10708898 0.34660184 0.05757932 0.028541708 -0.021398276 0.104148366 -0.023772571 0.10710662 0.060006145 -0.068169504 -0.08403537 -0.053028643 0.06986782 -0.062188983 -0.08217028 0.03310687 -0.09442541 0.09336999 0.06734431 0.042414818 -0.18064025 0.026960015 0.0930866 0.11664518 -0.010205083 0.059113294 0.030943464 -0.029969305 0.114179365 0.026269615 0.005787432 -0.020659428 0.11943519 0.082642674 -0.06457949 -0.026285112 -0.0025990095 0.0021969283 0.076477215 -0.11588991 0.0001642704 0.107372135 -0.02482174 0.009249446 -0.082595356 0.11796422 0.021432327 -0.042898435 0.081165746 0.024698522 0.16145173 -0.35203284 -0.033932418 0.01237706 -0.023150086 0.09115659 -0.06040901 -0.0017207693 -0.04146652 0.021625971 0.090158135 0.22786403 0.01429732 0.07795237 0.011997832 -0.035965066 0.040753294 -0.06857032 -0.029697716 -0.06752214 0.09731111 0.06406909 -0.09008464 -0.09000301 -0.07339296 -0.0423933 0.09001416 0.03325048 -0.09650576 -0.0860795 -0.04026118 0.0457443 -0.08236191 0.09573276 -0.034772605 0.042782187 -0.06405365 -0.05774471 -0.08921242 -0.022817418 -0.04788512 -0.10683754 0.06409285 0.082930595 -0.03981118 -0.017267585 0.35293356 0.037036713 -0.090426184 0.011039585 -0.10050374 0.079782695 0.066094786 0.05001845 -0.0706957 0.009480983 0.07003826 -0.09781703 0.037747294 -0.4271974 -0.12040908 -0.02017352 0.044290334 -0.27088615 0.015417874 -0.08540121 -0.02265346 0.37108907 0.079651296 0.055561483 -0.07249373 0.03385955 -0.06883094 0.09469339 0.19240448 -0.117922366 0.09861246 0.048048258 -0.06639922 -0.11352041 0.060417324 -0.19900498 0.044674754 0.057022005 0.0056114406 0.10143107 0.11746168 0.18312882 -0.066933244 0.031945974 -0.10832086 -0.09949362 -0.004096806 -0.0033943653 0.06740138 0.077206016 0.09041163 0.115597606 0.055836678 0.10970202 -0.07444912 -0.060029417 0.12353772 -0.26151633 0.1126388 0.06735304 -0.05056131 0.008218437 0.11166525 0.110761434 0.20670117 -0.09591097 -0.08192876 0.080203444 -0.001974508 0.07824698 0.06992608 0.06350536 -0.009793848 -0.07956746 0.1081928 0.10036355 0.09411976 0.097288996 0.11274651 0.06334501 0.05748132 0.044451624 -0.03972608 -0.03479144 -0.117308766 0.033490032 0.35609752 0.11247277 0.063747376 -0.19608872 -0.008408932 -0.091418505 -0.033463657 0.07867566 0.05653411 -0.10686335 0.08093813 -0.022488356 0.03894916 -0.059039462 -0.05891013 -0.049720675 -0.007878357 0.0921745 0.11162993 0.046830267 0.059627414 -0.09235959 -0.07022682 -0.0065990984 0.1009441 0.03140685 0.09691116 -0.07300255 -0.1184127 0.015629381 -0.012080025 -0.0018297173 -0.021341592 -0.03358525 -0.12173286 -0.05226606 -0.1292539 0.03891921 0.2104322 0.10544264 -0.023641318 -0.03035295 0.0140661 0.03459692 -0.098526634 -0.122363985 -0.10292977 -0.042147547 0.040796936 0.051835477 -0.09700704 0.10528785 -0.08270007 -0.11761594 -0.12163815 -0.1194019 -0.05793573 0.03932196 -0.132922 0.035047352 -0.07285306 -0.024536466 -0.046790905 0.06938967 -0.07734187 -0.45833117 0.15717502 0.014175326 -0.0909988 0.117541105 -0.0077201654 -0.06990734 0.0827609 0.04437062 0.0042358935 0.11990826 -0.024548799 -0.010158926 -0.103141725 -0.03978157 0.10372126 0.056170475 0.1727193 0.105434746 0.043226182 0.06627652 0.101816386 0.07099116 0.07045737 -0.042286366 -0.06672943 0.0008395314 -0.105917096 0.022499138 -0.045909192 -0.06384683 -0.046171606 0.108412 0.04690209 -0.024400592 -0.19948491 0.013462245 0.09786214 0.04363236 -0.053099215 0.073776424 -0.050551295 0.022447497 0.024261713 -0.012094303 -0.059138328 -0.042348415 0.012913138 0.030946076 0.0009264946 -0.03535086 -0.08171308 0.07677725 -0.09324154 0.11919704 0.058801156 -0.03718382 0.04438913 0.09259057 0.22256424 -0.27807006 -0.03543207 0.123048574 -0.25644618 0.0030136108 0.041906238 0.048045307 -0.08082348 -0.11337508 -0.07693419 -0.20873807 -0.0030348897 -0.1712512 -0.02981031 -0.11913118 -0.07761186 -0.11434507 -0.013345957 0.10207555 0.08410558 -0.070363134 -0.087819755 -0.09127605 0.028977752 -0.11250843 0.07392934 0.05088389 -0.047784805 -0.16147378 0.10361434 0.06775975 -0.07120928 0.0018725187 -0.0051748753 -0.08690062 0.21252753 0.03829336 0.11545703 0.068098426 -0.06679618 -0.12161183 -0.22427894 -0.0073082447 0.13792753 0.06602949 0.01958998 0.11327352 0.09722677 -0.016700119 0.11796337 0.12101534 -0.09426683 -0.107686974 0.009888083 0.058310986 0.10251346 -0.04796028 0.07518895 -0.06668456 0.06106803 -0.1080744 -0.06347519 -0.1937539 -0.09193659 -0.10238743 -0.05833575 -0.128642 -0.04308638 -0.0116588175 0.10954985 0.12442756 -0.018224984 0.09325194 -0.13858947 0.044503897 -0.013406247 0.07657114 -0.08103678 0.08853915 -0.0443514 0.16302764 0.2681572 0.1082243 -0.763612 -0.10557693 0.10227456 -0.38124022 -0.018658638 -0.03406173 -0.05726149 -0.11491501 -0.08874351 -0.09838393 0.069303244 -0.083705515 0.09105334 0.07240045 -0.022775263 -0.078805715 -0.02363807 0.11036539 -0.10542649 0.17051741 0.0043406487 0.05222705 0.08242211 0.101594806 0.11955863 0.08309403 -0.32838193 -0.025520593 0.0992229 0.022506595 -0.08042553 0.050786734 -0.11201647 -0.20585373 0.051941752 -0.072968006 -0.09628597 -0.08934778 -0.056982607 0.10846332 0.06427796 0.0779545 0.09445301 0.08066869 0.011973232 -0.061130196 -0.06461841 0.04816521 0.31082812 -0.10798702 -0.023244584 0.4387287 -0.01950119 -0.101052515 -0.11354557 -0.120194614 -0.025295943 -0.049484532 -0.0030363202 -0.03046766 0.038728684 -0.0738991 0.013848096 0.105125815 0.171001 0.04745222 0.011092067 0.008448154 0.101691924 -0.11312612 -0.09387547 -0.05921498 -0.03693372 -0.07504922 0.113864034 0.0039455295 0.2250333 -0.01997 0.07305394 0.037913587 0.05608797 -0.005151868 0.08370927 0.03483823 -0.15910557 0.029759675 0.14086671 -0.06048742 0.0065760314 -0.042672306 0.094563425 0.030617505 -0.024814079 0.10865682 -0.10083002 -0.11212352 -0.108858526 0.012806058 -0.12609527 -0.02075985 -0.079631 0.05872488 0.10407239 0.0010712367 0.23616178 -0.04677382 -0.1344373 -0.07679112 -0.10066235 -0.027341612 -0.10517516 0.040938966 0.11289843 -0.10031276 0.03408581 0.08310485 0.06232633 0.012604386 0.13539986 -0.08744041 -0.0052480996 -0.06715721 0.038311034 0.25607717 -0.056346208 -0.047870904 -0.0366863 -0.05758053 0.043239504 0.028494457 -0.1029607 0.07939002 -0.051802725 0.008164234 -0.08280906 0.029597074 0.08203709 0.05019939 -0.06721577 0.0834486 0.08374277 -0.053844765 -0.09877489 0.0054143965 0.00165537 -0.10373694 -0.018902212 -0.07319659 0.13391535 -0.09073612 0.03524294 -0.018428504 -0.102591425 0.01232937 -0.005565524 -0.10400745 0.12302652 0.021970373 -0.04788944 -0.04250634 -0.081821375 0.11748454 0.119562596 0.06220791 -0.066141576 -0.0013546944 0.060342878 -0.07459143 0.10594719 -0.07635966 -0.12445986 0.064237684 -0.022394586 0.04875743 -0.106113285 0.088775754 0.13218758 -0.08855295 -0.07628113 0.0069387853 0.038369834 0.206186 0.045572072 0.12562753 -0.047267944 0.15095004 0.010327995 -0.014146924 -0.1280857 0.09939048 -0.015702993 -0.011475831 0.10261753 -0.114029676 -0.0028393269 -0.009740353 0.09739003 0.036731113 0.047542606 0.077846855 0.09889132 -0.06665712 0.06290447 -0.032536384 -0.06849733 -0.11269472 -0.1040018 -0.09087694 0.08726109 0.09779144 -0.07480349 -0.31446913 -0.047952536 -0.07853249 0.09957625 -0.062642366 0.16935377 -0.10083111 0.17870039 -0.07445836 0.07055564 -0.04494968 0.009069281 0.08523527 0.11803088 -0.030926973 -0.0158512 0.09600486 -0.015449196 -0.034217447 -0.026559578 -0.30829713 -0.1520807 0.11316258 -0.09189556 -0.06077156 -0.049019568 0.11476594 -0.038094245 0.20185441 -0.014322609 0.12655962 0.035951823 0.079642475 0.123895615 -0.015157806 0.18726566 -0.07986654 -0.07785543 -0.097880304 -0.028242294 0.067868605 -0.0037146516 0.06285379 0.03032017 0.06911928 0.16430254 0.089746214 -0.09705439 0.049132988 -0.11537789 0.02608493 0.031087253 0.030363321 0.046628125 0.102071725 0.106230825 0.089501806 0.05771643 -0.08604503 0.023763865 0.06833309 -0.10458783 0.022509642 -0.10457754 -0.06705425 0.03130492 0.07852135 -0.08096528 0.09576037 -0.08433234 0.08599547 0.14632128 -0.013121011 0.042944998 0.012443244 0.079524085 0.02849105 -0.0027789134 0.3968583 -0.05776468 -0.028277833 -0.102250025 0.073340654 0.09324968 -0.064239234 0.016151877 -0.03127172 0.10014107 -0.034005523 -0.0022199005 -0.029400064 0.060066972 0.05428341 -0.089004666 0.014760318 -0.13334498 0.28735337 -0.031748887 0.115243025 -0.023864815 0.11862494 0.022868335 -0.087248236 0.11712986 0.087198675 -0.037601523 -0.013069369 -0.06984252 0.028825616 0.05462065 0.10685474 -0.056209695 0.023548428 0.0057133227 0.051856566 0.08056167 -0.003363066 -0.083317555 -0.06725672 0.04036728 0.068813995 0.092457086 -0.099169515 -0.03251287 0.090575546 -0.086405106 -0.07341811 -0.04627655 0.033449754 0.086012736 0.050486684 0.011937187 -0.015280866 -0.086489215 -0.013938907 -0.0075829625 0.008078678 -0.083333164 -0.123824716 -0.05231145 -0.08621513 -0.017433867 0.059916142 -0.08791789 0.08077664 -0.058738828 0.102278054 -0.037251387 -0.0041095107 0.046034116 -0.04322973 0.1798896 0.00057392067 -0.07155012 0.02436246 0.07811611 0.09413398 -0.020156952 -0.15386485 -0.06172572 0.007023573 -0.004530812 0.029343098 -0.07425241 -0.082843095 -0.10455902 -0.026857693 -0.07619181 0.22810182 -0.01996304 0.054892585 -0.011657417 0.1038445 0.080438085 -0.012273924 0.08751768 -0.096096456 0.0125551615 -0.12318027 -0.038642228 -0.09590623 -0.05245826 0.010397546 -0.061491936 0.06187654 0.06392732 -0.08425738 0.12864871 0.11288351 0.11364156 0.118737645 0.030248398 -0.04710972 -0.31246117 -0.045344442 -0.060681887 0.08171725 0.11654022 0.04010792 -0.058619976 -0.14251994 0.005616524 -0.04077458 -0.11443738 -0.09844395 -0.110787764 0.046193928 -0.02632448 -0.002343346 0.096428245 0.020935252 0.064070806 0.0096387565 0.0776819 0.04658911 0.12602797 -0.11572362 0.0795464 0.16316402 -0.0076856315 -0.088465795 -0.13076028 -0.056468926 0.109479025 0.051196825 -0.010333769 -0.009111974 -0.005105257 -0.11253322 0.016762525 -0.15966693 0.11060143 -0.05734099 -0.039470285 0.070555106 0.047584504 0.041919082 -0.091867656 0.03491211 0.108935356 -0.11056247 -0.056308 0.032644838 0.087985426 -0.0019466281 -0.12366292 0.044220492 0.09471843 0.024780095 0.045046777 -0.11436705 -0.09387043 -0.11079544 -0.10244565 -0.01999256 -0.120698094 -0.060040686 -0.038101524 -0.07607174 0.2740761 0.089879096 0.30303404 0.03834465 0.20429479 0.062461898 0.06140536 0.10356122 -0.101512015 0.034322858 -0.02405256 -0.07273903 -0.095710665 0.025895834 -0.018581092 -0.10074389 0.11429697 -0.1088947 -0.053912804 -0.04123041 -0.07435918 0.010863557 -0.0755037 -0.08865124 0.04203379 -0.116631515 0.00454399 0.06920764 -0.119359285 -0.0026248991 0.0679194 -0.112098336 -0.30280995 0.033266306 0.10137069 -0.09414369 0.022088557 -0.06635514 0.02034375 0.0013052098 0.18278396 -0.06357008 0.13195747 0.07054782 0.07293463 0.048822634 0.05770275 -0.10092273 -0.081340164 -0.11156297 -0.033423632 -0.065428406 0.07271457 -0.031059772 -0.113581866 0.10358766 -0.06331524 0.026398897 -0.11323574 -0.040890574 -0.07325196 -0.24375825 -0.07377243 0.12427583 -0.012769371 0.02729699 -0.10926959 0.10565266 0.047947742 -0.08315745 0.030819356 0.05635196 -0.0078072734 -0.07875657 -0.030434549 0.44305396 -0.044102997 0.11434281 -0.072877765 -0.11458486 0.05287987 -0.007531196 -0.3108271 -0.0990905 -0.08160359 0.06319502 -0.11271605 -0.03427607 -0.041139245 -0.056460142 0.23480482 0.085733145 0.13186222 0.28257746 -0.034695033 0.06791127 0.040912926 0.0748927 0.03565666 -0.066511184 0.040030807 0.11818537 -0.10455948 -0.0058794976 0.10582745 0.10253614 -0.1488848 0.12286228 0.05099675 0.119383514 0.05017194 0.08674805 0.119415104 0.10881713 0.065350264 -0.08218378 -0.0831075 0.0954493 -0.11997129 0.024149925 -0.0022298396 -0.046364393 -0.1049065 -0.08299908 0.052217692 -0.05557576 0.059314508 0.11069405 -0.15292802 -0.05991438 -0.033521175 0.10114896 0.08124864 0.123580575 -0.0028009713 0.056096673 -0.103948176 -0.034093708 -0.11242515 -0.11643413 0.042892415 -0.01982978 0.087289184 -0.11140469 -0.07563585 0.07717666 -0.107661314 -0.004057288 0.38017836 -0.0709708 -0.11540663 0.08820599 -0.11706892 -0.08804351 -0.0470106 -0.33572042 -0.35151622 -0.12312901 -0.06899765 -0.058351815 0.0785005 0.09003123 -0.121923745 0.0007837117 0.04080826 0.21925381 0.04477173 -0.07608721 0.060195565 0.11994243 0.08103013 -0.09101568 -0.28316805 0.04148227 -0.057963222 -0.020480514 -0.09748569 0.038606554 -0.10738538 0.0003505051 0.12143245 0.045734145 -0.037625432 0.07408625 0.13667995 0.057433277 0.08943868 -0.05559793 0.09520811 0.12447411 -0.31017506 0.0689455 0.072278105 -0.10439697 -0.109009355 -0.12346846 -0.105089456 0.12686734 -0.007950485 -0.3527422 -0.028130949 -0.11254099 0.10496569 -0.06420195 0.1066452 -0.05367023 -0.113784015 -0.08068216 -0.10900277 -0.05167958 0.0064510405 0.077067524 -0.02673179 -0.016100228 0.13227716 -0.00848886 -0.10319641 -0.09539214 0.11794393 -0.055184245 -0.07079816 -0.06458545 0.1201407 0.20719248 -0.08130038 0.13750589 0.015047342 -0.38011956 0.08185223 -0.061293542 0.0013697743 0.08630204 -0.0027138293 0.01574424 0.10085535 -0.11446145 -0.06403428 -0.07344741 -0.042749077 -0.004488008 0.01360361 -0.06982577 -0.020932794 -0.2413962 0.06003213 0.07227719 0.07766637 -0.33804622 -0.014483869 0.122588456 0.02561267 -0.092834614 0.03915287 -0.23045109 0.094382256 -0.022751957 0.08065118 -0.032380402 0.21579945 0.0243328 0.2769658 0.16774476 -0.036014237 -0.08903598 -0.07788517 0.040747344 0.011270821 -0.122456394 -0.068121165 -0.0031962928 0.11331332 -0.066276416 -0.078213066 -0.02234674 0.05857602 0.07493606 -0.024647288 -0.072692886 -0.042233497 -0.080409706 0.0082268715 0.21105437 -0.003038615 -0.018358845 0.02652368 0.11757088 0.06563538 -0.02988629 0.22430432 -0.08542721 0.046609636 0.08328864 -0.11508901 -0.054663792 0.05218442 -0.036084518 0.31069812 0.01932138 -0.058487874 -0.11440833 -0.07524437 0.22785102 -0.040267263 0.09264445 -0.002812028 -0.11642733 -0.06345743 0.09559997 -0.057753146 -0.09384375 0.03660223 0.0777311 0.085281014 -0.07471457 0.049956072 -0.035940144 0.08566064 -0.015767984 -0.019241653 0.095322266 0.022893816 -0.05043959 -0.08038001 -0.015680421 -0.08283768 -0.07387499 -0.031086791 0.015833646 -0.109438576 0.06404531 0.07383429 -0.21129498 -0.031516314 -0.10114624 0.05714986 0.042359114 0.086820185 0.08408457 -0.056482628 -0.011238198 0.03396127 -0.074733585 -0.056129493 -0.1099938 -0.09850395 0.089778304 0.19801082 -0.062161352 -0.0133236945 0.2740386 -0.04049454 -0.082639575 0.08438682 0.104094714 -0.0028073192 -0.11824694 0.053293463 0.10208681 -0.0734591 -0.024160696 0.017120034 -0.08613443 0.081388675 -0.01670596 0.053789005 -0.061276563 0.09988949 0.11308233 -0.06644598 -0.004799652 0.030808764 0.09680432 -0.10971897 -0.033623394 -0.1319696 0.07886215 0.0977319 -0.11325114 0.07272219 0.015916377 0.01406446 0.057597164 0.27844346 0.005788088 -0.21099293 0.07672362 -0.041682877 -0.034041528 0.1189653 0.09669692 -0.11741727 0.108893216 0.029659301 -0.058203295 0.009137654 0.034618158 -0.20563559 -0.12757632 0.052115917 -0.058105588 -0.06796518 -0.102855 0.0602916 0.08438733 0.13346997 -0.008683413 0.016006649 0.022847835 -0.007953916 -0.009978384 0.036973085 -0.3908329 -0.17329538 -0.040852368 -0.04495497 0.09692821 0.036846757 -0.01952647 -0.025823135 0.06389889 -0.08987996 0.29256967 0.08881935 0.10115665 0.021273077 0.11846292 0.109320074 -0.1113814 0.095052466 0.021870166 0.013157901 0.047300488 -0.0888066 -0.1245988 -0.07052371 -0.031138824 -0.069749475 -0.1108852 -0.0023908615 -0.14264561 0.05377958 0.0021062493 -0.0656904 -0.10683024 0.06753583 -0.08977219 -0.6274605 -0.113414794 -0.36521107 -0.123396486 0.11019394 0.012862964 0.11973342 0.08952558 0.11182071 -0.14403217 -0.03759242 0.004815019 -0.08276748 -0.10280612 -0.024339944 -0.06507811 0.01234373 -0.053934477 0.10874495 -0.0906207 -0.0069083166 -0.119621694 0.04918874 -0.10345489 -0.1694893 0.073834434 -0.10434568 0.052598234 0.016335238 0.09691442 -0.038742512 -0.044726297 0.027448775 0.06723314 0.05088067 0.1721554 0.053512458 -0.7171212 0.106655195 -0.0063258023 -0.08575481 0.09935671 0.10791913 -0.0109707415 0.019123137 -0.090371504 -0.08724424 -0.11802235 0.10047948 0.08827893 -0.0453614 0.017169267 0.047189683 0.20252492 -0.045934822 0.0046935678 -0.0576277 -0.05448043 -0.047525678 -0.059314817 0.066332564 0.039686676 -0.0023827553 0.23113169 -0.0832302 -0.084111005 -0.056888152 -0.10781771 0.11950222 0.122190826 0.18533203 0.39720356 -0.016780963 0.059830695 0.12221856 -0.095528126 0.06266455 0.061039116 0.0044354796 0.09145018 0.039816648 -0.07607058 -0.040010422 0.055547588 0.23342243 -0.074833184 -0.029036654 -0.21292257 0.11985452 0.04279411 -0.019649386 -0.2376733 -0.06443846 -0.08533212 0.03711143 -0.055508137 -0.057296067 -0.018376682 -0.20719722 -0.07648162 0.07592818 0.031705737 -0.08416447 -0.040860265 0.102493614 -0.04169068 0.055988546 -0.03841445 -0.35274714 0.08410719 0.08700809 -0.13959363 0.09755728 -0.03925851 -0.061771512 -0.063076735 -0.08364573 -0.11256793 -0.07272202 0.082603574 0.11364105 0.0945383 0.024583995 -0.10432789 0.07841319 0.054039128 -0.113845736 -0.20236878 -0.050900087 -0.11643866 -0.0009241104 -0.02618886 0.0049797297 -0.08687425 -0.13470927 -0.08462632 -0.09594113 -0.0793173 0.054392036 -0.08388013 0.02505248 0.15387489 -0.06439263 0.022180676 0.0968214 -0.023056716 0.026922494 0.016272604 -0.27450728 -0.02908113 0.024142612 -0.119859606 -0.08705655 0.067899525 0.102003604 -0.0790259 0.15729271 -0.08451149 -0.007987453 0.12434928 0.039318044 -0.049647544 -0.09425247 0.04368848 -0.11431736 -0.1110347 -0.072336845 0.07453135 -0.023728095 0.10963755 0.09026086 0.06523073 0.017038083 0.059356324 -0.055527836 -0.124744534 -0.08176755 -0.027968822 0.0004222691 -0.0004733879 0.0016602008 -0.090935886 0.09732038 0.08735591 -0.15466614 -0.10621846 -0.12498005 0.045531064 0.08832076 -0.04987064 0.009518683 -0.05153799 0.04817745 0.088281244 -0.033879735 0.066261135 0.07222089 -0.09702277 0.07950586 -0.03821245 0.034181982 -0.06727919 -0.070258796 -0.009188116 -0.060528636 0.0014293194 0.034817155 0.07382676 -0.05041802 0.097607255 -0.059886605 0.047878012 0.18493949 -0.010123044 0.14510453 0.09527712 0.029268408 0.19725922 -0.052420262 -0.08666367 0.061477687 0.09649574 -0.036635507 -0.012233406 0.020785028 0.095645994 0.080249704 -0.030406278 0.116440944 0.005073786 -0.06749052 0.3203686 0.10609126 -0.0037734509 0.027102947 -0.041982442 0.031289935 0.052656922 -0.30703318 -0.05875039 -0.08934334 -0.028548094 0.06721467 0.09236708 0.046254896 0.106007114 0.11549559 0.030683465 -0.09878752 -0.14287588 0.09735594 -0.124646515 0.09221248 0.05643317 0.016972274 0.06551394 0.010705069 0.03958726 0.03923117 0.060404778 0.029236495 0.048501283 -0.10463697 -0.038688302 0.028082788 0.094418764 0.1185357 -0.0028887198 -0.018121189 0.08472332 0.076224834 -0.13493593 0.119794905 0.11120185 0.08776069 0.10556677 0.12515442 -0.016010314 -0.12059197 -0.05621499 0.26630265 0.04286958 -0.08975312 -0.0027984679 0.10149577 -0.111783326 -0.122508794 0.07109442 0.09704352 0.057040334 0.09616923 -0.091216944 -0.023475528 -0.12270061 -0.06365204 0.111689255 0.09426661 -0.099728525 -0.064266235 -0.014386922 0.067287326 0.079704516 0.10293314 0.02257958 0.009966882 0.07629443 -0.0030396243 0.0456281 -0.04568538 0.0071891807 -0.082693934 0.0012066364 0.032847047 0.09950829 -0.025202662 0.027400017 -0.050005224 0.06058691 0.022487871 -0.357707 -0.103359334 -0.028057188 0.20842344 0.05894579 -0.010448481 -0.014203359 0.105100125 0.23980749 0.0378881 -0.074728586 -0.12414931 0.09427509 0.055455856 -0.096845604 0.10237831 0.07760032 0.10033712 -0.07673179 0.095047385 -0.10731417 0.08977116 0.10839793 0.058290962 0.162672 -0.052847587 0.016432256 -0.10425168 0.11089932 -0.010235429 0.048644237 0.10152474 -0.12350345 -0.03321293 0.04480875 0.23436141 0.025754804 -0.081362225 0.10734403 -0.023846379 0.027166015 -0.11671322 0.09984955 0.124565214 -0.0675843 0.17556015 0.095509894 -0.007960141 0.050396632 0.07577793 0.01589933 0.09958881 -0.03522414 -0.013389674 0.058601014 -0.06748 -0.0785142 0.002712667 0.013454497 -0.089063436 -0.10665834 -0.07660926 -0.07635844 0.036946625 0.058024377 -0.073728845 0.00908161 -0.08896738 -0.002785521 0.12064346 0.04434517 -0.16089708 -0.1089512 -0.09860504 -0.064769894 -0.06778544 -0.11961448 -0.11496753 0.033988874 0.026958048 0.029821256 0.08639181 0.10188484 0.07044288 -0.11044201 -0.1051762 -0.028183434 0.08729889 -0.074365884 -0.10092354 -0.092499904 0.025907068 -0.10591403 0.07509417 -0.07116379 -0.017994732 0.02377235 0.051066484 0.017691702 -0.117156625 -0.12982816 0.06836754 0.049142852 0.11448106 -0.07557234 -0.0023532517 -0.01308444 -0.0032263696 -0.06132809 0.03269352 -0.061469495 0.12597659 -0.040175494 0.027699828 -0.09734313 0.052767187 -0.066416666 0.09670988 0.0010026693 -0.060937822 0.036382273 -0.033718687 0.02370646 -0.055228677 -0.1073483 0.11441733 0.08216363 0.008265856 0.014104632 0.41956577 -0.01665786 -0.22677284 0.08648559 0.10511485 -0.11810709 -0.08531842 0.029960707 0.017548446 -0.08633214 0.024883658 -0.056426097 0.052469958 0.10392505 -0.0959336 0.045355838 0.09298277 0.027466863 0.07393342 0.015175253 -0.10418251 -0.028767407 0.16695967 0.07272324 -0.10563815 0.0067874133 0.072614424 -0.11999726 -0.03293026 0.14522365 