128 256
-0.3339575 -0.04562759 0.0030079267 -0.064850874 -0.06585631 -0.10854307 -0.16209926 0.21714054 0.21257392 0.07044232 -0.078085005 -0.059159886 -0.0040251315 0.046891976 -0.09372302 0.086722605 0.12562874 0.06544235 0.2036507 -0.15659873 -0.025026577 -0.046942085 -0.2424981 0.048026472 0.04991784 0.13395377 -0.42232516 -0.060228173 -0.2567879 -0.094482444 0.09138532 0.12270412 -0.05649978 0.26691625 -0.17843066 -0.03923107 0.16141352 0.11345518 -0.09143847 -0.25589776 -0.12371278 0.015360382 -0.07750038 0.007847408 -0.07017455 0.05377673 -0.18943149 0.4517406 -0.029998194 -0.07807866 -0.24616355 0.1357896 -0.22747384 0.13423179 0.19502398 0.13127331 0.15186134 -0.15177648 -0.42110953 -0.12205287 -0.0616665 -0.12634581 0.082515195 -0.024645196 -0.22900571 0.042027462 -0.23021786 -0.19484447 -0.110345826 -0.18570976 -0.23862758 0.10720429 -0.19541542 0.017483927 -0.13695033 -0.0065713553 0.015433181 -0.14574273 -0.20739265 0.2163139 0.17128317 0.120234296 -0.10439039 -0.032320376 0.09038649 0.11705137 0.3371074 0.0877284 0.20883736 -0.13577618 0.011187649 0.1337871 -0.06934748 -0.0125008235 0.08538237 -0.028189838 0.12356397 -0.2893226 0.00802971 -0.08745334 -0.031702407 -0.40325695 -0.14082193 0.09060306 0.39656952 0.110650115 0.15905078 0.35247678 -0.31465623 0.11112523 0.17601787 0.068128794 -0.3981939 0.28349409 0.40163586 -0.16085073 0.24157463 -0.13234389 0.021025633 -0.038633566 -0.161661 -0.22519386 -0.19475535 -0.15256374 0.042412903 -0.12310229 -0.065270044 -0.027400069 0.08920407 -0.25216973 -0.04681527 -0.06681695 0.085105814 0.06379132 -0.14205408 0.15774763 0.05965693 -0.17810552 -0.027213981 0.16835423 0.07121655 -0.16309097 -0.058347218 -0.06670488 -0.11577258 -0.08593412 -0.21079189 0.22882618 -0.090537004 -0.18466657 0.0699664 0.017676303 -0.10412184 0.05414288 0.016132921 -0.036446545 -0.14520116 0.291705 0.040656425 0.18046786 0.23168409 -0.14208077 0.14252867 -0.35984972 0.042731315 0.17170571 0.11664698 0.19343315 -0.10318359 -0.27387828 -0.012790686 0.38963372 0.11419999 0.048472982 -0.109609164 -0.06730594 0.3655425 0.24719575 -0.122727364 -0.012479616 0.18898793 -0.097629495 -0.19638783 -0.21559878 0.36274618 0.13595986 -0.24995354 -0.19340554 0.04795622 -0.08627539 0.15731256 0.13928382 -0.07677967 0.22594334 0.31198236 0.22505358 -0.16654646 0.08770318 0.11760947 -0.0041433396 0.41083342 0.20866871 0.18106788 0.14164123 0.15951645 -0.06677036 -0.12957725 0.08765108 -0.34312686 -0.006486404 0.05554174 -0.13357243 -0.05785012 0.07593701 0.051899027 0.11435172 -0.48015946 0.1817088 -0.33080047 -0.18210156 -0.0142485695 0.18661134 -0.040471364 0.09578111 0.12194378 0.07963117 -0.25525442 -0.11535379 -0.16956452 -0.3496834 -0.111433834 0.2410572 0.030840714 -0.018409792 0.16548538 0.22558945 -0.10902353 0.15366644 -0.016908498 0.2569709 -0.09109902 -0.063367955 -0.12333803 -0.13883856 0.16414998 -0.18981025 -0.04566165 0.27400193 0.06816672 -0.0036390559 -0.4863909 0.24035789 0.07532493 0.06427734 0.105295934 0.10165278 -0.04774384 0.13271941 0.1842551 0.025058186 -0.09714331 0.030608637 -0.17890963 -0.23846821 0.015363867 0.29683235 -0.27932924 0.3427458 -0.06890258 0.018482804 -0.2510061 0.11816672 0.11445043 -0.31543365 0.058296397 0.14891744 0.113926224 0.12480447 0.23464455 -0.043645762 -0.074281596 0.024005407 0.008696597 0.13452336 -0.031575266 -0.049533512 0.16740574 -0.1648632 0.109007806 0.27199948 0.010969262 0.236541 0.02473021 0.16084428 -0.09227076 0.01279107 0.16084428 0.056325585 -0.24134889 -0.062710784 0.03975946 0.07968632 0.114848 -0.211934 -0.33102715 -0.059571337 0.25863227 0.099179655 0.09307259 -0.3593508 -0.21263148 0.034276467 -0.029555827 0.12304227 0.12768693 0.04571834 0.121414125 0.03635519 0.0074806046 0.020520074 0.0024468184 -0.23643315 -0.099808484 -0.009632448 0.077479534 -0.07820719 -0.07181102 0.0027603968 -0.024515552 0.0506726 -0.16895086 0.15521963 0.069551185 -0.07272804 0.24108465 0.28035066 -0.09314255 0.26590315 0.032108966 -0.21059275 0.024125015 0.26390454 0.017371174 -0.13425171 -0.07751946 0.0018780266 -0.23448068 -0.04360286 -0.007911484 -0.39130878 -0.03705456 -0.005520861 -0.3112674 0.10105487 0.097211145 0.052060127 -0.108255655 0.1596658 0.05134795 0.3524198 -0.15103047 0.033832416 -0.20460124 0.18526241 0.25999174 -0.17604345 0.1569725 0.23746864 -0.17831467 -0.30880442 -0.015347191 0.10711573 0.050811935 0.12716885 0.027610295 0.118980855 0.15791856 0.103519045 0.17524497 0.051220853 0.2726646 0.5252871 0.06400592 0.16222368 0.035869855 0.274927 0.09859203 0.03566767 -0.17802812 -0.013715462 0.30305746 0.0023019703 0.08273086 -0.36891288 -0.074450776 0.011440126 0.22427677 0.087020315 0.0813213 -0.09909284 -0.20858437 0.06724062 0.18128555 -0.11385734 -0.19134195 0.044020094 0.08548113 0.23038161 0.24051559 -0.26056162 0.0010160202 0.12689309 0.2001025 0.09635983 -0.3084086 -0.06722523 -0.055391207 -0.064903945 0.054259967 0.01001333 -0.12675616 0.25122786 -0.12858728 -0.014826056 0.08313938 -0.11352359 0.22785941 -0.4303378 0.23160957 0.11725501 -0.013839339 -0.23083532 0.07513976 -0.11467375 -0.014001156 0.36470866 -0.28851655 -0.28902963 0.097508386 0.06212989 -0.068752006 0.13251047 0.26464 -0.30021065 0.022091 0.011333475 0.3293175 0.056023605 -0.2904388 0.054172378 -0.042064283 -0.1404002 -0.048413783 0.1661707 0.07707917 0.0029353593 0.11843756 -0.10818145 0.021869881 -0.080829844 0.05725718 0.3304603 -0.018390896 -0.088743985 0.19805203 0.2851618 0.101386644 -0.28476316 0.0424464 -0.055961534 0.24736787 -0.24149157 -0.026902929 -0.43596983 -0.11105163 0.017226646 0.09843529 -0.29976934 -0.14503483 -0.16026571 -6.642948e-05 -0.004726303 0.4075568 0.025925465 0.032573838 0.093136474 -0.01238038 0.002895539 -0.0108801 -0.13215432 0.18525788 0.27421802 0.15105528 -0.22494946 -0.2117032 0.22948115 0.023866935 -0.21632129 0.18161993 0.040460046 0.073848 0.0036066293 0.039394204 0.01056034 0.07502739 -0.113274 0.28420445 -0.1410499 -0.2138318 -0.0053588157 0.181567 -0.12947845 0.034526907 0.036067147 0.15643807 0.120570906 -0.43526763 0.37841856 0.15547375 -0.23616266 0.03630073 0.0040631853 -0.31596416 0.15377617 -0.3119542 -0.0024909417 -0.45556703 0.049062822 -0.34091553 0.028107034 0.1667979 -0.09992343 -0.04589365 0.0738353 0.050320275 -0.084939264 -0.013140142 0.32552937 -0.1018 0.1001554 0.15256251 0.14503105 0.083989434 0.18976185 -0.03460646 -0.14952512 0.21392377 0.11122042 0.045651264 0.23583503 -0.09486472 0.24516481 0.08168536 0.36581886 0.11047872 0.07335549 -0.18019556 0.31268525 -0.0723478 0.23992425 0.10261404 0.12618576 0.034741 -0.15795892 0.13335682 0.11775675 -0.09214528 0.086808614 0.069012925 0.3015962 0.0011958239 -0.0020032832 -0.114865184 0.073124655 0.053190846 0.003893935 0.034677733 -0.33286375 -0.05413058 0.24906689 -0.024633128 0.06601286 0.23078243 0.11260568 0.2517836 0.08048088 -0.15139215 -0.18556769 -0.20638031 0.06838795 -0.468408 -0.028820774 0.23160502 0.15632606 0.22519098 0.14616768 0.2471624 0.1368838 0.0760192 0.19286934 0.038021497 -0.029894417 -0.17432997 0.1396026 0.052796498 -0.12974423 0.072010554 -0.31892094 0.34937045 0.22466427 0.20639852 0.012651964 -0.071775116 0.09220481 0.04586427 0.1434145 -0.0067497157 0.07162332 0.06656945 -0.11978737 0.09574523 -0.1965421 -0.023871673 0.22077389 -0.09336972 0.22158603 -0.10659822 -0.19858654 0.085383706 0.12322471 0.29857746 0.16208902 0.11233591 -0.04181022 -0.014197091 0.008511462 0.17967814 0.19025369 0.3320803 0.10455553 -0.0046207914 -0.06047253 -0.26649424 -0.03303761 -0.13470232 0.16045986 0.13143867 0.2891004 -0.059388354 -0.18267077 0.0355816 0.29902792 0.21591088 0.17712773 -0.1956538 0.20241368 0.018773803 -0.22450602 -0.08353858 0.015992532 0.057249796 0.1536986 0.14158224 -0.036215395 0.14630555 0.070548415 -0.08664091 0.10471112 0.25139683 -0.0013077856 0.10388918 0.012782054 -0.16219008 0.082627386 0.03932314 0.4130709 -0.24279416 0.24831076 -0.21658596 -0.12497404 0.13008563 0.5191827 0.3459603 -0.063912556 -0.103269204 0.12213749 -0.12164182 -0.06315674 -0.17275698 -0.21614446 0.20418051 0.19010076 0.050753243 0.23657659 0.12923525 0.11381187 0.30644512 0.013661853 0.16943862 -0.1352601 0.13530824 0.037039116 -0.17123142 -0.1627589 0.11457846 -0.0787495 0.14577365 0.0031833064 -0.17101975 0.14622208 -0.098289855 0.30115187 -0.072431184 0.13538374 -0.17289081 0.07672658 0.2754443 0.10382099 -0.08008391 0.03752401 0.062163875 -0.28671554 -0.14215197 -0.36159596 -0.07899975 -0.350168 0.15073693 -0.37553722 -0.027717711 -0.08079427 0.072760314 0.08213514 -0.012504388 0.2827114 0.14078227 -0.18593319 -0.1206323 -0.14839216 0.33288446 0.0052057165 0.14143519 0.066681564 0.05200452 -0.12435037 -0.11799583 -0.013579282 0.04547651 -0.33501497 -0.2717667 0.45124245 -0.19562396 0.054981813 0.07842661 -0.040205073 -0.40816572 -0.23855585 0.1577426 0.1970627 0.18437739 -0.379878 -0.09170144 0.37366766 0.1441828 0.1030872 -0.55741686 0.22910982 0.23638235 0.029739736 -0.1880083 -0.12802692 0.13608518 -0.2784125 -0.17968838 -0.08368328 -0.35377645 -0.25960422 -0.045077905 0.16096088 -0.004052407 0.23794354 0.04674812 -0.037881248 -0.22198841 0.081217945 -0.104986474 -0.07232943 0.18318392 -0.071739055 0.102022454 0.04937747 0.1213245 0.016380724 0.14681616 0.2684453 0.13083594 -0.32075778 0.1700916 0.16596577 0.3016853 -0.29179338 0.00033655565 0.042863186 -0.25864792 0.07950476 -0.2093741 0.10015839 0.12382147 -0.22081 0.3039346 -0.11466279 -0.18621977 -0.048254382 0.167062 -0.25050652 -0.19803692 -0.121937424 -0.20422097 0.024619127 -0.02190812 -0.07094465 0.20530769 -0.13659897 -0.18042584 -0.03427192 -0.15933812 0.0109237125 -0.07171356 0.11164096 0.19416438 -0.07496752 0.2042876 0.10965439 0.098258175 0.016624568 -0.048267927 0.10375399 0.34316045 0.031340845 0.0730264 -0.10539831 -0.068083145 -0.10924467 -0.09908181 0.12150864 -0.15776992 0.066143565 -0.10014957 0.3715462 0.13507055 0.00016562975 -0.1956481 0.34181234 -0.19233748 -0.21020876 -0.25296432 0.06448356 0.1544696 -0.04889815 -0.037791096 0.23334025 -0.0066758087 -0.1697871 0.0023255474 -0.21499076 0.038002323 -0.17192633 0.15402989 -0.18116486 -0.043849315 0.24162783 -0.005698233 0.051320028 0.19180116 0.11408827 0.020732725 0.16866519 0.17120424 0.23639566 0.10603037 0.22258447 0.31781277 0.10852588 0.18849288 -0.099069834 0.14697547 0.17578577 0.0040038475 -0.24868892 0.039653845 -0.09496003 -0.18209368 -0.07464641 0.27417475 0.14413954 -0.019242069 0.07695161 -0.03461866 0.24830736 0.3300624 -0.2072185 0.114703074 0.12878358 -0.09381311 0.16775882 -0.023080964 -0.008216553 0.060011595 0.3494518 0.17580652 -0.03195008 0.08414299 0.075806595 -0.01443236 0.022950565 -0.12022198 -0.057265326 -0.049574118 0.24690859 0.011893629 0.10539461 -0.1405294 -0.0069416855 0.07845312 0.060408555 -0.14140211 0.27124065 0.058355063 0.14685085 0.270075 0.04103269 0.081405625 -0.014745938 -0.008686305 -0.14556743 0.054705624 0.08712282 -0.08926125 -0.20734319 0.057842564 0.057738196 0.16186477 -0.203418 -0.13313282 -0.052507244 0.031482164 0.16999538 -0.34957558 -0.29893604 0.20554754 -0.31955054 0.2005386 0.091267444 -0.007901604 -0.086618215 -0.10600503 0.21278241 0.02383349 0.029547194 0.063365325 -0.30504936 0.17502399 0.15743595 -0.023232974 0.04462268 -0.07216967 0.2096581 0.06841434 0.3142387 0.28367242 -0.16559744 -0.045275077 -0.5737878 -0.14194375 -0.065643154 -0.08893595 0.08877615 0.30472967 -0.05872466 -0.12658952 0.16102217 0.021884568 0.059499014 0.013443577 0.1470136 -0.06453439 0.093371086 -0.025825206 -0.041937504 0.1699068 -0.07408035 -0.07427412 0.08466719 -0.24277677 -0.26780978 0.013665547 0.030295582 0.31398132 -0.042241648 -0.017524809 -0.077839285 0.15659086 0.06994668 0.0475506 0.16639331 0.0799883 -0.17327753 -0.026883567 0.4092613 0.048463415 -0.18092607 -0.11277863 -0.11984894 -0.2693098 -0.23287134 0.14091596 0.25627097 0.039608963 0.08923389 -0.09807567 -0.2951895 -0.06921495 0.27855894 0.06728083 0.05823154 -0.05008789 -0.008089989 -0.07984994 0.09244302 -0.024755357 0.09095618 -0.12765197 -0.097292826 0.050580088 0.06081438 -0.00924651 -0.0039698672 0.011898877 -0.081428334 0.019028187 -0.15060179 -0.124912545 -0.04877374 -0.11985196 0.007501075 -0.04539519 0.05560469 0.06242024 -0.06508899 -0.05799373 -0.078230426 -0.060187288 -0.033065286 -0.12568802 0.019767033 0.09225066 0.094798796 -0.0876976 0.08462244 -0.026142592 -0.04206802 -0.08824778 0.032965593 -0.103549235 -0.10854989 -0.028352588 0.09608975 0.0017418861 -0.13656025 -0.009608908 0.006670082 -0.026342347 0.0066293133 -0.098856166 -0.08222952 0.024291815 -0.0058620214 0.025046146 -0.1189791 -0.024480928 -0.094327524 -0.09629657 0.09501484 -0.09604818 -0.056339443 -0.06727002 0.030157387 -0.14669393 0.11575283 0.024654549 -0.07262713 -0.014574316 -0.046373487 -0.09375812 0.035248097 0.112879425 -0.04994592 -0.00036207977 -0.11520583 -0.08734888 -0.13170493 -0.1110695 -0.13174458 0.0078138625 -0.013575187 -0.019291343 -0.115324974 0.04090718 -0.12281223 0.14237046 -0.03759725 0.042985 0.1072851 -0.11252073 -0.086697854 -0.08556375 -0.017187607 -0.06860261 -0.10981953 0.05484127 -0.08802429 -0.06866768 0.001492216 -0.06634608 -3.1311454e-05 0.11018807 0.036978904 0.008377588 0.03799344 -0.12921698 -0.039159983 -0.1117492 0.06384533 -0.0787717 -0.028741505 -0.12323981 -0.11978042 0.05217795 -0.05974711 -0.041320056 -0.09700463 0.071491174 -0.0068593845 -0.06081277 -0.07129414 -0.01497149 0.10318662 -0.007934363 0.031698905 -0.1491635 0.03287948 -0.11910248 -0.1133713 -0.10345858 0.0844639 -0.108950645 -0.08516477 0.063787416 0.05161446 -0.1220856 0.0459485 -0.064359084 -0.08747172 0.038690902 -0.08134542 -0.020694375 0.085485674 0.01392793 0.06771865 -0.06718479 -0.05864642 0.109768964 -0.10765785 0.0017859009 0.015316578 -0.076589696 -0.04858256 -0.107697695 -0.050631348 0.020027427 -0.117184214 -0.10650534 0.007649791 0.0014958547 -0.100038715 -0.07437886 -0.048218768 0.08896378 -0.111025035 0.07006166 -0.03922378 -0.18225555 -0.14127886 -0.10051101 -0.09322497 -0.026392704 0.03855189 -0.115001574 0.048262767 0.033987872 -0.10275373 -0.030134501 0.044172045 0.023205342 -0.022301972 0.03108786 -0.14929648 0.110322766 -0.024755837 -0.15806116 -0.00049210305 -0.11141665 -0.022471875 -0.023364648 0.037688673 -0.11129883 -0.06745094 -0.13183917 -0.11204437 -0.02155028 0.049786475 -0.070467144 0.061184827 -0.073649794 0.017861636 0.03419454 -0.013320166 0.086811215 -0.08864069 -0.14960136 0.078034714 -0.020512784 -0.005002611 -0.08735502 0.07199837 0.056905877 -0.075685486 -0.011602295 0.003801555 -0.051552378 -0.06870879 -0.03578092 -0.15509391 -0.14412004 -0.097768575 0.086831756 0.022973195 -0.12217278 -0.09959228 -0.07144612 -0.0759722 0.08554444 -0.0271684 0.014440108 0.041677095 -0.034203447 0.0038225676 -0.1031205 -0.120504655 0.07579012 -0.10602026 -0.06335183 -0.065486796 0.008950715 -0.068837434 -0.073882364 -0.04281448 -0.11687424 -0.0627262 -0.06253812 0.09841852 -0.13139434 0.035922445 -0.119924404 0.047532685 0.07460612 -0.13870654 -0.10265317 0.022723386 -0.10119924 0.092137486 -0.056868497 0.10287286 0.25280866 -0.069196105 -0.21990742 -0.10342027 -0.10954101 -0.07281135 -0.18552619 -0.214596 0.10217804 0.051415354 0.07816779 0.058097586 -0.3000099 0.03150549 -0.05012357 -0.02311057 -0.11638702 0.09311047 -0.12700829 -0.09264691 -0.39892754 0.07354445 -0.013939249 -0.092611425 0.03836752 -0.19977902 -0.18633439 -0.12625977 -0.11046859 -0.03842998 0.045855466 0.029432505 -0.004807344 -0.17636137 -0.14764561 -0.2893933 -0.09835245 0.11864971 -0.08142011 -0.12833233 0.07006955 -0.3063109 -0.065154366 -0.006800158 -0.037777975 0.0218965 0.03197585 -0.024107793 -0.07186836 -0.17264616 -0.052113615 -0.1510237 -0.10591528 0.10166786 0.08042963 -0.073487036 -0.24583966 0.066635445 0.030265396 0.059027642 -0.022150408 -0.04788829 -0.16717412 -0.2758434 -0.3444577 -0.11782192 -0.03479926 -0.06835689 0.046892483 0.03519534 0.046383526 -0.18659769 -0.036842216 -0.105466865 -0.12579684 -0.17897828 0.17048337 -0.10294272 -0.10147037 -0.21090668 -0.011337936 0.05786127 -0.16139022 0.2672343 0.15399243 -0.18851714 -0.009079041 0.20384233 -0.10681774 0.07378508 -0.049561102 -0.12980492 -0.16586158 -0.12231379 -0.23691995 -0.116142645 0.048685994 -0.21382271 -0.11554911 0.014661983 -0.049220677 -0.1273696 0.073032364 -0.14680326 -0.11745562 0.20030318 -0.17912218 -0.18634877 -0.120574825 0.0992264 0.15339202 -0.1591431 -0.13133888 -0.07930457 -0.084142365 -0.0015863163 -0.12804116 -0.17048511 0.052912418 -0.015535937 -0.17523614 -0.07103874 0.08933318 -0.13958009 -0.026275452 -0.061209064 -0.005759068 0.012890475 0.10702564 0.044100113 -0.036629662 -0.15128633 -0.006300276 -0.015065118 -0.24799557 -0.41612595 0.04967327 -0.10158149 -0.09321412 -0.21177924 0.15600957 0.07796609 -0.16999969 -0.2163455 -0.12804823 -0.12136896 0.021118732 -0.08456453 0.071968436 -0.103562325 0.02620727 -0.17272003 -0.13129982 -0.12020626 -0.1314626 -0.049662583 0.018885665 0.062086806 0.0036459728 -0.06750577 -0.19504924 -0.05786711 0.07697077 -0.10936659 -0.086128145 -0.24189833 -0.37321907 -0.11735882 -0.23464347 -0.16661555 -0.16800773 -0.17536052 -0.14805289 0.05877723 0.18684164 -0.09888967 0.033209074 0.051055647 -0.082704335 0.041666128 -0.24077584 0.111704566 -0.021610381 0.0039209323 0.06472169 -0.0042906115 -0.055561718 0.0022187924 -0.16674569 -0.013668349 -0.06537173 -0.16880262 -0.38929358 0.028589327 0.037056863 -0.050734296 -0.16311327 -0.0988178 -0.2478055 -0.031365052 0.13664728 -0.01017602 -0.08277466 -0.0811662 -0.033097558 -0.01355831 -0.18026516 0.04248347 -0.025966944 -0.16395812 -0.08021329 0.0058155167 0.10528134 -0.05180552 -0.0016353931 -0.1788991 0.02131587 0.061789766 -0.11160345 -0.08167159 0.026250394 0.02334012 -0.0017580006 -0.05799284 -0.15164712 0.05211976 0.11948308 0.0051301387 0.11383821 -0.071291566 -0.22630589 -0.14643751 -0.36641067 -0.09005854 -0.26453477 -0.07340745 -0.083234824 -0.20215704 -0.08404652 -0.08630991 0.0071483552 -0.025598649 -0.11214632 0.038306195 -0.15308703 0.19210236 -0.1615869 -0.013717094 -0.004660699 -0.21490335 -0.13550535 0.023077706 -0.00059188897 0.14158301 0.29481506 0.3457889 0.15977457 0.23019934 -0.11236808 0.07200366 -0.24058686 0.06475344 -0.0046643754 -0.013408834 -0.25611898 -0.07878408 -0.047804937 0.2837942 -0.10090959 -0.09032726 0.009225049 -0.022513337 -0.09960871 0.074911185 -0.002719872 -0.04574568 0.019895978 -0.12026 0.05074551 0.15506645 0.31823516 0.12743703 -0.21579823 0.09925632 0.14497438 -0.033074345 0.09214095 -0.14315453 0.0048574847 0.022273898 0.023740027 -0.0055114366 -0.10430437 0.04930444 -0.08455753 0.121563196 0.2337995 -0.08493356 -0.011973421 0.0108800605 0.03639884 -0.024724169 -0.087446205 0.34328195 0.040419865 -0.13183708 -0.01769154 0.0056258705 0.014634492 0.049107943 0.10915029 -0.09679836 0.23229465 -0.17846459 0.028071964 -0.12291404 0.11141187 -0.08847926 -0.2573198 -0.2160763 -0.014940691 0.11220229 -0.1303766 0.2256129 0.21661282 -0.12696289 0.090935856 0.07916613 0.07878069 -0.11827292 -0.11910024 0.16692415 -0.16451325 -0.17297669 0.114848174 0.09835564 0.16665046 0.07629637 0.07146013 0.003914742 0.15697023 0.030084822 -0.12921357 -0.14140658 -0.045198146 -0.31740576 0.16513604 -0.06810659 0.2859371 -0.05847702 0.042243015 0.1919984 -0.054278713 -0.07125862 -0.059399635 0.049361773 0.06447893 0.14095964 0.17179978 0.094421476 0.08056058 0.021783153 -0.13581203 0.11503029 0.2087427 0.19571918 0.056119002 -0.10339454 -0.31781423 0.3714551 0.021503147 0.16695726 0.17154191 0.19647337 -0.06769873 0.14137097 0.11176702 -0.0360226 -0.101604514 0.08432938 -0.08665037 -0.05041425 0.038868364 -0.2574413 -0.0476765 0.04398143 -0.22489937 -0.12475144 -0.042163767 -0.15694115 -0.23427814 -0.0927531 0.023588695 0.17403351 -0.12556836 0.19888556 0.053701576 0.010248106 -0.08176635 0.043015234 0.16596876 0.14880718 0.14772192 0.2605387 -0.28139833 0.11004569 0.103661716 -0.027011173 0.08748421 -0.040701173 0.048793044 -0.10734291 -0.38365284 0.11671265 -0.30212 0.13879156 0.012585759 -0.17374599 -0.10652064 0.3593736 -0.22030784 -0.05793932 -0.009780077 0.30818206 0.14176401 0.060948875 -0.0676551 -0.15896791 -0.35958582 -0.3807122 -0.16285029 -0.19940718 0.2250572 0.100870654 0.017578278 0.31479934 0.056352105 -0.14202864 -0.07727069 0.20243977 -0.3257536 0.11235292 -0.21819806 0.003018144 -0.16197512 -0.19597477 0.2078125 0.04643524 -0.38231233 -0.1944368 -0.020212824 0.10828829 -0.087304294 0.026527416 -0.06349555 0.065817945 -0.07631996 0.014668839 0.07677925 0.02370391 0.09374638 0.04877914 0.06290777 0.038076207 -0.22463427 0.25092867 0.0497508 0.2619639 0.24850403 0.06535453 -0.24764867 -0.013497483 -0.19189712 0.36980638 0.046686806 0.1105431 0.107956745 -0.23631792 -0.14366919 0.010020034 0.18002409 0.089761995 -0.093671724 0.22422461 0.068115436 -0.27730867 -0.038164087 0.12887539 0.083478704 0.07575948 -0.23641098 0.039129134 0.12720406 -0.17265369 -0.17827342 0.17094667 -0.16689155 0.1021795 -0.013423851 0.1376989 -0.076886326 -0.15667047 0.31686553 -0.22197925 0.03696522 -0.11726404 -0.17374656 -0.11044023 0.34445876 0.10020224 0.11079727 0.13642165 -0.13582574 0.16562904 0.068421505 -0.42562953 0.27974457 0.000754338 0.30335656 -0.25225088 0.0959496 0.037427675 0.15030411 0.026667487 0.26974797 0.16673042 0.0010952259 -0.2411029 0.014484053 0.1310326 0.0832251 -0.05982141 0.13607208 0.0085536 -0.07892465 -0.1207848 -0.13368171 -0.032048795 -0.031739112 -0.08758571 -0.015864994 0.11075114 0.20447579 0.26635316 0.08643493 -0.0015783967 0.2810345 -0.085188664 -0.01611912 -0.26465333 -0.105471425 0.20947698 0.08801839 0.0028545167 -0.16498996 0.009931998 0.11886677 -0.07003808 -0.038599394 0.15736787 -0.098126404 0.023344642 0.1346703 0.09417647 0.048202228 -0.13912328 -0.28774175 0.1440919 0.26772285 -0.0397864 -0.06898326 0.09289447 -0.026949946 0.17514265 -0.05284999 -0.0026631893 -0.057717286 0.15364084 -0.010608089 0.042281866 -0.06197772 -0.1229191 0.11225423 -0.05728513 0.33275586 0.21757214 0.5410406 0.05167053 0.31713092 -0.19478488 0.10796382 -0.12085579 -0.047644813 -0.13385999 0.10982904 -0.11714872 -0.17069066 -0.20305556 0.10284675 0.012399189 -0.0964806 -0.3155888 0.08287065 -0.29654625 0.12176183 0.1864881 -0.027473103 0.072596826 0.103824146 0.017076278 -0.035026696 0.0070035253 0.22327498 -0.029571207 0.2534672 0.13433938 0.10718725 -0.26682514 0.31334665 0.03677957 -0.13987258 -0.24344066 0.03412198 0.026145201 -0.2367134 0.15457496 -0.040151194 0.10032329 0.13615651 -0.13728389 -0.06103033 0.068512715 -0.14679398 -0.041927364 -0.24883832 0.079356685 -0.1426382 0.23388422 0.17325339 -0.041821953 -0.06560224 0.09524042 0.22384709 0.11666376 -0.00935162 -0.20952407 -0.09581022 0.021039495 0.05077211 -0.022603191 -0.052263267 -0.0763397 -0.09532503 0.29069674 -0.020328822 0.1452179 0.044380363 -0.13354965 0.5011206 0.1415175 -0.016072875 -0.022882618 0.39206302 -0.1490936 -0.10332304 0.1038247 -0.061578408 -0.039061435 0.05463641 0.038859125 -0.23351239 0.21844544 -0.03617105 0.08819923 0.10874457 -0.11266228 -0.24062791 0.04647106 -0.13805 0.17843826 0.1138093 -0.29263702 -0.4294806 0.29487127 -0.22087601 0.2530416 -0.07556763 0.15676829 -0.14919096 -0.15962765 0.14606085 0.1624578 0.02521233 0.13271226 0.032247275 0.10716921 0.2842393 0.1915571 -0.20639086 0.06733807 0.20310181 -0.06626726 0.056842282 -0.059721444 0.13438305 0.06089859 0.06045437 -0.29578093 0.052015364 0.23460887 -0.010723065 0.19994333 -0.17288978 -0.31718525 0.16551812 -0.1980062 0.3668501 -0.035366096 -0.09806815 0.05929558 0.024087885 0.17891653 -0.16833991 0.21895346 -0.45416212 0.19983618 0.13315383 0.06942419 0.07194627 -0.20365213 -0.08758208 0.17861733 0.10812189 0.13991293 0.14916937 0.2149227 -0.061867427 0.27420196 -0.15762727 0.19043583 0.08125693 -0.24372387 0.076313406 0.23926039 -0.09819808 -0.16342902 -0.10608065 0.17163739 -0.05505952 -0.019002164 -0.07892316 -0.022765478 0.1423471 0.060828533 0.39473104 0.1108513 0.14015986 -0.21969885 -0.05134048 -0.15914367 -0.045903116 0.078849554 0.053937744 -0.18044803 0.12961765 -0.020095743 -0.28638202 0.17284895 -0.15857713 0.03248974 0.0021537954 -0.18387696 -0.26041812 -0.17672412 -0.17182815 -0.051558763 -0.281922 -0.16403311 -0.28102005 -0.013208698 -0.16568139 -0.0767622 0.14385769 -0.19425625 0.27191097 0.15005852 -0.017702322 0.013166415 -0.3014218 0.10876745 -0.056914 0.15114139 -0.11466477 0.19737276 -0.21127161 0.12715201 0.011826526 0.004589081 -0.068861954 -0.091373295 -0.10398452 -0.06302327 -0.32017988 0.27731213 0.08487707 -0.0016565346 -0.09579363 0.0852872 -0.1567354 -0.007849418 -0.09060838 0.04454498 0.048065457 -0.20689456 -0.06535233 -0.22053845 -0.121533886 0.07824475 0.00012307042 -0.3128834 0.024380686 -0.040750325 -0.032903396 0.042731326 0.15434806 -0.14258173 -0.09738258 0.0043397136 -0.079627484 0.009513568 -0.12625566 -0.23943101 -0.29206103 0.24975294 0.068056546 -0.33163384 -0.105527654 -0.055688534 0.21466997 0.10792124 0.05195994 0.063670725 -0.3336923 0.04640673 -0.033935774 0.008240351 -0.09531438 -0.19940832 0.07807335 0.08351374 -0.29151735 -0.22479707 -0.119780734 0.093062565 -0.09199975 0.0007536892 0.17820957 -0.2633485 0.032776598 -0.21979119 -0.13449182 -0.15859774 0.008351482 0.09251601 -0.08537949 -0.09802821 0.046239093 -0.07685208 -0.02539737 0.20602937 0.1020826 -0.007092731 0.08983044 0.07011928 -0.09996951 0.06840089 -0.026055548 -0.03851583 -0.062023975 0.15672171 -0.17327887 -0.06044671 -0.073907346 -0.028672896 0.0003510273 0.05033953 0.14394908 0.07086331 0.093548425 0.32022887 -0.24100374 0.04784793 0.2815152 -0.08781912 -0.0017019942 0.033435874 -0.14524704 -0.26878035 -0.2701623 -0.05784731 0.048704818 0.23778239 -0.030456929 -0.33795062 0.08095527 0.26736745 -0.20940727 0.03301975 -0.28146106 -0.071271636 -0.00026404476 -0.11851186 -0.16634762 0.070521586 0.18071483 0.07034985 0.3158764 0.114552185 0.22203596 -0.19931751 -0.16441782 0.05452378 -0.10976988 -0.038732894 -0.037500214 0.18401217 0.051808193 0.06670763 -0.03002051 0.50490487 0.018468885 -0.25738853 -0.04108184 -0.048713595 -0.111839674 -0.07149666 0.18405113 0.13747218 -0.050580032 0.07437595 0.10087821 0.053935584 -0.37173483 0.106282234 0.2456688 -0.24795333 0.16935119 -0.17907509 0.06771588 -0.040317986 0.26589873 -0.07220519 0.01740271 -0.13124944 0.14066033 -0.10474383 -0.015517429 -0.055488225 -0.10402817 -0.011735894 0.059487432 0.07331838 0.1285541 -0.23288646 -0.14972748 0.10405192 0.07294498 -0.10045518 -0.012302554 0.0035182938 0.25835446 -0.026492342 -0.2696527 0.06788282 0.20370999 0.106763326 -0.011238371 -0.10078582 0.026411055 0.17268063 0.029782142 0.02316314 0.13629256 -0.09076022 -0.053338777 -0.18237393 -0.2116986 0.11221394 0.07757683 -0.016310278 -0.15637533 -0.067660704 0.13491015 0.31818825 0.32035398 -0.23718739 0.24882835 -0.1572909 0.29439944 -0.18430808 0.09323918 0.1970012 0.07806699 -0.13017005 -0.056105558 -0.102671675 -0.021837268 -0.119044594 -0.14107066 -0.31425676 0.08414782 0.0009193386 0.09389143 -0.006324597 -0.03474055 0.10145157 -0.08472633 -0.04447143 -0.10306841 -0.046641894 -0.17015825 0.11148783 -0.48121008 -0.48169082 0.38269472 -0.110163495 -0.038484115 -0.03871947 -0.15375641 -0.17339553 -0.116151996 0.122152485 -0.22657329 0.07704952 -0.2725291 -0.24996749 -0.29337487 0.14426126 0.076657355 -0.2340726 0.095036745 -0.017444994 0.09397696 0.0985122 0.3345307 0.032059837 0.2568663 -0.13748264 0.028223688 0.24466795 0.26406312 0.13014491 0.13287231 -0.08492378 -0.12186638 0.079877615 -0.07298669 0.04290595 -0.17448518 0.049719695 0.043403927 0.10792959 0.2086389 -0.06518706 -0.15210773 -0.0281841 0.47530276 -0.14499913 -0.1534596 -0.07990804 -0.33594564 -0.22921845 0.1516105 0.24357516 0.0065863705 -0.08943423 -0.1561141 0.12682755 0.041527927 0.2346821 -0.24957198 0.17874822 0.32706174 -0.49353233 -0.08940124 0.18656789 -0.27502832 -0.0073151495 -0.19396794 0.17562881 0.1669852 0.116805375 0.0050469507 0.15494676 0.15770206 -0.09868764 -0.13973387 0.06266778 -0.104448244 0.0067330804 -0.10302712 0.2393519 -0.26044396 -0.010900409 -0.17709297 -0.28312263 0.24064408 -0.12601544 -0.16747792 0.0039788946 -0.13976504 0.0067385365 -0.054631963 0.18847458 0.07113279 0.18004744 0.017741827 -0.0636082 -0.22636814 0.06882446 0.0159782 0.057652254 -0.07808256 0.35466728 -0.53828806 0.060109146 -0.22735952 0.17858377 -0.41358244 0.28352675 0.31819785 -0.2838838 -0.00019532093 0.006549275 -0.14537077 -0.10760018 0.15055008 -0.01673902 0.2238741 0.023820743 0.1866571 0.055883363 0.020504236 -0.0067595034 -0.42962363 0.029215498 0.019719964 0.24573383 0.090069264 0.04235342 0.14030483 0.13032013 -0.07222103 0.24545312 -0.3574586 0.12544978 -0.0430883 0.33691773 -0.17699902 -0.009867614 -0.02874975 0.17241903 -0.06753387 0.2774984 0.09712836 0.12541002 -0.17617036 -0.016978215 0.013565286 -0.048040587 0.15043059 -0.094873 0.110266246 0.20528977 -0.20030902 -0.42364016 -0.032482542 -0.06669342 0.0083516715 -0.07919304 -0.22410953 0.06926327 0.010169374 -0.050953954 0.08476375 -0.34280625 0.04296202 -0.01988808 -0.05049865 0.045265675 0.4194043 -0.4712542 -0.012628309 -0.2747691 0.16867065 -0.26130173 0.04818245 -0.32896683 0.06670842 -0.11730855 -0.16458784 0.07516427 -0.3887853 -0.5785179 0.11311597 0.18238838 0.013877289 0.07350064 -0.16640341 0.16146776 0.2963496 -0.003055954 0.16348772 -0.13683867 -0.13142352 -0.10072889 -0.12323112 0.30763406 -0.17075916 0.31572083 -0.10742024 0.123920865 -0.14131568 -0.070964254 -0.0576788 0.062204152 -0.30459145 0.27356836 -0.22003427 0.12446794 0.40243492 0.031162275 -0.1957203 -0.21308866 0.2510007 -0.0038683037 -0.5644272 -0.23172857 0.12758061 -0.43294695 0.07901261 0.07275284 -0.06621055 -0.2992467 0.06660049 0.21193536 -0.068838276 0.03957108 0.036377538 0.17822243 0.10321203 -0.018697103 0.16309322 0.06418267 0.05933764 -0.035892844 0.04765165 0.18178415 0.24946812 -0.33636412 -0.1777138 -0.050131705 -0.05731681 -0.34249783 -0.35840258 0.13692147 -0.01614207 -0.12852168 0.13306804 0.19601817 0.047927074 0.046087626 -0.0028804766 0.0882775 -0.121860616 0.19489679 -0.04489659 0.04703931 0.009619538 -0.03762212 0.11647614 -0.13931571 -0.17615359 -0.43381503 -0.013881401 -0.036028396 -0.32712546 -0.13067085 0.22859216 -0.13603105 0.037825588 0.1168362 0.1843363 -0.22913697 -0.2797396 -0.14526796 0.04789719 -0.12428318 -0.17247352 0.1136235 -0.33497155 -0.10087758 0.22785547 -0.3756178 -0.33987293 -0.31754944 0.088729955 -0.004581551 -0.09279083 0.015379423 -0.12978943 -0.29466274 -0.1934807 -0.20380104 0.018844116 -0.09560728 -0.03779773 -0.093512826 -0.015978739 -0.20746885 -0.05494241 -0.33878395 0.11956728 0.11209825 -0.111702874 -0.3727153 -0.3011142 -0.14095137 -0.14633265 -0.21756318 0.14253731 0.012546152 0.04968134 0.07723942 -0.289704 0.15971227 -0.08905505 -0.29533166 -0.010937422 0.02304426 0.06318299 -0.21308255 -0.17184943 0.22804092 -0.070971526 -0.20127612 0.24177139 -0.2923564 -0.00490402 -0.28765565 -0.108551614 0.0452557 -0.13389404 0.10736902 -0.24030654 0.19608413 -0.040321548 0.29103598 0.17596488 -0.033617016 0.016179299 0.23756805 -0.0018539407 0.24519691 0.04313853 -0.07897786 -0.10978172 -0.09366618 0.2981811 -0.0103160255 0.014677563 0.07076862 -0.40829596 0.07002612 -0.21534175 0.13134694 -0.026424035 -0.088262096 -0.025647337 -0.030675972 -0.015531283 0.03042483 0.09914025 -0.20879772 -0.0052427994 0.17339894 -0.12281274 -0.07584589 0.05648173 0.08134036 0.27505937 0.121420436 0.046812143 -0.050231963 -0.20732154 0.032199413 -0.2174357 -0.15306388 0.06719093 -0.18404348 -0.38446158 -0.11748847 -0.071988076 -0.02222157 0.18891132 0.027930092 0.10650803 -0.42317447 0.3856815 -0.17416532 0.17371964 0.25435662 0.023027083 -0.15219668 -0.05995773 -0.05599222 0.13556275 -0.19679806 -0.3640779 -0.3152157 0.20520462 0.091438495 -0.18735138 -0.029704314 -0.057936225 -0.14177218 -0.05032612 -0.034200627 0.2073055 -0.056548476 0.06538076 0.15805277 0.022016952 -0.22329867 0.33786026 0.24460211 0.0764183 -0.07123811 -0.0032926623 -0.021917462 0.09403999 0.28042093 -0.15611792 -0.15882851 0.08048375 -0.1538834 -0.21047029 -0.23924685 0.049785834 -0.0519913 -0.20202912 -0.07187683 -0.18686578 -0.24281496 0.009391241 0.002627428 0.087357976 -0.18093216 -0.12421053 0.053364333 0.16035776 0.21318679 0.37092236 0.16355696 -0.2951052 -0.00278163 -0.49454963 -0.021901859 -0.019176755 -0.046517894 0.29855207 0.23949951 -0.2835519 -0.011919542 -0.19081539 -0.39308158 -0.21614994 0.27446178 -0.2744603 0.0630544 0.1224156 -0.3321446 -0.069990605 -0.043276094 -0.08460769 -0.027767118 0.01663864 0.08956057 0.095197186 -0.02094837 -0.08893505 0.0989897 0.16253605 0.19656579 -0.06794447 -0.14195764 -0.07190045 -0.06426422 -0.18359604 0.34855172 0.14701402 0.0061664684 -0.06961063 -0.35692802 -0.17429714 0.24675405 0.06013848 -0.20050094 -0.2555929 0.19719602 0.020096801 0.017892955 -0.01033862 0.01681651 -0.13012692 -0.29982826 -0.089508936 -0.09424404 -0.31198233 0.05760635 -0.10512479 -0.24306351 -0.6773902 -0.00095466705 0.14193162 0.045706533 -0.1932176 0.0984538 -0.14919795 0.077857986 0.32434583 0.07711704 0.07282572 -0.06183867 -0.04235417 0.05365292 -0.25216696 -0.15013775 -0.20265874 -0.41445446 -0.00013656192 -0.25518426 0.14322099 -0.066392675 -0.037971977 -0.11467944 -0.25053707 -0.010453193 -0.10021731 -0.18991436 0.2868064 -0.30127722 -0.1525622 -0.058037706 0.21866927 -0.17916672 -0.24584328 0.010293146 0.19474179 -0.420584 0.022249606 0.3151391 0.31055376 0.13841443 -0.023150252 -0.19811763 -0.13606523 -0.03003197 0.10488688 -0.23195884 -0.0372052 -0.038111333 0.2752406 0.12182974 0.20570052 -0.05167526 0.15494552 0.10016297 -0.057880484 -0.24085948 0.033039227 -0.11427508 -0.0654366 -0.13665788 -0.023163177 0.05669864 -0.06729217 -0.08759959 -0.05065137 -0.2721382 0.051306657 0.09175 0.093223564 -0.21320693 -0.09811494 -0.16353613 -0.159441 0.22633612 -0.056686826 0.03697348 -0.2753119 0.12385047 0.19998057 0.036839068 -0.2570219 0.32908523 -0.085795306 -0.080207124 -0.040203556 0.23071097 0.17521302 -0.010476838 -0.19200727 0.11653807 0.094386786 -0.046087164 0.052382372 0.07882872 0.08195434 -0.33688605 -0.020531299 -0.3260607 -0.1257266 -0.20707811 0.15303004 -0.0627344 0.01561016 -0.059290163 -0.00085326645 0.19379127 0.00077467907 0.09796061 0.0481002 -0.020678477 0.07133504 -0.0075644865 -0.12198887 -0.1512389 0.09630414 0.046898104 -0.015727233 0.048651643 -0.07096897 -0.07872311 -0.027863422 0.035251018 -0.15196896 0.24037115 -0.011762762 -0.19873367 0.10972757 0.20362294 0.15537877 0.30607027 -0.123088226 -0.11530808 -0.32233986 -0.10082518 -0.010471323 -0.11327568 0.056382347 0.03494447 0.036493767 -0.04479316 0.04935813 -0.13924043 -0.04716923 -0.0045295344 0.120665245 0.04673969 -0.16004787 0.027737983 0.22125687 -0.11944722 -0.23371331 -0.038939003 0.0074119717 -0.12008317 0.077812396 -0.031169444 0.2407033 0.052361663 -0.0069606495 0.21566267 -0.2917999 0.27867776 -0.052472487 0.032046493 0.20009428 -0.18367906 0.018145228 -0.28526798 -0.063276224 0.24242547 0.16212334 0.07454492 0.05290404 -0.044976704 0.124843694 -0.31885028 -0.048951995 0.16292766 -0.1067475 -0.07190535 -0.06446871 0.008016695 -0.17448962 -0.11930882 0.09612107 0.15954447 -0.1088837 0.014170376 0.19149289 -0.18902592 0.10027535 -0.23642765 0.14204799 0.038703837 -0.039922163 0.014236449 -0.17927991 -0.3607111 -0.16875938 0.110519685 -0.011219621 -0.1623045 -0.017367445 0.13009596 -0.029012343 0.250225 -0.24173893 0.0034404364 0.085319825 0.09784854 0.010947665 0.04659599 0.04279143 0.06601687 -0.31100264 0.008938317 -0.1901607 -0.1097727 -0.19341792 -0.044677965 0.16818301 -0.2217924 0.0017892506 0.07891268 -0.0043958495 0.13722576 -0.12568393 -0.09633906 -0.21638842 -0.065578826 -0.1848018 -0.17994912 0.27360177 -0.07387654 0.047593776 0.07387907 -0.22204152 0.09295676 -0.27437198 -0.28832784 0.21363169 0.20710376 0.1562301 -0.0951004 0.046744153 -0.08423462 0.2626229 -0.334844 -0.051157378 -0.08741174 -0.14410046 -0.09572379 -0.28037164 0.025637293 -0.20597568 0.014091368 0.17148846 0.12888202 -0.2912776 -0.078343324 -0.031535204 -0.115358256 -0.09526935 -0.051078256 -0.110927895 -0.17795464 0.1934126 -0.0068913875 0.35376737 0.12643537 0.16435221 0.03726394 0.0008724257 -0.1379945 0.19386719 -0.45480528 -0.36504135 -0.004222338 -0.13669325 -0.16570216 -0.034694914 0.06475022 -0.30452797 0.009820611 -0.49581033 -0.15240952 0.10700653 0.16811804 -0.017863158 0.097538516 -0.009826496 0.19679819 -0.0038221625 -0.053641967 0.027641704 0.1282129 0.036647946 -0.03025614 0.046747584 -0.09042403 0.1526259 -0.11744959 -0.0057553016 0.1422194 0.12653401 0.17225549 -0.014335754 -0.22776905 0.12053817 -0.20477287 0.15512395 -0.30924806 0.088383615 -0.0010030577 0.053679254 0.21021903 -0.0955862 -0.021420289 -0.024863027 0.041876838 -0.19760151 -0.45135695 -0.18817623 0.10758796 -0.053938244 0.015622252 -0.13100839 0.23535053 0.13604482 0.15338148 -0.11112308 -0.006084789 -0.09271796 0.17758314 0.12345606 0.02308141 -0.12720571 0.055327192 -0.2394969 -0.35114476 0.19087788 -0.021732539 -0.21298847 -0.024536155 -0.40969554 0.12539597 0.14428179 -0.20646973 0.04862249 -0.18366104 0.068863854 -0.446677 -0.108775675 -0.07400328 0.13776466 -0.46539617 0.019034687 -0.046804473 -0.090190776 -0.02128085 -0.11343808 0.22672947 -0.081623495 0.032822944 0.20730893 0.27914467 -0.08116842 0.20380025 0.1478511 0.08150731 0.06981933 -0.09606949 -0.05633086 -0.3385106 0.15919663 -0.18890874 -0.19908172 -0.206868 0.02340366 0.08751059 -0.41707832 -0.0049033905 0.13559343 0.16905794 -0.1917759 -0.097882845 0.018466609 -0.052227676 0.24179332 0.037655562 -0.16945301 0.092717975 -0.22523294 0.37075838 0.04489811 -0.12984669 0.38458547 -0.114914685 0.120346725 0.0042940956 0.13221133 -0.3140435 0.06617626 -0.1445332 -0.025836915 -0.23312865 0.06158312 -0.086669624 -0.19963396 0.047634173 0.10589067 0.05125582 0.23096433 0.11839444 0.15862468 0.23534408 -0.20534982 0.15771557 0.18684594 0.025113689 0.11468542 0.17585106 0.10526664 -0.1855994 0.10664045 -0.15946797 -0.23223062 -0.21314158 -0.16128443 -0.056523543 0.008931164 -0.08022835 -0.095455036 -0.048137594 -0.40819433 0.07325654 -0.12932059 -0.13817757 -0.35423583 0.1705204 0.3652003 -0.09371834 0.01097532 0.04934245 0.16573031 -0.23139907 0.07835829 0.29644194 0.24522287 0.08217631 -0.15127902 -0.11896168 -0.22032434 0.33784738 -0.20983218 -0.09975109 -0.3217683 -0.21418391 0.18881038 0.28597695 0.06700483 -0.37115416 -0.10404958 0.00075593987 -0.09514883 0.20275517 -0.024168361 -0.098133154 0.0063624363 -0.074666716 -0.25889736 0.027845291 0.006864165 0.02731946 0.1859224 -0.078707606 0.030158386 0.052161068 0.06971365 0.13510537 0.040880565 0.09597034 -0.06586188 0.036107212 0.050794058 0.12524372 0.036148652 -0.17083353 0.34393635 -0.15864433 -0.01017659 0.2088207 0.17213325 -0.26572728 -0.13978724 0.32316795 -0.09420123 0.0010429658 0.03473517 0.03184482 -0.3510361 -0.20961349 -0.03414653 -0.21680221 -0.108500406 -0.37970573 -0.147903 0.053105634 0.000958466 0.19643804 -0.26594415 0.26550913 0.072483175 -0.13063912 -0.12519391 -0.059774086 0.13433456 0.09237572 -0.35436288 0.184842 0.094488114 0.20639122 0.1180284 -0.13201503 0.052933905 -0.0060241595 0.063849345 0.038124286 -0.18416806 -0.01146891 0.058439687 -0.018185401 -0.060217805 0.09026776 -0.049060144 -0.12856765 -0.0011651622 -0.07945898 0.06620714 -0.0036986815 0.067413315 0.15670268 0.07330416 -0.008744155 0.26332846 0.00042755707 -0.01399858 -0.026385812 -0.138822 0.028491797 0.1171393 0.022100214 -0.031912025 -0.13633808 0.09845396 -0.044088405 -0.004684108 0.027759325 -0.055971246 -0.17720513 -0.10164484 -0.10935711 0.1001128 0.045547843 -0.018692253 -0.17189613 -0.05115606 -0.031004827 0.09171466 -0.06424175 -0.029063113 0.12551862 -0.04922084 -0.21854115 0.048279084 -0.04406352 -0.016966552 -0.07819906 0.06517759 -0.12713827 -0.12531915 -0.057215497 0.027467882 0.1028957 0.21068399 0.1471538 -0.12401446 0.005404135 -0.18442447 -0.10541119 -0.021288225 -0.0041336515 0.0051972615 0.090382054 -0.13492614 -0.08220242 0.088303186 -0.062465385 0.2523959 -0.060722195 0.0015060422 0.06627708 -0.04241341 -0.15813112 0.0016903017 0.10289389 -0.09381815 0.0507374 -0.036950532 -0.19741134 0.085958764 0.077787936 0.09331245 -0.021943493 -0.07311556 -0.040254507 -0.20770806 0.18103938 -0.129844 -0.04454629 -0.17241587 -0.095278 0.031962663 0.035130385 -0.054404903 -0.05055589 0.0731346 -0.07519023 0.026187474 -0.00317458 -0.05216242 -0.022312298 -0.010182786 -0.15818977 0.12689161 -0.058174122 -0.036158867 0.1707608 0.15445937 -0.009426932 -0.22291626 -0.0873044 0.034273535 -0.1076599 0.13739145 -0.13338766 -0.113171 0.019785741 -0.025074463 0.006138933 -0.05575767 0.022150395 -0.21328014 0.16111605 0.13036236 -0.14376529 -0.062000517 0.03601593 0.020631831 -0.03940548 0.1469069 -0.093947254 -0.2228299 0.06571812 0.0484047 -0.027272357 -0.21592698 -0.06831973 0.047185816 -0.024334583 -0.048143204 -0.026717555 -0.025206624 -0.037401084 -0.054381683 -0.081978925 0.038098905 -0.095904514 0.019655371 -0.1456769 0.07827663 -0.1943408 -0.12121032 -0.19895168 -0.06103277 0.23215747 0.017718036 -0.0013025182 -0.2947891 0.040728245 0.13365951 -0.11708209 0.009308108 -0.102983125 -0.16127948 -0.1433315 -0.116111025 -0.1294373 -0.0368085 -0.17663626 0.020936564 -0.081809126 0.06773482 0.034327794 0.16766804 -0.021793589 -0.23245065 -0.19071372 -0.054528058 -0.007839017 -0.08308088 -0.031150911 -0.24397632 0.0809145 -0.07052241 0.031162586 -0.050864924 0.054173455 0.19893633 -0.20182443 0.05092713 0.047054287 -0.0897181 0.08149862 -0.11133433 0.06544298 -0.058412448 0.038088765 -0.0008624445 -0.05870784 0.05143857 -0.15543862 -0.09999701 0.14668351 -0.12709561 -0.13853534 0.08281882 -0.11856982 -0.12358941 -0.13742621 -0.067342415 -0.10735678 -0.07852486 -0.04201487 -0.0072945496 -0.021442229 -0.04188789 -0.033650313 -0.08599881 -0.124872275 0.016601697 -0.26745886 -0.110898934 -0.14346892 -0.07131268 -0.07170009 0.060287405 0.07570829 0.026039515 -0.19081521 0.14693007 0.0226587 -0.06403908 0.06948334 -0.021773081 -0.14494835 0.03611595 0.11334884 -0.016920261 -0.1801473 0.18811658 0.0015707547 0.12794055 0.045144822 -0.17659323 -0.098779164 0.050024267 -0.21034947 0.105305485 -0.04090816 0.08870946 -0.002181523 0.22785406 -0.04370424 -0.03996103 0.23115647 -0.011363084 -0.25311643 0.103813484 0.08131633 0.09236478 0.325557 -0.024669997 -0.053568225 -0.13122596 0.083736196 -0.103530586 0.06305397 0.07427334 -0.17477633 -0.3257707 0.005136869 -0.09725018 -0.2722282 0.18564448 0.07633137 0.025159985 -0.04485551 -0.19164705 0.11881794 -0.15053166 0.18740214 0.04483098 0.26001656 0.12919046 -0.22666176 0.0040426264 -0.15533662 -0.5073723 -0.1182863 0.08878086 0.3077336 0.21816923 0.035931006 0.054867998 0.081282325 -0.14711186 -0.2776872 -0.17306155 0.07452714 0.120983705 0.075447515 -0.14598952 -0.041264527 -0.061757907 -0.031660736 -0.13003974 -0.01157167 0.021054018 -0.16789833 0.028345164 0.3190083 -0.0062202266 0.09813375 -0.13304877 -0.4504809 -0.23559815 0.19410007 0.08421074 -0.000854457 -0.08413922 -0.12219309 -0.15267992 0.20137912 0.08767318 0.016277408 -0.10042753 -0.19792786 0.074581586 -0.292848 0.11969585 -0.15696196 0.37369576 0.060220946 -0.14132412 -0.15221436 -0.28652012 -0.12706403 0.008939683 -0.1408122 -0.20191996 -0.12465299 0.28268903 0.12964602 0.06754656 0.10764519 0.13302445 0.35178128 0.074246384 -0.029395392 0.07545172 0.04352028 -0.09916275 0.28164697 -0.31761146 -0.13095067 0.1951304 -0.25717038 0.102014795 -0.100178845 0.07344416 -0.06282737 -0.06532015 0.28876093 -0.145115 -0.071889125 0.12474181 0.09330534 0.013513312 -0.043204106 -0.009235462 0.15768676 -0.20886753 0.20930691 -0.101972796 -0.12279445 0.09027111 0.07864518 0.1138353 0.11326525 -0.1270498 0.044929992 -0.062316574 0.08835803 0.10230521 -0.049339518 0.109961316 -0.07619151 -0.22147205 -0.38536516 0.15330613 0.014251314 -0.03507576 -0.08886188 0.16360818 0.057840943 -0.051307723 -0.19973844 -0.22589836 -0.16872947 -0.06222103 -0.1769552 0.11840773 -0.105059065 -0.30953154 -0.29925674 -0.14497963 0.05575221 0.06067164 0.37937272 -0.25771654 -0.36594757 0.117204934 0.17193134 -0.09511433 -0.067598045 -0.006339902 0.24854319 -0.08136272 -0.042372398 0.15432623 0.04693603 -0.39518 -0.2234809 -0.19413047 0.023262583 -0.008963622 0.011502293 -0.0403735 -0.086684264 -0.31909683 0.053920154 -0.24588123 0.020129485 -0.011200023 0.04656117 0.3313116 0.039217997 -0.05247683 0.024591433 -0.07264127 -0.26519305 0.030753892 0.290338 -0.055785056 0.17589651 0.15461521 0.048651937 0.16633853 0.13986641 0.22153479 -0.28131047 -0.35182464 -0.10206443 0.11943983 0.03682484 0.0072032646 0.03460047 0.04949727 -0.021913303 0.14933239 -0.15960653 0.06329229 0.107689485 -0.03845989 0.008309722 0.082022995 0.10584006 -0.1011489 -0.141088 -0.16098014 0.2770853 0.23927982 -0.0077080675 0.0011832806 -0.11282238 -0.052243527 -0.11168662 0.16159828 0.06966324 0.02809989 0.14281176 -0.1815038 0.090249255 -0.046235517 0.23445126 0.104319885 0.064721234 0.28910625 0.14828344 0.101424865 -0.3230592 0.18866646 -0.2405337 -0.088011384 0.107271634 -0.14703043 -0.04619068 -0.22598748 0.21303456 0.15767092 -0.16034324 -0.051288728 0.10734764 0.16368209 0.2390546 -0.040100973 0.11689534 -0.09105234 0.3997765 0.21146064 0.21011023 0.339756 0.17514057 -0.033601094 -0.16323523 -0.08953924 0.053562082 0.16785333 0.08175037 0.012428323 0.02981327 0.028096763 0.100407965 0.007541912 0.09129936 -0.3441955 0.015359821 0.18428917 0.116417475 -0.22026856 -0.24765137 0.008542949 -0.17383888 0.225483 -0.15761745 0.19199151 0.46422756 -0.13785337 -0.38139907 0.11504274 -0.29435137 -0.33587968 0.09075244 0.26970288 0.119439654 0.17521746 0.2577868 0.38391718 0.22070538 -0.061064806 0.2847438 -0.31909016 0.21528699 0.13315733 -0.25012007 -0.22474715 0.5204645 0.041660197 -0.24017355 0.13825692 0.11052082 -0.13115096 -0.2587831 -0.32998687 -0.23198253 0.22114117 0.080850035 -0.020870173 -0.049978826 0.2273525 -0.34015366 -0.35815224 -0.24303696 0.1857309 -0.1626739 0.054292105 -0.10470357 -0.2615413 -0.12106839 0.12646626 0.10917795 -0.19307554 0.26575586 0.2650398 0.2557256 0.019436572 -0.4200361 0.23720852 0.012280369 0.36470786 -0.033734936 0.08861697 -0.19430116 -0.119936384 0.31716162 0.032979365 -0.21081173 -0.2632921 0.0889437 -0.1608824 -0.14560878 -0.11992372 -0.051731754 -0.0073045352 0.35805562 0.17757231 -0.08202275 0.23241775 -0.16708916 -0.5270812 0.009373717 -0.08803655 -0.2527853 -0.0063379756 0.44787297 0.13782723 0.03704057 0.112987205 -0.30875626 -0.046775866 -0.14847688 -0.2662425 0.13274814 -0.06971711 -0.037531804 -0.030602464 -0.3419623 -0.043505043 0.17425534 -0.32851195 0.14617752 0.010466047 -0.06690274 0.03714749 -0.17019029 -0.023129158 0.051622506 0.3186366 -0.16992375 0.034677193 0.13880707 -0.20240937 -0.1610443 0.035864238 0.07221447 0.09684881 0.08149174 -0.21557228 -0.34134924 -0.19392072 0.120302215 0.033238392 -0.112526566 -0.38591722 0.20135483 0.08692958 0.15856951 0.035508018 -0.28365916 0.25510892 0.00091778993 0.16373926 -0.37028897 -0.036752168 -0.043706775 -0.24519145 -0.29464346 -0.02575472 0.37973294 0.022005642 -0.08195764 -0.15982774 0.12485342 -0.07204241 0.19527158 0.06370887 0.06400294 -0.03139292 -0.31303808 0.3467763 0.102683626 0.14260179 -0.06692542 -0.15998822 0.36517972 0.10836036 0.2523373 -0.04992626 -0.06739166 0.09698134 0.16118625 -0.41164765 -0.07793948 0.017503198 0.23704281 0.16265854 0.118384115 -0.13020228 -0.06427199 -0.12196229 0.217597 0.18652378 -0.20145124 0.20184289 0.28115776 0.031494543 -0.0935211 -0.07130768 0.08745461 0.14503926 0.10317804 0.17660473 -0.08800649 0.3093854 -0.16623701 0.07279398 -0.18838681 0.30113015 -0.119615994 0.11007167 -0.2975734 -0.39977372 0.27163932 -0.012559086 -0.054055255 0.07414843 -0.18380594 0.25526145 -0.055214502 0.039650034 -0.09635754 -0.0038553062 0.107530355 -0.30466974 0.095947206 -0.060567785 0.27112445 -0.25591317 -0.060192913 0.16279273 -0.0026079027 0.25782576 0.074183196 -0.12586789 0.3586766 0.03337403 -0.36011526 0.18447511 0.03537484 -0.08821547 0.13602594 -0.42741415 -0.089607015 0.31523132 -0.26722354 -0.1365979 0.06119675 0.1765184 -0.09767788 0.050746933 -0.14848965 -0.11837682 -0.07487982 -0.0068269204 0.09239978 -0.14318588 -0.16666801 -0.12710355 0.13028929 -0.010200863 -0.20993152 -0.022152618 -0.14739983 -0.05473333 -0.013094932 -0.098435014 0.05354973 -0.31404084 -0.06761496 -0.15736711 0.09233706 -0.05765559 -0.07752984 -0.0684042 -0.17585546 -0.17724024 -0.15935059 -0.21151878 0.008652935 -0.013256045 -0.10048479 0.02745331 -0.19283971 0.07505308 -0.010781461 -0.092566445 -0.10615792 -0.12706558 -0.08532155 0.029805278 -0.010141344 -0.24431036 -0.2210132 0.034542497 -0.18742603 0.17620444 0.03669828 -0.023324538 0.093449906 -0.072125 0.09302579 -0.048326127 -0.08764992 -0.09014098 -0.20602521 -0.09964844 -0.11499523 -0.10160038 0.04222813 0.11135665 0.0245118 0.041682582 -0.0765453 0.032412827 -0.057912797 -0.05314358 0.0032682025 0.08964932 -0.1351249 -0.18794028 -0.030943826 -0.11518631 0.14845847 0.012179303 -0.08879026 0.031954758 -0.222472 0.00013428646 -0.13095984 -0.09070457 -0.118501045 -0.060204607 -0.13676777 -0.087015994 0.041252717 -0.21422231 -0.2029527 -0.16814668 -0.09648357 -0.023975188 -0.17798229 -0.109972246 -0.032247007 -0.029760635 -0.050296865 -0.16276978 -0.08050551 -0.096877396 -0.07682775 0.035194937 -0.09294312 -0.008149339 0.02251777 -0.13404855 -0.20176195 0.027657872 0.0047283596 0.04531623 0.17090428 -0.14872988 -0.0015127113 -0.064239256 -0.2664906 -0.102950834 -0.08162506 0.11600426 -0.027114205 -0.14674869 -0.09340874 0.040378377 -0.060991645 0.168014 0.058252152 0.04476281 -0.08872652 -0.0061733117 -0.14425693 -0.10302585 -0.020397939 -0.06181452 -0.015146794 0.05298753 -0.14023286 -0.17980787 -0.015129692 -0.10965854 -0.16917387 -0.0998018 -0.10660126 -0.07964532 -0.21795532 -0.16689663 -0.10963475 -0.15682274 -0.09042795 -0.040393215 -0.03262026 -0.21404615 0.022156024 -0.030103795 -0.10411424 -0.03865772 -0.17232743 -0.14503802 0.0037553255 -0.08756814 0.090716235 0.11164671 -0.008053605 0.06256874 0.07696225 -0.06732539 0.14473951 0.008332723 -0.02932703 -0.11739424 -0.16404238 0.0035888497 -0.12449395 -0.028229015 -0.034895208 0.0023132963 0.08140944 -0.18665417 -0.04346793 0.07875807 -0.2801482 0.025839848 0.004443462 -0.2765816 -0.13074085 -0.065076984 -0.07930218 0.08351108 -0.04300262 -0.1157906 -0.11871039 -0.03818769 0.08229915 -0.12820414 0.106011696 -0.1258459 -0.033829603 -0.03054719 -0.04633121 -0.1419164 -0.12230389 -0.12785916 -0.15325187 -0.07813963 0.1025238 -0.16274688 0.012008322 -0.057369057 -0.07835957 -0.11299806 -0.08368185 -0.10061787 0.005862151 -0.18545488 0.024432354 -0.09942559 -0.12771417 0.08234721 -0.2727247 0.023161968 0.054547437 -0.065732025 0.06704957 -0.15726887 -0.08504606 -0.17871971 -0.021791792 -0.09332461 -0.22820823 -0.08025688 1.493287e-05 0.04211914 0.046612013 0.03507135 0.07155999 -0.024568442 0.03324101 -0.12423299 -0.14312209 -0.19666785 -0.029208772 0.06879091 -0.03482975 -0.01593354 0.10968823 -0.09000916 0.08839596 -0.095390536 0.044115696 -0.04548357 -0.06891136 -0.0034327966 -0.098208696 0.12351548 -0.052901108 0.07645325 0.06793317 -0.030366736 -0.12647952 -0.020683484 0.16738375 0.18297343 -0.1605503 0.2741293 -0.16316241 0.00028986981 -0.23864679 -0.19649574 -0.10183117 0.30036995 -0.06717166 0.13550504 0.22641937 -0.22540794 0.039604016 0.021563983 -0.023519391 -0.17473543 0.089389354 0.16258144 0.08305789 -0.56435066 -0.13139221 0.0085360315 -0.24417855 -0.11790345 -0.290453 0.058981154 -0.0063810176 -0.21265489 -0.16324198 -0.04554271 -0.019362276 -0.046745874 0.14782964 -0.23558828 -0.007090165 0.21470113 -0.096965924 0.0040194797 -0.05133532 0.18483824 -0.40839028 0.11469571 0.06360559 0.0017338934 -0.33090428 0.14363158 -0.09360681 -0.18627745 -0.3139151 0.059357397 -0.044550728 0.15507868 -0.10953869 -0.023452371 -0.063840374 0.043657985 -0.040638167 0.28002268 0.066421986 0.07888313 0.01639806 0.062096648 0.115246445 -0.057784017 0.15924713 0.062482323 0.03291284 0.10101838 0.0010390835 -0.0391635 0.060725812 0.007451323 -0.0004311726 -0.008181189 0.16222309 0.10979151 -0.3643691 0.11734514 0.009180349 0.15663555 0.11081606 0.07752309 -0.22880489 -0.035839345 -0.044745903 -0.22351527 0.037842546 -0.043341562 -0.0693217 0.009612153 -0.13911858 0.16205168 -0.121153384 0.030162735 -0.18823235 0.113820985 0.13860792 -0.039286982 0.22664072 -0.066877425 -0.26625428 -0.16867484 -0.04104095 0.28281024 -0.064106435 0.066573225 0.37844273 -0.09257357 -0.03807738 0.020133674 0.17968015 0.17443556 -0.012533054 0.077687725 0.041899227 0.033810627 -0.04822851 -0.06612083 0.02765315 -0.16111879 -0.13946153 0.012704233 -0.27035677 0.047351092 -0.01069493 0.11860737 0.293364 0.14232785 0.12347949 0.09988159 -0.05227594 -0.15921655 0.03399223 -0.16662239 -0.2583912 -0.030464254 -0.017743235 0.11624885 -0.11977022 -0.13123105 -0.0450803 0.000247735 -0.03726613 -0.08802552 -0.021171572 -0.09619283 0.03629947 0.2797151 0.06713215 -0.1680652 -0.18466425 -0.120415956 -0.11838525 -0.02131992 -0.16665483 0.021139301 -0.03025823 0.2169694 0.073700994 -0.12830763 0.3646411 0.14255577 -0.11812059 0.030614024 -0.017592728 -0.12007916 0.34883532 -0.025653414 0.09686253 0.12097067 0.09301507 -0.23403083 -0.2816115 -0.19222584 0.05184765 0.41736698 -0.24822989 0.08817271 0.039057553 0.10910516 0.094429076 0.17537315 0.004249195 -0.27634716 0.061641134 0.30378735 0.0043523135 -0.01704153 0.10540612 0.04890693 0.014521489 0.0742987 0.005286937 0.03449216 -0.15933332 0.14816749 0.16007553 -0.036796506 -0.16455917 -0.13040054 -0.029994665 -0.37384203 -0.07875669 -0.018197417 -0.011526663 -0.080728814 0.002034208 -0.05443661 0.09239884 0.1498293 0.11451996 -0.27540922 -0.06320524 0.4349946 -0.03538229 -0.05299562 -0.096011326 -0.02851093 0.2693177 -0.13873675 0.12048424 0.13978028 -0.081801675 -0.4010649 0.025583979 0.31980133 -0.078875914 -0.14044432 -0.044136934 0.1371817 -0.03332192 -0.093720086 -0.28180018 0.23676138 0.15305991 0.1399571 -0.035719026 -0.07771788 -0.07560571 0.021781567 -0.2920634 -0.16896111 0.041992515 0.020120328 0.047598585 -0.28864226 0.16696705 -0.21606661 -0.032736257 0.37989053 -0.13699119 0.109890625 0.12693411 -0.038762182 0.0053551965 0.050590035 -0.14449185 -0.22236122 0.06076937 -0.13540632 0.05731372 0.066735625 0.09908304 -0.028166633 -0.025040891 -0.32584152 -0.189865 0.0610964 -0.034601077 -0.03981731 0.15144815 -0.09416806 -0.033115704 0.10889025 -0.008450465 0.12770388 0.11453253 0.028441498 -0.0052166716 -0.15805303 -0.26085138 0.062596366 -0.18347378 0.2638779 0.11759239 -0.03343752 0.14909124 -0.10584742 -0.16057162 -0.030740932 -0.023818668 -0.12877408 0.047790695 -0.057380684 0.08150468 0.22735903 0.09446138 0.29356644 -0.05055167 0.13120238 0.19155078 -0.12551852 0.09427519 -0.029352902 -0.1291142 -0.060953908 0.25937045 -0.112103395 0.09872299 0.31391576 -0.040350143 -0.05884788 -0.1834913 -0.032960244 -0.12921993 0.12536389 -0.116996095 0.08676687 0.15633799 -0.017134244 0.033634998 0.057739336 0.16118166 0.07867347 -0.08662291 0.15424378 -0.03597229 -0.01729232 0.09494951 -0.1347671 0.14268011 -0.2933006 -0.10450265 0.323684 -0.10920553 0.009583096 -0.16229522 0.072518185 0.26502445 -0.17003945 0.020278702 0.015333462 -0.23573819 -0.13748242 0.02068135 0.13110135 -0.09162709 -0.18645708 -0.06513619 -0.24561988 0.17807262 -0.05166714 0.17868008 0.11469312 -0.10743375 0.23716141 -0.12221721 -0.1724906 0.1226436 -0.089923926 -0.03566784 -0.12838939 -0.02105206 0.03643567 0.3617313 0.24238417 0.28537908 -0.1875794 -0.05072435 0.04004969 0.06385259 0.047493115 0.052971594 0.17691225 0.025877463 -0.36258575 0.07751227 -0.03335286 0.078135155 -0.008258324 0.062210117 -0.091950946 -0.08447158 0.016642818 -0.06127969 -0.032730754 -0.040084623 -0.093588136 0.009532235 -0.16380183 -0.015654793 0.00025679413 0.014084426 0.05170663 0.03515301 0.11614812 -0.026829025 -0.013898376 -0.18341015 -0.03179248 0.06002904 -0.09388704 0.0711867 -0.11250336 0.0077468967 0.21766144 0.042809654 0.03003818 0.005670804 0.12153264 -0.16000214 -0.050809644 -0.21898165 -0.16031009 0.09342681 -0.0038284615 -0.20855883 -0.02293693 0.021348337 -0.20730115 0.118639715 0.20899026 0.20351315 0.025731279 0.07860248 0.038696636 0.057777535 -0.18024273 -0.010192876 -0.03312593 -0.09231044 0.38551366 -0.014217457 0.15945522 -0.0963145 0.24167712 0.20455219 -0.19421947 -0.15075064 -0.09033985 0.1486763 0.011854179 -0.040732145 -0.09828871 -0.002986973 -0.0909829 0.1370256 -0.03869312 0.22456574 -0.17327453 0.26125625 0.044205297 0.2024956 -0.1928838 0.08143114 -0.21726139 -0.06744622 -0.009469637 0.24528971 0.14417914 -0.11867732 0.3970394 -0.08069512 0.10280838 0.33314502 -0.050135832 -0.09083784 -0.0056920177 0.046150528 -0.18734527 0.08457435 -0.12539934 0.14240177 -0.08476356 0.058721088 0.23857784 -0.07499044 0.024541898 0.0130961975 0.09945417 -0.32245222 -0.122297816 -0.008510443 0.07924209 0.28120413 0.42281577 -0.009929101 -0.028164752 0.22271071 -0.10057727 -0.16585284 -0.07137142 0.017728528 0.11394207 0.14948577 -0.11244071 -0.17742096 -0.113084294 0.09222064 0.10961625 -0.038862564 -0.011185298 -0.10484867 0.0947557 -0.25173002 0.07088165 0.012159243 0.07316936 0.16929416 -0.010904227 -0.19829316 -0.08541241 -0.24431174 -0.28356776 -0.25330976 -0.15400778 -0.26365834 -0.20942135 0.029703353 0.2598837 0.021671394 0.057673898 0.0011803227 -0.25425512 0.1689105 -0.3354984 0.0922659 -0.01715513 0.13737719 0.34160104 -0.24224448 0.20582697 -0.066499785 0.09584264 -0.16791531 0.19774425 -0.0071985475 0.25336787 -0.079508364 0.039968736 -0.40434438 0.20245682 -0.26871303 -0.24570988 -0.15288931 -0.15854725 0.2718913 0.0054650004 -0.559776 0.31583256 -0.080695465 0.18334493 -0.10521094 0.13574378 -0.11634673 -0.18528588 -0.2732694 -0.254202 0.05291501 0.101139404 -0.055752464 0.17998965 -0.07673405 -0.27974868 0.0130887665 -0.13114364 -0.06214645 -0.13215221 -0.11933383 -0.020657191 -0.18744276 0.14761591 0.2606704 -0.0899665 0.25817862 0.14236891 0.14513478 0.41540954 0.01743085 0.0037325907 0.28381944 0.09926304 0.04159536 -0.019481342 -0.24923643 -0.358562 0.0039297338 -0.03271389 0.14961557 -0.17553423 -0.0057724426 -0.25803646 0.10799421 0.08492075 -0.2190577 -0.026841965 -0.09878459 -0.08260772 -0.11485167 -0.018633278 -0.03565689 -0.026146423 -0.1442417 -0.26449534 -0.009548639 -0.11269925 -0.13918656 0.2132985 0.08338875 -0.068273075 -0.15231043 0.08882733 -0.14903487 0.124535814 0.13521078 -0.07960235 0.24293992 -0.049490616 0.25681558 0.051842783 -0.017283577 0.32616344 -0.11851619 0.105595596 -0.5009868 0.30449036 0.123568095 0.022047741 -0.1486414 0.017986294 -0.05151659 -0.1533941 -0.04160056 0.18546474 -0.20371696 0.094136894 0.061423827 -0.04949957 0.09051419 0.18099573 -0.21506569 0.22996224 0.16358037 0.13004537 -0.039608207 -0.13924319 -0.25399587 -0.12873183 0.11220064 0.06237667 -0.27551323 0.04994751 -0.066698566 -0.08726655 -0.05674128 0.19079292 0.075299405 -0.058262266 -0.0055889557 0.13093919 0.28559247 -0.20158914 0.066363476 0.23733559 -0.31582782 0.021577204 0.12522948 0.14214428 0.097167596 0.2753686 0.013671557 -0.0924843 -0.13693897 0.025596848 0.14118914 0.11462699 0.211377 -0.1342943 -0.23324645 -0.015209498 0.19378987 -0.1817685 -0.19238071 0.10268625 -0.4122242 0.1186778 0.19137664 0.045721672 -0.21247037 0.1081676 -0.17825721 0.1359532 -0.012709001 0.055585 0.075148776 -0.2697874 0.069181554 -0.16505452 -0.05103711 0.15303135 -0.18969493 0.29778692 0.22982903 -0.041703727 -0.04930544 0.2373243 -0.24345818 0.071216576 0.20840402 0.033691987 -0.3161934 -0.06831943 -0.3195594 -0.15339614 -0.33551717 -0.35030574 0.046945788 0.003866658 0.102782354 -0.041316237 0.078809775 0.1515948 0.20686774 -0.05173637 -0.02961645 -0.10563444 0.05900555 -0.1281747 0.055972535 -0.20301734 0.095525555 0.19038501 0.2520902 -0.41240653 -0.47425702 -0.28263244 0.2061626 0.12970059 0.0694064 -0.37732753 0.1218505 -0.13796946 0.14288661 -0.088762015 -0.1246694 0.19448698 -0.35741147 0.11826824 -0.08155416 -0.0091848 -0.121673 -0.16432033 -0.08830985 -0.34076726 -0.04291987 0.26552188 0.23402771 0.15972088 0.059176166 0.014576961 0.003729169 0.21856627 -0.013015534 0.05531413 -0.037939563 0.26077473 0.21039355 0.14772159 0.119457565 -0.27546263 0.25036463 0.10860029 0.06427396 -0.23184812 0.119390175 0.03951736 0.040962566 0.010767691 -0.18959859 0.09735882 0.0048516975 0.07676525 0.15370293 -0.1378565 -0.11377536 -0.174182 -0.27552834 -0.07187085 -0.0129432045 -0.3367451 -0.21010818 0.25512794 -0.049696732 0.05707804 -0.12874238 0.08642024 0.12498117 0.061564412 0.29231182 0.04839772 -0.075587235 0.024004748 -0.12644373 -0.21025507 -0.07474345 -0.07296596 0.069824986 0.08818906 0.24292438 0.11637271 0.2880771 0.12980594 0.25529832 -0.43131608 0.23844755 0.030537413 -0.0761984 0.12041781 0.039490167 0.16832395 -0.12972559 -0.19249395 0.03725429 0.17512949 -0.20327944 -0.19585553 -0.28165835 0.22302094 -0.21823682 0.11399453 0.02449646 0.0026122045 -0.3701681 -0.16705318 0.23961928 0.23174429 0.0081845615 -0.04348079 0.3671277 -0.09628879 0.2771766 0.07690736 -0.0007404912 -0.24971732 -0.38574615 0.012034673 0.07696671 -0.065007575 0.14678648 -0.05523851 0.1386503 -0.09632029 -0.040540416 0.041594505 0.020490732 -0.10978125 -0.242599 -0.01896534 0.05678444 -0.10345644 -0.04848214 0.15541466 0.19198857 0.08521352 0.13832952 0.0457676 0.054823063 0.1671079 0.05051184 -0.18866584 -0.12913594 -0.053695273 -0.1252092 -0.03711665 -0.46533853 0.12743533 0.15182105 -0.0058166515 -0.07327174 -0.03629373 -0.21980648 0.11426997 -0.024621276 0.19330591 -0.44259652 0.30026966 -0.087853454 -0.35333318 0.15638097 -0.25483662 0.18471716 -0.37537536 0.17265864 -0.033541348 -0.03639306 -0.027577525 0.21282746 0.0413249 0.049423758 -0.0359107 -0.09606474 -0.13716199 0.31293112 -0.10620259 -0.152829 -0.18350516 0.0346988 -0.007296529 0.09096098 -0.04294686 -0.20757776 0.11983657 0.16407864 0.094821855 0.043145254 -0.24986929 -0.17437123 -0.25762695 0.32005268 -0.06609114 -0.17468512 0.28716934 0.30438972 -0.03787492 0.14013024 -0.21103327 -0.0050571244 -0.08935125 -0.08465152 -0.058809668 0.29158637 -0.114216216 0.2109238 0.15538427 0.2146059 -0.33792862 0.25524428 0.07426217 -0.13263266 -0.36416468 0.045086727 0.17833349 -0.08111519 -0.006738136 -0.029275574 -0.0034583728 0.31684884 0.12825571 -0.023169093 -0.020026496 0.033553485 0.2698889 0.0804727 -0.15719432 0.016643772 0.13971949 0.4340629 -0.080908224 -0.12779912 0.09119108 0.232315 -0.2072703 0.079531714 0.21949004 0.020070935 -0.06903773 0.04310433 0.059558123 0.113417804 0.06389874 -0.056583975 0.03885137 -0.020189716 0.06621225 0.16190162 0.14844602 -0.4458449 -0.116794206 -0.015831698 -0.12777016 -0.16058584 -0.19964625 -0.049347226 0.2899895 0.18956345 -0.054025937 -0.17616493 0.19382581 -0.033747997 0.0068215085 0.16744767 0.15189907 0.056842186 -0.06222726 0.037088756 0.039851055 0.07657506 0.13156338 0.06875395 -0.1723838 -0.21689557 0.11917989 0.045538843 -0.061701506 -0.051500786 0.19211388 0.39866266 -0.311451 -0.06472782 0.14604189 -0.024268888 0.13783261 -0.047276292 -0.10049603 -0.018823426 0.17125519 0.057603955 0.034247696 -0.13455877 0.1553496 0.18518405 -0.1613775 0.044157553 -0.39767316 -0.07823242 -0.042580202 -0.26287577 -0.2540434 -0.13981128 -0.013556048 -0.062470634 -0.1358419 0.112258576 -0.29658917 -0.075201645 0.2088116 -0.21734539 0.2844796 -0.12272649 0.22255722 0.08464952 -0.017644953 -0.20575252 0.14567573 0.03749169 0.0685332 0.08735699 0.24515553 0.091745906 0.02087198 0.09884814 0.16799994 -0.22436254 0.07092521 -0.2321209 0.05603032 -0.34107056 0.06382681 -0.30606666 0.0074007893 -0.09115687 -0.039620396 -0.10129049 0.19263932 -0.048702326 -0.119661726 -0.03773587 -0.096954904 -0.02519303 -0.29397586 -0.31506538 -0.085489824 -0.21336265 -0.14874923 0.1089437 0.08571723 0.046545956 0.039483342 -0.07312247 -0.09645598 0.20050424 -0.0744631 -0.10479074 0.074000865 0.05624555 -0.16873127 0.21556789 -0.10032146 0.034693863 0.08130009 -0.04111557 -0.026245406 -0.43540227 -0.2532711 0.020769436 0.012214553 0.1986768 -0.29312977 -0.33557892 -0.21042357 0.067579955 -0.22608308 0.071797274 -0.34588802 -0.226267 0.07270913 -0.13305913 -0.06562602 0.12079922 -0.23736128 -0.14708008 0.054876238 0.21903178 -0.2269751 0.18195494 -0.27641162 -0.12994625 -0.008585819 0.1307501 -0.102825455 -0.2645812 -0.031443946 0.25157368 -0.19134338 0.35189548 -0.0033270721 -0.2872928 0.1564797 0.014070823 0.036066703 -0.2893148 0.09966993 0.05857436 -0.15213346 -0.18231699 -0.10009123 -0.22615041 0.020069737 0.19940467 -0.14354247 -0.06691078 0.32450563 -0.010505491 -0.08151445 -0.114246294 -0.09941169 0.06950996 0.14137515 -0.07105856 -0.03744124 -0.055231724 0.27231884 -0.44719765 -0.23908135 -0.12102101 0.041489154 0.07022202 -0.09865549 0.13221896 -0.0421769 -0.045609593 0.011819644 0.06228265 0.21792762 -0.2783941 0.082517795 0.17259182 -0.3747287 0.03840908 0.036122378 0.0047262786 -0.1036262 0.1169512 0.109211184 -0.31490985 0.021334147 -0.15852685 0.064825185 0.01841453 -0.35248402 0.24938352 -0.003334093 0.052627515 -0.39336285 0.17100443 -0.07918896 0.022472428 0.06353942 0.19996463 0.018907959 -0.30124977 -0.12264099 0.20250992 0.15428072 -0.11598984 0.24145843 0.13855176 0.15281092 0.14664905 -0.31665134 0.11367095 -0.055484746 -0.14578824 0.1564189 0.12505962 0.025709797 -0.040976454 -0.099176034 -0.4677144 -0.09826494 0.108150676 0.1145208 0.2789287 0.045379523 0.026299112 -0.012781952 -0.18458472 -0.32845005 0.09404189 0.09853257 -0.16350418 -0.001552052 0.007199291 0.095803834 0.36944398 0.007930825 0.54364425 -0.053872447 0.120137356 -0.0047927136 0.27028793 0.09959007 -0.35144806 0.04017427 0.1310857 -0.04920281 -0.06524687 -0.07989196 -0.028582491 -0.022876548 -0.19901748 -0.024541274 -0.0083089005 -0.047540348 -0.14278114 -0.016508551 -0.2703069 -0.1323163 0.058537494 0.04240736 0.0014539238 -0.0097432565 0.263344 0.36273605 -0.05876867 0.054196928 0.49599952 -0.25065812 -0.26284146 0.17565835 -0.1000445 0.011822591 -0.20719242 0.15016414 0.09669021 -0.04076835 0.12487851 -0.18456511 -0.035750095 0.17391047 -0.22137757 -0.117793575 -0.022974387 -0.17851394 0.034539383 0.05606238 0.13381405 -0.03380944 -0.19093351 0.05797822 0.06610711 -0.15149176 0.18124579 -0.12423565 0.036964856 -0.25083926 -0.22874556 0.100872435 0.0014273737 0.13031127 0.044488855 -0.08845351 -0.037851885 0.14099322 0.20544039 -0.42039528 -0.078206874 0.1792911 0.022579798 -0.35708973 -0.0051658708 0.07424029 0.3989728 0.04357268 -0.055039912 0.050441515 -0.10062246 -0.2095066 -0.36777365 -0.20614982 0.23652333 0.21611607 -0.014683121 0.027491435 -0.17713371 0.23346487 0.018085446 -0.31757635 -0.02323943 -0.05838835 -0.027098771 0.21039519 0.22992271 0.121968985 0.10500039 0.10635022 0.070366286 0.31476155 0.07780546 0.14404584 -0.113179095 0.38947183 -0.35243213 -0.26766327 0.20083056 -0.10107205 -0.31316233 -0.2874009 -0.273292 -0.08355927 -0.034519743 -0.041452546 0.16320437 -0.109970786 -0.14334248 0.15242612 0.25749686 0.28404313 0.111671194 -0.13458177 0.47028685 -0.05067082 0.055109803 0.20773456 0.25877514 -0.23491067 -0.28341976 0.046865255 0.35993955 -0.008401237 0.19575165 -0.092286564 -0.026294082 0.12696826 0.20223513 -0.06457845 -0.2273973 -0.21353155 -0.24021816 0.22194962 -0.22567174 0.20562696 0.14649698 0.1753881 0.32219365 0.049072336 -0.29263937 0.11402242 -0.20374857 -0.053306077 -0.03356937 -0.20848714 0.152753 -0.21122988 0.16497768 -0.1655882 -0.14626367 -0.016600855 -0.11714616 0.03464244 -0.11271555 -0.33921415 0.09104948 -0.2118807 -0.17735389 -0.040751994 0.05747917 0.121509284 0.072925836 0.34514862 0.09093398 -0.116682194 -0.0368592 -0.16585281 -0.07772017 0.11625624 -0.02163735 -0.22044222 0.21642826 0.033468507 0.026057493 -0.2898143 -0.28077343 0.029998723 0.025615966 0.14017431 -0.15092897 0.11564291 -0.29157177 -0.18943563 0.1573329 0.17538658 -0.17740622 0.13862836 0.1404092 0.057455134 0.110059574 -0.06791912 0.017365037 -0.026542086 0.28915644 -0.1894267 -0.04927095 0.059429612 -0.15705252 -0.2362177 0.007660669 -0.17999129 0.06961374 0.002347246 -0.29235223 0.099039555 -0.08978845 -0.20658879 0.11637215 -0.013829339 0.059764948 -0.05756199 0.4380254 -0.5056147 0.13333951 -0.06229042 -0.28758183 0.29266566 -0.1407324 0.10686966 -0.0979914 -0.04236401 -0.17135504 -0.14760958 -0.02040568 0.09355055 -0.5912961 0.043231543 0.19188459 -0.29803178 -0.002455813 -0.11990429 0.3029454 0.10893731 0.051435053 0.20041883 0.080078274 -0.043371547 -0.024628919 0.03874153 -0.36089048 0.06507011 -0.064139284 -0.056543373 -0.10475761 -0.058947563 -0.24453418 -0.067040585 0.08211053 -0.028878886 -0.2343287 -0.016410436 -0.47930765 -0.10245723 -0.096645296 0.01788586 0.06896487 -0.25991115 0.1116348 -0.17133547 0.22636005 0.019220127 0.018813312 0.024222115 0.16962889 -0.23135452 0.11561778 -0.34642202 0.07810531 -0.060626805 -0.1626071 -0.113561764 -0.10794696 0.1006737 0.15956017 0.22476037 -0.026194869 0.2416502 0.25226882 0.18876837 -0.20476535 -0.21660344 0.05782091 -0.14231783 -0.23535685 0.3716552 -0.014997902 -0.20716426 0.21440426 -0.28296223 0.11304633 -0.11236965 -0.16122909 0.17246594 -0.30604255 -0.10711659 0.14069475 -0.10584839 0.15596262 -0.17609324 -0.2536493 -0.05983924 -0.13010387 -0.24095623 -0.13920543 -0.24216506 0.1700763 -0.020331949 -0.03338308 -0.3300126 0.10279513 0.15610367 -0.09984732 0.26064822 -0.3112305 0.11871584 -0.100722395 -0.11659462 0.020979442 0.10883841 -0.03302594 0.12268767 0.08029557 -0.049601104 -0.12529245 0.022857862 0.32250792 0.17041221 -0.19616225 0.035603028 0.13494283 0.07262724 -0.21382166 0.10813674 0.009554312 0.08551344 -0.024296345 0.42621106 -0.11583902 -0.16510189 0.24364163 -0.12238327 -0.020245602 0.14846598 0.16951182 -0.24183972 -0.24766868 -0.01855175 0.09335525 -0.026930055 -0.13143647 -0.19530386 0.10547909 0.07907858 -0.07607609 0.073757194 0.2729199 -0.102895185 0.05764224 -0.03502775 -0.015046951 -0.15247977 0.03954919 -0.31050953 0.28150445 0.15225643 -0.03138753 -0.045576587 0.13901891 -0.0012611923 0.11509791 -0.17171912 0.1212655 -0.18864964 0.051192448 0.014614265 0.18003403 0.01935516 0.09770204 -0.07342626 -0.30564073 0.02346291 -0.08122853 -0.28919837 -0.14814517 0.44949067 0.07442265 0.2535407 0.12094808 0.0727669 -0.05919673 -0.19830236 0.011400082 -0.082073495 0.0028819009 0.34716567 -0.12445966 -0.08202935 -0.043658964 -0.13784073 -0.27844292 -0.16996713 0.1002954 0.34716743 -0.049191803 -0.1925754 0.028696934 -0.14924961 0.13864104 -0.111158915 0.046621285 0.03593211 -0.0029697344 0.080523744 -0.16160409 -0.05148058 -0.54225355 0.19086617 0.050540872 0.19642328 0.09264698 0.24568658 -0.0067262496 0.40782785 -0.11573026 -0.094422564 -0.007498606 -0.29246056 -0.22449458 0.16350183 0.0051352717 -0.2756215 0.09299734 0.08863776 0.17897706 -0.008464341 0.2544866 -0.012385213 -0.20983742 -0.26276398 0.2649786 0.018430308 -0.0009735498 -0.21098386 -0.158617 0.24478805 0.0042923004 0.314254 0.031525787 0.060850367 0.19063342 0.06719451 0.04496335 0.22170845 0.20093372 0.14902389 0.18283106 0.06660031 -0.08689625 0.14300294 0.28961965 -0.18549022 -0.07155308 -0.010032538 0.070235364 -0.059842568 0.030767418 0.07385431 -0.093896426 0.36385375 -0.024337452 -0.009823353 0.26198986 -0.13979821 0.055205096 0.116146624 0.107157044 -0.12033582 -0.036372297 0.054985657 -0.041205395 0.015762199 0.0069534634 0.03335525 -0.14466447 -0.33717787 -0.005624825 0.14209992 0.031673644 -0.23748899 -0.014018096 -0.21143417 -0.068695955 -0.24455054 -0.30703157 0.01775089 0.15965542 0.07797666 -0.123441674 -0.036317293 0.11852086 0.024105288 0.04644985 0.2690655 0.09131324 0.1861486 0.055881888 0.1033143 -0.13387562 0.109744065 0.084417865 0.10338416 -0.2801054 -0.20594361 0.28333506 -0.07756614 -0.25701204 0.20867468 -0.10946984 -0.19366464 -0.12598729 0.19174783 0.020252438 0.027825845 -0.026137594 0.02236342 0.062370554 -0.17970872 -0.12852526 0.03188423 -0.065653786 0.18155423 0.25230885 -0.00020568447 -0.12860385 -0.15485358 0.06552352 -0.41228232 -0.2396826 -0.30254045 -0.44205984 -0.037959605 0.3538204 0.25245434 -0.09460078 -0.110152125 0.26645523 -0.086159594 0.16867048 0.0029339874 0.037201397 0.03798993 -0.091245286 -0.006310888 -0.10056775 -0.25734034 0.030402139 -0.35556844 0.28684643 0.062839545 0.121230096 -0.08496136 -0.16802886 -0.23799859 -0.0075091836 -0.17640388 -0.09332501 -0.058576617 0.040933467 -0.08538757 -0.03663955 0.016476514 0.04110213 0.10055695 0.123413295 -0.06278781 -0.034766488 0.13565172 0.17243752 -0.24715367 -0.0905669 0.3161392 -0.055865873 0.20973454 -0.058856614 0.09246326 0.23316036 -0.14328244 -0.16255529 -0.06852591 0.2862138 -0.36128336 -0.110355444 0.029374257 -0.060506262 -0.15887664 0.10843268 0.26035202 0.0069466126 -0.097342305 -0.14781992 -0.05212428 0.30414575 0.11352902 0.015342173 0.06408762 0.23451956 0.012798475 -0.45121887 -0.12662221 0.09394684 -0.09659308 -0.13432536 -0.124808565 -0.0399328 0.069181666 0.20479706 -0.07221459 -0.07112904 -0.22968061 -0.0218016 0.20033093 -0.20401368 -0.17715243 0.2343604 0.010695068 -0.13931836 0.12285574 -0.09757969 -0.37563443 -0.008375017 0.072529405 -0.020290216 -0.02122579 -0.18290824 0.033339873 -0.113616966 0.05270068 -0.26351812 -0.30796388 0.13510977 -0.05325385 0.17175224 0.03488736 -0.15893713 0.016583042 -0.20839196 -0.11245423 -0.15266028 -0.2107324 -0.24637355 -0.13135833 -0.17633913 0.0191656 -0.0081142 0.0772418 0.093588874 -0.21549484 0.03362293 -0.1246668 -0.035333183 -0.04817203 0.054459933 0.007588336 -0.052069332 0.21743797 0.13706924 -0.3034716 -0.17225207 0.005578434 0.017770445 -0.2436085 -0.05111963 0.03110741 0.00029547082 -0.23740476 0.22154473 -0.24528682 0.07722386 -0.17767951 -0.01400055 0.07276236 -0.24022031 0.15093473 -0.42382792 -0.036822587 -0.011640036 0.17652602 0.04833094 -0.12209087 0.09998052 -0.13603294 -0.2523893 0.027363397 -0.22864461 0.031088252 0.11325575 -0.19344865 -0.19954515 -0.15614264 0.247431 0.13464347 0.28124145 0.08081013 0.035807762 -0.09173148 0.09534832 0.047918648 -0.15898424 0.046806067 -0.1826165 0.0941673 -0.031232137 0.018995553 0.031340875 -0.21001813 0.04299628 0.12124626 -0.10646802 -0.035740767 0.20323014 -0.26733893 0.11604404 0.021133317 0.01617173 -0.10077351 0.022753123 -0.45792595 0.24644116 0.079040155 0.08832915 0.093958706 -0.36687338 0.114987016 -0.06677749 0.21687637 -0.043980107 0.02402697 0.0020628928 -0.29275736 0.15487966 -0.35330087 -0.111204796 0.053219553 -0.019667309 0.034076266 -0.100505054 0.122169055 -0.052105203 0.06859981 0.09365412 0.15379909 0.14443302 0.083907425 -0.056888275 0.07034165 -0.33582842 -0.063429445 0.014412414 -0.14870259 -0.030917937 0.011447532 -0.24876049 -0.042171817 0.14241353 -0.035655193 -0.07560183 -0.087768994 -0.26214314 0.20669867 -0.061788544 0.12372268 0.2400426 -0.15215647 -0.106652774 0.07750494 -0.13993454 -0.09690391 -0.2786808 0.090329394 -0.13086694 0.22976778 0.17537698 0.24122915 0.088308126 0.028206121 0.042722892 -0.18659106 -0.23753963 0.14079827 -0.25394636 -0.011781594 -0.32468468 -0.09465871 0.20132034 -0.0899748 -0.13715814 -0.21043748 0.22318769 0.17300096 -0.035748083 -0.14290954 -0.0869544 0.1131692 -0.007892354 0.03532867 0.26430964 -0.01670577 0.115772456 0.30930164 -0.25847813 -0.3294249 -0.08932882 0.14118488 0.32122257 0.22968312 0.08722694 0.25686327 -0.32315838 0.21461542 0.023248661 0.53683436 0.27561942 0.27717212 0.15442412 0.061986092 0.24546929 -0.20715263 0.10542107 -0.061065245 -0.13141479 -0.29536003 -0.015455837 0.055590454 0.05510902 0.071874425 -0.40141776 0.19955581 0.027102636 -0.0013412538 -0.50689626 0.10407333 0.03786851 0.106245436 0.035331745 0.005270115 -0.047688838 -0.12551439 0.082432754 -0.07832249 0.05576283 0.19356984 0.08010681 0.21548702 -0.009372672 0.16498733 -0.2647068 0.259685 0.3571055 0.10396177 -0.079575114 0.32574454 0.3107751 0.057769805 -0.19192928 -0.19792134 0.022062901 0.058024865 -0.17947024 0.229754 -0.24325188 0.11098526 0.0992369 -0.003942487 -0.16043735 0.028510204 0.10408212 -0.06693867 0.27610436 0.26634598 0.003817453 0.012913529 0.015968068 -0.10269494 -0.23347802 0.17476578 0.12141294 0.115031816 -0.17341629 -0.06453458 0.0180498 0.21111442 0.07756761 0.19186564 -0.11068597 0.05666607 0.13204947 -0.27929008 -0.17460458 0.07632734 0.07904792 0.2509733 -0.18584982 0.32468832 0.17698155 -0.18110693 -0.11045226 -0.22878447 -0.026673831 0.019758599 0.088653445 0.30554497 -0.018046139 0.039640665 0.20033331 -0.24404778 -0.11227314 -0.27837393 0.12380256 0.03890976 0.14781429 0.21037568 0.10857236 -0.16401215 0.34546986 0.10934752 0.09581879 0.051253248 -0.24328917 0.06999112 0.1766093 0.2201624 0.050020013 -0.019776037 0.0060014976 -0.06404724 -0.07293945 -0.11245943 -0.1264474 0.41059494 0.33999595 0.25344226 0.028810212 0.13387011 -0.45966253 -0.1388559 0.02664245 0.11930729 -0.17026097 -0.078888595 -0.48098716 0.02624864 -0.063872725 0.24398786 -0.044018887 0.23702289 -0.08552141 -0.18176359 -0.043085653 -0.26637113 -0.13636819 0.08324298 0.056900192 0.2339208 -0.20503204 -0.03777433 -0.020115295 0.21016715 -0.18114962 -0.17185204 -0.036086492 -0.035767328 0.055718746 0.021173246 0.13540772 -0.05668788 -0.025370454 -0.15497775 0.29764146 -0.18055414 0.27382654 -0.40510008 0.19617721 -0.06757912 -0.0715798 0.1722399 0.111236654 0.07082128 -0.54298425 0.09230822 0.056203913 -0.0031261465 0.10280426 -0.12050066 -0.19691518 0.08086799 0.2807171 -0.1966119 0.078582674 -0.23764102 0.036533523 0.18029678 0.25904793 -0.07588658 0.19662139 -0.13214876 0.32663637 0.3177188 0.053197756 -0.1434826 -0.06417495 0.19592322 0.2368572 -0.32575032 -0.2543508 0.13508907 -0.11100394 0.019585792 -0.00485812 0.2029829 -0.18519329 0.035777338 -0.15655668 0.11215347 0.31963727 0.1893779 -0.09737902 -0.05192682 0.45096764 -0.21664283 0.0855734 0.110055424 0.038831882 0.15634598 -0.10312232 0.020250022 -0.04940844 0.034941692 0.11812391 -0.3137537 -0.013321462 -0.13338709 0.2014394 -0.2958178 -0.22679569 0.36349323 0.20761245 0.21234076 0.0057976497 0.032561153 -0.06208138 -0.10551516 -0.21805626 0.045736708 0.051447406 0.02821794 -0.1751767 -0.23625858 -0.16588666 0.2212149 -0.059495103 -0.16289133 -0.11916427 0.023519374 0.1489681 0.052468877 0.0810018 0.04391178 -0.010997077 -0.123355046 0.121669665 0.08064542 0.09706355 -0.17461847 0.004239354 -0.015370413 0.070148066 0.0947561 0.013309175 -0.45274454 0.22974561 0.0992956 0.0066262893 0.09680328 -0.046469383 -0.14263421 0.080204085 -0.17380132 0.08658359 -0.09704202 0.0056191464 0.16567817 0.03983662 0.06531173 -0.1320916 -0.10311634 -0.061978552 -0.14014965 0.24646959 0.2037458 0.30313027 -0.1353652 -0.0040704845 -0.29476303 0.033160828 0.06267866 -0.06366998 -0.25011107 -0.4569017 -0.1201402 0.21905982 -0.1537083 0.13016555 0.062926166 -0.21303476 0.18743496 0.29513466 0.15480238 -0.04488722 -0.22769454 0.19583488 -0.22388822 -0.031165304 0.32233 0.015853383 0.016801273 0.10289621 0.2040601 0.02391117 -0.533951 0.083195634 -0.17197485 -0.24949521 -0.15715316 0.3234895 0.079708174 0.1880521 -0.09274257 0.102614306 -0.112459004 -0.17584974 0.25390717 -0.1562029 -0.25369737 0.042232223 0.3118909 0.09367696 -0.039673593 0.0018141373 0.31797853 0.09208131 0.14244018 -0.20168436 -0.020899711 -0.52734333 0.031195607 -0.018572167 -0.09364843 0.09964573 0.12469189 0.028042024 0.25619602 0.24857366 0.02332306 0.3036037 -0.013327519 0.13570055 0.080949694 0.035345882 -0.13335186 0.047251076 -0.11791546 0.036295813 0.048274662 -0.25921595 0.1792198 0.2490829 -0.03496298 -0.25718647 -0.06967048 -0.3441479 -0.2827876 -0.26147622 0.26250234 0.26851055 0.13074175 -0.15266308 -0.27569374 0.27382973 -0.14516948 0.32551286 0.18823817 -0.008474043 0.11294011 0.07237171 -0.37351054 0.24365903 0.120346524 -0.11075781 0.31783724 0.21858348 -0.13813333 -0.4712787 -0.15509337 0.057391554 0.0906119 -0.12040273 0.13546252 0.20993428 -0.08014327 0.0072994656 0.22856246 0.12941796 0.07421966 0.16506213 -0.047178235 0.0529773 0.29074717 -0.018907344 0.060547154 0.25156146 -0.072778895 0.06419792 0.060594976 -0.017481267 -0.26556262 0.08445629 0.19308881 0.21002258 -0.061540112 0.009898703 -0.12906244 -0.25307405 0.14648995 -0.18434273 -0.12170789 -0.09795449 -0.017532246 -0.2860394 0.013586802 -0.06208096 0.05101285 0.19886577 -0.100524746 0.16857766 -0.15062056 -0.06022447 -0.09431694 -0.10339825 -0.18168388 -0.26401663 0.5270569 0.10146619 0.27754152 0.059046075 0.0296772 0.18170047 0.10805554 -0.033247855 0.32931295 0.24522191 -0.03542361 0.047222707 0.09549025 -0.19837797 -0.0953417 -0.108286574 0.09691603 -0.25817406 0.08391481 -0.36172828 -0.23532277 -0.09092383 0.16380793 -0.024898618 0.24564113 -0.5199189 0.16450599 -0.4180136 0.023554228 0.012747638 -0.017691093 -0.15604195 -0.2684964 -0.11332086 -0.00457775 -0.29746264 -0.2047393 0.08009378 -0.021081235 0.22796723 0.2293817 -0.10336126 0.18519661 -0.3568083 0.05431928 0.22991452 -0.042763125 0.0355136 0.12579602 0.003708674 0.05743954 0.41002554 0.012414517 0.16946048 0.27184346 0.15842123 0.10421943 -0.17792942 0.37603167 -0.008925136 0.011434117 0.1912551 0.21039012 -0.037946142 0.10365062 -0.023052268 -0.3164476 -0.036778606 0.15363134 0.0315758 0.027455054 -0.02731989 0.19642386 -0.03505047 0.23430341 0.29731834 -0.049075354 -0.16770235 -0.05605647 -0.58899033 0.24608298 -0.13772568 -0.20219612 0.082279004 0.14746185 0.22884196 -0.077320285 0.1557347 0.12598947 0.10270938 -0.06295026 -0.21063903 -0.07594252 -0.049354058 -0.16738598 0.09692192 0.061246984 -0.061706506 -0.18588273 -0.19130912 -0.047805108 -0.21915552 -0.26241183 -0.0059319017 0.20613295 -0.020262154 -0.2781816 0.11102402 -0.14648843 0.19356851 -0.3839392 0.11990238 0.061536424 0.0100659365 -0.066037886 0.12659124 0.034083143 0.027487457 -0.14820196 -0.06575634 0.10801429 0.12241409 0.0029458827 -0.17804489 0.093033664 0.1400079 0.22580758 0.21730538 0.010605806 0.1197501 -0.13542339 0.010360965 0.01214824 0.1037181 -0.10676363 -0.22554532 -0.34352195 0.0034186724 0.04829805 0.0168705 0.08950915 -0.3633155 0.04763146 -0.17047307 -0.32061148 0.15372986 0.13350466 0.19882646 -0.09343714 0.30033162 0.063377924 0.29161012 0.19982158 -0.14089012 0.022079527 0.047681957 0.18224448 0.25841162 0.15819938 -0.36951035 -0.15757097 0.035035104 0.01628712 -0.12431903 0.07940862 0.12867042 -0.059964083 -0.1236414 0.072892785 0.025930865 -0.09846769 -0.1894065 0.042238697 -0.047269855 0.11105592 0.102133684 -0.3071603 -0.109425545 0.084015325 -0.33616173 -0.25238514 -0.08173956 -0.21878454 -0.30785084 0.21524422 0.2317699 -0.11814218 0.20787853 -0.12911496 0.23255847 -0.15979312 0.20385757 -0.12626812 -0.20084298 -0.05041759 0.15279415 -0.02008226 0.035728436 -0.035354093 0.051602334 -0.0900688 -0.37051257 -0.09096854 0.21025684 -0.17618959 -0.026519377 0.070377946 -0.006017649 -0.1580516 -0.16832751 0.007581849 -0.30984557 -0.10142147 -0.0043104654 0.18918991 -0.25347346 -0.07743796 -0.34165102 0.12789293 0.036411118 -0.22199887 0.08774926 0.0793869 -0.355089 -0.36660394 0.08468998 -0.077336624 -0.088524945 -0.06633263 -0.05694278 -0.23615104 -0.0051496574 -0.17075136 -0.116966516 0.082266234 -0.02610465 -0.11925541 -0.23760833 -0.12449717 -0.0048434776 0.122533865 -0.042586073 0.06353018 0.018454513 -0.106403 0.01422115 -0.040725175 0.12665422 0.13706739 -0.09101556 0.1939817 0.13173448 -0.10208221 0.06307005 0.122268714 0.00096841063 0.023641888 -0.29608297 0.07329987 0.07535088 -0.16873425 -0.4235896 -0.10135292 -0.025978843 -0.051097643 -0.04910211 0.17560229 0.12295684 -0.20494883 -0.27090365 0.017824499 -0.119335 0.25432828 -0.011482431 -0.04496018 0.23377782 -0.21844815 -0.028990895 -0.098075576 -0.20942453 0.16842933 -0.14232595 -0.3280478 0.17124797 0.014731166 0.19473222 0.1582476 -0.013837708 -0.09982829 -0.11068888 0.2632726 0.51558435 -0.17233285 -0.19304363 -0.21473202 0.17956069 -0.010608534 -0.15018912 0.13766389 0.017286368 -0.013800819 -0.18112932 -0.019270053 -0.33838528 0.30048114 -0.11334961 -0.3194509 0.053350084 0.042674582 0.16383459 -0.18522212 -0.15869294 -0.07397472 -0.24155627 -0.16076955 -0.11794892 0.025953349 0.05132801 -0.011203904 0.10898787 0.04150787 -0.05019592 -0.056830347 -0.30775154 0.1681654 0.1398716 -0.24357055 0.042116884 -0.006158252 0.15565242 -0.34319678 0.1286175 0.111946665 -0.048255578 0.12539408 -0.04026854 -0.09640045 -0.008327999 -0.06771905 -0.24553847 0.14389539 0.000103289116 0.17842847 -0.051022068 0.15766814 -0.035969246 -0.04493834 0.047695976 0.013749082 0.046568148 -0.3845902 -0.007259807 0.12090797 -0.059774395 -0.0462362 -0.40667152 0.1455732 0.02250834 0.23221621 0.08375097 -0.15936126 -0.05391823 -0.11518436 0.0178389 -0.21703506 -0.2837781 0.12491038 -0.032725867 0.06119482 -0.10034326 -0.11698543 0.053869214 0.09824982 -0.18479429 0.26684538 0.06971924 -0.22436433 0.12482617 0.032299697 -0.035407193 -0.20066571 -0.3514724 -0.077742144 -0.4576087 0.16909327 -0.07044244 0.1741892 0.058157973 -0.009077206 -0.20473169 -0.1881002 -0.30909622 -0.054685645 -0.14140774 -0.101198524 -0.42150614 -0.1891284 -0.012761674 -0.055802476 -0.37303394 0.031170957 -0.07345575 0.13702297 -0.40153673 0.2212951 0.009168794 0.11318089 0.05594925 -0.30646765 -0.17263998 -0.19442923 0.10987065 0.07154597 -0.36290365 0.16059501 0.051331565 -0.16937755 -0.4093158 -0.095192105 0.17108369 0.16583578 -0.44764188 -0.3351186 -0.30212164 0.19284856 -0.17966376 0.028314656 -0.23792131 0.28310716 0.065061 -0.11752979 -0.17533493 0.20706162 0.060445372 -0.10670083 0.13507576 -0.08918172 -0.4973114 -0.061821107 -0.058884602 -0.42258528 -0.23600578 -0.0249438 -0.12998901 -0.2497511 0.11181228 0.03629854 -0.069068156 -0.14298116 0.24158852 0.18412217 0.0057185064 -0.12898307 -0.023079086 0.01734412 -0.37150553 -0.1510714 0.028790697 -0.0064872066 -0.063754864 -0.035878442 -0.13881058 0.08866891 0.07535294 -0.1099135 0.037913192 0.042487778 -0.071601406 0.15816392 -0.08105689 0.01365738 -0.20842838 -0.27937573 -0.04635565 0.106553406 0.105800085 0.053146627 -0.04122012 0.09201949 -0.13521843 -0.1887231 0.20021227 -0.16480152 -0.23181808 -0.01772878 0.04602413 0.030229649 -0.086080045 0.0779981 0.09758197 0.041309744 -0.07527882 0.18849213 0.22881521 0.010358065 0.16770607 -0.14089726 -0.261549 -0.19440833 0.0554098 0.08078313 0.002313593 0.09127317 0.079826176 -0.1269571 -0.2299722 0.033618856 0.08983176 0.029069003 -0.08926545 -0.004774585 -0.22353265 -0.21783644 -0.2336808 -0.13252975 0.091105334 -0.060658876 -0.062263954 -0.11744536 -0.3691706 -0.14213923 0.060373392 0.1411655 0.032775193 -0.3684863 -0.2557049 0.021856958 0.0071232184 -0.26452196 0.053422134 0.0504575 -0.30101147 -0.0452425 0.11381375 0.24324642 -0.21680848 -0.0990375 -0.0138356 0.09744217 -0.5541314 -0.27620962 0.01382388 -0.10645754 -0.18755342 0.069952205 -0.016347827 -0.04305357 -0.23715714 0.26395872 -0.17146738 -0.39916143 -0.2565246 -0.22246175 -0.24724087 0.14366406 -0.00036393775 -0.10372827 0.06831885 0.057685006 -0.017496819 -0.06042785 -0.24978743 -0.1899096 -0.13103907 -0.40599376 -0.26369125 0.040475495 0.11885408 -0.1130975 0.06316749 -0.17606561 0.07324471 -0.11575096 0.23209184 -0.11389347 -0.027498627 -0.04003207 -0.29944646 -0.17549914 -0.35417613 -0.1999212 -0.090152085 0.31310186 -0.12846479 -0.0020256205 0.01534802 -0.18333349 0.1016197 -0.0797811 -0.17014046 -0.52360743 0.17897247 0.03014689 -0.0747032 0.32944185 0.02223609 0.023645869 -0.12056161 0.017483355 -0.08734186 -0.34733325 0.043281518 -0.28849894 0.002115212 -0.3442876 -0.10671007 0.01021748 -0.059555274 0.1186699 -0.30532598 0.09419692 -0.0050059306 -0.04998881 -0.27529964 0.20061922 0.08818774 -0.056596268 0.12775601 -0.044248756 -0.35027242 -0.15274467 -0.039731666 -0.10530779 -0.04132043 -0.19733375 0.22712874 -0.011429753 0.4509793 0.04728918 0.23538902 -0.2834603 0.09011376 0.14787048 -0.049912985 0.10891952 -0.0146937845 0.09882046 0.051921003 -0.0039887545 0.055485092 0.22109471 0.011763377 -0.26080823 -0.13861756 -0.08782723 -0.118493825 -0.19629817 0.017548002 -0.32780585 -0.27438664 -0.24193257 0.33416674 -0.012895972 0.14096321 -0.16070539 0.22492895 -0.1643479 0.00417201 -0.025601512 0.15279211 0.17896762 -0.22530964 0.029954812 0.0056693833 -0.101512454 0.13014454 0.21871264 0.0931803 -0.08646323 -0.104487896 0.017814344 0.14364 0.01148972 0.17168501 -0.069316156 -0.2716508 0.0013093933 -0.011642663 0.052008007 -0.01697082 0.010645287 0.021320503 -0.017438367 -0.31209737 0.19192472 -0.091190375 -0.3817604 0.09186073 -0.53116614 0.2702116 0.11206332 -0.059318624 -0.09961452 0.19054191 0.00909431 -0.07635052 0.2986045 -0.31465727 -0.11159268 -0.04726672 0.14853399 -0.12182726 -0.14347814 -0.11752382 -0.11243604 -0.0289298 -0.134883 0.2822312 0.012910213 0.028742786 -0.09102449 0.055777192 -0.1321526 0.22367977 0.05865775 -0.0045887884 0.1297346 0.17234646 0.14662099 -0.09006381 -0.010631859 -0.14893089 0.15900743 0.15886201 -0.3404896 0.11582767 0.0010049392 -0.10151896 0.19418009 0.18709679 0.024759296 0.13738094 -0.1059873 -0.10945548 0.09826048 0.14264806 0.15980667 -0.058646753 0.014495114 0.35808036 0.0039077015 -0.32864836 -0.40678132 0.16816689 0.06836193 -0.34319466 -0.09437814 0.19567631 -0.052001186 -0.029814381 0.1184192 0.23058173 -0.111055985 0.05428284 0.31977606 -0.081013486 -0.03951889 0.08382224 0.22242379 -0.098619625 -0.11413698 0.11835725 -0.2797434 0.14980224 -0.21660937 0.1343933 -0.14325824 0.11865853 0.2783219 -0.05244771 0.07644993 -0.06107918 -0.140125 0.46741283 0.28118157 -0.0020471995 0.13203917 0.07030665 -0.31002265 -0.18878408 0.1384706 0.08640682 0.05116285 -0.502952 -0.083274424 0.083707556 -0.061526436 -0.048840232 0.042656623 -0.04045036 -0.15354075 -0.22563471 0.03536768 -0.17443463 -0.29214966 -0.21950437 0.071039446 0.1157575 -0.14599988 0.035436593 -0.21755368 0.10114747 0.029901842 -0.08248108 -0.41341373 -0.06806221 -0.22798286 -0.0829955 0.068752825 0.07230955 -0.3535805 -0.04092147 -0.012078994 0.012399092 -0.0016273486 0.28168938 -0.057556223 -0.022192784 0.11865631 0.23936164 0.1174128 0.24091083 0.08720833 0.12691396 -0.06682893 0.1643391 0.2854699 -0.034270197 0.24066298 -0.0015464287 -0.2507755 -0.4320677 -0.13077557 0.02336478 -0.32503098 -0.15051427 -0.0020992102 -0.15594923 -0.17047663 0.05976408 -0.23031978 -0.15918069 -0.04728238 0.34365624 0.26572224 -0.02265892 0.36474186 0.32281008 0.046822004 -0.0925385 -0.16966884 0.03618441 0.3107209 0.19375849 -0.06263473 -0.22859296 0.23148727 0.19208868 -0.051736064 0.024518553 -0.11633879 0.17031522 -0.09371214 -0.06904852 -0.02422638 0.117580675 -0.11818059 -0.012871816 0.06649535 -0.023237994 0.06272465 0.1422603 -0.0052693025 -0.23616825 -0.07805675 0.006503475 -0.09496098 -0.1773367 0.012893203 0.061406218 0.2303825 0.13150464 0.08897726 -0.03164765 -0.0109462105 -0.08917801 0.32073155 -0.043255545 -0.15960295 -0.13437366 -0.29909042 0.31919718 0.075401045 0.27298966 0.46013018 -0.07474268 0.20169763 -0.055625457 0.18773079 -0.021998132 0.17229268 0.065678954 -0.17611954 -0.11363307 -0.03914676 0.15996893 -0.13395758 -0.36106187 0.11818032 0.096147 0.1881359 -0.27163756 -0.043650754 -0.050275665 0.24998347 -0.07154518 -0.034171086 0.310693 0.0052494435 0.08283502 0.08209892 -0.5055139 0.36175543 0.33956945 0.016666837 0.23728448 0.04265212 -0.11979472 -0.39745107 0.23364827 0.22344899 0.068546794 0.24214315 -0.2705697 -0.47121823 -0.309341 -0.6253974 -0.10272979 0.08762694 0.17325516 -0.070010476 -0.011535664 0.3696425 0.04744184 -0.24144177 0.2536902 0.25399077 0.033317447 -0.1154545 0.13893573 0.13264982 0.08885921 0.4194388 0.28923485 0.2326477 0.101638995 -0.04675058 0.13422039 -0.008371208 0.03989209 0.10284942 -0.006806621 0.39141315 0.037164263 -0.21339758 -0.22141305 0.12895831 0.032687396 0.2574449 0.0957776 -0.2107072 -0.20033239 0.008544145 0.25291914 -0.05561839 0.2828745 0.069345914 0.11652645 0.2835536 0.17989472 0.041179154 -0.17704117 0.25269565 0.09119115 -0.14880577 0.103027865 0.060672518 -0.10743014 -0.36532655 -0.16098289 0.12198928 -0.109752744 0.104070246 -0.15722793 -0.016372941 -0.041343708 -0.14131896 -0.14016308 0.1364434 -0.3422242 -0.009256059 0.024647454 0.26512668 0.34882215 -0.07111272 0.038015656 0.114256844 -0.1477026 0.14932506 0.03958593 0.30064926 0.11221291 -0.21061471 0.17920567 0.23142129 0.035809606 0.24019082 0.11972149 0.23215559 -0.080291286 0.044845723 -0.026971681 -0.0390172 0.11666419 -0.15894504 0.115102716 0.12012173 0.11204103 0.00092024996 -0.014214261 -0.05537687 0.121355265 -0.18745221 -0.23222126 0.022107923 0.2778484 0.018204072 0.12225124 0.19126174 0.33707434 0.059251286 0.39665848 0.037384313 0.5364417 0.28220373 -0.05157349 0.08803292 -0.08327891 0.065618895 -0.0074193706 0.0041311407 -0.25249544 0.09343363 -0.1253045 0.11663998 -0.32831985 0.22269453 0.18753931 -0.30385944 -0.21274424 0.21813147 0.021958172 0.013438417 0.07132747 0.012077304 -0.11588223 0.121607974 -0.06657869 -0.011068727 0.15495533 -0.042411905 0.053355537 0.1562751 0.027145213 -0.16309069 -0.18326606 0.051273514 -0.08272646 0.12709364 0.34780923 0.090536624 0.049139317 -0.14674866 0.12811054 0.07541534 0.0175388 0.2180757 -0.052976165 -0.0061869384 -0.23606332 0.08792668 0.17470248 0.0041436874 0.23742203 0.010363385 -0.061978146 -0.28168014 -0.15513071 -0.040811222 -0.17133938 -0.008628445 -0.22134617 0.027469924 -0.2299185 0.15001766 -0.102168195 0.19565628 0.09573486 0.2368495 -0.12574191 -0.16361643 0.23678838 0.015965572 0.11568839 -0.2299489 -0.028382832 0.14470321 -0.1208353 -0.070643045 -0.08779381 0.046074815 -0.068958886 0.22858018 -0.0973278 0.43945125 0.11609561 0.20249037 -0.08148691 -0.23153904 -0.024548754 -0.03978475 -0.12962145 -0.061184775 0.15082239 -0.030237056 -0.1152494 0.2312514 -0.16314892 0.17696798 -0.033672653 0.055225603 0.10324924 0.04676034 0.13229524 -0.13387367 -0.08931062 0.57731205 -0.13138676 -0.094471276 0.1861761 -0.18671022 -0.1082455 0.18850642 0.13993138 0.20882836 -0.08761316 -0.09230457 0.14017469 0.034159802 -0.46131358 -0.009741374 -0.11688273 0.31484827 -0.031523615 0.12123877 -0.02289276 0.2560803 -0.023641735 0.030841043 -0.26909363 0.16543965 -0.032211874 0.0016162833 0.016953869 -0.0014561577 -0.4301709 0.028329212 0.0978976 -0.17992142 -0.13075502 -0.53460383 -0.31509128 0.036601346 -0.07264566 -0.020733831 0.11679478 0.22851437 0.05272741 0.14124173 -0.2830991 -0.35268012 -0.21389678 0.30516756 -0.09617286 -0.10434447 -0.15140764 0.089208096 0.07246082 0.115594596 0.09484451 -0.0825364 -0.047961682 -0.10327451 0.13388081 0.14569807 -0.34826383 0.4146282 -0.09917864 0.0211504 0.17473693 0.047467448 -0.003168019 -0.030009788 -0.018552283 0.091068655 -0.14352915 0.11533547 0.5421903 -0.28087097 0.07820023 0.13664162 -0.023889206 -0.056540843 -0.13030122 0.009664661 0.3404866 -0.14985345 -0.37011635 -0.15991603 -0.014252306 0.076152824 0.002359753 0.057144087 -0.20910545 -0.07334958 0.12919666 -0.21226937 0.039390795 0.07609111 -0.047442235 0.05623876 0.08366419 -0.2372013 -0.0387055 -0.04229074 -0.03274193 0.16127768 -0.07413736 0.098737866 -0.047795754 0.004864182 0.24817124 0.02714912 0.033210445 -0.2078289 0.09218545 0.1944672 0.15723787 0.02559459 -0.30655816 0.06872225 0.09585751 -0.028856397 0.09247045 0.07086292 -0.086792275 0.27211723 0.023934536 0.07607743 0.2819731 -0.11040968 -0.16568597 0.0051165423 -0.27633387 -0.18949196 -0.07930992 -0.06555015 -0.00587007 -0.10879436 -0.07825415 0.00045135847 -0.23494326 -0.030891415 -0.0145107405 -0.12652056 -0.13760641 0.20708832 -0.062112033 -0.25234216 -0.01286672 -0.06034551 -0.19975038 -0.31148627 -0.11036302 -0.33001608 0.11648044 0.14040262 0.3705853 0.07262488 -0.29298016 -0.026575418 0.054064583 0.16113518 -0.12926595 -0.02977347 -0.08114478 -0.33886135 -0.026463095 0.2568017 -0.0047221263 0.10887898 0.12971699 0.07338242 0.046313144 -0.14350386 -0.021683233 -0.07187 0.070363924 -0.088501275 -0.25831982 0.027070321 0.085438415 -0.06376551 -0.003106194 -0.117132984 -0.38832125 -0.024905808 0.3055158 -0.37131232 -0.061027702 0.19631547 0.17414159 -0.17036888 -0.23604064 0.010224237 -0.012114539 -0.19372912 0.09196557 -0.45812303 0.19991748 0.1041303 -0.49396577 -0.03464443 -0.27632174 0.030599507 -0.18438922 0.33277592 -0.014298442 -0.21804084 0.19381933 0.24573238 -0.08567214 0.092629544 0.032066263 0.46574494 -0.31958148 0.089564525 0.16034871 0.04147288 -0.026760183 0.1650304 -0.047434196 0.04559258 0.14351116 -0.24883564 -0.11437758 -0.031719457 -0.122940324 0.093721874 -0.076180525 0.029275084 -0.021588733 -0.37988734 -0.03977954 -0.051433805 -0.17629549 0.19848631 -0.08392785 -0.31791574 0.33161283 -0.15460175 -0.13288653 -0.30931938 -0.56476074 0.09821163 -0.030206222 0.08993742 -0.1124887 0.31130406 0.19749436 0.041580293 0.1605408 0.14297561 -0.039401233 -0.20045708 -0.12567171 0.094415605 -0.33052585 0.3244887 -0.071447425 -0.32814696 -0.14165069 -0.1270807 -0.2705713 0.08242596 -0.11981378 0.034307916 -0.20790917 0.117684186 0.100417286 -0.0121105015 0.087729774 -0.13815346 0.17663677 -0.23225687 0.3787206 -0.07183103 0.1530415 -0.22418834 -0.09416393 -0.033906072 -0.13115942 -0.14753094 0.26751965 0.0028296947 0.18016055 0.011139132 -0.2547182 -0.2740137 -0.21000329 0.122282684 -0.018397959 0.14563563 -0.12225762 -0.23515391 -0.29507658 0.042430904 -0.012315391 -0.055382412 -0.037177555 0.228619 -0.07954813 0.13552706 0.15985928 0.18104252 0.132618 -0.07330401 0.010078522 -0.077106886 0.19646755 0.13355827 -0.3289472 -0.051228948 -0.2873251 -0.045259345 0.13368306 0.2188257 -0.04388559 -0.10240362 0.21471186 0.39581275 0.11801243 -0.10398229 0.041795053 -0.08455966 0.2680802 -0.0061996984 0.080204986 -0.045180254 0.14099142 -0.12475317 -0.099360995 0.1634178 -0.13517079 0.09502853 -0.26933822 0.26648772 0.0157207 -0.0069305366 -0.030712506 0.039026912 0.022627227 0.20890516 0.1376428 -0.3076054 -0.08676798 0.0017384493 -0.09916856 0.3433699 0.04809459 0.012396935 -0.2627081 -0.36637527 -0.08523063 0.17444554 0.10689986 -0.10946986 0.13605894 0.074216865 -0.15182497 0.2131566 -0.007780937 -0.20878284 -0.1551447 -0.14391164 -0.049689204 -0.12550184 -0.033205908 -0.048683155 0.050391138 0.077439114 0.13673125 -0.15951245 0.0040364936 0.020403031 -0.3511058 0.043958854 -0.1323854 -0.26471978 -0.14495634 0.09156527 0.06303048 0.08803469 0.5264215 -0.028970992 0.025124168 -0.3259187 0.16430178 0.21783352 -0.19255942 0.084374346 -0.08440685 -0.10771022 -0.19071895 0.17490901 0.095743366 0.10801773 -0.10709173 0.15047118 -0.054325834 0.05907529 0.08616801 -0.21497722 0.15117279 -0.005468542 -0.09102785 0.08299546 -0.3837313 -0.07759938 0.17926916 0.12210996 -0.20051734 0.14853111 0.3174902 -0.04188771 -0.0735253 0.49499896 0.071790144 -0.23378928 0.2894768 0.188948 0.23904775 -0.060078755 0.25292328 0.04352485 0.24008767 0.12669457 0.23470217 0.14452618 -0.1952134 0.21756575 0.25581092 -0.1388777 0.023343679 0.45158866 0.04058116 -0.45749396 0.19760796 -0.026113797 -0.24147902 0.17523132 -0.076101564 0.17361039 -0.4458435 -0.14489885 0.12557156 0.066524915 0.16570528 0.2293664 0.016187113 -0.028369434 -0.15475202 -0.31350166 -0.23117904 0.1818457 -0.100122444 0.13170512 -0.14549717 0.13439195 0.137941 -0.27238172 0.182587 0.090187564 0.032667115 0.036463134 0.0058078673 0.114449784 0.12654682 0.1187067 -0.08889873 -0.25809002 0.06188208 -0.01933013 -0.21081935 -0.31194207 0.060196165 0.04439652 0.06785618 0.28831083 0.2646792 0.011639025 0.14639454 0.13411058 0.06654542 0.08927041 0.05774557 -0.20121937 -0.054416247 -0.04626494 0.05039594 -0.14569841 -0.029968971 0.20455357 -0.25894693 0.13987681 0.15113147 0.2721373 -0.04362389 0.20865023 0.030741299 -0.060966246 -0.026024884 0.01366437 -0.05507292 0.121484004 0.28080425 -0.0058156694 0.12500198 0.12734792 0.09608981 -0.050850034 0.16804871 0.13278908 0.12183631 0.13783056 0.08037773 -0.22184081 0.08671069 0.4890972 0.072970435 -0.05716104 -0.44513243 -0.3640508 -0.15184556 0.2119354 -0.06608997 0.06652631 0.057010133 0.17930515 0.008046123 -0.17466418 0.05519748 -0.1604106 -0.09846944 -0.08745695 -0.1311017 0.06427795 0.1451706 0.12223205 0.20279653 -0.06413397 -0.018797105 -0.062320188 -0.2150573 0.15568356 -0.12965795 0.026135718 -0.2996349 0.21933608 0.20359695 -0.079142116 0.1252835 -0.05002609 0.077146225 0.20975727 