256 256
0.099581435 -0.10572485 -0.19914693 -0.021097815 -0.34941813 -0.15358052 0.0026412457 -0.054292634 0.05655194 0.04580266 0.026375476 -0.03275551 0.078711286 0.07626597 0.06686792 -0.13224678 -0.023104971 -0.2939274 -0.13750514 0.05386223 0.17681901 -0.06205618 0.045406677 0.093437694 0.024038149 -0.036961038 0.039475273 0.09402607 0.003078769 -0.06783831 0.071048595 0.078391634 -0.035296887 0.036145516 0.015712498 -0.026830921 -0.051937547 0.06376177 0.01837629 0.009316731 -0.042920187 -0.05022499 -0.06846248 -0.061817203 0.047228776 0.09081618 -0.024170218 -0.32322285 0.08919411 0.08199703 0.2752813 -0.0798111 0.024373043 4.2037113e-06 0.08608235 -0.040829252 0.21673918 -0.07825333 0.09320855 0.05310985 0.06683988 0.032253124 -0.017655455 -0.10724908 -0.09174907 -0.07142182 0.028557725 -0.08769653 0.07440664 -0.033770632 0.11945772 -0.11448234 -0.04495332 -0.027115434 -0.24531172 0.018040871 -0.06973668 0.006805603 0.033752125 0.0483547 0.080771156 0.09950537 0.12949532 0.0012083643 -0.010984522 -0.090155326 0.002607324 0.035460863 -0.06953744 0.073300354 0.10059673 0.09700673 -0.00015430321 -0.06626204 0.058788873 0.018902913 0.07018142 0.008631135 -0.05168562 -0.07904209 -0.11130062 -0.4172965 -0.0041646287 0.01826299 0.093752064 -0.06534603 0.055895563 -0.03461613 0.0141180325 -0.035635173 0.121700905 0.012485383 0.03866503 -0.05279765 -0.11346547 0.17698328 0.011926783 -0.048313122 -0.025021233 0.064231604 0.09206358 -0.089457616 0.07932878 0.08458824 0.27321887 0.042534277 0.06398403 -0.10925764 0.0063212183 0.009147733 -0.12381935 -0.038432155 -0.030735059 -0.010885399 -0.071462944 0.0593283 0.09374399 0.020062186 -0.03163418 -0.10030447 -0.057705525 -0.106082015 0.022682287 -0.040726166 0.008412012 0.027566528 0.0919665 0.024161102 -0.00624491 -0.056008708 0.011456395 -0.029600501 0.013899079 0.08591816 -0.00581759 0.049459077 0.05403937 0.044312753 0.062462267 0.018058654 -0.05163347 0.066054806 0.11529069 -0.11056791 -0.026427228 -0.030269526 0.06453442 0.049697638 0.010794964 -0.112731166 0.0430776 -0.073072724 -0.044230737 -0.101760656 -0.45022827 -0.25569272 -0.06592998 -0.09805637 -0.04662581 0.0403639 7.659455e-05 0.015883975 -0.27680203 -1.0453165e-05 -0.06694595 0.06399414 -0.109911375 -0.096108265 0.01759349 -0.050453383 -0.019164428 -0.0091077285 -0.0055341735 0.10115067 -0.04679365 0.061148487 0.02473186 -0.057938248 0.008144359 0.19775058 -0.0040981295 -0.20998053 -0.028578203 -0.045546245 -0.019082094 0.018644776 0.0056937872 0.025343046 0.023990352 0.12913577 0.3487504 -0.10828839 -0.022766082 0.04761617 0.037890498 -0.3541574 -0.032610096 -0.057799596 -0.17072202 0.031906083 0.07797201 0.20791705 0.10155564 -0.4075312 0.011418273 -0.1214392 -0.22090314 0.016928129 -0.016320895 0.066695884 0.033169623 -0.02868179 0.025103293 0.121134706 -0.66656446 0.1972386 -0.020795152 -0.108138956 0.044820365 -0.08162545 0.055900197 -0.00096201 -0.048791148 0.070734106 -0.06008415 -0.013491608 -0.010214825 0.10401608 0.054603435 -0.09096894 -0.19040643 0.027698467 -0.13286003 0.045324147 -0.060767617 0.04165881 0.07383577 0.04245024 0.06913417 -0.004339681 0.019672679 0.12934658 -0.01257342 -0.06565626 -0.059083108 -0.08981642 -0.09277479 0.06821668 0.08528004 -0.052330844 -0.0166776 -0.31047904 0.08117574 -0.32232526 0.06726838 0.07536207 -0.0022613874 -0.20549256 0.08895574 0.09428886 -0.08693379 0.06659089 -0.03482902 -0.04238361 -0.06454013 -0.07279204 0.085408166 -0.00926483 0.03493371 -0.004190967 0.026144955 -0.089164436 0.019822232 -0.066164635 0.037317917 -0.04634243 0.096209675 0.066736765 -0.08770465 0.0406644 -0.061189376 0.0070242095 0.07108287 0.09840282 0.0018301394 -0.06549471 -0.36655962 0.10754567 -0.055067673 -0.09031813 -0.039282758 0.10966334 0.103045344 0.1368475 0.009051268 -0.08548151 -0.013424425 -0.3327222 0.013353358 0.06735089 0.18919143 0.075004704 0.040138766 0.05394921 -0.02734673 0.007069512 0.13621111 0.043999135 0.00603105 0.09060642 -0.009106342 0.063746594 0.015144371 -0.0050334814 0.048092164 -0.09118129 0.06487625 -0.051468354 -0.018191056 0.09216396 -0.0051258807 0.15654607 -0.06166277 -0.06275189 0.031585477 0.16131395 -0.024823217 -0.05939708 0.05338549 0.019895617 0.09158856 0.043234095 -0.05840096 0.05625796 0.097403936 0.08894616 -0.029284736 0.30114034 0.03406832 0.108334854 -0.0846344 0.08625315 0.07239429 -0.22177969 -0.04596348 0.07326133 -0.2347326 0.009206075 0.025518281 0.032510363 0.18256281 -0.020945996 0.094977684 0.08190477 0.18504502 0.02536839 0.083372705 -0.1034783 -0.0031066285 0.023615254 0.01783441 0.013493181 -0.05592289 0.011730708 -0.07618229 0.107854314 -0.17076318 -0.10986201 0.10055651 0.010023326 -0.018441256 0.079263024 -0.06985873 0.0865409 -0.019885434 0.08281353 0.025129525 0.05557131 0.13696979 0.06767794 0.06201308 0.0843208 0.035970405 -0.037039258 -0.0048572114 -0.10070295 -0.03235168 0.016923968 0.087139346 0.07787301 -0.050226327 -0.049723215 -0.04510883 0.051216014 0.08904203 0.16480953 -0.029700339 0.01910297 -0.15282138 -0.09147906 -0.008206244 -0.09034634 -0.08049906 0.07757376 0.025056908 -0.14250404 0.1642569 -0.048937134 0.091997385 0.014555906 0.05224967 0.033932324 0.0081769535 -0.015331508 -0.017716052 0.05749271 -0.050866738 0.09649687 -0.32327846 -0.028055929 -0.06063535 -0.03065093 -0.053887475 -0.09285318 -0.15205255 0.08931354 -0.02205874 -0.022713592 -0.04764915 0.053891562 0.04614567 -0.09314041 0.017931432 0.0486523 -0.013299269 -0.2412662 -0.0023551707 -0.22237413 -0.0025694747 -0.10148859 0.009639842 0.05902647 -0.10456855 -0.09462346 0.021518802 -0.1523477 0.07096841 0.060623404 0.04989135 0.04315555 -0.12442003 0.005279747 -0.0692078 -0.10054087 0.15696152 -0.06086502 -0.037557956 -0.070297755 -0.06140927 -0.021073159 0.015416857 0.06048709 -0.2014607 -0.059462845 -0.040409714 -0.0896419 -0.020106904 -0.10765092 -0.05123163 -0.027257495 0.07055775 -0.035462778 -0.006685462 -0.029553497 -0.0013308702 0.1520027 0.05567738 0.05913399 0.04250912 -0.067346275 0.06507956 0.107422665 0.020814188 -0.102400996 0.08065949 0.07879463 -0.26011515 0.022419142 -0.016640116 -0.012121378 -0.08626909 -0.05928471 0.09345866 0.11673874 0.12228342 -0.2689138 -0.056101177 -0.12616189 0.011582717 -0.02628655 -0.06308181 0.103118576 0.01285189 -0.08909368 -0.0041145985 -0.074569054 -0.100774586 0.088849194 0.01960633 0.12825516 -0.066218056 -0.021388277 -0.15075402 0.19715416 -0.08101959 -0.0038181846 0.035866402 0.017826583 0.1773684 0.059580144 -0.04990295 -0.074433856 0.07034546 0.035484124 -0.06299939 -0.0007548053 0.046847407 -0.09625623 0.07287685 0.088797346 0.037785493 0.0012654043 0.022348505 0.10878438 0.03214252 0.04693634 0.031171033 -0.055739623 -0.053289287 0.08010925 -0.02558738 0.07532844 -0.1602052 -0.080104925 -0.03851142 -0.06688123 -0.1045976 -0.216446 -0.12237636 0.0017260001 0.07990153 -0.10434428 -0.06370414 -0.0880059 -0.037093684 -0.006298778 0.13331266 0.022870034 0.087124385 -0.008936875 0.01866598 -0.0048292284 -0.049667124 -0.10408826 0.063837744 -0.07936204 0.00404516 0.066922784 0.17797588 -0.09252148 -0.09225469 0.017286357 -0.039076872 -0.021411255 -0.16007751 0.07590812 -0.04177723 -0.04670874 0.061442614 -0.037530854 -0.012734564 0.13272838 -0.017375894 0.08951421 0.038428526 0.053890083 0.025464343 0.056447193 -0.001961032 0.08442033 0.053425 0.046176426 0.07602142 0.13077208 -0.052119546 0.035234403 0.071887776 0.010861563 -0.02266117 -0.018614015 -0.093967214 0.07123005 -0.060601804 0.039999034 -0.08308087 0.07828999 -0.19617786 -0.11440064 -0.0664287 -0.08003741 -0.03146086 -0.07899819 -0.040221214 0.06905892 0.009023695 0.08849586 -0.2701815 -0.101016246 -0.015925689 -0.03665427 -0.30716705 -0.09449655 -0.1046221 -0.0059281304 0.012441977 -0.02780062 0.012404607 0.106535085 -0.09336536 0.055725742 0.022043955 -0.083694965 0.021621378 -0.021374349 0.051347397 0.00867181 -0.0036470725 -0.074114546 -0.05973761 0.10336989 0.043015353 0.053085364 -0.0034740327 0.058030926 0.05977379 0.08078428 -0.034527317 -0.01982968 0.028154323 0.109389454 -0.01169671 -0.10866158 -0.03237881 -0.0767266 0.032054372 0.020475138 -0.08269313 -0.07428002 -0.06371437 -0.08850942 -0.057425734 -0.0064731115 -0.077377446 0.022891207 -0.09073609 -0.06142011 -0.00093471375 -0.22075461 0.051640604 0.078742154 -0.07989929 -0.08156952 -0.029803079 -0.07636537 -0.07733588 -0.020926446 0.11094605 0.073773205 -0.09152186 -0.09896819 0.21106583 0.04504548 -0.094577685 0.004885478 0.08313081 0.08720798 0.043388985 0.09157358 0.008829697 0.042833053 0.03351441 -0.056099355 -0.030077882 0.09641496 0.06654783 -0.05068743 -0.060709894 0.061871853 -0.08006289 -0.0033593175 -0.11326875 -0.10164875 -0.1935516 0.04354208 -0.04419367 -0.16932118 -0.021727655 -0.06404674 0.07223551 -0.031239023 -0.19658107 0.039124493 -0.03653963 -0.17555791 0.0063567334 -0.05353279 -0.03217999 0.10362592 -0.10345105 -0.106493965 -0.07616964 0.027066313 -0.005965175 -0.08388466 0.067522675 0.0062471717 0.10753099 -0.014248695 0.05893434 -0.008293277 -0.08134615 -0.09932757 -0.07656978 -0.042568058 -0.07249573 0.022447444 -0.022620711 0.031558704 0.06570838 0.001197328 -0.048579805 0.08611209 -0.024756854 0.09324645 -0.0075987126 0.12880373 0.038124938 0.05061607 0.010353975 -0.07289097 -0.03930556 -0.15847833 -0.04749889 0.07492555 0.0057814717 -0.053827807 0.041061737 -0.035266683 0.063478224 0.046466064 0.056694802 -0.0699383 -0.12206318 0.301386 0.022356562 -0.049165215 -0.032036897 -0.05420061 -0.22000596 -0.058492705 -0.0056960955 -0.10674943 -0.010180943 0.08437379 0.32337373 -0.04880485 0.08441341 0.0034329593 0.0028921287 0.0081125125 0.07814004 -0.070503235 -0.0051865214 -0.05483093 -0.042643473 0.10262026 -0.06144569 0.021693889 0.1004742 0.019227298 -0.024604 0.08298308 0.104784854 0.0906382 0.05098116 -0.0060016047 -0.47349578 0.06658662 -0.40384808 0.05424898 0.1018037 0.08473373 0.051861335 -0.17285354 0.0559355 0.08556361 0.05354897 -0.02353257 -0.10139234 -0.029924637 0.006060913 -0.049150296 -0.12984219 0.061357625 0.029607983 0.07283243 -0.061938886 0.104838654 -0.09207473 0.01179196 0.022524213 0.011010319 0.019540451 0.016384222 -0.037438046 0.09165891 0.009068864 -0.022743307 0.03872713 -0.03617797 0.05188505 -0.06987218 -0.03740861 -0.17198074 0.15449686 0.073950164 0.09086413 0.11521215 -0.0041710064 0.06837881 0.025786847 -0.034425937 -0.07070959 -0.07565969 -0.18309379 -0.08642924 -0.07198265 0.021763407 -0.099331014 -0.25546652 -0.08325656 -0.026373629 0.039611615 0.07278771 0.03370561 0.1364402 -0.11223832 -0.26103333 -0.07040531 0.04846468 -0.03246976 -0.04469502 0.064524174 0.061437383 0.05262416 -0.054004326 -0.046933915 0.09053426 0.10503518 -0.009979837 0.05382834 0.052812316 0.09008631 0.017694242 0.062241763 0.020577427 -0.036544237 -0.10647446 0.07917006 -0.028385028 0.22264946 0.10749241 -0.1113046 -0.07850721 0.04618939 -0.08853094 0.102343716 -0.034067854 -0.060329486 -0.07095228 -0.032154225 0.078972585 0.04720701 -0.09700521 0.09966156 0.07437055 0.09177639 -0.05353219 0.048338443 -0.06269185 -0.040006187 0.0116120875 0.0054649846 0.102951996 0.021132847 -0.018690333 -0.028576173 0.03211339 0.044978645 0.033521183 -0.26090005 0.088370465 -0.016868614 -0.030398497 -0.00047089905 0.06716577 0.020467887 -0.10967956 -0.032010715 -0.07840934 -0.09059042 0.01730507 0.033608373 0.16197833 -0.025099877 -0.05103311 -0.0022456422 0.1512736 0.056651898 -0.09028025 -0.17407776 0.09753723 -0.0431072 -0.02473613 -0.06657121 0.076389626 -0.06517265 -0.029137487 0.10065732 0.009722151 -0.0044622775 0.077919684 -0.10304189 -0.054492258 0.07575405 0.04032495 -0.034768138 -0.038571965 0.028486378 0.09833615 -0.062129233 -0.0074670645 -0.07811748 -0.23649515 0.09176732 -0.01778592 0.1037483 -0.19490528 -0.23436695 0.019776585 -0.062563784 0.039930556 0.020163594 0.013959521 -0.016571134 -0.0021590441 0.06464561 0.07142631 -0.0786089 0.15717582 -0.07355072 -0.017303087 0.07521083 -0.08713408 -0.20167957 -0.0362698 0.032176994 0.06553186 -0.008391195 0.07238155 0.098951735 -0.15008369 0.129703 -0.2793744 0.04338969 -0.004251972 0.0942663 -0.024494432 -0.012840427 -0.08781205 -0.045156658 0.10130567 0.023177631 0.11542406 0.09692868 0.07403552 -0.031479374 0.118338384 0.014196338 0.078164265 -0.12837516 0.09892723 0.07327687 -0.11073251 -0.059193645 -0.048316404 0.09696109 0.16159908 0.25092137 -0.17753887 -0.006913816 0.007391528 0.010199558 0.101461776 0.07628546 -0.02823061 0.088885255 -0.0944247 0.02208384 -0.07547548 0.035066918 0.07766349 0.07056191 -0.08971194 -0.07427499 -0.008832927 -0.08196083 -0.043200593 -0.075293444 -0.06315254 -0.093182124 0.10098643 0.05492683 -0.05239011 -0.09747223 -0.09577335 0.09903793 -0.00050137466 0.04702055 -0.055902377 -0.09188699 -0.30372176 0.05118131 -0.012758516 0.001651694 -0.054671235 -0.08257703 0.031730603 -0.08966858 0.06500978 -0.044459675 -0.03381696 0.0066083535 0.054555528 0.20852767 -0.041553777 -0.012623406 -0.090540044 -0.0053113834 0.01171178 -0.035524152 0.07819482 -0.026500573 -0.020654859 -0.007689206 0.010359623 0.026490312 -0.10664838 -0.07342994 0.011934876 -0.019639632 0.050086513 0.05548174 -0.06649329 0.066541046 0.24644527 0.086775176 -0.0693503 0.00057860545 -0.09793272 0.105551355 0.061613698 0.029104188 -0.0882353 -0.089284666 0.089163356 -0.01135626 0.038325883 -0.02240803 -0.11406173 0.011780518 0.045868434 0.002229625 -0.21853077 -0.017247383 -0.020820921 0.09247969 -0.0803744 0.03686666 0.008446001 -0.012472149 -0.10410188 -0.04412249 0.09201046 0.0091019645 -0.23595567 0.09139843 -0.14280888 0.05784931 -0.05081607 -0.052998554 0.08413442 -0.093997255 0.060426287 0.019654982 -0.11509105 -0.023085807 -0.053981803 0.11609189 -0.02127795 0.064193755 -0.0064749056 0.048147976 -0.11036706 0.015312478 0.05525469 -0.07820393 0.03918416 -0.055068687 0.01957971 -0.06030648 -0.00667215 0.017200312 -0.016745739 -0.004837633 -0.017712008 -0.12289121 0.09715936 0.023105416 0.076328106 -0.024253823 -0.027440881 -0.081170365 -0.052457362 -0.010409503 -0.023522155 0.11210177 -0.0144689 0.06930026 0.08901914 0.10459475 0.018486653 0.032387756 0.051721267 0.08202836 -0.08374548 -0.09738399 -0.008170077 0.037290808 -0.08262804 0.027609631 0.023744995 -0.089553036 0.092184134 0.01852126 -0.08873864 0.15464997 0.015511586 0.047938477 -0.0031754137 -0.039460182 0.018632099 0.04994682 -0.05295083 0.02185445 0.06301094 -0.05172067 0.14717686 0.059517063 -0.4330092 -0.026536271 -0.04821361 -0.012615635 0.047243003 -0.0014516696 -0.068888344 -0.18191957 0.08421495 0.10426986 -0.004437625 0.08058621 0.041381057 -0.116229646 0.043197695 0.09494608 0.037321694 0.038139086 -0.026453726 0.09972758 -0.10059191 0.07263434 -0.01974196 0.04967405 0.25848815 -0.055542078 0.028744953 -0.041578818 0.064198256 0.0056319656 -0.04970393 0.07549312 0.10910971 0.03672421 -0.154819 -0.037939247 -0.032482196 0.077699035 0.15071677 0.021041097 -0.25724313 0.09136536 -0.08808235 -0.26119575 0.010439553 0.079555824 -0.079521455 0.023821747 0.0612678 0.10524799 0.21033764 -0.0062802634 -0.097248636 -0.004141976 -0.09754825 -0.06834411 0.045184318 -0.098046705 0.074422225 0.023340754 0.05409805 -0.0590373 0.10721709 0.056383032 -0.020598963 -0.00033803054 0.032207377 0.04901842 0.09760072 -0.078285426 0.045825243 -0.07589615 0.04885139 -0.060449883 -0.034599256 -0.07193512 0.016601816 0.000383844 0.0038903153 -0.023288697 0.05180173 0.045706563 -0.05640159 0.02009037 -0.25131345 0.16160566 -0.05318936 0.042536106 0.038459755 -0.100410625 -0.108615994 -0.07729474 -0.02111647 0.049560443 -0.071062826 -0.070375025 -0.31351337 -0.057151675 0.16337189 0.08668073 -0.08805101 0.099774964 0.025578529 -0.06128888 0.059755914 -0.047912687 0.04509434 0.045722175 -0.098361194 0.12913819 0.021301843 0.025331384 0.08518889 0.06422933 -0.0702476 0.11618876 -0.014022724 0.06926697 -0.028784737 0.058962114 0.009910875 -0.04790393 0.09252576 -0.023934271 0.0033224034 0.08084313 -0.07039957 0.039125495 -0.19540665 -0.2720258 0.10119809 0.1522384 -0.010072498 0.014824162 0.014391922 0.0524756 -0.10026846 -0.53144264 0.047510277 -0.068429925 -0.07100631 -0.0038081936 0.03750322 0.039143022 -0.099907756 0.063664034 -0.10228787 0.073131025 0.004691232 -0.002784254 0.02897513 -0.043199964 -0.3436084 -0.09292208 0.069520205 0.081326425 -0.0018981139 0.0016747033 0.08002934 0.09049683 0.031422257 -0.07461306 -0.06945586 -0.048316382 0.018433087 -0.0372506 0.21422471 -0.05091096 0.11006848 0.08091664 -0.21930756 0.023105701 0.03248155 0.02015642 -0.065172456 0.02485206 0.07931632 0.33694276 0.051478613 0.014226079 0.057471827 -0.013691289 0.100166455 0.0388126 -0.23924744 0.08250498 0.03287155 -0.02771554 -0.16950524 0.08418142 -0.121942155 -0.20506983 -0.027301164 -0.09387582 -0.052970342 -0.13728218 0.14097819 -0.07586548 0.034047395 0.038076423 -0.0527308 0.019095346 0.09038032 -0.052218713 -0.009230099 -0.34567526 0.054252367 0.02327623 -0.03089047 0.2463563 0.064659394 -0.014048631 -0.023554524 0.30656374 0.04019475 -0.0862502 -0.0061825514 -0.0751774 -0.00035630167 0.08450664 0.023634229 0.06336146 0.075758465 -0.06723531 -0.0803372 -0.012084345 -0.06262244 0.077881224 0.047724955 0.070803955 0.10803872 0.030051688 0.008869171 -0.07608017 -0.06677062 0.06570062 -0.051737048 0.0822773 0.029558558 0.08784367 0.10358071 0.02463948 0.034057602 -0.007882247 -0.048883945 -0.11397097 0.103664584 0.09088218 0.06620372 -0.09677657 -0.26203525 -0.30437902 -0.07629576 -0.0015436728 0.03150105 -0.23110746 0.047177885 0.09408969 -0.07291763 -0.030305224 -0.06921695 -0.025178319 -0.10064181 0.091355294 -0.09699106 0.022790745 -0.089057215 0.057694454 0.053225305 -0.35252944 0.08229815 0.106188454 -0.098742396 -0.10637503 0.036908038 -0.09370239 -0.039573736 0.088483624 -0.01644361 -0.10409879 -0.022597566 0.08989993 -0.60147643 -0.07359178 0.09705274 0.09588071 -0.26356366 0.06174426 0.0015253196 0.10324794 0.26138034 -0.10577056 0.05493343 -0.055726025 -0.3310084 0.03224202 0.20936738 -0.010558775 -0.09480607 0.23436588 -0.112499766 -0.055531498 -0.12570299 0.012665689 -0.107811935 -0.011997466 -0.1838245 -0.043130428 -0.028925566 0.071012095 -0.0014508069 0.013886 0.05385285 0.08225205 -0.02602371 0.010280538 -0.045153145 -0.05153213 -0.055171248 0.023419736 -0.18606973 -0.103130475 -0.0471746 0.032101672 -0.048906658 0.024554241 -0.067444876 -0.029974831 0.017643763 0.08227899 -0.01281209 0.059568238 0.09906023 0.07612118 -0.06299418 -0.004076645 0.077102154 0.09798475 0.065854944 0.14580622 -0.02622424 0.146991 -0.016559565 -0.0394945 0.099833794 0.037476685 -0.040432263 0.03637283 -0.043778248 0.07007967 -0.038423114 -0.021444874 0.027439222 0.060504757 0.16592881 -0.04441006 0.07154111 0.007756435 0.139649 -0.034910433 0.10192976 -0.04043007 -0.07363344 -0.117419146 0.097870596 0.1116738 -0.09501081 -0.05760527 0.01483722 0.08733591 0.057617866 0.09003769 0.040070616 0.094527 -0.19485056 0.027095042 -0.096294284 0.048061393 0.028788483 -0.015485775 0.0421453 -0.08165889 -0.05592045 0.08589086 -0.044116434 0.0351966 -0.1039692 0.027731119 0.079978846 0.07694203 -0.08712319 -0.08237873 0.036046863 0.096069396 0.124657825 0.037318897 0.09270839 0.022296695 -0.09687275 0.05415044 -0.02996456 -0.22686432 -0.0142836245 -0.08698384 -0.024615772 -0.026818357 -0.0548338 -0.07692992 -0.16333605 0.07416285 0.07993998 -0.1680859 -0.002882513 -0.01847515 0.0943623 -0.07808181 -0.022474691 0.019658128 0.072700545 -0.10539227 -0.06623139 0.0017533308 -0.20179144 -0.07602268 0.003947884 -0.10569579 -0.06147665 -0.10757879 0.11222205 -0.03471842 -0.08569603 -0.0029562265 -0.0009937007 0.368218 -0.060459845 -0.08587957 -0.10017522 -0.0002271338 -0.20549415 0.08149349 -0.15613884 0.0760384 0.08482007 -0.052011907 0.21678114 -0.078881495 -0.024910957 -0.17514895 -0.09819931 0.052681215 -0.070917934 0.11490412 0.15242277 0.023978464 0.07232375 0.15529178 -0.059340015 -0.10171125 -0.035970896 -0.042578142 0.103954144 0.13627759 0.034892596 -0.0019302231 0.035483345 -0.007430426 0.10690207 0.33694577 0.022539653 0.08399562 -0.003331475 -0.3020052 -0.022531368 0.028105246 0.09566095 -0.04659311 0.08765807 -0.057648327 0.09633043 -0.03557346 0.037683643 0.09596923 -0.09539774 0.036825873 -0.062234033 -0.001667687 -0.009980703 -0.0055197696 -0.06328875 -0.06037907 0.06817708 0.07252543 0.10135592 0.11947455 0.09825857 -0.065516435 0.047374763 -0.09544707 -0.08095679 0.18809308 -0.07975862 0.09770719 -0.0046167905 -0.070545234 0.06419464 -0.021742824 -0.22407728 -0.07507512 0.036634814 0.06943374 0.122553684 -0.12087992 -0.30058673 0.09056979 0.003908576 -0.078195654 -0.07990451 0.003693407 -0.05590848 0.16671905 0.060954425 0.08644801 -0.030001873 0.046464063 0.07223769 -0.16196519 0.04273125 0.028610704 -0.013461597 -0.09037999 -0.057161484 -0.05084237 -0.018048571 0.056808934 0.055410154 -0.035439506 0.009713259 -0.03173712 -0.53830796 -0.043179844 -0.043306395 -0.08404202 -0.14338575 -0.0028367564 -0.068176866 0.07279418 0.07628923 0.005945922 0.06809335 -0.0010725707 -0.13857506 -0.0039224466 0.026169498 -0.083360024 0.10256002 -0.035878442 -0.044522405 -0.033258185 -0.03516287 -0.014437907 0.075619064 -0.019514399 0.09178862 -0.06762408 -0.02471599 0.04564164 0.056092165 0.017327176 0.090654306 -0.016107492 0.0010430149 -0.05739435 0.03936379 0.11298342 -0.052941773 0.0067689717 0.055278897 -0.02790053 0.06837275 0.04180821 -0.03461729 -0.055406224 -0.04939352 -0.029277183 0.041239195 0.120613284 0.0008424302 -0.25797653 -0.10363525 0.09528633 -0.06577792 0.093277745 0.0051752324 0.044889845 0.054038145 -0.05531788 -0.21022621 0.14528804 -0.12645485 0.045730658 0.04603923 -0.061922316 -0.098768055 0.08755747 -0.07679042 -0.0276543 -0.09265575 0.024028935 0.26235783 0.06888157 0.046048827 -0.04815953 -0.010428915 -0.24557737 0.040895108 0.074354276 0.09670836 0.09884446 -0.1100054 0.09149104 0.074048586 0.04978211 0.09626832 -0.09150631 -0.014528492 -0.045776416 0.052724935 -0.097212866 0.07949932 0.043375038 -0.04375004 0.02989434 0.035042677 0.09392741 -0.043988835 0.077430785 0.080231324 0.020455427 -0.042075224 -0.09143719 -0.21741962 -0.2998877 -0.019153137 0.020228848 0.08540141 0.015867405 0.0007253053 0.030732354 -0.13109013 0.06521133 -0.07725759 -0.0595842 0.06613121 -0.044521548 0.12776709 0.005117889 0.021453373 -0.45820937 -0.06825646 -0.076589495 -0.035532977 0.025688164 -0.09570613 -0.1813312 -0.18356708 0.084342636 -0.035238285 0.15806696 -0.0952319 0.014489851 -0.011041872 -0.028770719 0.019959318 -0.027557766 0.057478238 -0.0850179 0.011711918 0.043534502 -0.17020291 0.036097705 0.031074129 0.090727136 -0.15532355 -0.019536754 -0.09986871 0.05042673 0.039935246 0.033580087 -0.002445828 -0.23456863 -0.037174005 -0.006280884 0.0415354 0.05158858 0.008526338 0.014799087 -0.117513664 -0.08800611 0.10389014 0.00322274 0.046158876 0.035343435 0.09937348 0.1759038 -0.087855294 0.08211773 -0.10768047 -0.20142215 -0.034243867 0.0013731101 -0.0781481 -0.29926056 0.02706446 -0.062708065 -0.101361014 -0.111316465 0.07494974 -0.13206497 -0.038406223 -0.045018673 0.026397787 -0.29619166 -0.09879216 0.032442633 0.100337505 -0.15654567 0.008811027 0.13008814 0.008667655 -0.06722576 -0.09099514 -0.020178692 0.014742345 -0.014522118 0.069570735 0.020975657 -0.019468177 -0.015543169 0.026665775 -0.091328 0.005260524 0.03164909 -0.110755645 -0.042728722 -0.063875526 -0.09108957 -0.054361995 -0.052446906 -0.094974615 -0.08826879 0.03310839 -0.04578171 0.16323431 0.07202337 0.0048759445 -0.01000837 -0.07416732 -0.07631672 -0.0759675 -0.029121295 0.10579429 -0.08880037 -0.1412375 -0.04935156 0.01786315 0.010725245 0.06337642 0.055187277 0.07613295 -0.014724973 0.026838353 0.0020987503 -0.14935051 -0.030362966 -0.00013462314 0.08562085 0.10511697 0.022989746 -0.063163266 -0.05207448 0.09776466 -0.30123812 0.012797262 0.0996517 0.044332005 0.09494205 0.09421981 0.07573005 0.10241046 -0.10028426 -0.0655706 0.03998787 -0.082439385 -0.0729718 0.14278609 -0.0138683645 -0.03167702 0.10405549 0.17764533 -0.053039305 -0.04719779 -0.100464955 0.15182859 -0.4769241 -0.11331003 -0.08985062 0.17550784 0.027560579 0.069545105 0.01739823 -0.014168663 -0.08679555 -0.01682188 0.083798595 -0.09517834 -0.0057554054 0.017151194 0.034096695 0.18412568 0.093398206 -0.0427479 -0.06927017 -0.045625098 0.04016394 -0.0652172 0.0021123812 -0.114378765 -0.050738726 -0.08085108 -0.16855232 0.044782788 0.042303644 -0.15921442 -0.10975941 -0.031707212 -0.089800514 -0.0822565 0.025808968 -0.12863292 0.041552484 -0.006990545 -0.1772869 -0.022931863 0.13643995 0.081665576 0.04357726 0.07158773 0.089383096 0.09621119 0.036030777 0.07441694 -0.19453716 0.021384293 -0.3050276 0.034814097 -0.051002417 -0.048074488 0.07632211 0.070646 -0.109549634 -0.016366594 0.068569526 -0.02131576 -0.085079305 0.06434943 0.08839189 -0.022838818 0.08367531 -0.06014593 -0.012807373 0.20271033 -0.058605913 -0.070419036 -0.021966055 -0.07865695 0.08199425 0.09203049 0.09215774 -0.00087834394 -0.021329142 -0.023296991 0.090101145 -0.053873856 0.011279137 -0.08800773 -0.062320787 -0.13307789 0.005155459 0.014870766 -0.105708815 -0.01221672 0.08363583 -0.027915467 -0.01592476 0.042032916 -0.04927557 0.13345022 -0.24674167 -0.025978133 0.06953495 -0.023700938 0.06546161 0.10389497 0.056119956 0.15683927 0.23704329 -0.055464186 0.10060053 -0.028602265 0.053013623 -0.07992089 0.041545793 0.029584046 -0.053448167 0.09610745 -0.056111757 0.013684154 -0.06391123 0.000583343 -0.09750435 -0.21164577 0.07171626 -0.026024967 -0.08287898 -0.06322624 0.02527617 -0.0714556 0.13176912 -0.0042965235 -0.07327994 0.024872791 -0.22152032 -0.009712367 -0.06653517 -0.005174839 0.029676953 0.08444669 -0.09104125 0.018039824 -0.04085043 0.08044212 -0.024759244 0.057176914 0.07166029 0.050900012 0.14283685 0.023851939 -0.020135177 0.06616306 -0.033554465 -0.16128498 0.018068917 -0.063006215 -0.05279147 -0.073589295 -0.063436165 -0.0818585 0.036967486 0.06281894 0.002030667 -0.0033213098 -0.08605924 -0.023494557 -0.05001394 -0.25067008 -0.019920839 0.041847255 0.17744406 0.09144183 0.009703934 -0.08594968 0.08812102 -0.06467369 -0.07669144 -0.040416233 0.08513852 0.06342124 0.0555041 0.027961023 -0.100996256 -0.07836466 -0.1822911 0.08069431 -0.08631853 0.041719355 -0.05558839 0.06852481 -0.07360889 -0.03345408 -0.0049514505 0.059088226 0.07502032 -0.01070761 0.024589129 -0.007237673 0.00046049058 -0.0668454 -0.07444147 -0.055470284 0.12713027 0.052881014 -0.018430209 -0.08685493 -0.06550393 0.09986229 -0.055149764 0.07390361 -0.0011043631 -0.04611967 -0.108613506 -0.014300048 -0.21445805 0.016251385 0.02058801 0.07257332 0.021987498 0.008680809 -0.09293171 -0.2153648 -0.05327233 -0.06288668 0.092662774 -0.013179707 -0.18917955 -0.22482248 0.04757855 -0.042891443 0.05095888 -0.020669157 0.08327072 0.014626648 -0.15462708 -0.09385053 -0.0917206 -0.07912396 -0.10080817 -0.07010845 0.3147919 0.10234132 -0.07061755 -0.028225265 0.044624083 -0.0058580264 0.06732299 -0.08839725 -0.046174902 0.05001474 -0.007950825 0.027101679 -0.030911656 -0.13536708 0.05515636 -0.032640547 0.057519242 -0.021923803 0.0032141954 0.10461743 -0.06613129 -0.20053887 -0.012750864 -0.072454214 0.11195584 -0.134384 0.030678356 -0.22176713 0.08553033 0.08427398 -0.22366141 0.061105657 -0.08998555 0.12321776 -0.008051872 -0.050029058 -0.028872406 -0.014659126 0.18654814 0.053923674 -0.04433649 -0.0909117 -0.08213087 0.046415064 -0.05974884 -0.077727795 -0.023175962 -0.10874877 -0.16069846 0.002184954 -0.02516079 0.099819966 -0.005179985 0.01935666 -0.07158924 0.015541621 -0.09595703 0.020679843 -0.03903289 0.066943415 -0.018982694 0.06476387 -0.015644291 -0.038476966 0.13892502 0.08735506 0.0129213035 -0.0534272 -0.0147433905 -0.07361027 0.112558976 -0.08025602 -0.029391643 -0.08402668 0.079160646 0.036548316 0.001503095 0.03938145 -0.0865939 -0.14781001 -0.037399888 -0.042401645 0.01924174 -0.1642609 0.017291171 -0.15871227 0.078235134 0.029280262 -0.17226508 0.046110746 0.09187799 -0.0100249 -0.056664597 -0.065465584 0.044640772 -0.013116036 -0.066228576 -0.03066063 -0.09091255 -0.11204447 -0.03862428 -0.0732206 0.12684287 -0.08877834 -0.03710097 -0.47738212 0.09284625 -0.00084424124 -0.074732825 -0.081094116 -0.015314265 -0.008427376 -0.10258008 0.08382463 0.05711521 -0.026728716 -0.2550201 0.009638463 0.053113166 0.030523831 -0.018573005 -0.041881397 0.014817872 0.042571597 0.12111468 -0.13575965 -0.050208263 -0.040237226 0.051771563 -0.084875144 -0.001666613 -0.10237975 0.06047667 0.013075869 -0.06463294 -0.078561485 -0.076627254 0.054626733 0.15292771 0.423518 -0.037475336 0.09606725 -0.2574689 0.060100332 0.18796344 0.024119047 -0.0965793 0.011252427 0.006406463 0.040424354 -0.12802714 0.01635284 0.080886714 0.09375967 0.08626997 0.025046479 0.00020478496 0.0035267933 -0.0930198 -0.00012952891 0.03781959 -0.08289194 -0.1003888 -0.043656725 0.16833988 -0.08636434 0.045847528 -0.02016624 0.06001477 -0.064513154 0.032213606 -0.072094955 0.01559639 0.103028074 -0.027825538 0.091498226 0.109997794 -0.20042498 0.13651346 0.12843242 0.0403722 -0.007174948 0.114156954 -0.058220714 0.02374823 -0.10096706 0.029066995 0.06914228 0.10182509 0.058441386 0.08675356 0.032883313 -0.052234143 -0.07591499 -0.040716592 0.08445164 -0.028602783 -0.057281822 0.037608754 -0.029982163 -0.12743047 -0.059233848 0.0077716997 -0.078135446 0.019915568 0.019682087 -0.017980633 -0.080579676 -0.050905216 -0.047042433 -0.020904996 -0.027870696 0.08301796 -0.013934227 -0.02298609 0.04238487 0.085916884 -0.08448394 0.057443332 0.021714307 -0.05488662 0.05270078 -0.040628422 0.078690015 0.040339768 -0.08111604 0.07877783 0.08151506 -0.020955173 -0.04493278 -0.08890937 -0.005630237 0.09332164 -0.05221805 -0.0048213825 -0.04920667 0.12241809 0.16545096 0.12836932 -0.01924902 -0.060324296 0.08652839 0.087567955 -0.109332874 0.03226381 -0.022490349 -0.084570274 0.055998344 -0.09826976 0.09744146 -0.24905857 0.065280534 -0.08652887 0.052404396 -0.041203488 0.07761494 0.022535069 0.021476604 -0.05157846 -0.0056543 -0.109961644 0.040358417 -0.010029599 0.08628286 0.106092215 0.10718014 -0.009642847 0.21598674 -0.028703483 0.10887367 -0.024484942 0.020680567 0.10611315 0.05611634 0.03957752 0.016200457 0.08609246 -0.21085687 -0.17155641 -0.09362028 -0.016870689 0.15075758 -0.047850505 -0.22280543 -0.035920676 0.0838055 -0.10916033 0.038941752 0.06943964 -0.04898448 -0.035269197 -0.03177212 0.09108184 0.20760441 0.04177649 0.039225098 0.017053248 -0.006922098 -0.09815648 0.09713988 -0.09074845 -0.07790723 0.15994157 -0.04906395 -0.21103477 -0.06828349 0.027192269 0.046590574 -0.01978952 0.10496504 -0.09975569 0.0199008 0.085772626 0.0075682644 0.109966286 0.10753063 -0.16676354 0.01750609 -0.15861815 -0.059062693 -0.12913552 0.09672206 -0.039370462 -0.054080356 0.041411437 -0.009051323 0.20707375 -0.42437127 0.11699179 -0.079893105 -0.06081127 -0.073173046 -0.042273484 -0.04747734 -0.040549695 0.06920939 -0.049828235 0.027970634 0.05888929 -0.4016106 0.0999243 -0.13208252 -0.10436481 0.058783762 -0.25140885 0.002888667 0.04627691 -0.06715918 -0.02823995 -0.01542046 0.13699408 -0.0025440918 0.08396684 0.012165603 0.05520475 -0.09847411 0.02028259 -0.07788841 -0.1015869 0.061302654 0.012266748 -0.4695644 0.010754898 -0.014184316 -0.10648003 0.019854465 -0.0838916 0.04473654 0.068535276 -0.07394549 0.03517248 -0.47300106 -0.058788545 0.025668625 -0.186414 -0.053542078 -0.10413406 -0.06847331 0.111304924 -0.13868298 -0.015816798 0.029411128 0.069033526 0.032782353 0.06409847 -0.19743831 0.06021034 0.057516854 0.111939505 0.040334202 0.032509666 -0.022233859 -0.08191009 0.047833327 -0.15364125 -0.008469115 0.0066156876 0.06473923 0.11683647 -0.017927833 0.038151037 0.04426121 -0.09625451 -0.08935402 -0.08937255 -0.03701308 0.13838366 -0.106914096 -0.097514026 0.18545331 0.06387541 -0.002662234 -0.034819607 0.019418895 0.022601405 0.044994973 -0.10062456 -0.063050404 0.03413955 -0.080316305 0.16356218 -0.06359761 -0.11391822 0.060070984 0.07974005 0.1561865 -0.088126846 0.0465785 -0.009586714 0.10786479 0.018689848 0.2044716 0.09131088 -0.114288464 -0.15528493 -0.046502255 0.02589722 0.06723604 -0.28799862 0.0011469199 0.04639149 -0.10672845 0.019662322 0.09912022 -0.060291383 0.0140206935 -0.059155546 0.0497775 -0.4277521 -0.046864316 -0.087161325 -0.03313957 -0.023228697 0.049177743 -0.07929123 0.053522 0.10796705 -0.081735805 -0.13709842 -0.05306339 -0.01206119 0.10014572 -0.0047638044 0.106385775 -0.054909226 0.08185608 0.10770765 -0.07887587 -0.013489926 0.015237041 4.3473854e-05 0.039227795 -0.033314936 0.082077704 -0.10440678 0.03486907 0.009862128 -0.10114153 -0.007874816 0.086531036 0.08302097 -0.06466057 0.03741031 0.018220494 -0.02561747 -0.06966702 -0.24622892 -0.02779713 0.07250595 0.020368839 -0.025581602 0.094400845 0.07061988 0.028813006 0.01696286 0.042551212 -0.092290774 0.072234966 -0.12789053 -0.13628206 0.045741204 -0.027562462 0.05524045 0.0003600708 0.04433717 0.13071015 0.14343806 0.029026834 0.072668426 0.012675848 0.056104794 0.10043812 -0.03946113 0.042557184 0.04102041 -0.10544251 0.08336082 0.06055691 -0.012199547 -0.047039255 0.085364275 -0.101000115 0.026746789 -0.0754813 0.011527687 0.01172348 -0.033603977 0.059012327 -0.016642451 0.09551708 0.100440584 -0.046150193 -0.10083543 0.1859461 -0.121363506 0.04164327 0.10297241 -0.12480155 -0.037877575 -0.14614622 -0.020510867 -0.06269546 -0.09252889 -0.097339734 -0.05701171 -0.0021899168 0.06805986 0.19567151 -0.062162608 0.32918283 -0.030834716 0.027272956 -0.07114782 -0.008102991 -0.005914877 -0.002299213 -0.011010721 0.08924279 0.10458726 0.1253453 0.24676184 -0.04171821 0.06957049 -0.23197363 -0.07465778 -0.09184353 -0.09496166 -0.025019616 0.07664972 0.038027283 0.040933125 0.0188637 -0.027008004 0.09024861 -0.10062733 -0.09768968 0.07022335 0.019948043 0.067646794 0.013478186 -0.103560634 -0.009831302 -0.08386666 0.050267376 -0.104909346 0.070793696 -0.017248742 -0.098331355 0.05539278 0.06489039 0.04042896 -0.071519054 0.106527925 -0.08819129 0.09485325 0.27730379 0.08432884 0.1311909 -0.025448998 0.01322908 -0.078686826 0.08681972 0.0034270957 0.054299198 -0.030045152 -0.04327941 -0.024097012 -0.077455595 0.097546056 -0.07615299 -0.08051023 -0.09427278 0.028599896 0.015916422 -0.0011456977 0.012476012 -0.0069493055 0.16973068 0.035717554 -0.051784292 -0.03383849 -0.12635529 -0.098240554 -0.033182587 -0.06406497 0.032160185 -0.06378871 0.20748164 -0.4948861 -0.0068268627 -0.19071569 0.020188652 -0.08045286 -0.10389058 0.07900757 -0.2314569 -0.17217395 -0.010630758 -0.09665644 -0.017555304 0.04210358 -0.106367886 -0.029304363 -0.08632129 0.16970272 0.10641269 0.065571554 0.10021197 -0.06398207 0.050850764 0.034532897 -0.094103426 0.055296507 -0.07019289 0.14814669 0.07760728 -0.0972575 0.08263924 0.0703636 0.022938795 -0.06306258 0.043234207 0.014415784 0.054071005 0.04544768 -0.013185671 0.10156085 0.038725607 -0.07421624 0.11661054 -0.045942012 0.041076012 -0.08582317 0.099568 -0.093740426 0.0027525872 -0.21987829 0.10178266 -0.048020996 -0.022815272 0.04345291 -0.1737817 0.07644085 0.049802817 0.065579735 0.049818836 -0.019045753 -0.037566703 -0.03430594 -0.14737765 -0.21111077 0.08763174 -0.08748269 -0.07081422 0.057029456 -0.1347856 -0.067093 0.0042043775 -0.09686415 0.0034983084 0.08888253 -0.07859184 -0.025712283 -0.094776474 -0.17169267 -0.10386449 -0.039112493 -0.05298908 -0.01623336 -0.10121209 -0.08291343 -0.10559652 -0.1342638 0.07911753 -0.23700349 -0.063129246 -0.036140934 -0.028187789 0.013802931 0.022939034 0.047060378 -0.011393711 -0.07107022 -0.061791874 -0.05232313 -0.09333215 -0.07445431 -0.06043091 -0.10500354 -0.040843897 0.025094464 -0.044747956 -0.014157911 0.04055711 -0.0060645887 -0.02705542 -0.042313606 0.065059 -0.07097569 0.05334707 0.071875125 -0.023921259 0.11521169 -0.07681079 -0.020626819 -0.08303217 0.085739665 -0.074061126 0.06767408 -0.1171889 -0.025902538 -0.029331751 -0.047032233 0.09040887 0.178843 0.18152879 0.07990492 0.08680127 0.020130329 0.22164768 0.09646282 0.010558035 -0.39176717 -0.079289466 0.05102665 -0.076972775 0.025285326 -0.058765005 -0.17452234 0.022956945 -0.08677791 0.01902131 -0.016871717 0.0842017 -0.07851051 0.08302153 0.1332632 0.06288084 -0.038614593 -0.13112882 -0.05139418 0.18741338 0.0077070445 -0.108007 -0.035180353 -0.20454237 -0.0433425 0.10598675 0.06491556 -0.20270163 0.004019558 -0.034208752 0.03537237 -0.11379787 0.08567549 0.20438477 -0.060614597 -0.017712258 -0.0021827142 -0.045804664 0.07272308 0.21721093 0.064084575 -0.005105844 0.07813787 -0.13590503 -0.16702944 0.08144782 -0.019284032 0.10019726 0.07272674 0.0098230755 0.077413015 -0.03577712 0.11143339 0.17059073 -0.037905503 0.08712528 0.086785115 0.10811479 0.084658384 0.08455131 0.06841399 0.029088132 -0.08524833 -0.0005819417 -0.044331543 -0.021847777 -0.14391062 -0.042618085 -0.2299865 0.08963629 -0.02465423 0.05851816 0.061454467 -0.002356352 0.09594926 0.001921982 -0.0086870855 0.14203486 0.20957191 -0.2882332 -0.10078662 0.07233612 0.022473274 -0.031431764 0.0018463796 -0.03939414 0.0708337 -0.008694373 -0.016991058 0.06711654 0.012381344 0.23921761 0.10075864 -0.065518185 0.07904577 0.035695378 0.076456934 0.051867638 -0.024332562 -0.0031943878 -0.02041589 0.044384595 0.026181655 -0.023288297 0.073376276 0.08864297 0.056218583 0.09025327 0.04053866 -0.06507416 -0.004689418 -0.23377694 0.07696315 -0.03919818 -0.0677218 0.043815374 0.017293999 0.0906937 -0.032592736 -0.09430683 -0.054060563 -0.12715271 -0.03361118 -0.026510362 0.14889912 0.10309984 0.045985013 0.09586905 0.010466054 -0.11345777 -0.5302412 -0.015060414 0.0731239 -0.0073226276 0.09055587 0.06462757 0.00916245 0.020844795 -0.05752422 -0.06979362 -0.0878635 0.071768515 -0.078942664 0.11644669 -0.14414868 -0.20418608 0.1053932 -0.081462055 -0.044575926 0.010967097 0.031472716 0.032086816 0.05845803 -0.04697774 0.027993215 -0.07940881 -0.05823915 -0.07344266 -0.030222861 -0.06438885 0.07937208 0.037750814 0.029397251 0.07886424 0.07340083 -0.03578209 0.028117914 0.030816277 0.09065386 0.10175984 0.11790445 0.046196274 -0.037215635 0.06291407 0.016618317 -0.28360125 -0.08008961 -0.12813976 -0.03605936 0.09657308 0.10718178 -0.005880784 -0.0609683 -0.057103254 0.03733304 -0.07801908 0.09363023 0.008890274 -0.0018328585 0.11873153 -0.07271467 0.09587229 0.027571825 0.077211626 -0.10290001 -0.026320532 0.04127927 -0.08395854 -0.069447376 -0.10532581 -0.09298099 -0.06666749 -0.15617302 0.007499927 -0.098931834 0.030444719 0.06546754 -0.09808303 -0.08939923 0.001677421 0.07718918 0.07173454 0.03988486 0.08538608 -0.0041693104 -0.06940612 -0.048766997 -0.057824634 0.04423516 -0.033844966 -0.085712925 0.01618146 -0.056893345 0.109272435 -0.07787299 0.0011965929 -0.068563536 0.09136728 0.08886964 -0.08952186 -0.099835716 0.07302707 -0.10760521 0.019239752 0.023586191 -0.07850549 0.0019103765 -0.029560976 0.11269458 0.036066126 -0.06625357 -0.0718089 0.06807587 -0.0965671 0.042715326 -0.092848234 -0.07452853 0.053837877 0.074307404 -0.36060813 -0.10127883 -0.05438615 -0.035302114 -0.14382552 -0.07615813 0.05520673 0.013945179 -0.021234322 0.024256676 0.08332285 0.06258752 0.058575757 -0.152781 -0.012327811 0.01826014 -0.095137134 0.037026197 -0.024782501 -0.05494066 -0.070373006 -0.04870055 -0.05288167 0.08562093 -0.09765653 0.007969178 -0.3906778 -0.07596091 -0.07705885 0.070147865 0.013618467 -0.02625047 0.03428933 0.087220535 0.17769712 -0.14545856 0.021093652 0.018592237 -0.06097442 -0.14384681 0.13607197 -0.00908941 -0.005812453 0.068372816 0.06638906 -0.06259536 -0.11582548 0.036536243 -0.05694936 -0.045366023 -0.0053821863 0.017973157 -0.044396482 -0.091787845 -0.063591346 -0.07169007 -0.063007645 -0.076484635 -0.07794628 0.16264705 -0.32025996 -0.13300288 -0.09581505 0.060950622 -0.14681512 0.017900154 0.06446237 -0.03257417 0.03446284 0.07749181 0.03781796 -0.014458672 -0.08473413 0.046737928 0.101448745 -0.16693325 0.076111354 0.028211704 -0.064999215 0.004009785 0.055065867 0.029162617 0.06572571 -0.14941978 -0.23611096 0.07758064 -0.08258924 0.007830733 -0.09118754 -0.042034283 0.048243165 -0.06726223 -0.063885055 0.0914669 -0.004400657 -0.09038389 -0.11662913 -0.10599322 0.047002383 0.071400166 0.07740725 -0.036179062 -0.14453752 0.08823136 0.055705428 -0.046380807 -0.08653521 -0.09408206 0.05752352 -0.14856796 -0.07217663 0.10535393 -0.051239092 0.097036935 -0.03755799 0.07851303 -0.02432837 -0.026864484 0.029851276 -0.012846741 0.03983893 0.08058305 0.07539653 0.056676134 0.01834515 -0.03402746 0.07655804 -0.0075613135 -0.1408516 0.279287 -0.09004431 0.046583425 -0.046606332 -0.092778444 0.015574205 -0.03605985 0.092362784 -0.09797422 -0.003873399 -0.072637066 0.012990196 -0.06032776 0.2040482 0.0046410365 0.12346861 0.07802156 0.08091816 0.041901264 -0.016664056 -0.04499544 0.016900374 -0.03741936 -0.34337908 -0.020891845 -0.05582952 0.11908733 -0.0076428326 0.058033247 0.003249887 -0.09701446 -0.040671542 -0.079970054 -0.026312033 0.2362699 0.059102908 0.01233935 -0.07892381 -0.034069557 0.09450983 -0.0059609567 0.015302442 -0.026659276 0.030302616 -0.008083138 -0.057167523 -0.0038219627 0.018152302 -0.059900485 -0.08096883 0.056975648 -0.019800832 0.048754323 0.036124542 -0.040740844 -0.108158536 -0.009971187 -0.064556435 0.026550004 0.27123398 -0.021929687 0.18005165 0.09859974 0.035974294 -0.01588355 -0.01519161 -0.22511333 -0.18768679 0.014442355 0.06722544 0.20300677 -0.0012158608 -0.05971294 -0.08779724 0.11048194 0.021393009 -0.20270023 -0.070409946 0.022405721 -0.038556408 -0.15934508 -0.020475885 0.17042233 0.097249955 -0.030757047 0.022978025 0.055034675 0.057404127 0.0682372 -0.06347108 0.040699054 -0.022633357 -0.024175923 0.041700073 0.06991045 0.019492188 0.035698052 -0.03750366 -0.06205454 -0.08641058 0.11143193 -0.03997045 0.028670324 0.11669324 -0.044385493 0.10156342 0.07039198 0.037867118 -0.113075435 0.055876072 -0.05062364 -0.07748724 0.0627262 -0.06714255 0.06198673 -0.11082926 0.061681326 -0.058884375 0.010442201 0.06660367 -0.031703133 0.10688488 0.07858245 -0.011156685 -0.09004959 0.043628685 0.075290605 -0.0803187 0.014253922 0.10202604 -0.03823982 -0.19994563 -0.017062824 0.049692914 -0.09740643 0.025757158 -0.07325824 0.0265055 0.0670079 -0.09350007 -0.0863008 -0.0028825738 0.0912129 0.07176427 -0.008783551 -0.036302038 0.05544635 0.053931005 0.07605699 0.093166046 -0.060054947 -0.12984452 -0.03556111 -0.22443219 -0.039997116 -0.054721225 -0.0486322 -0.13773343 0.07398547 -0.10858731 -0.0006099652 -0.24195445 -0.042850457 -0.045390062 -0.048974518 0.011993808 -0.028007414 0.12814988 0.0013115429 0.09939515 -0.01180491 0.03851584 0.09394422 -0.04006085 0.060093194 0.087040454 0.06200254 0.13836314 0.11736413 -0.0036739928 -0.059778266 -0.10921547 -0.053978432 0.08452681 -0.06677189 0.0515386 0.0813296 0.22364362 0.24839576 0.026660968 0.06816066 0.027732937 -0.065269835 0.020956088 -0.10167948 0.046025414 0.09248063 0.0008761138 0.043092262 0.0066333134 0.08129609 -0.14729694 -0.1111343 0.082347184 0.12982789 -0.0883785 -0.07249762 0.09193196 0.0035330586 0.06069848 -0.30760384 0.17647456 0.116746895 0.049587194 -0.10381284 -0.020632192 -0.041448362 -0.07019913 0.098614894 -0.0920689 0.07183854 0.0073700086 0.0656114 -0.0015046172 0.07014709 0.056472994 -0.09167806 -0.05853335 0.084299766 0.1278832 0.08329588 0.09061511 -0.055151172 -0.047888692 -0.14483236 -0.010059454 0.119511195 -0.09665391 0.12854987 -0.095031254 -0.08713986 -0.05509125 -0.027541373 -0.001068389 -0.04924814 -0.07786981 -0.038961925 0.01446285 -0.004461504 0.020609682 -0.008105548 -0.019311432 0.09764651 0.06504995 0.056004923 0.093595624 0.14901057 -0.0393444 0.008729845 0.09242717 0.04520734 -0.053762425 -0.06640158 -0.25216794 -0.4739189 -0.0005681248 0.09383544 0.08233921 0.02190893 0.13872033 0.09422068 0.099788554 0.1382101 -0.08067596 -0.1023236 0.08113215 0.092242174 0.07884029 -0.16136402 -0.41092455 -0.065979116 0.10331097 -0.006987099 0.015613058 -0.12141048 0.0139718205 0.09733267 -0.04060612 0.002906293 0.06880956 -0.043379325 0.033879314 0.0062443465 -0.02639599 -0.053436253 -0.004069887 0.017164655 -0.060468204 -0.10584173 -0.019947268 0.07337047 0.00839303 -0.037736747 -0.044196002 0.020641413 -0.09875219 0.05861054 0.051411126 -0.021557178 -0.12902692 -0.0926243 -0.09490305 -0.085525475 -0.10655093 0.062178355 -0.1400143 0.09860547 0.0061709895 -0.24774523 -0.10530486 0.08565005 -0.09177852 -0.11174364 -0.120488726 0.05167424 -0.0066296724 -0.04907742 0.0098941885 -0.007926522 -0.02201099 0.004789762 -0.044804502 -0.048109334 -0.035957776 -0.08844096 0.08775733 0.15237921 0.08267424 -0.029510777 0.105174124 -0.21261556 -0.10923645 0.060214803 -0.07753909 0.03492481 0.01655668 0.08002742 0.015470487 0.053899907 -0.05193402 -0.0718139 0.044637293 -0.03899968 -0.083293706 -0.03225589 -0.06877443 -0.09369081 0.08863209 0.048588756 0.030948156 -0.092782706 0.083019644 -0.087488145 0.03912867 0.0971524 0.06248168 0.032764994 -0.061461926 -0.05853482 0.058841318 -0.20372005 -0.07857048 0.037177857 0.019330384 -0.102086 -0.06401401 -0.06347493 0.010808029 -0.070352644 0.09683383 -0.079150915 -0.07487331 -0.11796701 -0.1825044 0.10434969 0.106465735 -0.05651434 -0.20588946 0.088127635 0.094515756 -0.19134611 -0.008594118 -0.04331263 -0.06997677 -0.074418664 0.0034764677 0.05212562 0.017612172 -0.04603794 -0.06099562 0.04158572 -0.090589054 0.081317656 -0.079418644 -0.09335901 0.05863664 -0.024523707 -0.51099664 -0.088644445 0.17031075 -0.039298963 0.025365219 -0.057932187 0.022228843 -0.006907222 0.09752741 0.0727971 -0.0023011356 0.0064064544 0.0120274965 0.0014680052 -0.24552263 0.081933424 -0.087611735 -0.04039601 0.10711484 0.12270398 0.0018052618 0.09661183 -0.0030046918 0.087007664 0.17515135 0.10133759 -0.19029537 0.14932008 0.10318487 -0.10485081 0.073553964 0.049697608 -0.019575713 -0.06285164 0.09859078 -0.13121514 -0.44588903 -0.06835997 0.10162014 -0.041507777 -0.27098143 -0.059686065 0.03192699 -0.07564253 -0.032680884 -0.00742454 0.06256523 -0.03837785 -0.019805215 -0.020389399 0.14715692 -0.022925278 -0.0027461518 0.06468783 -0.088034056 -0.0069822716 -0.025341596 -0.11114955 -0.1128241 -0.011756025 0.14595018 -0.20986542 0.030142052 0.07071494 0.053436596 0.095453374 -0.014863422 0.057035822 -0.07348272 -0.097470395 0.08241816 -0.05670576 -0.29956207 -0.032530036 -0.21322857 0.043974917 0.026134942 -0.37132648 -0.13594973 0.0068228315 -0.098533705 -0.02531512 -0.11433587 0.076973915 0.040925443 0.018231208 0.0605138 0.042519957 -0.051323663 -0.06896649 0.09906831 0.041407533 -0.03264334 0.04577314 0.06895065 -0.06190079 -0.07212599 0.0144145405 -0.11442714 -0.00034942446 0.030339116 0.044242803 0.11031282 0.075832985 -0.25322467 -0.024291826 0.1072186 -0.07197649 0.06983747 -0.11358309 -0.013901738 -0.043479092 0.25162983 -0.057495605 0.0838515 0.015203439 0.004886996 -0.07749233 -0.16713877 0.10573489 0.087991476 -0.032575577 0.021078344 0.009760906 -0.069243975 0.0891205 -0.012717033 0.1205641 -0.45901728 -0.04359046 -0.07189927 -0.03942421 0.06621791 -0.15089306 -0.096328124 -0.018827217 -0.087966 0.075438134 0.013217772 0.054653723 0.054133818 0.012062033 1.8503226e-05 0.047403123 -0.089242384 -0.10388198 -0.10362756 0.040111862 -0.008756413 -0.09631886 0.022278918 -0.008403628 0.086156815 -0.5443603 0.013124876 -0.02359148 -0.032146122 -0.08571952 -0.3192827 0.007579706 0.053367775 0.047300167 -0.07130538 -0.042450216 -0.15138811 0.045321576 0.09587534 -0.040343583 0.07134279 -0.022899574 0.0005371424 -0.051139317 0.14603898 0.049321134 0.004471118 0.15431552 -0.09966396 -0.06313154 -0.09406439 0.07836726 0.06441132 -0.4230548 -0.0811651 -0.051532388 -0.038049057 0.030904697 0.05139994 -0.096636556 0.036766976 0.23622736 -0.09127246 -0.07201815 -0.08728032 0.110905826 -0.08537095 0.08193943 -0.015443792 -0.04711791 0.04577312 0.07174859 0.08950924 -0.0489812 -0.04707684 0.0444763 0.0007471437 0.010891039 -0.028074957 0.1144357 -0.052302342 0.01678417 0.07527741 -0.10922506 -0.022866871 -0.008981716 0.09777526 0.06917098 0.076402046 0.08354996 -0.010587069 -0.123297125 0.085331954 -0.112953894 -0.074659795 0.10287386 -0.11391628 -0.10119659 0.1409289 -0.13422677 -0.017028784 -0.021461971 -0.0070214514 0.0014163388 -0.054585453 -0.030734027 0.10664407 0.01134785 -0.39512363 -0.07743812 -0.07721956 0.034725353 -0.017617717 -0.015024546 -0.104361884 -0.05782089 -0.069072366 0.26057777 -0.019026188 -0.025711315 -0.06272301 0.076494545 0.070270054 0.057218216 0.032539003 0.06358302 -0.09289268 -0.055055924 -0.4025952 -0.044496287 0.048543278 -0.03305847 -4.1145995e-05 0.067428194 0.28899053 0.036844444 -0.113946654 -0.028965814 -0.3612411 -0.06442997 0.061351404 -0.07175443 -0.26042783 -0.051047303 -0.2451975 0.045922108 0.07740708 -0.39393756 -0.2744133 0.07944037 0.06264479 -0.030384665 -0.15043066 -0.038449496 -0.11192014 0.054063037 0.093368754 -0.020717042 0.030050652 -0.08546527 -0.07025297 0.07432995 0.05627609 0.022587273 -0.122960545 -0.25085318 -0.07434906 -0.028764514 0.089826256 0.011472196 0.01864289 0.046220098 0.024685854 0.08581466 -0.065643355 0.036082234 -0.006368334 0.006638306 -0.096214466 0.03747919 -0.072220236 0.024438381 -0.06973437 -0.076971166 0.07435407 -0.019115256 0.08643896 -0.12847055 -0.059393387 -0.005500283 -0.03621624 0.031253673 -0.0052232547 -0.0799578 -0.045349866 0.0539498 -0.08454231 0.063736044 0.10926087 -0.06598934 -0.0405999 -0.034418326 -0.113925375 -0.064298615 0.097011454 -0.05147406 0.009120879 -0.09727349 -0.00030752158 0.08443035 -0.088865116 -0.061628222 0.06842487 0.04078005 -0.06955922 -0.07007495 0.068573974 0.10590074 -0.030039039 -0.05610923 0.07896997 -0.02482602 -0.10115667 -0.044724517 0.052137807 -0.09571717 -0.028179886 0.08171155 0.0635315 -0.07650155 -0.061124697 0.03337512 -0.16888125 -0.09738435 0.06572832 -0.106891744 -0.10737726 -0.04506412 0.005810245 -0.08922954 -0.101024106 0.011166492 0.08781106 -0.10461203 0.008085409 -0.08057137 -0.014101099 0.028864935 0.08580104 -0.14083369 0.029605338 -0.03149029 0.09878154 0.03554582 -0.05879863 0.059789438 -0.029072016 0.022374783 0.008597329 0.011743968 -0.011038367 -0.10417574 -0.09538654 0.06424644 0.056149375 -0.051153224 -0.07208607 -0.01618074 -0.073029354 0.04012685 -0.12845491 -0.016301958 -0.028163688 -0.07804528 -0.028637707 -0.019074459 -0.033009652 -0.059207283 0.031454958 0.062488712 0.053540584 -0.040951442 0.058987826 -0.10595741 0.08578171 -0.05452099 0.026747717 0.007394747 -0.101456456 0.045490883 -0.048585046 -0.10837929 0.06988501 -0.036048498 0.02274852 -0.026464693 -0.074681446 0.0040121293 0.045664895 -0.03341577 -0.00058604724 -0.103791356 -0.10160871 -0.08720596 0.034665756 -0.085665725 -0.09424565 0.081107266 -0.023067301 -0.04051822 -0.10637682 0.091935165 0.07113109 -0.059457324 -0.063370004 -0.0060622627 -0.09024946 -0.092268094 -0.07750186 0.02363616 -0.097344935 0.022186605 -0.009564459 -0.11082903 0.10214335 -0.059562556 0.046707205 0.03244697 0.10119534 0.09407494 -0.045727875 0.07120468 -0.054186255 0.0051144497 -0.03907487 0.057186417 -0.04722831 -0.0057237493 -0.06960781 -0.10870221 -0.04290207 0.06880874 0.07789477 -0.05277201 0.049200203 -0.072889686 -0.07186802 -0.036043346 0.02861087 -0.05038842 -0.011130516 -0.067167416 -0.00097421656 -0.040069297 -0.097329415 -0.066877864 -0.09308897 0.10662101 -0.015406217 -0.11831669 0.005084675 0.004285574 -0.008575326 -0.055456333 0.026633045 -0.10396664 0.10057811 -0.06173359 -0.002647519 -0.0961886 0.033551436 -0.0119727785 -0.07907924 -0.0009383877 0.05798329 0.0033868328 -0.09948069 0.06357074 0.05793365 -0.025551036 0.05368661 0.09248129 -0.037729487 0.0309831 -0.1140454 0.048307486 -0.12185792 0.08820972 0.052574895 -0.070838846 -0.054513566 0.07474094 0.01609591 -0.03191687 -0.07161108 -0.0065555624 -0.05997918 -0.050281074 0.022620771 -0.047284883 -0.0036879398 0.05047711 -0.049587946 -0.09127163 -0.007796005 0.027391598 -0.0029718725 0.014688206 -0.048919957 0.0086997105 -0.021820948 -0.09679543 0.10808784 -0.021548372 -0.09811719 -0.050883953 0.054840844 -0.039392397 -0.0470281 -0.074375376 -0.07126549 -0.102912806 -0.081293 -0.0124342125 -0.010158545 -0.055103444 -0.06847921 0.005361285 -0.095100775 -0.031826675 -0.042786654 0.036886837 3.58021e-05 -0.015018829 -0.006434936 0.024385652 0.08806975 -0.00014976143 0.07661501 -0.11277085 0.059864026 -0.114709675 0.045280606 0.019449977 -0.16753621 -0.0774122 -0.16896193 -0.057228096 0.037570678 -0.045823544 0.086867265 -0.031971604 0.0069261263 -0.074477345 0.060810633 0.048006512 0.2756424 0.009121319 0.18243909 0.084313214 -0.058352217 0.16264166 -0.42476007 -0.046424758 0.01824316 -0.07255507 -0.09873101 -0.29238936 -0.041870676 0.05065849 -0.0636117 -0.114284374 0.069373064 0.077586405 0.0817079 -0.09361511 -0.08908241 0.042633437 -0.23471951 -0.04491555 0.07517289 0.082656085 -0.08070739 -0.044716474 0.018025415 0.060847662 -0.025310524 2.6772861e-05 0.13336281 -0.24572992 -0.087149866 0.08109273 0.03529602 0.010483579 -0.02079535 -0.05664715 -0.14785957 -0.19287764 -0.050507132 0.0787643 0.091545545 0.1037612 0.09657478 0.03891727 0.004922267 -0.33082128 -0.00013150056 0.065923944 0.054976836 0.012521758 -0.045821216 -0.05920761 0.11594312 0.035251062 0.010186078 -0.18166415 -0.024930334 0.05828042 0.022476574 0.110406734 0.08471273 0.037299987 0.08887904 -0.06796143 -0.028056704 -0.043013405 -0.27956402 0.029630668 -0.075562984 0.030089179 -0.0059045213 -0.056378823 0.028557388 0.048218377 -0.007374066 0.006638826 -0.045083877 0.0468083 0.07282628 -0.029097058 -0.106753446 -0.06372446 -0.18978523 0.07963565 0.022895377 -0.070752 -0.019269181 0.01567839 -0.00545814 -0.019199353 0.027001724 -0.060430635 0.060590427 0.07343024 -0.0024043603 0.1013141 -0.16182831 0.09005725 0.09729464 -0.015500032 0.09516647 -0.034827985 0.028576814 -0.07834392 -0.0730074 0.14548528 -0.020059777 0.012929025 -0.035290044 -0.18071163 0.028627358 0.031191096 -0.08261837 -0.26047146 -0.07946894 -0.05579847 -0.043888465 -0.059582703 0.07788683 0.013019682 -0.046454843 -0.08464704 -0.049476076 -0.020752175 -0.11306158 0.054222323 -0.09797785 -0.09921646 -0.0048934994 -0.014379888 -0.08259731 -0.0005920604 -0.047430784 0.09702732 0.08011286 0.0062869457 0.023530222 0.07709078 -0.072738074 0.0889234 -0.026079673 0.12911111 0.044588793 -0.16606602 0.08089718 -0.03450911 0.05763348 -0.016774364 -0.03094536 0.07863544 0.008163609 -0.028553111 -0.028373722 0.005160831 0.08500639 -0.08898749 0.1990956 -0.058048308 0.018189225 0.10846849 -0.0525702 0.10887174 -0.0724477 -0.09528265 0.06896267 0.07811775 0.09636032 0.06835047 0.023180926 0.038261108 -0.02332078 -0.09004842 -0.0009275215 0.06089562 0.07148861 0.10020993 -0.034595788 -0.03446634 -0.025516964 0.039262734 0.0656492 -0.02645092 0.15832365 0.014794891 0.07870677 -0.08419277 -0.30702594 -0.086013444 -0.036126573 0.012821211 -0.2515174 0.038184933 -0.06106076 0.091844074 0.13325605 0.020372406 -0.0015912699 -0.077181965 0.105975784 -0.06407846 -0.09905184 -0.01898607 0.19454926 -0.06164392 -0.048056584 -0.02472485 0.12227711 0.27663648 0.02123227 -0.0032586535 -0.110377744 -0.12517586 -0.067612916 0.010118872 -0.09020399 0.16281253 -0.15925509 -0.01066601 -0.012355297 -0.044957988 -0.13868535 0.10763734 0.012012744 -0.10364665 0.009990871 0.036635485 0.082558855 0.05101036 -0.09446436 -0.15705091 -0.050030462 0.11072374 -0.025537698 -0.008267543 0.034132574 -0.043223847 -0.011631274 -0.008786968 0.025726276 0.06977582 -0.070606194 -0.10846714 -0.040893037 0.089283966 0.09757327 0.019396432 -0.07559782 0.05432204 -0.05713077 0.0017808567 0.051667254 -0.061422333 -0.08939209 -0.11285828 -0.108100794 -0.06833437 -0.028021876 -0.023346838 -0.06520639 0.04051038 0.05425944 0.09315298 0.050863963 -0.1288459 0.0525751 -0.07136611 0.045616187 -0.049629312 -0.10335593 -0.07863587 0.0894404 -0.041956373 -0.05938038 -0.047761146 -0.024200955 0.05744528 0.07715187 -0.09939671 -0.10364358 -0.0063968464 0.06715371 -0.049513128 -0.025124528 0.026676066 -0.018181395 -0.09265476 0.07279802 -0.17951901 -0.056576457 0.09104354 -0.059919897 -0.09381003 -0.09870361 0.086401395 0.036022104 0.09533646 -0.07119622 0.04863391 -0.11928477 -0.0048206276 0.070421405 0.043584287 0.038672656 0.0864112 -0.08117035 0.10118865 -0.002030342 -0.11286061 -0.05450121 -0.10275103 -0.09975584 0.0050734836 -0.09010708 -0.11741689 0.049947344 -0.065998286 -0.034279175 -0.024995584 -0.07144426 -0.10710193 -0.10787912 0.01934995 0.031168507 0.056750547 0.10779872 -0.09291663 -0.12068865 -0.080105916 0.008846225 -0.06966155 -0.015105212 0.095210634 0.026519096 -0.03797525 0.08720331 -0.047363654 0.02263915 0.05711069 -0.014286232 0.094240576 0.008687669 -0.1046189 -0.101262964 0.06954721 -0.12121431 -0.09070874 -0.052985594 -0.055942085 0.04039041 -0.096909426 -0.0384337 -0.019974563 -0.06466102 0.045124307 0.042392235 -0.026702596 -0.094530895 0.05166758 0.045878492 -0.055207305 -0.024948508 0.05098381 0.009528438 -0.025150891 0.10746851 -0.120281376 0.044653825 -0.11727337 -0.0062055434 0.044742126 -0.023294453 -0.11731368 -0.045824982 -0.11423733 -0.01253403 -0.039990194 0.030495813 -0.008929559 0.003662697 0.027210891 0.024550738 0.0037419633 -0.0350752 -0.09434398 -0.015803603 -0.0062270686 0.04164154 -0.102701224 0.0632569 0.0044630268 0.016274147 0.09028994 0.020842083 -0.107746534 -0.030078366 -0.1002981 -0.015187371 -0.082431525 -0.006132408 -0.07271019 -0.007388271 -0.036273837 -0.0065257074 -0.08912526 0.040425524 -0.10174249 -0.024712289 -0.031168817 0.032174256 0.04516334 -0.0007144883 -0.12271475 0.0032960807 -0.09946615 -0.10493291 0.008927343 -0.037169468 -0.10064735 0.06375927 -0.14581947 0.10740451 0.025971297 -0.013962561 0.023802929 -0.053650077 0.0101329805 0.09757027 0.029317789 0.02004493 0.0057811136 -0.037967943 -0.07832923 -0.04422748 0.04727269 -0.04299017 0.09915244 -0.049382832 -0.013307515 -0.16666898 0.02456966 -0.011285803 0.09299713 -0.050975565 -0.075473994 0.014813034 0.07264401 -0.05045717 -0.052417263 0.049259715 0.06653406 0.077647336 -0.043807656 0.0072069867 0.08618369 -0.093677394 -0.022297688 0.04890994 -0.07944468 0.027148277 0.06616355 0.0037964005 -0.019303948 -0.009296803 0.03870139 -0.023894988 -0.09071483 -0.056708988 0.083818346 0.06878114 0.054810904 -0.12019138 -0.10121824 -0.075018235 -0.16874878 0.080120206 0.033316456 -0.109951295 -0.05032891 0.0046318853 -0.04386514 0.07238931 -0.038239367 0.008174773 -0.023208402 -0.10488527 0.057472415 0.08150115 -0.20190221 -0.064932354 0.060897116 -0.048145857 -0.014868349 -0.06218184 -0.038237363 0.0061582625 0.035521578 0.029790543 -0.09543304 -0.061419833 0.04455539 -0.05412718 -0.03383722 0.040153436 -0.03945733 -0.024071991 -0.032941498 0.051614903 -0.023703814 -0.025004972 0.095097385 -0.043056767 0.0069081048 0.061916657 -0.060987063 -0.10922911 0.019485198 0.021161681 0.08866487 -0.112781055 -0.11031329 0.067894585 -0.10079354 -0.07986446 -0.12252344 -0.08500469 0.007300906 0.029871814 0.0010687847 -0.081561565 -0.049790837 0.004523386 -0.0035430565 -0.014223523 0.059949838 0.020913593 -0.03485363 -0.013886191 -0.038034633 0.0959081 0.0067950636 -0.1298676 -0.12567852 -0.097898245 -0.15126462 -0.09719452 0.043658413 0.1000383 0.058488943 0.01112137 -0.14822914 0.10325744 0.016744137 0.025871284 -0.058267526 -0.038221747 0.061565317 -0.05210167 -0.11588045 -0.04448142 -0.06465462 -0.010363467 -0.09857882 0.079867534 0.06289688 -0.08401741 -0.09153882 -0.022631273 -0.09159255 0.10210987 -0.040583942 -0.05077622 0.032152254 -0.06574133 -0.1060175 -0.08937399 -0.07011308 0.05224768 -0.097771674 -0.061510324 -0.08605047 0.054264016 0.10005701 0.018932533 0.08967341 -0.023570843 -0.0011892376 0.05785989 0.05505625 -0.007143855 -0.09572909 0.002273485 -0.10332819 -0.041937165 0.056041606 -0.07905153 0.06361424 -0.097099915 -0.09301144 0.013654761 -0.039499328 -0.12131057 0.070827655 -0.08551159 -0.07391654 0.011931595 -0.018403076 0.09368151 -0.07536792 0.023614837 0.027169399 -0.07182183 -0.043144543 0.035636194 -0.077401705 0.07378138 -0.07859534 0.07338362 -0.059396144 -0.03156998 0.06803363 0.020738818 -0.021948257 0.057790287 -0.016119292 -0.10649877 -0.018075066 -0.044440463 -0.037704837 -0.002261974 -0.074180596 -0.061464816 -0.06320748 -0.09037721 0.00073384494 -0.022694454 0.08072858 0.066341095 -0.09317417 0.10756811 -0.02475752 0.101846315 -0.07204841 -0.06177698 -0.056157105 -0.06546858 0.07866011 0.033466436 -0.053368032 -0.006977126 -0.0058696815 -0.09654562 0.058019705 0.007567829 -0.09797183 -0.02451571 0.08008433 0.039087556 0.0026994937 0.041079145 -0.01437252 -0.044225983 -0.11765089 -0.045575265 -0.021505857 0.06216035 0.0072957724 -0.040278383 -0.0798254 -0.071166806 -0.04277569 -0.07104853 -0.074565366 0.03609543 0.020085134 0.05793429 0.041007597 -0.054015167 -0.060192533 -0.014683343 0.03493426 0.075962104 0.013311027 0.038290195 -0.057057187 0.08103525 0.0479758 0.09094817 0.011513725 0.08353356 -0.068003535 0.007626079 0.04166857 -0.09321983 -0.046723913 -0.1146003 -0.097804114 0.04000885 0.018598758 0.034129895 0.058118887 -0.04368037 0.1080044 -0.06741492 0.06252221 0.10326535 -0.08440825 0.009315833 -0.08756325 -0.12203597 0.056715436 -0.089715965 -0.08182051 -0.04665265 -0.094213955 0.04250364 0.020639919 0.034820292 -0.061692145 0.022984847 -0.07998622 -0.00026018918 0.048279397 -0.070881724 -0.052704 -0.1031623 0.054465137 0.087728806 0.04026208 -0.06684177 0.041560266 0.027946852 0.030724563 -0.119687214 0.0769114 0.087146394 0.0002083161 0.033791326 0.0391398 -0.08398152 -0.07295108 -0.036012553 -0.03996382 -0.12140049 0.028149256 0.057981748 -0.039087288 0.0024126023 0.10068346 0.01906725 0.025419923 -0.011719416 -0.051611252 0.047104035 -0.05358432 -0.02670623 -0.09787228 -0.008384138 -0.064606234 0.030778147 0.04646785 0.020690985 -0.060824793 -0.04932005 0.06261313 0.0036138783 -0.04477134 0.028135827 0.07294758 0.04057394 0.0011325513 -0.07775914 -0.05035826 -0.04104702 -0.0114210015 -0.037251886 -0.010664922 0.0033221974 -0.08954227 -0.014316 -0.07987707 0.08205752 0.08525016 -0.06626101 0.024950681 0.04176521 -0.057989452 -0.096957706 -0.09073568 -0.03127166 0.06256875 -0.009554323 0.008260734 -0.025988718 -0.042219676 -0.038654193 -0.06701907 -0.10437884 0.03177158 -0.03253405 -0.091531016 0.03679476 0.07934188 -0.10271223 0.08409597 -0.034559544 -0.15069972 0.08103905 0.06521965 -0.036142573 0.083431944 -0.11520087 0.058623523 -0.10062974 -0.097504534 0.06324617 0.03507812 -0.05577307 0.038099952 0.05019947 -0.0073296614 0.004947986 0.092188485 0.068813115 -0.12696576 0.07555928 -0.05751434 0.04499238 -0.052240476 0.039161514 0.07090641 0.05316993 -0.051610425 -0.05826061 0.055947497 -0.05605859 0.08903523 -0.062113564 -0.018722123 -0.14310805 -0.072401576 0.06731578 -0.07305657 0.01670658 -0.062695846 0.02645475 -0.15196896 -0.05467622 0.024631701 0.014168235 -0.023867426 -0.11843913 -0.019425428 -0.10977482 -0.053941146 -0.018903054 0.09585015 -0.088342264 0.07250263 -0.12467102 0.005916198 -0.023292674 -0.050797623 -0.092166856 0.0034741191 -0.08063056 0.022279287 0.029045435 -0.08592575 -0.096586384 0.06247983 0.07408152 -0.05081512 -0.07123579 -0.08573527 0.023428315 -0.022432443 -0.0037800148 -0.13627386 0.050073378 -0.068614446 0.03347854 -0.13160712 0.09159892 0.019796552 0.044469174 0.040281903 0.103826724 -0.04578215 -0.02367289 -0.07859289 0.09189033 -0.04280437 -0.024227161 -0.072747424 -0.0046474217 -7.234514e-05 0.08949098 0.07372435 -0.078162804 0.08064658 0.06021633 0.042351633 0.10723925 0.08127385 0.053146265 -0.027193993 -0.051121812 0.0067593977 0.040288392 -0.095907286 0.0145589765 0.005033539 0.003358104 -0.026284652 -0.07940033 0.106748186 -0.0037007916 -0.085855156 -0.05691064 0.037946094 0.04650901 -0.021866255 0.060593996 -0.015993126 -0.03829058 -0.0029064298 0.095083974 -0.021607783 -0.040723518 0.038436998 -0.05747195 -0.061814304 -0.106137276 0.079176575 -0.020346027 0.058483236 0.06942069 -0.04003421 0.08915365 -0.039631963 0.010115338 0.028527794 0.012864754 0.03541047 -0.07310129 0.061730318 0.0401353 0.07171664 0.00260394 0.07895635 -0.10306485 0.00264262 -0.03519417 0.076538645 -0.010382848 0.10130134 -0.01908006 -0.0004955348 -0.045520905 0.011713003 0.0010893872 -0.038973197 -0.14307542 -0.108273804 0.013649428 0.10540512 0.09717923 0.026374266 -0.014909615 -0.11039385 0.016641317 -0.03306246 0.026251111 0.07762817 -0.046559036 -0.043905843 -0.10123016 0.07774778 -0.080597356 -0.021150708 -0.070784695 0.06383877 -0.10321843 0.008097602 -0.003299265 -0.09995379 0.07489948 0.021398846 0.0270274 0.048829585 -0.0078271665 0.092351414 -0.09025417 0.07091532 -0.02865433 -0.049263883 0.06264172 0.026188122 -0.12417585 -0.10542366 0.06525179 0.01510272 0.07360762 -0.07881858 0.011140076 0.078345284 0.08724578 0.11421562 -0.45984483 0.17347991 0.086235695 0.022983711 0.042484287 0.015937462 -0.013652483 0.08673058 -0.04922831 -0.035432626 -0.02766753 0.10259735 -0.04202135 -0.0781392 -0.031782385 0.014540439 -0.049591474 0.15820353 -0.11761698 0.092598334 0.084720194 0.067881964 0.07186725 -0.27720895 -0.012858593 0.08264885 0.01290995 -0.021536656 0.10228072 -0.052121416 -0.05930834 0.004426656 0.006656485 -0.0324139 -0.3043658 -0.09489548 0.02054826 0.056420095 0.014066137 -0.05940233 0.043644685 -0.068431124 -0.07689591 -0.0068215164 0.16009447 -0.1447062 0.060461547 -0.14173172 0.04326298 0.07476012 0.057435982 -0.021329278 0.13759935 -0.19771343 -0.06330537 -0.07266309 -0.04914256 0.030257849 0.06120567 -0.017051714 -0.056906987 -0.15659025 -0.02505485 -0.019841673 0.066168696 -0.04493754 0.11297954 -0.07830107 0.14711368 0.12891652 0.068661116 -0.034219988 0.10506799 0.015849708 0.036634 0.074038014 -0.075654805 -0.0499561 -0.009446994 -0.07762781 -0.026391983 -0.0034070637 0.092491575 -0.0899655 0.024756536 -0.04975829 -0.042272788 0.057628963 0.06415873 0.078937314 -0.009049239 -0.058911424 -0.02544299 -0.031683166 0.09902888 0.047255993 -0.048299186 0.046289653 0.11092128 -0.011769369 0.04568586 0.001954984 0.04509311 -0.08816669 0.056193974 0.09388703 -0.050861556 -0.18198374 -0.087871104 0.03182644 0.09606042 -0.16502012 0.048334315 -0.020762667 -0.05889058 -0.10559802 -0.015991641 0.071246825 -0.0933459 0.014405099 0.09438022 -0.37904626 -0.07689629 -0.03804699 -0.014093039 0.15485388 0.032060873 -0.13847098 0.08154318 -0.06199082 -0.06887604 -0.24267681 0.023484848 -0.01963129 0.025280451 0.07042133 -0.015736429 0.084956005 0.01684931 0.05582947 0.020826465 0.09106563 0.026432058 0.06431548 -0.09796778 -0.047803473 -0.011888502 0.030503845 0.0728354 -0.049473237 -0.024548225 0.103754684 -0.063846394 0.075877026 0.044806477 0.05348032 0.033696212 -0.071637996 0.079881564 -0.25188905 -0.05741508 -0.071372576 -0.08350809 -0.05564824 -0.08038952 0.09846528 0.07053172 -0.01275446 0.092922956 0.027083732 0.06112487 0.0020909503 0.29396668 0.10869603 0.0038978704 -0.07577969 -0.01904966 -0.094944656 -0.06408627 0.057332035 -0.08639374 0.08393092 -0.12654093 -0.015031159 -0.08589869 -0.11720511 -0.020898798 0.018777486 0.07818374 0.097862944 -0.09689165 0.033142537 -0.080241494 0.044061646 0.021895446 -0.07083006 -0.012806339 0.088116124 0.31420788 0.013391956 0.1053727 0.031274773 0.045470003 0.059250828 0.09721588 -0.051643364 -0.0017062839 -0.031253587 0.020534651 0.017939752 -0.37954283 0.09422417 -0.048867133 0.061124537 0.07407384 -0.11233665 0.06317894 -0.0067075086 0.11288499 0.00968881 0.24447031 0.05972767 0.094345115 -0.093401134 -0.05603118 0.042693485 -0.05508768 0.004276373 0.1091336 0.10483145 -0.086464025 0.12324802 0.01773663 0.14119883 -0.05859218 -0.008516024 -0.2584679 0.09760226 0.007575266 0.040316503 -0.012151763 -0.06464957 0.056595594 -0.0068644118 0.04899673 0.08707489 0.062088855 0.017401446 -0.018452799 0.0090584345 -0.056757186 0.02630313 -0.058971155 0.0072189253 -0.03018512 -0.069407195 0.038146432 -0.040495563 -0.1380161 -0.0025608242 0.054021798 0.017624043 -0.052202277 -0.06653738 -0.0146185905 -0.09121678 -0.041890103 -0.019976452 -0.108439356 -0.034730308 -0.120575026 -0.06036952 0.06793201 -0.17542493 0.014068386 -0.0977516 -0.010525872 -0.07199524 0.09103554 0.038688928 0.082064085 -0.012122543 -0.044293605 0.068487056 -0.00012570672 0.074706055 -0.0054879584 0.07964057 -0.01613389 -0.08265457 0.019176638 0.015122946 0.099750146 -0.07404482 -0.023237867 0.080331095 -0.01856771 0.05415619 0.10154345 -0.110589884 -0.10249401 -0.025038796 0.02135194 0.06323886 0.0983707 0.05493017 -0.09441166 0.028818423 -0.0271444 0.021070268 0.03135802 0.107238166 0.041946553 -0.0674756 0.04309856 -0.081833035 -0.03072451 -0.08215367 0.050606158 0.050267123 -0.002753582 -0.07950426 -0.102442436 -0.14072789 -0.04157145 -0.117839985 -0.01574177 -0.054067858 -0.025830235 -0.12638399 0.071771346 -0.027654927 0.08590561 0.08072815 0.012978773 0.07337796 0.09206056 -0.08321751 -0.15979272 0.047671262 -0.084127754 -0.064922825 0.03385869 0.081206046 -0.087694936 -0.019151002 -0.01571179 0.03338117 0.06451888 -0.075581506 -0.08890242 0.0017041042 0.03795538 -0.021181451 0.017294345 0.08284441 0.023987014 0.010727569 0.03177339 0.036462635 0.013665759 -0.06156494 0.03512356 -0.0027657724 -0.08041734 -0.09524504 -0.08377078 -0.13216488 -0.08734003 0.012858158 0.014504172 -0.16913466 -0.06308981 0.10772107 0.08150605 -0.09457121 -0.08676134 -0.034790363 -0.084132746 0.022498734 0.06970086 -0.044970654 0.05781152 -0.045265332 0.081871964 -0.09720439 -0.002037087 0.053190075 -0.07568654 -0.07686486 0.076738976 -0.012476064 -0.10963677 -0.032218926 0.09050356 -0.019221872 -0.054914963 -0.043122564 0.054692853 -0.08053347 0.068404615 0.005482717 0.035891064 0.03154487 0.06586597 -0.1040869 0.0019725915 0.027554287 0.075024076 0.012183508 0.08675706 -0.078961015 0.006595639 -0.13769566 0.008338492 -0.015131914 0.041214403 0.07444747 -0.07029303 0.01340203 -0.09960294 0.07836298 0.05501539 -0.04043921 0.09675785 0.049186684 0.034446433 -0.14189716 -0.027866976 -0.064293146 -0.046934776 -0.038461313 -0.054576747 0.0968155 -0.031338528 -0.01753245 -0.013492547 -0.042520273 0.059590798 -0.046282027 -0.030942112 -0.10464639 -0.026130019 -0.04500076 -0.09819929 0.030969044 -0.027949698 -0.070659034 0.08053357 -0.08392108 -0.09860272 0.004210843 -0.014163486 0.068072185 -0.09471243 -0.020190718 -0.05589728 -0.050731648 -0.065609105 -0.09079547 0.046117675 -0.10403753 -0.011808272 -0.14450243 0.019922227 -0.052099116 -0.12939624 -0.013595994 -0.13693696 0.07572556 0.035440736 -0.14283714 -0.0987253 0.038417302 -0.099232234 -0.0011984775 -0.04711714 0.10301339 -0.004050845 0.035567604 -0.03629125 0.09084222 0.07867495 0.0043994994 0.03845616 -0.0946027 -0.030031642 -0.05694793 -0.15151621 -0.21994437 -0.07042373 0.0065168366 -0.07693425 0.08087537 0.068594195 -0.10979805 0.04135183 0.023209905 -0.0055734757 0.099678144 0.09870356 -0.036852233 -0.06606659 -0.040935833 0.056323495 -0.07210476 0.008865024 0.106479995 -0.014061222 -0.015716564 0.02213954 -0.06168884 -0.17522521 0.105575375 -0.36089885 0.08724215 0.06092114 -0.008509412 0.02173207 -0.047918044 -0.01991015 -0.0035639154 -0.09701086 0.07637437 0.048255913 -0.0776225 -0.12683305 0.0039679203 -0.030627523 -0.12194433 0.17692314 -0.09273485 0.03050758 0.013862006 -0.06393727 0.11729653 -0.09275845 -0.028374465 -0.055518314 0.098067805 0.00014370144 -0.08308768 0.045798168 -0.1382042 0.10343265 0.08416397 -0.47328112 0.042861767 -0.05060413 -0.10468412 -0.034031108 -0.00464902 0.05025458 -0.09196496 0.0871784 0.026290158 -0.3101624 0.13118413 -0.09822098 -0.03101478 -0.0048819557 0.01852794 -0.034037206 -0.09244069 -0.081882514 0.03155685 0.036219895 -0.09886575 0.01832258 0.0026568198 -0.20418125 0.06209962 0.051870026 -0.32002527 -0.0096161375 0.048118584 -0.035051797 -0.03086084 -0.005429553 -0.08648897 0.0061597074 -0.09932488 0.045509838 -0.24081235 -0.11435148 -0.08700633 -0.08789919 0.08509755 -0.004298799 0.025844136 -0.05194774 -0.089614496 0.035988323 -0.015036991 -0.06856557 -0.025159746 -0.013142437 -0.026280083 -0.11547717 -0.018410996 -0.014461232 0.07971369 -0.02210138 -0.09005389 -0.109842405 0.16082284 0.034794074 0.035462268 0.042896237 -0.091179565 -0.3456101 0.039842382 -0.1526508 0.039129503 -0.0748854 -0.11838998 -0.039339088 -0.076166645 -0.076768525 0.1659955 -0.13727906 -0.09772874 -0.08828364 0.13215607 -0.14699627 -0.11184662 -0.10243534 0.1632267 0.06730237 -0.03220559 0.049063064 -0.09285824 0.03023038 -0.13465545 -0.03245987 0.044251487 0.02707813 -0.19015189 0.08144093 -0.12943009 0.04265503 -0.06342898 0.08669282 -0.081513196 0.09876158 0.049695075 -0.07853888 -0.0607382 -0.019412667 -0.033207014 0.10064625 0.05692018 -0.02366719 -0.032095917 0.08754926 -0.03713087 0.024675637 -0.07288361 -0.034170054 -0.089085385 -0.017231502 0.07258331 -0.0051042065 -0.02826409 0.06462259 -0.0059215156 -0.100870065 0.094982184 0.025308236 0.015111124 0.013946514 -0.14288025 0.014450312 -0.003922054 0.03868445 0.06730225 -0.09598737 0.0032436964 -0.04858881 -0.057789996 0.021275973 -0.016406603 0.041384738 -0.20495862 -0.19699505 0.09755004 -0.024663553 0.043141607 0.04675963 -0.040408585 0.06714037 -0.2790432 -0.08756789 -0.025880948 -0.0786205 -0.013043717 0.08881088 0.08975793 -0.031630926 0.05339863 -0.008720301 -0.029977078 -0.08366192 -0.022443071 0.019686244 -0.06468463 -0.080231674 -0.09304075 0.18908313 -0.03424276 -0.37031117 -0.09829311 0.08570256 0.101333834 -0.16749974 -0.05159596 -0.08011817 -0.0894028 0.11862842 0.07863602 -0.0046279663 0.082917474 0.09229661 -0.022626236 -0.08091807 0.08341577 0.039028116 0.16279341 0.13511069 0.01065556 0.040765192 0.009298449 -0.081838116 0.05226861 -0.004169921 0.19209154 -0.09909261 -0.020074377 0.04827393 -0.1380888 0.08640531 0.0043275654 -0.04716593 -0.00039245604 0.011185639 -0.009192022 0.054505643 -0.009405807 -0.19250041 0.08801881 -0.04429531 -0.067263596 -0.07008227 0.0026473925 0.04901454 -0.054868456 -0.078598425 0.08639711 0.25994092 -0.18275279 -0.10545571 -0.051168285 -0.09608351 0.02973149 -0.062387496 0.0997538 -0.07271741 -0.045666825 0.2780775 0.10516616 -0.22315168 -0.03981629 -0.07195537 0.05327844 -0.05826504 -0.07854075 0.037283905 -0.029409036 0.066380106 -0.07881293 -0.21184704 -0.0017889873 -0.0058786175 -0.02177204 0.09792525 0.0008386718 0.09086239 -0.068773784 -0.03241315 -0.09381886 0.04278563 -0.03928993 0.041893385 0.058586333 0.047211338 -0.003891216 0.07704089 0.05515931 0.052903987 -0.10389692 -0.090252206 -0.01957769 -0.03197664 -0.014859631 0.019256648 -0.07610258 -0.021656143 -0.004245055 -0.020614453 0.08729306 -0.04700804 -0.08429668 -0.044732515 0.13078071 -0.013968837 0.040724196 0.039311536 -0.06967985 -0.019602465 0.051551703 -0.1597227 -0.34379828 0.040967714 0.098384224 -0.021904005 -0.010441451 0.19921091 -0.0064248904 0.09638942 0.15351303 0.009747365 -0.018239427 -0.0348384 0.038838986 -0.11723711 0.052584965 0.084594995 0.10440186 -0.04808428 0.18125527 -0.06113221 0.09099873 0.054032046 -0.006645638 0.0028324507 -0.004136378 -0.09208545 -0.05504995 -0.075938515 -0.016024595 0.057396192 -0.07466159 0.08864933 0.012126528 -0.06423326 0.066143505 -0.016326426 0.06314435 0.04097349 -0.049929295 -0.0074115135 -0.040048044 -0.08848577 0.0059405863 -0.06819089 0.08506668 0.2144971 -0.06614632 -0.13606173 -0.027544692 -0.06464223 0.01786483 0.060576186 -0.013049254 0.008766533 0.043092195 -0.007893361 -0.0642264 -0.00232107 -0.09601894 0.24012525 0.10270408 0.086566165 -0.060265318 0.0111523345 0.012473607 -0.09161712 0.08901687 -0.00047685005 -0.18623997 -0.014075353 -0.016821494 -0.055672776 -0.19151549 0.067050524 -0.016758772 -0.025756078 0.12113141 0.020098636 0.10524828 0.08215658 -0.10661234 0.04834468 0.081016034 -0.07272421 0.07540044 0.0054000877 0.056182895 0.11329441 0.12184016 -0.031644687 -0.06455623 0.021566069 0.060891107 -0.052880257 0.047062054 -0.07394451 0.025136497 -0.028830584 0.06530069 -0.096311204 -0.057609275 0.09235933 0.108636506 -0.008492187 0.051578995 -0.058058426 0.040791776 -0.08028472 -0.031753182 -0.04395757 0.06710381 -0.06733471 -0.015601384 0.06801248 0.12848459 -0.030924428 0.09594428 0.052762825 0.2156341 -0.054496262 0.04542216 0.04327575 -0.04926746 -0.044221006 0.025485234 -0.0131494 -0.10374786 0.025652446 -0.050956838 0.015873335 0.10510895 0.030491969 -0.22586882 -0.025753088 -0.06466329 -0.0077183614 0.037796956 -0.070431605 0.06960129 0.06159451 0.06618008 -0.07826314 0.10211166 -0.09954227 -0.041650604 -0.16292475 -0.048983645 0.011791367 0.10255428 0.07896112 0.08946787 0.02539128 -0.043457262 0.2054417 0.059179347 0.09617076 -0.08724126 0.14333189 -0.03342162 -0.09524532 -0.04981951 0.0057391524 0.29540348 -0.003950343 -0.09344476 -0.13783893 0.0013797903 0.04628077 -0.031444963 -0.16476306 -0.19415599 -0.06600692 -0.023119587 -0.077486604 -0.068249315 0.109297395 -0.09646355 0.020473 -0.049133886 -0.15405282 -0.0083690435 0.10324536 -0.051940992 -0.16365832 0.05089236 -0.07978587 -0.012584326 -0.053353257 0.048466437 0.023263115 -0.013522181 -0.05211702 -0.0017853223 0.09852839 -0.043508068 0.03953567 -0.11311755 0.059441682 0.08370851 -0.08643877 -0.065614164 0.037935756 0.42579728 -0.110245585 -0.16661556 0.06932988 -0.08235012 0.03357005 -0.08554031 0.064489044 0.07931344 0.07656241 0.09090852 -0.043600988 -0.05065908 -0.1605305 -0.033758294 0.041604333 -0.07965577 -0.100820586 -0.0022710823 -0.027372172 -0.106146894 -0.092753045 -0.08963402 0.11977171 -0.34271216 0.12778598 -0.040197752 0.10657533 -0.09425545 -0.06533163 0.073493935 -0.07647531 0.10098284 -0.060119614 -0.057538148 0.090432875 -0.09231076 -0.035135534 0.06933462 -0.1002498 -0.008848751 0.032348268 0.08076426 -0.012974851 -0.046869356 -0.028827934 0.09023751 -0.08015714 0.09999273 0.021828724 0.014687779 0.020843303 0.09454158 -0.36044198 -0.18808842 -0.05764846 -0.09084336 0.06095471 0.011395378 -0.0072087958 -0.1077967 0.041753117 -0.08889944 -0.08160484 0.020841623 -0.017048331 -0.040306173 -0.053923428 -0.14275154 0.028281797 -0.029090209 0.04653743 0.11937821 0.037901845 -0.08348539 -0.00029455207 0.010175617 0.0012558833 0.007707461 -0.023960153 0.16707954 0.048205826 -0.06996254 -0.14853564 0.11023818 -0.0810494 0.00032696853 -0.1405148 0.080042355 0.050080363 0.0338576 0.09972619 0.058366206 0.028981479 -0.16947278 0.038852554 0.061265953 -0.092562735 0.06285574 -0.108185746 0.019265458 0.08897589 0.020042367 0.075585365 0.05307622 -0.06626142 -0.048234012 0.07814945 -0.1469569 0.032969248 0.019128926 0.09562829 -0.24718425 0.016238749 0.075170405 -0.034921914 -0.41686767 0.069471896 -0.0417983 0.0029432506 -0.0023689808 0.099039905 0.04370041 0.029018365 0.054336112 -0.015225403 0.11652803 -0.0808908 -0.10187167 -0.040811747 0.043075137 -0.042437557 -0.01862412 -0.04116508 0.08779457 -0.07456298 -0.025974087 -0.020702887 0.027013443 -0.041507445 0.073205784 -0.017445244 -0.04070643 -0.09346774 0.069443144 0.07033424 -0.055409428 -0.06067652 -0.04428317 -0.064722314 -0.022235874 -0.10142647 -0.022884676 -0.0691286 -0.043451026 0.10215659 0.07760986 0.06602214 -0.11519011 0.004452941 0.073915 -0.048335023 0.015608074 0.012375496 -0.039353542 -0.06311541 -0.052166548 -0.302521 -0.017582573 0.06899393 -0.014690758 -0.06908315 0.096774094 -0.24433886 -0.07500614 -0.06940615 0.01709336 -0.20094337 0.04069343 -0.024818849 -0.087689266 0.10225766 -0.057144888 0.07265648 0.003565346 0.005752606 0.07867905 0.0225629 -0.05126379 -0.054497585 0.05046119 0.09551073 -0.013552658 0.0005324483 0.021401284 -0.11249742 0.08352181 0.12589745 0.07429207 0.092350535 0.08623384 -0.013570798 0.00051967875 0.2756681 0.00972107 -0.02467412 -0.08756885 0.049741548 0.06498978 0.06519062 -0.057144314 -0.023392713 -0.019183604 -0.11129268 0.04973778 -0.037375685 0.019371828 -0.010711641 -0.062598035 0.21857414 0.050702304 -0.2341371 0.08852317 -0.39839688 -0.26495707 -0.06929202 -0.108687505 -0.063954964 -0.0235586 -0.033483543 0.069322355 0.1040799 -0.1570074 0.14493941 -0.17073156 -0.10680382 -0.10579761 -0.13559054 -0.054537684 -0.10047368 -0.045657873 0.047756992 -0.07835298 -0.037157863 0.056187745 -0.036651276 -0.038641945 0.08210126 -0.03955224 -0.033149514 0.034318272 0.04574564 -0.039334934 0.045889404 -0.07538402 -0.06318942 0.16680664 0.07585278 -0.26566988 0.17949162 0.050383367 -0.03889308 0.10512356 0.019903488 -0.10573274 0.1250411 0.05166627 0.10762649 -0.058566857 0.10736609 0.06115257 -0.025747266 0.07750331 0.0026343018 -0.19910753 -0.012302889 0.043817155 -0.10554236 0.0011767372 0.019696984 -0.081068054 0.040568504 -0.016777 0.024309538 -0.0506517 -0.047089145 0.10240754 0.020747714 -0.053675335 -0.025964454 -0.10451107 0.08338079 -0.04201545 0.015979812 -0.00084709376 -0.0071662823 -0.055367175 -0.03786679 0.022425883 0.050679572 -0.010891378 0.14091007 0.08782807 0.022988819 -0.11053054 0.07660935 -0.053437576 -0.10714145 0.045567907 -0.22193009 0.26656595 -0.09406449 0.038949244 0.06125953 0.07116345 0.1344477 0.019064568 -0.08824557 -0.10199146 -0.094890684 -0.032459997 0.040651046 0.10784317 0.029376268 0.05771701 -0.07360713 -0.01565621 -0.047574956 -0.008246347 -0.05217453 -0.14227262 0.023130484 0.023329146 -0.05364947 -0.10414875 -0.06404851 -0.19056016 -0.056058202 -0.00081931526 0.070753455 -0.001928456 0.066154204 0.062213905 0.04318782 -0.039124675 0.01976896 0.07734353 -0.00775028 -0.083162405 -0.001805976 -0.2537888 0.035052024 -0.0036594844 -0.0690544 -0.073749244 -0.020454923 0.07272468 0.0054898174 -0.070529655 -0.032034554 -0.09147373 -0.2850407 0.04186365 0.23156595 -0.2073393 0.11220249 0.046954 -0.04025141 -0.11635698 0.18468446 0.10298822 0.049303032 -0.037935074 -0.078965895 -0.09108416 -0.09149288 -0.021375332 -0.08870958 0.17429349 -0.08552764 -0.092155434 0.07603685 -0.19861783 -0.0661661 0.1648698 0.09625474 0.017771801 0.028035305 0.12261663 0.05822342 0.06986173 -0.041355364 -0.10573917 -0.060725734 0.047161438 -0.08121486 0.063798636 0.032034732 0.018919757 -0.0896637 -0.10689342 0.040586106 -0.0063533112 -0.061060354 0.1393537 0.015606804 -0.0075649633 -0.020847678 -0.046383746 -0.079245925 0.037773598 0.054612555 0.06892941 -0.02809476 0.034593027 -0.011544079 0.08511942 -0.08339634 0.07092244 0.07782802 -0.024646617 0.056286924 0.082293086 -0.2289638 0.18585916 -0.040799685 -0.01786381 -0.10495151 -0.03260607 -0.14825486 -0.09290469 -0.09425011 0.08894535 0.002894762 -0.10020867 0.055855904 -0.055669516 0.008018158 0.08161507 -0.066756345 0.028669216 0.08765199 -0.038137253 0.047027 0.028760277 0.078096814 0.08598497 0.03817811 0.015065212 -0.018550344 0.10904921 0.06270813 0.05007966 -0.05211693 0.10668682 -0.14504836 -0.07149106 0.07464182 -0.021791406 -0.08756527 -0.094058245 -0.047624175 0.08229577 0.038398754 0.04800692 0.021564178 0.03163659 0.08953935 0.10849957 0.20059393 -0.05747058 0.04367704 0.17103206 0.053062305 0.07197826 -0.20885302 -0.02827748 0.05774508 -0.026422834 -0.29459777 -0.14449379 0.019237451 0.021765642 -0.018754676 0.04218332 -0.081891425 0.10362781 -0.06998567 -0.21023147 -0.18874596 0.044783805 0.08538959 0.040562727 -0.1253281 -0.08854033 0.08203504 -0.026120361 0.10026222 0.0047111735 -0.08112156 0.06163954 0.015273713 0.060001206 0.12878524 -0.09313387 -0.07414727 -0.08410939 -0.037632886 -0.056453295 -0.08000339 -0.044977855 -0.09558633 -0.2225944 -0.010564788 -0.16692318 0.27104825 0.09154873 0.101151 0.028304897 -0.009006483 0.057351656 -0.0046394104 0.020762876 0.015428147 0.07312633 -0.2609336 0.10835227 0.003405817 0.07989041 -0.080422536 0.06009706 -0.089724615 -0.04357151 0.059819784 0.0066899904 0.097780734 -0.29572818 0.032877527 -0.036225896 -0.046252556 0.05669102 -0.09617599 -0.006420076 0.09272895 0.037020363 0.055248607 0.08050174 0.1754526 -0.10553024 0.00031754357 0.093534924 0.04249372 -0.03564393 -0.02584054 -0.042782098 -0.047758333 -0.0037993602 0.1002274 0.15111646 0.0548181 0.019580023 0.10066167 -0.0875814 0.06472818 0.03944173 -0.0075312927 0.1191042 0.035385262 -0.107441045 0.03873548 0.08014605 0.09474709 -0.10568358 0.0021780168 -0.21283828 0.10207345 -0.027643181 -0.01579137 -0.045380797 -0.051621675 0.11787197 -0.08721021 0.076983474 -0.0041166204 -0.01573675 0.012728172 0.052271783 0.0174905 0.07450036 0.08204202 0.014309357 -0.069822684 -0.07996054 -0.004180938 0.011959865 0.19790769 -0.12117955 0.050295673 -0.009136491 -0.07610805 -0.08455769 -0.07547967 0.011861436 -0.08902924 0.011010338 0.04629612 -0.059623696 -0.0931664 -0.014467388 0.081254706 0.0150222685 -0.124692224 0.038091253 0.14534096 0.052148357 -0.0433077 -0.07733493 0.06293624 -0.056893848 -0.028721748 -0.54440594 -0.0051012747 0.021217147 -0.011513598 -0.4389585 0.062932834 0.0018755965 -0.012407052 -0.09120334 0.012564512 0.0602134 -0.094232075 0.08379667 -0.09325983 -0.059977893 -0.047520943 -0.028752143 0.101704694 0.1142183 -0.044976734 -0.045220446 0.0750272 -0.16050565 -0.06361022 -0.39967993 0.09843019 0.02046155 -0.098085694 -0.01806501 -0.077910595 -0.067436464 -0.06365973 0.09989608 0.09312998 -0.115870275 0.04383775 -0.013872677 -0.030122517 0.1034214 -0.10212343 0.01046466 -0.0048539788 0.0046762587 0.10583371 0.0032051224 -0.0750728 0.061581258 -0.077740565 0.092103735 0.017241752 -0.07562525 0.0421925 -0.07160668 0.04054952 0.07276792 0.05849569 -0.07098906 -0.00085170555 -0.09398286 -0.09085678 0.06019515 0.065895 0.005346029 -0.09587502 0.05618233 -0.17723463 -0.033499304 -0.007922268 0.08586561 0.21457939 0.09890702 0.06905127 0.068729 0.105111964 0.049261604 0.04880714 -0.10174854 0.094547816 0.13321044 0.0029050468 -0.07456995 -0.0362985 0.048157502 0.089936815 0.020925336 -0.0854227 0.07225505 -0.049180105 0.04005564 0.15751877 0.07996255 -0.18501556 -0.101416 -0.087101966 -0.100836866 -0.078490764 0.083165735 -0.04304494 -0.024479251 -0.0026505208 0.13999401 0.0963282 -0.018332278 -0.2366878 -0.05187927 -0.42580044 0.084841385 -0.04581515 -0.2026651 -0.12297524 -0.09562593 0.16128705 -0.092807375 -0.22892785 0.07952607 -0.18553351 -0.42425135 0.06392093 -0.05503069 -0.043652236 0.07523791 0.09858231 -0.029825151 0.015887616 0.09283073 0.24026628 -0.025432842 0.074968 -0.09855604 0.12823233 0.07649373 0.029106826 -0.09581137 0.050705414 0.052360326 -0.00013120486 0.10318933 0.10309253 0.08770092 -0.25948313 -0.11024453 -0.062047243 -0.11522501 0.0032741346 0.048275027 0.11791179 -0.02707906 0.11257004 0.14465505 -0.14127906 -0.09605482 0.06909999 0.09877788 0.07798975 0.031755887 0.08765424 0.07076296 -0.06501958 0.05051645 -0.06681439 -0.08701564 0.08485279 0.019583218 -0.19252083 -0.035054907 0.00021520257 -0.0659314 -0.2598814 0.06461782 -0.07740179 -0.022570051 -0.11230603 -0.15836935 0.12346656 0.060576066 0.10101918 0.04718649 -0.07467124 0.06260332 -0.057662833 -0.10198124 -0.10228394 0.0024400651 -0.20661975 -0.067497596 -0.037372284 0.02800145 -0.04783826 -0.018073566 0.0050863656 -0.045179382 0.046542063 -0.08392903 0.041522343 0.05495827 -0.086719036 0.03670216 0.06571991 -0.096755706 0.078222625 0.059316136 0.107481144 0.056796044 0.06915782 -0.10706366 -0.09548665 -0.005659908 0.27070168 -0.08928771 -0.034420338 -0.14195628 -0.028809391 -0.08928784 -0.06707029 0.0308102 -0.05002379 -0.0017752686 0.2502329 0.085790984 -0.019036278 -0.16181983 -0.050974466 0.07240193 -0.018804647 -0.009268015 -0.10368534 -0.043204673 0.08867078 -0.08476374 0.060063243 0.06889632 0.18537666 0.10160715 -0.052759584 -0.09217905 0.00042664475 0.08807551 -0.047635533 0.100721106 -0.05332644 -0.08007013 0.0012825057 -0.13874744 -0.079725884 -0.073297195 0.06400169 -0.04778755 -0.26200452 0.054629646 -0.042835277 -0.00056293776 -0.097780064 -0.08534918 0.07620895 -0.026780898 0.14326571 0.008754533 0.030122159 -0.04085678 -0.06879811 -0.2638008 -0.29921648 -0.07886681 0.05380655 0.020543747 -0.096246846 -0.043454744 0.03493709 -0.05067626 -0.08839356 -0.39739656 -0.01299718 0.06668 0.043460693 -0.13759473 0.064567275 0.12261508 0.07154717 -0.19114165 -0.08889112 -0.049651377 0.10812079 0.009676345 -0.08488663 0.106801845 0.038130842 0.06836473 -0.03602574 0.0723109 0.07757466 0.10182203 0.090079136 -0.048523538 -0.0059794993 -0.089493 0.07775571 -0.022575323 0.048424948 -0.0035909114 0.011662237 0.056422975 -0.10630793 -0.023743741 0.051853083 -0.049094416 -0.04963196 0.04210748 0.016906656 0.035047974 -0.007223144 -0.008836065 0.022148702 -0.0071703373 0.042988203 -0.049709287 -0.04167056 -0.04821799 0.07114635 0.06692036 -0.06736581 0.022162035 0.13984151 -0.017475761 -0.05292247 -0.049268994 -0.083171636 0.04658567 0.06702578 0.041766178 -0.06863723 -0.018684112 -0.013816435 0.012894303 0.116586134 -0.081007965 0.026033588 0.08016327 0.09079263 0.060671654 0.052504666 -0.08945005 0.06856154 -0.04974536 -0.07777063 0.0425938 0.017041365 0.044725217 0.2927821 -0.04397607 0.09048207 0.081578724 -0.08521018 0.07381866 -0.012659801 0.08532902 -0.036025833 0.06242182 -0.035623014 0.051103286 -0.123194836 0.046534672 -0.16292359 -0.06508146 -0.005921982 -0.4602543 -0.029207746 0.063781865 -0.10609706 -0.09715753 0.07107215 -0.019851275 0.15257666 0.013529042 -0.081272885 0.04720684 -0.0032411888 -0.06973499 -0.025100138 -0.02708913 -0.10438013 0.090202 -0.014737059 -0.04423529 0.040593423 -0.095390074 -0.16746092 0.08787484 -0.09934224 -0.026147284 -0.022529893 0.02240897 -0.004300619 0.032429792 0.08689635 0.044909 -0.100505985 0.1426938 -0.04248404 0.0973277 -0.051097054 0.083523534 0.064457 -0.021374978 -0.0023135645 -0.0817619 -0.08756655 0.014367646 0.036745533 -0.09758125 -0.10122556 -0.099819586 0.097633906 -0.08181256 0.015279725 -0.06434484 -0.07740035 -0.06804372 -0.32846648 0.07015947 -0.06378558 -0.024544297 -0.10055726 0.0779341 0.005168231 -0.002899271 0.04101112 0.04916228 -0.028709443 -0.0027295696 0.0055467766 0.039439492 0.012232289 -0.10899034 0.07584702 0.04791992 0.094577834 0.0723873 0.05140324 0.05510848 -0.07835358 -0.002717927 -0.10546789 0.0011526793 -0.024476532 -0.024776202 -0.09138424 -0.05612004 -0.10225958 0.028920265 0.15473174 -0.29797927 0.0745034 -0.31358013 0.095628284 -0.03301746 -0.094245724 0.002751828 -0.17347623 -0.16213308 -0.06768384 0.10579256 0.061176844 -0.043114804 -0.25176442 -0.10099722 0.041345693 -0.12102242 -0.036123257 -0.04121315 -0.009022339 0.011940165 -0.07734519 -0.06532085 -0.12736288 0.03043503 0.09011484 -0.061083343 -0.041234516 -0.01498801 0.018725462 -0.11557866 0.05170847 -0.040720057 -0.008960912 -0.013133454 0.0055583715 0.107003585 -0.060701195 -0.06350758 -0.09602617 -0.039896034 -0.20432974 -0.048672114 -0.06229701 0.04517556 -0.062442932 0.00445836 -0.028439702 0.03243945 -0.04540248 -0.02374971 0.027563471 0.017020982 0.028627155 0.010715395 -0.028550433 0.07955534 -0.047244336 -0.049665723 -0.18551087 0.09182145 -0.13677692 0.09527293 0.07509641 0.054662727 -0.07074751 -0.024012672 -0.016245842 -0.09160605 -0.027071897 -0.087806724 -0.0037462995 -0.030718416 0.108037435 0.054742113 -0.02069897 -0.093389474 0.074817605 0.034021616 0.077448554 0.13282342 -0.07930431 -0.21396314 -0.11093177 0.3542567 0.10812889 -0.14658023 -0.0060079247 0.027190771 0.0015245974 0.07252482 0.08089921 -0.017710483 0.06496778 -0.098492205 -0.014659789 -0.057127573 0.06330419 -0.09514983 0.042331927 0.07397644 0.008306295 0.00236473 0.08866567 -0.08326715 -0.016919225 -0.08065919 0.025449626 -0.07164549 -0.0942097 -0.09866655 0.005434615 0.04523678 0.09094917 -0.14433247 -0.080057636 0.026357671 0.026000967 -0.07076635 0.05451506 0.069874495 0.073808685 -0.018071586 0.05247762 -0.0039129257 0.05499907 0.053302556 0.20859483 0.085581556 -0.011387421 -0.04700288 -0.14955936 0.048182186 -0.065022916 -0.3116795 0.033863164 0.05750277 -0.08429191 -0.0730646 0.08049638 -0.05367437 -0.06721485 0.02419544 -0.0058903596 0.062247023 -0.10365105 0.03627927 0.09500133 0.11023444 -0.024329 0.035323266 -0.11482851 0.05740224 0.041010898 -0.07277219 -0.055568393 0.014210659 -0.04769557 0.05193736 0.0919044 -0.08119906 -0.2901758 -0.24991083 0.07880931 0.066572435 -0.31022975 0.009424398 -0.106497504 -0.014916435 -0.042348057 0.16810209 -0.03933781 0.05441283 0.09487505 -0.017411822 -0.2131897 -0.050511874 -0.07602776 -0.3693081 -0.0723789 0.082529165 -0.059911493 -0.12290114 -0.030261349 0.092763506 -0.095247515 0.093194574 -0.2816847 -0.11302389 0.068674475 0.104388505 0.06521063 -0.052014362 0.09912371 0.035143018 0.01117158 0.07787393 0.08957178 -0.06508452 0.062842004 -0.092413396 0.10306189 0.08694865 0.018660631 -0.12177845 -0.07422669 -0.050028447 -0.06410228 0.073619284 -0.10987797 0.034210104 0.008094085 -0.19580145 -0.20743278 0.049121775 0.016087538 0.08123321 0.06562336 -0.06408639 -0.10146518 0.03939539 0.080155455 -0.0004063848 -0.21558212 -0.065189384 -0.3469638 0.029557128 0.10191876 -0.108546995 0.04706758 0.103972755 -0.10814987 -0.051506553 0.0396429 0.05332467 -0.09471618 0.018028492 0.09718721 -0.080002904 -0.039133944 0.027884446 0.0693182 0.086417645 -0.07514571 0.0025823489 -0.13258569 -0.004665233 0.070097856 -0.0857102 -0.091598 -0.0878876 -0.05718013 0.06908793 0.042035513 0.081728525 -0.17128916 0.06497318 -0.06808701 -0.026212757 0.06708283 0.06079899 -0.041932695 -0.038031355 -0.044278827 0.015378092 0.087399475 -0.03989207 -0.05406934 -0.018094594 -0.18734479 0.0346784 0.07191896 0.038070686 0.028651183 0.017437402 0.07197329 0.0701114 -0.06859162 0.1303153 -0.04702609 -0.0674598 -0.03361238 -0.28080383 -0.051230606 -0.06301341 0.012590811 -0.056335896 0.03157881 -0.108864285 -0.063843444 0.1540689 0.09920939 -0.075238936 -0.105417475 0.07714044 -0.008555278 -0.012847884 -0.19855681 -0.09210252 -0.013524614 -0.08775905 -0.10499554 0.10073722 0.0047985204 -0.20509943 -0.014088178 -0.06959021 0.028467312 0.018886786 -0.10174481 0.0036719344 -0.061322536 -0.029854342 -0.037816383 -0.042047728 -0.0756286 0.0654329 0.087198436 -0.12622155 0.049146134 0.009784089 -0.042551406 0.0028641617 0.11178393 0.0016920124 -0.10217596 -0.22334033 -0.036912393 0.05045458 0.0025152937 -0.11417345 0.043384537 0.053374648 -0.034078047 -0.06393151 -0.06402972 -0.18985178 0.09334534 -0.022306856 -0.099114046 0.11473743 -0.07171251 0.073026516 0.08097457 -0.04054399 0.014611103 -0.10036022 0.087165534 -0.07262799 0.023080373 -0.1100388 -0.08586055 -0.08192929 0.05644817 -0.06183637 0.023897607 0.0059577017 -0.103773564 -0.08695605 -0.05011627 0.061144903 0.10716509 -0.10585482 0.068430476 -0.03122108 -0.09928892 -0.0079786405 0.033129964 -0.110933885 -0.10038501 -0.11055716 0.02595063 -0.07495119 0.030618925 -0.10051363 -0.08562303 -0.016806705 0.08335879 -0.0733513 0.06702967 0.09528152 -0.097497515 -0.011467743 -0.06402207 0.0692314 -0.038213156 -0.021411885 -0.13776356 -0.03403247 -0.041238274 -0.20114015 -0.03072428 -0.026620464 0.051573973 -0.015933357 0.011545377 0.0105001265 0.020958453 0.037818857 -0.005905904 -0.038687155 0.04622654 0.014314994 -0.017143205 -0.042732462 0.10200692 -0.08111076 0.116957 -0.08680915 -0.12078099 0.049310096 -0.059394874 -0.09024525 0.030518884 -0.10482729 0.057544265 0.06394487 0.057122167 -0.18218848 -0.035452988 -0.007482236 -0.07796145 -0.004671365 -0.27590224 -0.046444498 0.08003032 -0.09858878 -0.074275315 -0.07920906 -0.0654834 -0.08837081 -0.21064726 -0.036314134 0.058298416 -0.045628615 -0.022282355 0.09078803 -0.07135843 0.00449436 0.052462317 -0.0893989 -0.10745469 -0.17460777 0.12807807 0.07444922 -0.014783995 0.032368653 -0.18073896 -0.021125324 -0.06904265 -0.091788724 0.016996808 0.04005715 0.018704087 0.0008396957 -0.08279382 -0.00094155106 -0.17127012 -0.17500554 -0.10339155 -0.08532667 -0.052582923 0.07312117 0.08324836 -0.061788827 -0.08506677 -0.18393153 0.03582841 -0.18201657 -0.07678376 -0.0005742386 0.0066840113 -0.06728892 0.016728096 0.03340099 -0.09302161 0.025359264 -0.10487627 0.08079486 0.044147916 0.01835125 0.14474662 -0.010822613 -0.11374774 -0.02933707 -0.090183884 0.009627883 -0.10605677 -0.04004406 -0.084742755 -0.076576754 -0.09557212 -0.08621794 0.07843202 -0.04068363 -0.023031883 -0.062249795 0.019673882 0.048873708 -0.029148884 0.05760739 0.029408792 -0.050653856 -0.04357107 -0.08874295 -0.113358125 0.0089969 0.1175398 -0.002083294 0.039758477 0.067367844 -0.02899954 -0.31919837 -0.022372924 -0.027619185 0.08757932 0.05565156 0.0021126803 -0.03383362 -0.019172136 -0.06441145 0.05048679 -0.03274788 -0.08641903 -0.081762746 -0.03974481 0.094950296 0.11100901 0.1028003 -0.05390421 -0.033176046 0.10380881 -0.014082747 0.0044961707 0.035148624 -0.2403949 0.009786993 -0.029073438 -0.009129102 0.012525112 -0.042920727 -0.053274512 0.0072076605 -0.10189945 0.009689402 -0.043586586 0.13661198 -0.0020458489 -0.0061066435 -0.15996163 -0.015418284 0.032026976 0.06264694 -0.009753459 0.0009862724 -0.028266924 -0.059364416 -0.002340667 -0.039905805 -0.025347145 0.09777366 0.07107389 -0.04098183 0.06017247 -0.03839088 0.009932231 -0.062756956 0.08201666 -0.097094715 -0.031761356 0.03893564 -0.22551288 -0.049921554 -0.49394396 -0.06235068 -0.025959695 -0.09402854 0.09819118 0.245534 -0.22759466 0.07176451 -0.077396154 -0.193368 -0.10018805 -0.07042171 0.101069294 -0.052457657 -0.09596973 0.28951547 0.08940453 -0.056035466 -0.09913066 0.12224935 0.00788829 -0.088868335 0.009026256 -0.575751 -0.008486651 0.1217589 0.107597046 -0.018361319 -0.1012275 -0.05621156 -0.09678216 -0.072163284 0.020530546 -0.017760789 -0.08488974 0.109073184 0.06892065 0.06549445 -0.08678144 -0.039817967 0.06673198 0.00048159057 0.081894524 -0.10890758 0.019402988 0.04586593 0.0023940802 -0.07507851 0.08849924 0.030985832 -0.07803141 -0.101056255 0.035337765 -0.1807425 -0.07967356 0.033291925 0.046691786 -0.043067597 -0.0073433137 0.06274699 0.0067428784 -0.1421026 -0.06690557 0.06458535 0.069919586 0.17543781 0.21371238 -0.028284444 -0.058631126 -0.06356153 -0.03368013 -0.054639645 -0.08498409 -0.009174752 0.09978989 -0.018545097 -0.012909875 0.02593074 -0.024575114 -0.10626843 -0.048169866 0.076626144 0.10526631 -0.023957413 0.064553164 0.025845282 -0.014575806 -0.044010848 0.05211047 0.07782886 -0.24913222 -0.07752177 0.20837222 0.030637797 0.09586108 0.078058206 -0.11558347 -0.002142094 -0.0794201 0.0501524 -0.21234325 -0.26624748 0.11154791 -0.056501918 -0.06898563 -0.09507705 -0.1562201 0.102121495 0.07534953 0.20220202 0.04474977 -0.039702058 -0.29274848 -0.038784023 -0.22496514 0.059981532 -0.21021034 -0.005018758 -0.04365389 -0.077421606 -0.09438252 0.045380156 0.08157773 0.06411705 0.059558418 -0.2376194 -0.08577382 -0.44584548 -0.020426352 0.027518414 0.065914445 0.008319298 0.089320876 -0.10610964 -0.048697956 -0.030207671 -0.06931297 0.000838995 -0.096438736 -0.053833205 -0.26748997 0.062189337 -0.08912044 -0.05336354 -0.05655853 0.053640254 -0.09906415 -0.09515428 -0.053512685 0.101598315 -0.3238828 -0.09433559 -0.05657128 -0.05377098 -0.041006938 0.020739459 -0.09261338 -0.034472704 0.040359788 0.008864194 -0.036972493 0.02909464 -0.11272348 -0.08807814 -0.07612586 0.061912365 0.046114005 -0.20644352 -0.03561172 -0.028002992 0.021361688 0.07409323 -0.05594956 0.17595367 0.0876831 0.102441594 -0.051974274 0.12806307 0.104639 0.088853694 -0.026411526 -0.13858578 -0.03563501 0.0028506443 -0.28088665 -0.08245109 0.010683589 -0.024812005 -0.06347743 -0.01802703 0.11760841 -0.09845454 -0.005908452 -0.04183483 -0.034616984 -0.25410473 -0.010731518 -0.3266298 -0.009230636 0.021820344 -0.029449284 -0.096040346 -0.13069388 0.23091944 0.009728446 -0.10710896 -0.09073578 -0.081901036 -0.18319917 -0.08567791 0.03683836 -0.12513961 -0.012082413 -0.02775716 -0.019404069 0.02566775 0.11163491 -0.031318694 -0.022582835 -0.062044963 -0.015376955 0.14833419 0.06839543 0.204765 -0.0037076771 -0.05003782 -0.032072514 0.052607827 0.035588525 0.016778551 -0.02990041 0.06008088 0.031914484 0.09677123 -0.06813088 0.06398643 0.081283405 0.0320945 -0.08402852 0.044529017 0.090099595 -0.059727084 0.04776182 0.11921707 -0.10392184 -0.09674216 -0.06994909 -0.053483285 -0.17530383 0.063383855 0.06504224 -0.09228046 0.0032267123 0.10515073 0.12903653 0.08143638 -0.08773771 0.04527805 0.05221963 -0.035228305 0.107376836 -0.0421616 0.05111235 -0.08287793 0.03658413 -0.09118601 0.022299834 -0.08938834 -0.048484433 0.06533109 -0.033757858 -0.20620984 -0.020000406 0.043518312 -0.007712491 -0.07009716 0.09919507 0.09569318 -0.024204008 0.04704744 0.057400577 0.022046495 -0.015968867 -0.08721437 0.07447131 -0.03258881 0.07397293 0.09268283 