10 128
-0.076251976 -0.072629854 0.1659659 0.38736695 0.02273137 -0.15414527 -0.09742432 -0.3041083 -0.4330222 0.16303773 -0.02289582 -0.510553 -0.016338741 -0.26916912 0.23724261 0.1625169 -0.0070266207 -0.18666604 0.2635521 -0.09524724 -0.03691238 0.18523973 -0.04091618 -0.06728821 -0.14774704 -0.31492308 0.21030001 -0.0055482476 0.019286064 -0.08803166 0.028415535 0.3657315 -0.029301066 -0.1473831 0.28708825 -0.036083743 0.05741371 -0.07010174 0.17597497 0.41124645 -0.06732116 -0.17841779 0.1927792 0.29138854 0.054879814 -0.060074847 -0.19161804 -0.041801892 -0.10788994 -0.5525597 -0.16556346 -0.1172253 -0.39090022 -0.19533013 0.09894417 0.15961137 -0.07095873 0.32282478 0.07932048 0.19606513 -0.1739113 0.13201223 0.5177314 0.0619936 -0.19245185 0.06406565 0.34215733 0.01675666 -0.07627964 0.5484114 0.1403468 -0.16916585 -0.30408803 -0.05545745 -0.4820628 0.4278049 -0.038238306 0.24393994 0.4626747 0.032190207 0.1809799 0.299017 -0.0035726621 0.33327866 0.04783269 -0.1873729 0.1784163 0.2472696 -0.8321065 -0.71068484 0.56501573 0.14140624 -0.13260886 0.31192872 0.4518171 0.01705049 -0.14855053 -0.059333026 -0.5822877 -0.5177646 0.4118084 -0.055355743 -0.54326624 0.01622302 -0.21092854 0.2602221 0.059228364 -0.0034277642 0.10038611 0.09954006 0.16928953 -0.12726094 -0.19932568 0.12744398 0.17197001 0.15509397 -0.59093726 -0.23586126 -0.008849017 0.35197183 -0.37236845 -0.15825142 0.01856665 0.4647846 0.36322394 0.10052207 0.22254145 -0.34826076 -0.1622603 0.020619962 0.14907584 0.23419686 -0.22875541 0.16694663 0.20157945 -0.013786175 0.21322398 0.2598572 -0.0663022 0.09782283 -0.03972065 -0.49825096 -0.14164346 0.07575016 -0.22698386 0.2719202 0.124880455 0.14113906 0.19341874 0.11798506 -0.2196886 0.11189743 0.16247848 0.42421043 -0.37590668 0.17456168 0.085594706 -0.6585272 0.36809224 0.34496325 0.43681282 -0.018917436 -0.04364444 0.18732494 -0.14531751 0.18512417 0.2585004 -0.02382384 -0.23896326 -0.14048427 0.020963235 0.20037559 -0.13542163 0.113237895 0.09525053 0.022707451 -0.073158816 0.29415742 -0.29539365 0.037660677 -0.15857027 0.16965549 0.069079034 -0.16838129 0.026585704 0.4851847 0.22508182 -0.76106656 0.009546784 -0.09423503 0.41301885 -0.14381671 0.1703456 0.16041142 0.20427124 0.023127133 -0.042193227 -0.62648237 -0.082425974 0.007755353 0.43535948 -0.016489465 -0.05650204 -0.18950166 -0.18184309 0.42133 0.57111657 -0.06548879 -0.0949573 0.17833495 0.29202688 0.0061161444 -0.08969249 -0.12901781 0.13188465 -0.18915325 -0.09296175 0.009667269 -0.022445448 0.43457088 -0.0883173 0.5842159 -0.060733944 0.34837413 -0.23574792 -0.21992926 -0.09794441 -0.20858535 0.37702572 0.39744458 0.013276025 0.06719273 -0.50325376 0.3379368 -0.14771774 -0.13561839 0.30158222 0.03630171 -0.051838513 -0.12590651 -0.18236753 -0.07441278 0.0013166938 -0.12828967 -0.15279143 -0.17782271 -0.17401636 -0.05923786 -0.14943877 -0.1411729 0.06515726 -0.76585627 -0.06193375 -0.020494783 -0.15745239 -0.2240518 0.09721648 0.05261376 0.32815096 0.34215036 -0.6465988 -0.38421923 -0.20483723 0.09600143 0.30925247 -0.0017164162 0.028018704 -0.14955002 -0.17137629 -0.03864989 -0.61958665 -0.046530087 -0.04055558 0.022515371 0.035826065 -0.21189022 0.0775465 -0.88863766 0.11856914 0.1474528 0.074201494 0.4040357 0.049259685 0.19919962 -0.2844453 -0.30963024 -0.28298178 -0.030290674 -0.009335521 0.08078426 0.16360731 0.07025128 0.009936117 -0.13058032 -0.42047244 0.09493753 -0.28809965 -0.1193981 -0.09025689 0.4038404 -0.05232393 0.16211544 -0.37519613 -0.13761075 0.044582363 0.16600014 0.20059974 -0.14574495 -0.04329042 -0.13353716 0.44691235 -0.19447003 0.3490228 -0.4788235 0.22226192 -0.019100426 0.11969847 0.08284677 -0.5236862 -0.1713414 -0.17387803 -0.13848606 0.17090139 -0.075363524 0.14341202 0.4005279 0.14723796 0.020559423 -0.15401636 -0.05553883 0.17814714 0.40101975 0.14189804 -0.2567076 -1.207483 -0.18498376 -0.1698355 -0.058956232 -0.11397405 -0.012656994 -0.1390334 0.1051301 -0.19647953 -0.24505559 0.23988764 -0.069315776 -0.3968815 -0.011431853 -0.047737908 -0.23101586 0.18722643 -0.021490434 -0.13830803 0.52843577 0.075741336 0.08244924 -0.5358017 -0.06315864 0.17209204 0.16722576 -0.15303272 -0.17242913 0.07688365 0.04922022 -0.1094885 0.29245195 -0.17359127 0.1325307 0.13076192 -0.108651675 -0.20692164 0.1217431 0.094781555 -0.16298284 0.41137442 0.07344496 0.01664578 -0.08806622 -0.2490203 -0.53315115 -0.41661155 0.030080227 -0.20895901 0.062369313 -0.0785293 0.08112117 -0.08030514 0.30045092 -0.3507592 0.35041323 0.53895354 -0.13038103 -0.14847621 0.274542 -0.080640584 -0.108654685 -0.04137185 -0.09930971 -0.2076713 0.081804 -0.067041904 -0.20894368 -0.21668766 0.057474874 -0.095940724 -0.47381514 -0.51531285 0.104216285 -0.097037174 -0.25464404 -0.7819654 -0.342321 0.20423424 0.63727725 -0.67614615 -0.095842645 0.08485265 0.14086482 0.17633125 -0.06595682 -0.12769644 -0.04528348 -0.017861767 -0.18180718 0.17848869 -0.028501894 0.18867329 0.019651353 -0.07662275 -0.09287809 0.10976964 0.15730895 -0.15490462 0.100007884 0.12215102 0.18526284 0.030147078 0.0917121 -0.037115656 -0.017317578 0.16256222 -0.2722502 0.17115504 -0.35842958 -0.011061513 0.07075939 0.15365158 -0.17259024 0.13614316 -0.07869044 0.26955596 0.019611012 -0.21535172 -0.52313596 -0.34362775 0.16599055 -0.21522157 0.04627263 0.12919638 -0.44521397 0.26117995 -0.36506143 0.16560179 0.027638165 -0.036240403 -0.23083594 -0.48014802 -0.7266466 -0.17355442 -0.16222435 0.14458813 -0.12197076 0.07729698 -0.13180299 -0.23407823 -0.38694394 0.04139883 0.46939608 -0.06737637 0.2611497 0.033016723 0.09737357 -0.0018258953 -0.082183756 0.25436354 0.21654649 0.11369126 0.16075587 0.4161429 -0.09372007 0.048375543 0.05991082 -0.41739747 0.2574958 0.38839507 -0.0568732 0.028784487 0.17280811 -0.3849194 -0.050902173 0.13486202 -0.14717671 0.08886004 -0.53883344 0.11438928 0.13595374 0.21876636 -0.3579309 0.31180277 0.16434267 0.012468684 -0.028862488 0.008252742 0.17264532 -0.028543107 0.49389482 0.39610383 0.38193685 0.21813376 0.0082468 0.16764875 0.1804762 0.042467743 -0.3282563 0.012361332 0.1651536 0.14803608 -0.0031193343 0.014836203 -0.29139572 0.14331421 0.12657964 0.08883149 0.14763825 0.67962015 -0.028087782 -0.14650682 -0.50659883 0.24785204 -0.10490063 -0.2630968 -0.5180509 0.24564314 0.06835414 0.45650327 -0.14658958 -0.08510614 0.103405364 -0.044029213 -0.08786611 0.26644063 0.07422262 -0.08925254 0.052986894 -0.14450473 -0.25499994 0.021886311 -0.025318265 -0.10958786 -0.22183183 -0.024480484 -0.445501 -0.06459373 0.120208636 0.08572759 -0.025478844 0.03853177 0.050676025 -0.4145689 -0.15326361 -0.23076418 -0.9881977 0.092418455 -0.060706664 0.591425 -0.082842626 0.14773373 -0.14413379 0.24013636 -0.12904762 0.04277977 0.25196767 -0.03909994 -0.17909001 0.32182056 -0.08691793 -0.29272237 -0.22380339 -0.6698167 -0.4622966 -0.3312849 -0.2062971 -0.016188342 -0.11716371 -0.29588753 0.59473026 -0.16514857 0.03490576 -0.1586291 0.044508956 -0.1668069 0.0124052605 0.4087292 0.4665168 -0.0774156 0.09128862 0.3431362 0.2374135 -0.08088437 0.21472608 -0.20097291 -0.19429748 -0.05640678 0.11433339 -0.050665896 0.03126338 0.35831192 0.21705702 0.10585893 -0.14553012 0.24442929 0.027379021 -0.036701087 -0.18580474 0.1756584 -0.037169002 -0.13610165 0.12560229 0.009873461 -0.19210368 -0.034457862 0.22107019 -0.008247514 0.1600711 0.32917657 0.46714956 -0.32282048 0.18170238 0.0044837636 -0.23145059 -0.048352603 -0.18683621 -0.3400452 -0.5642438 0.05331858 -0.10567603 -0.47533923 0.068688914 -0.3221587 0.12677756 0.12561615 0.05664789 -0.072459154 -0.4628507 -0.28367224 -0.101782925 0.12231863 -0.0596011 0.20846787 0.15104769 -0.011482913 0.095555305 -0.24855842 0.13068497 -0.006700579 -0.72028846 -0.35283333 -0.0014840838 0.3074524 -0.19603807 -1.0046556 -0.2708481 0.022305641 -0.01062488 -0.080325484 0.05958342 -0.01597408 0.12396557 -0.55447257 -0.1453227 -0.13648988 0.0313186 -0.08893695 -1.1470641 0.13089839 0.045999758 0.34409764 0.035116162 0.03515142 -0.31113845 0.021598348 0.047972064 0.07670551 0.006373326 -0.48307678 -0.18699469 -0.49148113 -0.45133132 0.35833818 -0.22938302 0.07694323 -0.12246741 -0.14328517 -0.035065833 -0.100179665 -0.1679497 -0.07949606 -0.18383768 0.027038602 -0.23572305 -0.031952333 -0.16359992 -0.22040321 0.12291377 -0.04674192 -0.87872666 0.880327 0.035517093 -0.04040339 -0.1955307 -0.15623882 0.119134806 -0.052621678 -0.11108705 0.1253035 0.019263031 -0.07740014 0.18094504 -0.33633077 0.03661535 -0.082397275 -0.09538992 0.07852676 -0.081137806 -0.102260105 0.06274998 0.11419553 -0.5879734 0.16001144 0.26393685 -0.15064855 -0.0071740113 -0.15914074 0.04661134 0.24838993 -0.33256721 -0.07887151 0.10528305 -0.13941717 0.088700585 0.33925164 0.13990575 -0.037873346 0.16128182 0.18237306 -0.035903525 0.25681862 0.27659935 -0.0128142 0.4543868 0.13396843 0.14068076 0.23813339 -0.36029893 0.3792067 0.0011322947 -0.090498485 -0.02941004 -0.107816435 -0.13957742 0.24310894 -0.6369966 0.27610484 -0.36770844 0.30070734 0.2449813 0.120547704 0.16881242 -0.14195897 0.17802252 -0.15729824 0.5864698 0.09264399 0.18327586 0.04491445 -0.3823486 -0.18715617 0.012850847 0.19405906 0.777839 0.09320987 0.026949162 0.17042027 -0.5797352 -0.47076932 -0.1415194 -0.31955838 -0.06484865 -0.09147355 -0.13424806 0.042333916 -0.09414726 -0.20163289 -0.029889982 0.120114766 -0.122590736 0.45446455 -0.07601016 0.040036596 0.18818325 -0.49276942 -0.09615192 -0.2345125 -0.16192657 0.19223574 -0.14471507 0.044887636 0.18378207 -0.073864646 -0.09552424 0.046555527 0.041935097 -0.020278115 0.014602985 -0.42507863 0.011883112 -0.45960408 0.4730078 -0.11432691 -0.055762175 -0.08929173 0.06367641 0.20241325 0.0068239872 -0.8234117 0.03291198 0.12887314 0.007938112 0.54468596 -0.14432356 0.22617945 0.0004848152 -0.09024473 -0.105562784 -0.26470816 0.77394795 0.4130986 -0.1446526 0.078415565 0.05872597 0.167168 0.3430642 -0.0061677443 0.09792581 0.17892301 0.17458624 -0.34618267 0.19130862 -0.21132447 -0.38728422 0.03998042 -0.19717501 0.3900781 0.06365845 0.06153246 -0.2172013 0.13122906 0.0956735 -0.7036721 -0.118353136 -0.05316522 -0.008570644 0.28096932 -0.19821753 0.0011680044 -0.02020073 0.008554072 -0.21247739 -0.012534666 -0.18960759 -0.16583572 -0.15543912 -1.1374305 0.13978204 0.17175767 -0.0035243263 0.092008755 0.20500635 -0.045105867 -0.08111618 -0.54372877 0.19564112 -0.18965223 0.036109526 -0.054477304 -0.22003965 0.11749186 -0.06780808 -0.009000703 -0.18578239 -0.03776706 0.06403118 0.18197903 -0.18049255 -0.003268294 0.028112236 -0.029506635 0.03031688 -0.109636396 0.08384387 -0.05149987 -0.14980927 -0.241668 0.15460578 -0.24461958 -0.155776 0.01181674 -0.35934284 -0.52822703 0.03715023 0.09080999 -0.15443206 0.5363148 0.24826656 0.104088806 0.34247732 0.6422953 0.1078484 -0.32649264 -0.017309992 0.27971017 -0.08115999 -0.14633112 -0.11786565 -0.32716298 -0.61488676 -0.0949439 -0.2071554 0.17983045 0.53437924 -0.06480569 -0.1658641 0.20344919 0.12183406 0.046660025 0.5191333 0.073896505 -0.10576349 0.0159595 0.0779982 -0.03466151 0.120944455 -0.45157447 0.38591096 0.021884492 0.51912826 0.057105016 -0.018591652 -0.01964443 -0.055132948 -0.10927645 0.09471499 0.02800094 -0.13004814 -0.14654042 0.5189192 -0.07617718 0.079834916 -0.3243794 -0.07715533 0.15250205 0.29772556 -0.7004637 0.1753972 -0.25226793 0.12646668 -0.119669236 0.17690936 0.2868109 -0.4653771 0.16746995 -0.14774936 0.042392462 0.3550285 0.18758805 -0.082212254 0.99448293 -0.20325701 -0.044344224 0.19933736 -0.26306212 -0.7068716 0.028135367 0.08713097 -0.057773393 -0.059028324 -0.12262927 -0.061829723 -0.14858104 0.17949833 -0.2703091 0.18436629 0.1757614 -0.01614579 -0.5405243 0.09866048 -0.36400408 0.121716425 -0.15546466 -0.07090932 0.6345391 -0.0792219 -0.08040351 0.08234476 0.05427988 -0.6884048 -0.16149944 0.10304505 0.0641916 0.23486331 -0.21082948 -0.0075288303 -0.118721716 -0.11865764 0.0072707296 -0.005189875 0.024345431 -0.056292243 -0.24542922 -0.52753586 0.000838737 0.18516001 0.26698217 -0.7306376 -0.18714254 0.41970536 -0.09438797 -0.19644839 -0.218145 -0.110237956 -0.060559455 -0.3095655 0.051490657 0.15373738 0.1393576 0.03444555 0.5728996 0.089453705 -0.028843846 0.66373193 0.03407818 0.01606987 0.1270505 -0.88667303 -0.57065296 -0.25492585 -0.6943848 -0.12610044 -0.21994314 0.03098861 0.16282606 -0.11179124 -0.047912035 0.5770699 -0.12731157 0.027266353 0.10170174 -0.3809113 -0.15361413 0.084206246 0.0148324305 -0.06105422 0.106089585 0.0727413 0.28014657 -0.0015704301 0.080327205 -0.08090971 0.11969643 0.19330823 -0.9626292 0.12389366 0.047759205 0.30487543 0.08607449 -0.093417704 0.06828521 -0.07603178 -0.13984472 0.19756398 -0.25359786 0.071984425 0.09661644 -0.1902754 -0.25503644 0.114890695 0.17208324 0.12663168 -0.24486308 -0.69694924 -0.1325519 0.20208363 -0.00042314196 0.015906366 -0.12771365 -0.2172821 -0.13323729 -0.2754917 -0.067555815 0.04801845 -0.009876841 0.23238014 0.22723986 0.003144987 -0.5782411 0.06333373 0.025470676 -0.5986426 0.065984525 -0.17887734 0.21273874 0.11362601 -0.030823326 -0.014487728 -0.013848105 -0.43988833 0.07968207 -0.03757057 -0.85020393 -0.35171244 0.016225502 0.12164665 0.050725278 -0.43404475 0.31355214 0.18619642 -0.19016385 0.17654634 -0.65037763 0.09131822 0.25849855 0.2006024 -0.54016984 -0.22789492 -0.02936851 -0.18799773 0.08042181 0.012886669 0.25011176 0.11875132 0.024564037 0.20824143 0.070620775 0.09693365 -0.09813051 -0.059105482 0.32486835 0.0054705706 -0.3811636 0.27566433 0.07094289 -0.76844776 -0.15383327 0.39054435 -0.0991894 0.059846945 0.44948885 0.13137116 -0.09539609 0.17045723 -0.33600214 -0.083366826 -0.13862681 -0.22201817 0.0068993866 0.15306726 -0.047640394 0.18187763 0.037680686 -0.855004 -0.15336622 0.11443776 0.38000304 -0.42449075 -0.46206018 0.14919555 -0.20535645 0.17463158 0.1688019 0.05613629 -0.085862674 -0.21660972 0.06835948 -0.015786901 0.0879189 -0.27410308 -0.069423735 -0.08202526 -0.11390185 -0.1389829 -0.078596994 -0.219757 0.20020336 -0.06006107 0.10860161 0.15129268 -0.6085216 0.15317678 -0.6815877 -0.964953 0.11745088 -0.12616865 -0.12473463 -0.07522874 -0.347845 0.07300442 -0.103652045 -0.1723897 -0.13895132 -0.041034862 0.09711945 0.2526997 -0.1815916 0.011010599 -0.12016917 0.020274065 0.301298 0.4385913 -0.12125539 -0.0655154 -0.5449639 -0.14651297 -0.16054957 0.2023461 -0.17680994 0.37090978 -0.011429143 0.19751278 0.1612788 0.095439315 0.06903563 0.056125578 0.7042759 0.2268345 -0.02297285 -0.24337816 -0.5176732 0.03679013 0.0002106199 0.21221125 0.049239866 0.029304124 0.09275946 -0.48515394 0.13482589 0.102216035 0.44795087 0.043998793 -0.19113664 0.23417234 0.15059775 -0.079232454 -0.27135384 -0.15454657 0.025844403 0.059536863 0.5517068 -0.16531563 0.055907417 -0.12594084 0.0037043653 -0.10974719 0.14014812 -0.2195092 0.09283819 -0.19238771 0.11843482 0.0021854453 0.08325961 -0.015564026 
-0.021498773 -0.31335083 0.04041729 0.034182638 -0.049425427 0.1415915 -0.06444053 0.024624476 0.09584313 0.059597854 
