128 256
0.075125605 -0.32643652 -0.02633547 -0.19341421 -0.0699416 -0.21491066 0.12113779 -0.10167995 0.20748228 -0.020698365 0.24524826 -0.4645256 -0.1959193 0.028540779 -0.101301566 -0.16466811 -0.08767909 -0.119934104 0.110168226 -0.031921662 -0.013316507 -0.14588584 -0.029654754 0.33731458 -0.37222633 0.03803663 -0.1536795 0.018897412 0.08525181 -0.09072606 0.15084684 -0.2766355 0.020928878 -0.0743507 -0.03307218 0.00775027 -0.10544624 -0.4240745 -0.02266897 0.16104242 0.20274036 0.059239868 0.054102544 -0.0755556 -0.0449914 0.17903714 -0.052051514 -0.113643155 0.12982662 -0.062103406 -0.16615097 -0.004920738 -0.10146713 0.10347346 -0.13372491 -0.14638855 -0.28218368 0.2037202 0.070795104 -0.1694897 -0.15102987 -0.17475972 -0.10677628 0.20081595 0.11265776 -0.13082999 -0.13675524 -0.27126914 0.14769806 0.18677373 -0.3485767 -0.276496 -0.049204044 -0.09908285 -0.025387933 -0.27437758 -0.28513 0.16133654 0.16401751 -0.10393947 0.135555 -0.14808106 -0.10081576 -0.11507537 0.18131305 -0.22530688 0.015332253 -0.14497061 -0.27075824 0.04921842 -0.03403678 -0.096150704 0.005768991 0.08988713 -0.133437 0.034607608 0.00037796368 -0.35923687 -0.10495715 0.1000962 -0.11683075 0.09609019 -0.15456967 0.09384476 0.012864771 -0.27360335 -0.11776911 0.21364975 -0.11338804 0.15157497 0.030920789 -0.11493514 0.114775345 -0.28065777 0.17774208 -0.17781463 -0.010030934 -0.029007021 0.059472807 -0.06206703 -0.015775226 -0.18527229 -0.021830339 -0.51845264 -0.20397888 -0.29985473 0.028143542 0.018505717 -0.1053816 -0.032323655 -0.23814343 -0.04636962 -0.06329739 -0.50867945 -0.19394414 -0.40167513 -0.1936583 -0.20311113 -0.16261774 0.08293248 -0.033320624 -0.102775574 -0.103269175 -0.14624725 0.09102458 0.08500299 0.23618384 0.1216532 -0.08750285 -0.62733096 0.060030743 0.08587482 0.04057516 0.10299922 0.05357287 0.14333144 0.13678677 -0.20888452 -0.08733152 0.0105382 0.086230285 0.22136149 0.053160433 -0.108290985 0.26544335 0.19880046 -0.27348065 0.1502725 0.05979249 -0.09909726 -0.11739307 0.043087754 -0.034031413 -0.14737488 -0.051675517 -0.060104843 -0.08353271 0.017318046 -0.012825722 -0.03500696 -0.13325691 -0.3542093 -0.3413875 -0.114688896 -0.030945892 -0.020501938 -0.04136359 0.40846702 -0.14592394 -0.033331722 -0.15103687 -0.4129714 -0.035712987 -0.18362455 0.1113157 -0.030936452 0.11785175 -0.103137285 -0.10231091 -0.29267904 0.023568893 -0.21585897 -0.15480489 -0.14742328 -0.20978953 -0.03407445 -0.054543115 0.016217325 0.0217294 -0.12697563 -0.08281963 0.010798109 0.04671126 0.13113192 0.05302542 -0.4267874 -0.27524343 -0.062030405 -0.2610252 0.11633164 0.1442889 -0.29649088 -0.15633173 0.13068718 -0.049171016 -0.06948016 0.005209874 0.087522194 -0.33759177 -0.058276445 -0.090506226 0.17414626 -0.34478718 0.065695986 -0.11488359 -0.12645423 -0.11051203 -0.13537164 -0.5079079 0.094591334 -0.3981713 -0.03794474 0.05573583 0.12211102 -0.33407378 -0.11675115 -0.045520417 0.046513945 -0.04083492 0.044864193 -0.04482007 -0.15368228 -0.47022083 -0.07573083 -0.21798047 0.032789353 -0.06321529 0.07537828 0.14644337 -0.09815686 -0.0036395462 -0.3705109 -0.08904831 -0.10672832 -0.06337802 -0.3058292 0.105842665 -0.24032721 -0.07734999 0.02522361 -0.15237817 -0.14645937 -0.1313387 -0.11832216 -0.19576985 0.09508424 0.047885228 -0.04708828 -0.087882526 0.037257668 -0.07827479 0.18772635 0.0012264192 0.24792959 0.047002256 0.063558415 -0.21103437 -0.26015502 -0.24396446 0.017272905 0.10793193 -0.15826404 -0.10642704 -0.30245584 -0.01288846 -0.035337918 0.25224778 -0.07497273 0.013203578 -0.0059981984 -0.037234917 0.28215465 0.04848375 -0.27703822 -0.00800374 0.17042527 -0.17038542 0.03430317 0.07402692 0.015227897 0.0763988 0.03647059 -0.11881263 0.28484845 -0.082405545 -0.2522078 -0.296526 -0.01360241 -0.03348246 0.194203 -0.040218778 0.17925437 -0.069989465 -0.028534712 -0.39694026 -0.03063875 0.18909068 0.077360384 -0.028073274 -0.019817611 -0.19759405 0.10989615 0.13296494 0.028036559 0.08506398 -0.10165295 0.098608665 0.058237698 -0.17449237 -0.22330104 0.07375488 0.06382992 0.22976501 -0.02547603 -0.5518384 -0.05646232 -0.1160195 0.16967833 -0.0076728864 -0.20454647 0.049607623 0.19850782 -0.20662622 -0.024105296 -0.34978336 0.39743963 -0.1846691 -0.3212451 0.016613657 -0.19811572 0.105796576 -0.17321968 -0.11052312 -0.04790717 0.11102101 -0.13155103 -0.02727629 -0.06632586 -0.12355712 -0.040508393 0.24772358 -0.094397925 0.2402507 0.16888659 -0.10305984 0.124484666 -0.15877387 -0.30061594 -0.010212333 -0.20889275 -0.029489037 0.035810146 -0.07804727 -0.017836606 -0.058026526 0.05907221 0.1258529 0.05858946 -0.18550403 -0.07373027 -0.25270158 -0.14260043 0.16928951 0.14817639 -0.14613181 0.08171321 -0.09898649 0.021378178 0.16782875 0.07083159 0.130519 -0.12514633 0.19964506 0.11291333 0.06302501 0.1685451 0.011712563 0.19790582 0.085105345 0.14228527 0.16331424 0.18427221 0.18060017 0.03098653 -0.16936392 -0.16669689 0.03966496 0.11960166 0.121129215 -0.24784398 0.13670385 0.104780525 -0.09659363 -0.053102665 0.021970915 0.10441288 0.041653365 0.12368046 0.06952255 0.046947304 0.16612124 0.03176072 0.051252846 0.112979226 0.0009009909 0.096786775 -0.15973501 -0.06341443 0.117790304 -0.02206823 -0.077674076 -0.061974704 0.1367001 -0.15218702 0.095143974 0.0009229291 0.2175108 -0.01772719 -0.17949554 0.15613312 -0.22116885 -0.009623336 0.037063457 -0.10851726 0.16289763 0.060256388 0.102973446 -0.079417065 -0.051723573 0.0810659 0.21845444 0.1512706 0.07926524 0.11883015 0.12450991 -0.08827793 0.09659947 -0.23528782 0.11046245 -0.022664888 -0.045551702 -0.029216088 0.17103553 -0.01301843 -0.11571037 -0.11879675 0.10075615 -0.13577543 0.103242755 0.08739969 -0.04221654 0.06470799 -0.021810228 -0.3205749 0.091885775 0.26929888 0.10204292 0.082749724 -0.13733001 0.23445466 0.13962215 0.13453192 0.035837073 0.0053494573 -0.3360867 -0.087552674 -0.14721328 0.15178038 0.12978582 0.07908833 -0.092062786 -0.14112201 -0.20547892 -0.10146991 -0.18664297 -0.15096323 -0.08085671 -0.11779535 -0.29130107 0.04903361 -0.03051481 -0.11272783 -0.010152552 -0.3442997 0.07380298 -0.012712394 0.031563625 -0.1560089 -0.04546944 0.00620917 -0.063065335 -0.23503454 -0.36032808 0.022134468 0.07611278 0.091616325 0.020571942 0.10871751 0.055515774 0.039405707 -0.06472234 -0.006773109 -0.11858565 0.047846727 0.046901293 0.029734503 0.15794912 0.08583211 -0.13964948 0.2686482 -0.17743383 -0.14355429 0.056180652 -0.28854373 -0.28234997 0.079028375 -0.19646047 -0.055462275 0.11184038 -0.32057545 0.24281609 -0.08274935 0.038104773 0.009755097 -0.111122176 0.00048799976 0.06671422 0.2486753 0.09501948 -0.13882801 0.27251244 0.04533741 0.05759303 -0.002543259 0.0018517306 0.057651356 0.07445664 -0.07100842 -0.08215218 -0.2081333 -0.21693742 -0.15684803 -0.035653774 0.057635717 -0.109886535 -0.2010122 -0.01917238 0.17117625 0.07631172 -0.10234715 -0.072958715 0.08249437 -0.115813434 0.23012051 -0.21332644 -0.08224347 0.004800485 0.021828936 0.21334496 -0.06832615 0.050645303 -0.09268572 -0.053445134 0.014444804 -0.09959748 0.13785177 -0.0031869174 -0.041224305 -0.019263798 0.0029496711 -0.22639951 0.094091915 -0.35828987 -0.38088924 -0.017996492 -0.2283459 -0.036185086 0.024708323 0.044273715 0.15796204 -0.124167904 0.19279589 -0.18187885 -0.15535128 0.15687935 -0.1529149 0.12499312 -0.24408762 -0.12939267 -0.19842236 -0.0060653244 -0.23604055 0.025706368 -0.0065354076 -0.11853341 -0.13534953 0.032451287 0.0786802 -0.20592926 -0.21932048 -0.07936216 -0.2638302 -0.020520477 -0.1646237 -0.0046411413 -0.20578288 -0.17027499 0.06043682 -0.12643994 0.116616495 -0.20521192 -0.11524712 0.13496567 0.0045922315 0.085013844 0.097764835 -0.19239943 -0.025246348 -0.15825379 -0.035061147 -0.24853073 0.054902542 -0.014104564 -0.32890466 -0.1932599 0.110863626 0.21401513 -0.07307136 0.124477275 0.019542493 -0.060596265 0.046055447 0.1679406 0.17870189 0.21356055 0.058422733 0.10422074 -0.05791777 0.078204714 -0.018436655 0.077437125 -0.3911461 0.0013109789 -0.2518839 -0.09467492 0.063945405 -0.04134459 0.083954446 -0.3415978 0.009070063 0.09372045 -0.052139807 0.13253029 -0.018774254 0.18367234 0.06388813 0.14985554 -0.06352112 -0.071389206 -0.0411852 0.074124 0.0716288 -0.10534778 -0.024312947 0.1437162 -0.039129913 -0.2429757 0.14234614 -0.29502997 -0.5675461 -0.077760704 0.046357106 -0.08872762 -0.07368636 0.16029398 0.28292486 -0.07236863 -0.18488076 0.22669673 0.038222015 0.08882017 0.15976293 0.012882342 0.076707475 -0.049309213 -0.06471672 -0.20839939 0.10821326 -0.04892613 0.26234192 0.13633317 -0.054653298 -0.0118888505 -0.21925382 0.043949634 0.11014227 0.024422593 0.2339544 0.17592622 0.06115585 0.05004953 0.09155257 -0.2980648 -0.0888992 -0.07868206 -0.1769702 0.113392964 -0.026730914 -0.1301357 -0.27985278 -0.20586637 0.0010880252 -0.08394703 0.107137255 0.1535784 0.1689631 -0.13546279 0.22422831 -0.020211078 -0.05662546 -0.095459186 0.12552255 0.20557061 0.08317749 -0.08855808 -0.045898695 -0.17536184 0.08870074 -0.41184008 -0.036714867 -0.053087123 -0.019712454 -0.03777684 -0.052035004 -0.022963494 -0.13819517 0.18631664 0.014320964 -0.17219089 0.09416068 0.08950606 -0.12461357 -0.17970586 0.031289425 -0.29287323 0.19706184 -0.21602182 -0.09497908 0.22972317 -0.12601233 -0.097166345 -0.050881412 -0.2330728 0.04144002 0.054273907 -0.0022594922 -0.039619 -0.027938366 0.08023757 0.05155934 -0.083679326 0.21222924 0.05005913 -0.46985427 -0.115247354 -0.08700007 -0.10269923 0.096367344 0.07899761 0.13636343 0.107765235 -0.25103435 -0.08145575 0.10366222 0.00046074405 -0.019483875 -0.29857597 -0.39914918 0.2860823 0.088403374 0.17083697 -0.04958456 0.07329294 -0.21202278 -0.079311855 0.12993617 -0.25165847 0.15242566 0.100269794 0.024554804 0.0631651 -0.42323545 -0.09823656 -0.3120866 0.10025825 0.32883716 -0.28569654 0.10472702 -0.10423795 0.17011197 -0.086926036 0.03082462 -0.028753584 -0.042952813 0.06827237 -0.063509285 -0.28350058 0.0914096 -0.092968844 -0.21015336 -0.05331081 0.02385518 -0.16796231 0.08347069 0.1352607 -0.06350284 0.030815383 -0.11944869 -0.0064640124 -0.03244701 -0.074255586 0.06323329 -0.36978367 0.19998297 -0.09478899 -0.09670631 0.09361866 0.059433993 -0.15641023 0.18094921 -0.051129743 -0.16706146 0.08553278 0.06478418 -0.13155816 -0.042746022 -0.15092012 -0.12112232 0.019713026 -0.34274936 0.21096955 0.12988889 0.0604453 -0.09757457 -0.1727075 -0.2548946 0.03597732 0.14826466 0.07077407 -0.092137344 -0.28218466 -0.08583476 -0.2177562 0.01934273 -0.10742296 -0.28025022 0.06573836 -0.11542549 0.056127485 0.21318057 -0.05965701 -0.24132922 0.04807057 -0.070502326 0.048802562 -0.053862352 0.36296955 0.031839665 0.014722246 0.06495495 0.02630246 -0.04467021 0.1620367 0.10549731 -0.00086318055 0.053700186 -0.16427119 0.10601196 -0.04873868 -0.16492952 0.048820864 0.02119079 -0.20944276 -0.10970473 -0.22069104 0.024439357 -0.13702382 0.051517136 0.21657921 -0.18714108 -0.13831186 -0.27334255 0.19930749 -0.12077393 0.09289769 -0.020369455 -0.25489232 -0.101884566 -0.026120432 -0.12855734 -0.103328 -0.14972097 0.15194015 0.27287358 0.23670435 0.01737364 0.15885006 -0.020771157 -0.17392728 0.115786575 0.01567147 0.037424095 -0.02103695 0.07323827 -0.10228898 -0.106238455 -0.14962856 -0.056292437 0.2924494 0.073038034 -0.0012954194 0.116953254 0.113300644 -0.09712896 -0.25751132 -0.103901096 0.11500333 -0.10124856 -0.040678065 -0.005833401 -0.17940673 0.15843119 -0.32988176 0.17253 0.06463764 0.026455875 -0.030335113 -0.0694438 -0.079133 -0.08308219 0.16874333 -0.18146145 -0.120293416 0.024842262 0.1465756 -0.18219526 0.00021905302 0.15854335 -0.019047847 -0.18309075 -0.24724518 -0.11936228 0.34455022 0.024201892 -0.1681826 -0.1208267 0.08853922 -0.066606276 -0.09421255 -0.13218349 -0.26670313 -0.2594122 0.17237589 0.08588996 -0.14781483 -0.2216632 0.114841715 -0.10781181 0.06818929 -0.050761994 -0.21237072 -0.014873993 -0.03815413 -0.25637597 0.09854591 0.13656737 0.13727386 0.19372097 -0.111411706 -0.027122112 0.014622739 0.106653124 0.03027478 -0.19284216 0.09739462 -0.35035932 0.08625266 -0.36810124 -0.08059314 0.210022 0.1294673 0.002935096 -0.46630743 -0.11486857 -0.009347646 -0.28344712 -0.056181233 -0.119685195 -0.25639385 -0.104756616 -0.11936274 -0.088997684 -0.18309487 -0.21703592 -0.14311126 -0.07385657 -0.11392412 -0.086683065 -0.309823 -0.13285658 -0.041105025 0.14765452 -0.039426368 -0.076779276 0.064845175 0.015269617 0.07452005 0.1722897 -0.1060879 -0.09728642 0.04685971 0.020828614 -0.2490563 -0.09309938 0.006470957 0.017136654 0.1293471 0.36245438 -0.24995756 -0.26820993 -0.0953196 -0.40797815 -0.097276464 0.18184118 -0.42514458 0.023903131 -0.064365454 -0.06652245 0.049037337 0.21392518 0.025283214 -0.20909815 -0.013398191 0.1657965 -0.019821975 -0.29816452 -0.08478 0.26321188 -0.10626241 -0.4734528 -0.24273229 0.21517074 0.36582732 0.07675522 -0.2395957 -0.14949186 0.05421713 -0.06919112 -0.061894298 -0.04838287 0.16712563 -0.35411534 -0.44587356 0.03326059 0.056128442 -0.45599666 -0.089100815 -0.040699273 -0.29114902 -0.11477554 0.049403563 0.04739295 0.049458165 0.0053882003 -0.111090496 -0.027974317 -0.3339305 -0.17327034 0.03647058 -0.29355735 -0.3064154 -0.14742145 0.18047406 -0.030559096 -0.015316666 -0.21334875 -0.18049215 -0.13104948 -0.02683518 0.23421532 -0.24059688 0.17529634 -0.013910589 0.5538716 -0.13818552 0.14509659 0.16800769 -0.07905427 -0.21561432 -0.23458566 -0.10795836 -0.55092674 0.0430295 -0.08096281 0.102767065 -0.12016022 -0.024998879 0.066942744 0.0500491 -0.35475788 -0.057174016 -0.27317208 0.085777834 -0.07924841 -0.13179238 -0.018477803 -0.025619715 -0.3041395 -0.07991427 -0.13089623 0.018491047 -0.080843806 -0.25773224 0.04257819 -0.42423272 -0.08122606 -0.14404431 -0.03810453 0.03156583 -0.17806752 -0.21482044 0.020349951 -0.22078434 -0.053069074 -0.006970881 -0.20134465 -0.15068777 0.19393453 0.2594247 0.086280316 -0.4369101 -0.22778822 -0.36038938 -0.5065398 -0.10674215 -0.045230433 -0.4291138 -0.30908036 -0.255938 -0.061801195 -0.10743026 -0.44404957 -0.20632368 -0.027985761 0.11659437 -0.2392609 0.031727284 -0.1294703 0.17826903 0.09822186 -0.19171879 0.18116175 0.047628593 0.1370996 -0.028207516 0.010466382 -0.18023561 -0.16798703 -0.20027536 0.3036054 -0.0914227 -0.06801693 0.014599318 -0.07329941 -0.19192857 -0.106860176 -0.5174677 -0.06427443 0.19212691 -0.4361575 -0.13602465 0.15383367 0.14241377 -0.03309964 0.11397625 -0.09599652 -0.010725223 -0.21426211 -0.08472961 0.0012463467 0.032445274 -0.10619134 -0.21289305 -0.043410625 0.1828758 -0.09630024 0.20707868 -0.34376785 0.35282084 -0.124932565 0.1545745 0.09138339 0.094415314 -0.11172328 0.044049222 0.036680486 -0.32279098 -0.09645897 0.15584561 0.0026923693 0.21620034 -0.22138737 -0.36486804 -0.24345107 0.1435557 0.19656627 -0.114436306 0.06682316 0.0032873885 -0.13377477 -0.41555345 0.19457974 -0.1870188 -0.1853623 -0.05579413 -0.025653265 0.035547484 -0.07341867 -0.35600677 0.016541226 -0.054629065 -0.107429154 -0.1422873 -0.14062583 0.09443351 -0.15721102 -0.12077616 -0.0075246394 0.15341672 -0.26895517 0.11647353 -0.10991434 -0.33358487 -0.011310311 0.037068103 -0.10457165 -0.20092449 -0.2680838 -0.065106094 0.14839694 -0.113890745 0.025913248 -0.037710626 -0.1241901 -0.1595337 0.010997713 0.045512415 0.06176843 -0.1058919 0.018753665 -0.07652424 -0.14267668 -0.006531408 0.009280004 0.022630831 -0.038179748 -0.014110896 -0.018725479 -0.09681472 0.11111909 -0.007845224 -0.19616891 -0.10799598 0.010647804 -0.08434235 -0.1443401 0.069376394 -0.10632577 -0.0031476263 -0.08135097 -0.017193675 0.04505753 -0.05304397 -0.16495396 -0.124071576 -0.01879948 -0.030797144 -0.049071666 -0.15175483 -0.01093499 0.010875987 -0.07550651 -0.15419567 -0.0074560936 0.061186403 0.03132001 -0.014935159 -0.17719078 0.048576284 -0.06453405 0.0682944 -0.19020356 0.037517447 -0.061840903 -0.12424232 -0.085604064 0.012492557 -0.0891952 -0.12895124 -0.022199946 -0.087649286 -0.15890346 0.0033131242 -0.017270366 0.08632678 -0.14718394 -0.15550189 -0.043934308 -0.14677139 -0.075558454 0.022346513 -0.057141118 -0.08071628 0.115897745 -0.03667474 -0.08587701 -0.062292457 -0.063412815 -0.06066893 0.011243314 0.09105912 -0.10713578 0.057206333 0.092870116 -0.22720024 -0.038986236 0.01799934 0.105324425 0.027085124 -0.024949234 -0.0444456 0.056916695 -0.11565312 -0.032105166 -0.12065594 -0.040786892 -0.09652513 -0.056603048 -0.05311075 0.01710375 -0.08814151 -0.1323681 -0.097596295 -0.026178328 -0.2320255 -0.03143612 0.0036245931 -0.07821762 -0.05347763 0.045032177 0.12424445 0.033981107 0.072204284 0.047364533 -0.10385999 -0.07760051 -0.029223114 0.032191236 -0.012150478 0.06771092 -0.01662317 -0.12739997 -0.09009799 -0.08624695 0.041223824 0.031830415 -0.008837833 -0.0544807 -0.122867785 0.015054494 0.01630294 0.056494907 -0.060706925 -0.14852847 0.038411636 -0.0061093415 -0.031400766 -0.13941681 -0.014831689 0.12079367 0.0975588 -0.092376366 -0.09303214 0.122633465 -0.11859746 -0.11666134 0.06887848 -0.14725949 -0.079682365 -0.10314267 -0.034769557 -0.06467463 -0.05654475 -0.10167786 -0.21162064 -0.027046433 -0.020608664 -0.17846999 0.01521713 -0.05261464 -0.10341672 -0.012807711 0.00063269737 -0.115614176 0.003802965 -0.17058572 -0.061361242 0.108017825 -0.022718333 0.02544303 -0.08734004 0.116652995 0.08320011 -0.08470143 -0.18569866 -0.10113163 -0.08420438 -0.15248093 0.05067984 0.066992566 -0.07105852 0.013158603 0.07313068 0.11037713 -0.06548655 -0.103404105 -0.022212269 -0.15137558 0.0036259592 -0.039807767 -0.08487982 0.0804512 0.061933506 -0.17231184 -0.02994505 -0.09513205 -0.030526966 0.07316685 -0.026348533 -0.004149491 0.024116328 0.048373464 -0.12345907 -0.063587576 -0.07946536 -0.07150495 -0.07911819 0.07289096 -0.12482485 0.005215688 -0.035299413 -0.19178547 -0.1459606 -0.1475101 0.06766299 -0.007810189 -0.026105087 -0.13147302 -0.008088565 0.0047146445 -0.020196967 -0.0021083194 0.0142327845 -0.00044186198 0.062413774 -0.09108508 0.1112977 -0.0010816264 -0.060353093 0.10311334 0.10849753 -0.109616704 -0.033647507 -0.07573491 -0.02874951 -0.12867473 -0.0712606 0.06553736 0.03551051 0.056270093 -0.051958356 -0.14489637 -0.15460075 -0.04370451 -0.039070953 -0.04138265 0.039655175 0.06282078 -0.016423032 -0.058891937 -0.109219775 -0.123537526 -0.07373968 -0.13486713 -0.18157676 0.021064635 -0.06795308 -0.0793705 -0.045314826 -0.13225466 -0.054609057 -0.083678186 0.11078075 0.060397815 0.14259036 -0.2688396 -0.05183686 -0.10325695 -0.10655844 -0.088211335 0.13363308 0.0668305 -0.087290674 0.0014851054 -0.030221079 -0.05088076 0.06726839 0.0024175486 0.0010543063 -0.016146056 -0.12834452 -0.0145060085 -0.26859853 0.13747188 -0.06598986 0.11273604 0.073637985 -0.022788018 -0.030825766 -0.049157184 -0.21110345 -0.078199446 0.031779863 -0.036099926 -0.39083785 0.037779834 0.09476762 -0.001085845 0.14349122 0.019814547 -0.0823216 -0.06775414 0.09713319 0.03809455 -0.11505273 -0.10642811 -0.122585125 -0.1231526 0.019076142 -0.22950941 -0.13350879 -0.15382607 0.041800395 0.1711228 0.06703414 -0.19994326 -0.097382836 -0.1918635 -0.035742998 -0.05331044 0.08924826 0.07637687 0.10121017 0.09030105 -0.035292998 0.11921903 -0.21891019 0.17030035 -0.0014960032 0.08004211 -0.07319457 0.078324564 0.087543346 -0.11915174 0.3115097 -0.018539816 -0.0387492 -0.09878861 0.17254676 -0.02966955 0.09221844 -0.14127272 0.0074092285 -0.20815836 -0.143663 0.048840955 -0.15570563 0.003945528 -0.18191679 -0.12022374 -0.1072743 0.08120416 -0.066991635 0.018980661 -0.15884832 0.02118826 0.0010751744 0.06594774 0.08757766 0.020890053 -0.07118977 0.006700044 -0.14941514 0.07177396 0.056039512 0.13931096 0.007921423 -0.1160454 0.047955576 -0.23486802 0.06392242 0.08736805 0.025988812 -0.18782534 0.028602336 0.07262343 -0.009308313 -0.20448764 0.1170542 0.023786314 -0.18073048 -0.053855073 0.049483128 0.054768525 -0.06385691 -0.098072775 -0.03296868 -0.035785817 -0.053394217 -0.08221847 0.11039904 -0.055997 -0.25205544 0.008279601 -0.073199086 -0.050933104 -0.050444245 0.0016287429 -0.027110783 -0.27347857 -0.1492108 -0.06397081 0.07396097 0.013430718 -0.04699663 -0.074707285 -0.22838557 -0.1741214 -0.15429962 -0.039135285 -0.04185884 -0.14216791 0.11194228 -0.24131203 0.040619064 0.15794739 0.053206827 -0.1536507 -0.06479381 -0.31016147 0.091485284 0.037395805 -0.06045564 0.13450177 0.021526061 -0.041778397 0.009885639 -0.023844067 0.05609795 0.11619733 -0.073703885 0.027655326 0.07654737 0.060725726 0.06666215 0.11925133 -0.40105468 -0.06638468 0.10947496 -0.12446873 0.1082747 0.08906159 -0.10906556 -0.07488114 0.03160437 -0.21850467 -0.030702692 -0.08566208 -0.07715767 -0.018798837 0.0643791 -0.009036333 0.052891735 -0.073928386 0.107738905 0.021160152 -0.14880362 0.07648962 0.089341655 -0.13871604 -0.19270293 0.15053082 -0.12049509 -0.042453744 -0.065433025 0.041382916 -0.090845026 -0.10722259 0.07103377 -0.109268546 0.052714225 -0.100421034 0.05196576 -0.07741805 -0.13056095 -0.0032534315 -0.0041587725 -0.029156601 0.17171365 0.054980427 0.13748388 0.24534872 0.24945267 -0.11520529 0.013675456 -0.30269563 0.03840254 0.09486153 0.12499328 -0.115322955 0.0090011265 -0.049086977 -0.06365482 -0.094680056 -0.07415572 0.17024434 -0.10316493 0.005749913 0.0925515 -0.045822978 -0.036390472 0.16124445 -0.044874623 -0.14879669 0.04037265 -0.20527413 -0.11192196 -0.26073417 -0.1756157 -0.02110859 -0.26626104 0.11256934 0.2842603 -0.153118 0.09834768 -0.2851208 -0.16753232 -0.0143330805 0.47275648 0.09039178 0.07294366 0.033445504 0.10970979 0.048903678 0.040665176 -0.06942538 0.08344559 0.22083007 0.05150532 -0.21474181 -0.16842635 -0.044873863 0.0025288246 -0.072094545 0.056230128 -0.1951667 0.07503761 -0.036805637 0.18784472 -0.014587672 -0.20313583 -0.044451017 -0.08293242 -0.3660266 0.014111783 -0.18753445 -0.15023558 0.120151706 -0.04187076 0.16175565 -0.0455567 0.045882396 -0.13418575 -0.063102596 -0.2560261 -0.05458236 -0.09573471 -0.025730023 0.025564529 0.20927945 0.069722734 -0.09159726 0.10654513 0.010323076 0.110508606 -0.08327484 0.047088165 0.08335487 -0.05619447 0.2731335 -0.19019955 0.04961969 -0.0508517 0.025713768 0.03941149 0.16463594 0.053801633 -0.3912585 -0.36674184 0.046842564 -0.10810339 0.02521523 -0.031963218 -0.2678524 -0.037138384 -0.031209735 -0.15156573 0.069119476 -0.11293757 -0.0580123 0.024006585 0.035480168 -0.058781724 -0.3622184 0.37528297 0.15834165 -0.17140788 -0.39119124 0.08423172 0.06723559 -0.6407105 0.06539254 0.040695462 0.096524075 0.09332398 0.12019367 0.071203865 -0.19453853 -0.17753711 -0.042201642 -0.052791998 0.09878788 -0.03900538 -0.06522759 0.16555256 0.04870981 -0.11449577 -0.34831196 -0.025557753 -0.045342054 -0.049866408 -0.16615705 0.028741091 -0.088973336 -0.423853 0.038840953 -0.2685542 -0.10889941 -0.21364126 -0.2542436 0.13641404 0.1565932 -0.04919653 0.010009888 0.08655492 0.05128142 0.07520839 0.18945913 -0.22875361 -0.08501678 0.050308786 -0.115259245 -0.1326573 -0.014674961 -0.080619395 0.14364989 0.06508473 0.167671 -0.16935672 -0.3217023 -0.3647796 0.09983921 0.05987824 0.018806895 0.12899384 0.19766581 -0.17212969 0.0073782275 0.061889187 -0.011276713 -0.24394336 0.08540744 -0.03840637 -0.1370968 0.025141736 -0.21091582 0.16448979 -0.21834008 -0.0061513633 0.008277754 -0.13491917 -0.16596855 0.0687591 -0.39788687 -0.039688054 -0.058181096 -0.169153 -0.142439 0.044737592 0.02044755 -0.014407322 -0.0034459697 0.08833006 0.060565006 -0.0309844 0.030273603 -0.4014049 -0.09922266 0.060856804 0.090026215 -0.16321443 0.021463316 -0.27375653 -0.056118447 0.28991064 0.082305014 -0.09306618 0.032253586 -0.10637872 0.19691841 0.20026791 -0.19046985 -0.6434264 -0.11773295 0.13474576 0.18889974 -0.07532275 -0.0436373 -0.09788351 -0.07241911 0.06242524 -0.025409168 0.12904409 0.25905496 0.18185046 0.13649994 0.1292644 0.08497642 0.1233113 -0.06037366 -0.17342223 0.29174557 -0.040524267 0.021277737 -0.07469182 0.016186107 0.25058052 0.16838014 0.012847233 -0.015540411 0.14839122 -0.1923318 0.012971222 0.13532986 -0.006406328 -0.031927645 0.07683033 -0.01930981 0.01662853 -0.066010155 -0.25978488 -0.05780541 0.06813091 -0.09795441 0.36507833 -0.14536004 0.009254618 0.07346988 0.07060202 0.038622405 0.13326141 0.036645148 -0.07201003 0.03939273 0.05519755 0.063845545 0.09165369 0.10148934 0.0828263 -0.16007933 0.18943857 -0.15103272 0.059469536 0.068845406 0.09494287 0.01034009 0.2443623 -0.06660668 0.084512495 -0.018897457 -0.1074036 -0.020887675 -0.1177947 -0.010615999 0.086274974 0.06764848 -0.13184789 0.023913788 -0.059442014 -0.114765465 -0.08629956 -0.045353424 -0.053371172 0.06475796 0.08900937 0.05943165 -0.09191707 -0.119868755 -0.0028062516 -0.050450824 -0.06441332 -0.16112755 -0.21261975 -0.093860336 -0.19572905 0.013529879 -0.042480335 0.028957732 0.05136898 0.008016581 -0.14099202 -0.088718 -0.12815794 -0.11629753 -0.07928024 -0.12442679 0.007960488 0.0016371746 -0.06728542 0.077443495 0.0097036995 0.042628657 0.03397271 -0.032482207 0.06510854 -0.15645802 0.036183108 -0.11397563 -0.15484907 -0.16552097 -0.017697833 -0.054929767 0.08082391 -0.050855633 0.13018285 -0.09698873 -0.048244983 -0.010667911 0.08937839 0.00719465 0.043173455 -0.085574746 0.026206268 -0.13240246 -0.020528445 -0.09153845 0.067033276 -0.10500622 -0.10102045 -0.023343684 0.06328442 0.08319256 0.0030122865 -0.053114366 -0.08981103 -0.045481645 -0.04580017 0.04486385 -0.107180834 0.00222868 -0.061083738 -0.05682851 -0.10091225 0.06044083 -0.08260022 0.016345037 -0.016850865 -0.083639674 0.022246929 -0.056536205 -0.0012632014 0.033798292 -0.021307468 -0.12338228 0.022154177 -0.095876694 -0.095166266 -0.083041646 -0.039060716 -0.15767093 -0.18126057 -0.13239215 -0.19185291 -0.054022394 0.08401808 -0.191917 -0.055005424 -0.022346873 -0.09190232 -0.06304762 -0.1262905 -0.14644755 -0.04231092 -0.17247692 -0.17448507 0.0045237807 -0.01297377 0.049470007 0.090189695 -0.0010302078 -0.064407796 -0.15931489 -0.11927246 0.036667094 -0.11422742 -0.0052819103 -0.14646329 0.092948645 -0.15738077 -0.011649819 0.002735747 0.017329536 -0.11101587 -0.16304517 -0.14751464 -0.008621549 -0.117808945 0.07958291 -0.04474935 0.090116076 -0.098239854 -0.06490486 0.047321007 -0.010001728 -0.023649398 -0.030242214 -0.01996528 -0.16529441 -0.18421763 -0.069423914 -0.0025418361 -0.1787542 -0.13066244 -0.054379236 0.014440651 0.010584961 0.0533972 0.1068275 -0.023916433 -0.18590435 -0.11239776 -0.060371917 -0.04982115 -0.22860187 -0.07047448 -0.029972317 0.12217111 -0.03922586 -0.17189933 -0.027543372 -0.19964235 -0.19560526 -0.14303592 0.033016495 0.07799216 -0.11627702 -0.06235541 0.0043614525 -0.037530262 -0.02357988 -0.1383229 0.113845274 0.07463576 -0.15270174 0.0017494896 0.017517688 0.08124609 -0.11496854 -0.14557917 -0.09489468 -0.02335209 0.028977688 0.019266037 0.03212896 -0.107933976 -0.104623675 -0.030566016 -0.23276749 -0.053971168 -0.09093735 0.10682621 -0.078544155 -0.026514024 -0.02925616 -0.11315243 0.062445205 -0.003813596 0.028605253 0.11449015 -0.016070662 -0.11802685 -0.09544496 -0.030479867 -0.057627153 -0.07893049 -0.09582689 -0.12724471 0.029429587 -0.052260607 0.10107106 0.008609495 -0.07726114 -0.024056165 0.105047345 -0.00059933425 -0.096290246 -0.09745556 -0.1966724 0.10024367 -0.05691671 -0.056898814 -0.12520452 -0.06426785 0.030190704 -0.021448096 -0.048021913 -0.02953537 -0.062337887 0.005035235 -0.03582502 -0.102829814 -0.091818035 -0.090680175 -0.107989684 -0.058247875 -0.03993323 0.0069137067 -0.055730686 0.08435556 -0.14480154 0.046104215 -0.10874195 -0.03737866 0.008544905 -0.14883561 -0.040336654 -0.5846598 -0.24749811 0.187895 -0.17094782 0.1738823 -0.087791294 0.035454843 -0.19979492 0.18151261 0.053401656 -0.00244316 -0.012888116 0.08969143 -0.13941453 0.050320484 -0.48530093 0.04067584 0.03281582 -0.021365995 0.23305514 0.0497974 -0.45047086 0.039669733 0.15464756 -0.28951544 -0.1916128 -0.056765847 0.34282607 -0.08751496 -0.051831566 0.12750049 -0.049765214 0.11364733 0.23285948 0.14055364 -0.011398186 -0.1038795 -0.044002384 0.07151387 0.021475662 0.22973992 0.07852093 0.074734606 0.1295684 0.096211396 -0.033645265 -0.13954045 0.11060513 0.14380401 0.17419024 -0.053712003 -0.16205692 -0.038269017 -0.30208668 0.09444966 -0.14838994 -0.016159307 -0.24352087 0.088635735 0.024290783 -0.05766946 -0.23327595 -0.0067560137 0.10195634 0.21884783 0.17339297 0.26854143 0.16872196 0.11043167 0.18912235 0.19919546 0.08558364 0.174369 -0.1049426 0.14657284 -0.06226717 0.027120868 0.09944789 -0.07817326 -0.03747962 0.104381174 0.14493094 -0.13095547 -0.09943092 0.042143326 -0.25703678 -0.2514688 -0.015609656 0.002360079 0.04025024 -0.115192875 -0.03537113 0.08446292 0.111501746 0.01692875 -0.27799708 0.23908411 -0.02148867 0.22496998 0.077472866 0.12828583 -0.15384197 0.17130886 -0.032257635 -0.0315249 0.04503029 -0.042242687 -0.016249252 0.10163028 0.019186381 0.29180607 -0.17911841 -0.2020428 0.17616254 0.115696646 -0.043276478 -0.025692634 0.14492787 -0.08036097 -0.081930645 0.11528748 0.021836912 -0.038415335 0.08855973 0.17049012 0.051634032 0.04037265 0.055098236 0.038023427 -0.07472918 0.09326395 0.14050563 -0.04495239 0.08953134 0.06727372 -0.12329478 0.10491795 -0.10989001 0.17740056 -0.17283143 0.07350506 -0.21858911 -0.16301836 -0.023869928 -0.13016352 0.18767408 0.004048867 0.0020824787 -0.13240299 -0.036029022 -0.08702854 0.101222605 -0.19522318 0.076609455 -0.07547991 -0.28087914 -0.015729703 -0.011164948 -0.05357044 -0.24968831 0.03972748 -0.03157912 0.10402957 -0.04643302 0.24274221 -0.039105758 -0.020871637 0.08538533 -0.14885524 0.0039675687 -0.015303017 -0.09244765 0.1977246 -0.041113794 0.059427254 0.3093046 -0.17547193 0.04204746 0.22939831 0.065136656 -0.0179479 0.118354246 -0.040441025 0.08161694 -0.18309169 -0.06330046 -0.047345284 -0.022393918 -0.06629193 0.04369385 -0.13567828 -0.12541676 -0.019809613 0.085176714 -0.09844102 0.049017243 0.09807792 -0.19100244 0.0064385515 0.088056974 0.05345977 -0.31976035 -0.094069235 0.031487823 0.033657156 -0.26489466 -0.173365 0.0055107526 -0.032760706 -0.26335487 0.02425086 -0.5170456 0.1195784 0.11252072 -0.4196454 0.034450307 0.09436161 0.014541308 -0.13534075 -0.20044723 0.014751883 -0.18242176 0.02133859 0.1764288 0.20673485 -0.5742503 -0.13137558 0.15128219 0.08483054 -0.1739231 -0.27531785 0.020662341 0.06953834 -0.00067562936 -0.034080863 -0.12963285 -0.13819525 -0.014661792 -0.03781215 0.17382208 -0.06403799 -0.08509827 -0.08140836 0.058810074 0.06537597 0.2934642 0.038428232 -0.057467885 -0.058984783 0.18086131 0.2997185 0.014729789 -0.19211821 -0.02241536 -0.14321323 0.01979324 -0.114335716 0.13850953 -0.11253189 -0.1016001 -0.39713296 -0.078718945 -0.14671397 -0.025031561 0.09415472 -0.16683513 0.20144074 0.01769692 -0.09041524 0.25666732 0.001174778 0.037726153 -0.01672566 -0.06765208 0.0997689 -0.03619513 -0.15656222 0.06892204 -0.16842555 -0.17411768 0.20221591 -0.2628006 -0.06277261 -0.049581368 0.0030021428 0.28299156 -0.18469417 -0.14704275 0.122950286 -0.24161875 -0.1898528 -0.290199 0.03555749 0.18623357 0.09235162 0.02037603 -0.025567226 -0.034329645 0.06662982 -0.031102043 0.02505551 0.07248747 -0.11733891 -0.124728374 0.25705314 0.26181796 -0.07850379 -0.014065704 -0.032425236 -0.0023569001 -0.084807515 -0.19382927 0.050439987 0.08856741 0.09990935 -0.04117964 -0.13356274 -0.17103896 0.001179845 0.13379526 -0.15167083 0.0987433 -0.26169026 0.032762174 -0.07417004 -0.39243278 -0.11996503 -0.0627298 -0.020866383 -0.06480549 0.12071457 -0.32875544 -0.01692989 -0.04229574 0.070130415 -0.024138229 -0.013658261 0.2539506 -0.19435242 -0.20105785 -0.28832337 -0.049089056 0.06452144 -0.071145535 -0.15695883 -0.24915656 0.17955178 -0.20036826 0.023478968 -0.055019043 -0.268778 0.09690407 0.22638823 -0.21305472 0.20376557 -0.14601824 0.072669216 0.07989824 -0.1598437 0.12043744 -0.44603384 -0.11635959 0.15466467 -0.048998278 -0.03053806 0.08209658 0.00121911 0.015215466 0.14346999 -0.2512198 0.0925406 0.2768741 -0.10878651 0.01296898 -0.04063535 -0.057427503 -0.036951046 -0.21869357 -0.09210039 -0.13915817 0.093732454 0.09870839 0.17148696 0.011574313 -0.105720334 -0.0523397 -0.12668347 -0.15340318 -0.4522876 0.2621851 -0.019294914 -0.1408582 -0.36435285 -0.07343589 0.06600988 -0.15675949 -0.24215575 0.13961829 0.06031687 0.017976906 0.1637676 -0.15969922 -0.1294422 0.033537008 -0.0670335 -0.0033689637 -0.35009855 -0.06794386 -0.16857596 -0.10656435 0.12909847 -0.17324366 -0.1342074 -0.095035985 -0.07814342 -0.18141332 -0.069359355 -0.29116738 -0.17550884 -0.019815374 0.06747422 0.07642241 -0.089436986 0.084774114 -0.082577035 -0.12461443 -0.14034782 -0.074494734 -0.21924229 0.06268612 0.013959174 -0.061897416 -0.14187345 0.016742323 -0.032605246 0.13629436 -0.14587219 -0.08530108 0.0035452994 0.0030145166 0.04467086 -0.104703784 0.0126789985 -0.16820255 0.08777774 -0.17371972 0.21558852 0.2453873 0.04435766 -0.026173996 0.21491186 -0.060062952 0.13312985 0.09325616 0.35614413 -0.0792755 0.036896713 -0.120564476 0.14272107 -0.026703913 -0.19185361 -0.06999706 0.033067416 0.0129759675 -0.076322034 0.025756983 0.13569982 0.06600835 -0.1460055 -0.13328165 0.19160132 -0.23640792 0.011526767 -0.1244605 0.054525413 0.1492394 0.11454387 0.035785824 0.11878196 0.27218944 -0.26901844 0.2038661 0.4210967 0.14611423 -0.020913573 -0.0806633 -0.14726503 0.10354085 0.008091549 -0.08736712 0.121163286 0.027423656 0.10828181 0.029531725 0.018165078 -0.21750946 0.108986296 0.0900312 0.09521606 -0.14293566 -0.15334615 -0.27570727 -0.2355051 0.026306668 0.043936357 0.112317726 0.078510255 -0.06458179 -0.19839813 -0.01642161 0.35189885 0.10005737 -0.08493297 -0.16156988 0.0077394983 -0.1160738 -0.28122902 0.110153496 0.04032676 -0.18743291 -0.13672304 -0.15563662 -0.11654826 -0.1182049 -0.13046144 0.28383547 0.026926924 -0.21905948 0.07854144 0.091997206 -0.08758967 -0.0649846 -0.08252011 0.023598347 0.06029779 -0.107300185 -0.14819585 -0.201834 -0.32289255 0.17780101 0.20370598 0.17358753 -0.055786956 -0.19933636 -0.19063528 -0.007782023 0.0017525151 0.20533754 -0.29838538 -0.00013314601 0.039225966 -0.1762072 -0.230894 0.010731582 -0.091517 0.20257506 0.09156253 -0.0036925157 0.11305883 -0.10314567 0.00768829 0.062256392 0.02023228 -0.37600425 -0.0014958928 -0.22083296 0.26121613 0.003919969 -0.16633688 0.2053446 -0.07110748 -0.11462722 0.08059274 0.07012286 0.004439071 0.17023173 -0.1081189 -0.11467176 0.16881682 0.19682613 -0.2525191 0.17940651 -0.16050865 -0.025429726 -0.17918493 -0.22562093 -0.06326062 -0.028821664 0.14434133 -0.1140061 -0.2621147 -0.22074059 0.10948464 0.107929245 0.1523606 0.26690748 -0.092588276 -0.32297027 0.04349897 -0.033355568 -0.090332024 -0.051437996 -0.12562934 -0.17775673 -0.072377786 0.11551385 -0.07403772 -0.1279929 0.06486336 0.15812849 0.24753423 0.1490676 -0.07398975 0.06933397 0.033159975 -0.05868705 -0.08109181 0.17730244 0.045005646 0.22018258 0.1532607 0.13096033 0.18017122 -0.50184965 -0.060169753 -0.25860256 -0.07359003 -0.18419676 -0.108903326 0.107261464 0.07026402 0.010517379 -0.09255296 -0.22547062 -0.05740749 -0.05314798 -0.25880224 -0.042231314 0.13736784 -0.004308098 0.05115094 -0.051900227 -0.18708645 -0.04603822 -0.08524212 -0.19456297 -0.19245225 0.0022751144 0.10225711 0.114228964 0.052381914 0.14555009 -0.0978521 0.018582478 -0.04214669 -0.07802815 -0.0709904 -0.0053658946 -0.15676236 -0.050440297 -0.4401343 -0.12166348 -0.036813937 -0.19500226 0.18976122 -0.3059707 0.008965334 -0.3665819 0.17309669 0.031740554 -0.15276785 0.007625331 0.02273858 -0.10327682 0.1231578 -0.027943447 -0.17746222 0.09323352 0.043443415 -0.040721998 0.06150424 0.11119192 -0.23029128 0.06477322 -0.013239304 0.099013306 0.12629513 -0.033407178 0.14405775 -0.078611694 -0.04050652 -0.089927375 0.06912708 -0.028907577 -0.11546282 0.03950196 -0.084992714 -0.23107085 0.12047252 -0.15227781 -0.28528643 -0.11194199 -0.10199921 -0.060455926 0.26594746 0.20593308 -0.15557589 -0.0895741 -0.2711141 -0.038373705 -0.14264409 -0.19539544 -0.005848788 -0.20682408 -0.2861466 0.023067854 -0.15188001 0.009753079 0.18866855 -0.0022770395 0.14772835 -0.034467775 -0.009222131 -0.12244502 0.11727276 -0.030192744 -0.0032629499 -0.15208986 -0.111911364 -0.16340421 0.12334078 -0.3245926 0.37561044 0.14156546 0.05586589 0.039112836 0.19376534 -0.031924743 -0.12168951 -0.13875183 -0.014433233 1.8731518e-05 0.2631471 -0.07516954 0.046009738 -0.36199835 0.008615433 -0.06284583 -0.13022059 -0.064984776 0.14853597 -0.26666388 0.019377945 0.037219107 -0.04907367 0.1710367 -0.23155022 -0.043809704 0.13355397 0.08957334 0.090653434 -0.3516432 -0.43107083 -0.066020936 -0.25874946 -0.038490895 -0.056395307 -0.09960246 -0.025811069 -0.16828825 -0.17955597 -0.010613643 -0.16492489 0.027131818 -0.1831845 -0.00012168954 0.046261847 0.0066454173 -0.03746584 -0.09855117 0.015363382 0.015027058 0.08410603 -0.12566887 -0.041654825 0.041956365 -0.10650861 0.028601166 0.020472437 -0.12954712 -0.051013403 -0.02694194 0.13130277 0.022397745 -0.05906726 0.15063345 -0.10003753 -0.03997518 -0.037661184 0.04883884 -0.24163327 -0.07991815 0.006467078 -0.1730672 0.020304952 -0.09137944 -0.07606436 -0.10531348 -0.08839723 -0.099202216 -0.08375677 0.037311453 -0.0045613647 -0.18073577 -0.115568735 -0.0967857 -0.00730826 -0.035139136 0.047843218 -0.09322016 0.0021436585 -0.1710146 -0.1327968 -0.016713275 -0.026596243 -0.10394984 -0.006311134 -0.0019479528 0.023464352 -0.16308875 0.12498286 -0.11937863 -0.01875041 -0.18063246 0.035057377 0.044456497 -0.0786125 0.08660791 -0.15933701 0.08217788 -0.06698269 -0.20988117 -0.19660385 -0.029249432 0.03946899 0.08632803 -0.0847557 -0.057352524 0.008614931 -0.05409481 -0.028863518 0.16244946 -0.042208668 -0.22752945 0.04913578 0.009732543 -0.013502188 -0.089891225 -0.05862914 -0.21610203 -0.010253503 0.017949928 -0.024709232 0.09501675 -0.12998985 -0.13772704 -0.10747551 0.061782565 0.05247008 -0.21775934 0.07996866 0.04615511 0.047549754 -0.21529888 0.004014939 0.07584275 -0.07828069 -0.028009623 0.16670264 -0.1593871 0.043495573 -0.098415285 -0.096962646 -0.15453573 -0.01918763 0.03084383 0.08932637 -0.16813686 -0.014375895 -0.0585302 0.10510777 0.0034961023 -0.13804711 0.006273054 -0.097629756 0.012197018 -0.14792812 0.10194586 -0.19163798 0.12774548 0.09171741 -0.024495764 -0.13914144 0.06569664 -0.09235628 0.06080827 -0.043328375 -0.10560939 -0.1707479 -0.14156431 -0.13004951 0.110727966 -0.055928927 -0.29966328 0.10752402 -0.059624687 0.024856549 0.042401757 -0.07653005 0.045205757 -0.13914086 -0.18875083 0.0923355 -0.14619981 -0.10266204 -0.17654362 0.10249058 -0.07816423 -0.12326592 -0.12515102 0.0382841 -0.009786605 0.10042042 -0.04636204 -0.11386207 -0.002820015 0.011750024 0.039411634 -0.20288107 -0.14618453 -0.116216466 -0.16108912 0.03225707 -0.10858562 0.000800297 0.046512485 -0.07707825 0.0020686686 -0.07661608 -0.019912839 -0.0781009 0.031638194 -0.11206086 -0.052275844 0.012998059 -0.16314869 -0.2304642 0.018096881 -0.21944124 0.08918496 -0.048801407 -0.051824965 0.058376834 0.055540532 -0.060375538 0.13788114 -0.17464466 -0.05569125 -0.013584114 -0.17205769 -0.22110903 -0.031319533 0.00505607 -0.040102333 -0.08501311 0.06092018 0.09285551 0.06511364 -0.05546599 -0.15595762 0.15468332 0.00013200156 -0.08674634 -0.29616457 0.070015915 -0.1918518 -0.012403228 -0.14337401 0.047566045 -0.03577583 -0.0453731 -0.20065933 -0.11510689 -0.15008488 -0.06716158 -0.13706009 -0.07476363 0.047888547 -0.104580104 0.012201171 -0.0036388158 -0.18842106 0.07421416 -0.12270656 0.13992402 0.21939085 -0.008220771 -0.2203157 -0.07686955 -0.07433784 -0.21275903 0.039814852 -0.10346788 -0.08152573 -0.00580008 -0.10869537 0.07780412 -0.021577194 -0.038170002 0.006415001 -0.013960367 0.045531847 -0.104085125 0.10374083 0.02456058 0.20838957 -0.2000323 -0.577531 -0.3288047 0.08332846 -0.11714153 -0.096487336 -0.24769497 -0.04322912 -0.56905895 -0.3786767 0.24553418 -0.10367503 -0.09328079 -0.13813005 0.021057812 0.009730697 0.020396324 -0.080877095 0.012732176 -0.21092342 -0.06822169 -0.012683015 -0.05116671 0.21837164 -0.17931633 -0.14295173 -0.025810674 0.19149713 -0.07730716 -0.24919201 -0.009641472 -0.18151566 -0.12151108 0.29776707 0.020717144 -0.06404138 0.11663711 -0.014161982 0.02060261 0.07738499 -0.014077403 -0.0033226612 -0.053157702 -0.31962374 -0.27469122 -0.16527571 -0.026328918 0.21056259 0.10272452 -0.27446914 -0.09084359 -0.15159696 -0.15214707 0.23901507 0.13601725 -0.079350986 -0.052166816 0.105663545 -0.0435369 0.106458515 0.05425771 -0.2721119 -0.10201728 0.21710014 0.26019782 0.0022365479 -0.021729391 0.029524328 0.094349384 0.1234197 -0.08136615 -0.2521837 -0.40823504 -0.03989971 0.08321891 -0.032426808 0.013771058 -0.10591645 -0.15348817 -0.05726347 -0.18011801 0.13954803 -0.08983951 -0.50052017 0.11551753 0.026230974 0.08851439 0.06454365 -0.36291015 0.053999245 -0.16961151 0.038100533 0.593396 0.04601338 -0.1710888 -0.08642713 0.041471813 0.24652106 -0.059705462 -0.4704506 0.034427214 0.036695365 -0.5524412 0.03116032 -0.03264133 0.10876639 0.17799303 -0.11516382 -0.016847482 -0.17204377 0.13623866 -0.3974729 0.11308692 -0.08227236 0.028388895 0.015669694 0.14411801 -0.026451325 -0.0077673383 -0.016538762 0.089503326 -0.08463615 -0.10076017 0.13783373 -0.029702405 -0.12381616 -0.053787485 -0.015736317 -0.23061346 -0.3731586 0.32620868 -0.28806758 0.008962585 0.2583445 0.27406657 -0.12644222 0.014075072 -0.13486749 -0.13198605 -0.31971854 -0.04293011 0.06320267 0.069935545 -0.27845356 0.0418095 -0.076573916 -0.008169841 -0.12874453 -0.21107382 0.020144904 -0.032277334 0.012899398 0.020874064 -0.00975198 0.051845588 0.34021682 -0.09756647 0.24177396 0.109709516 -0.08450231 0.25635818 0.2252734 0.2543894 0.111840785 0.1944558 0.056903377 -0.5055861 -0.0072345063 -0.19100766 -0.20243584 0.21482863 -0.17047264 0.12695116 -0.11932297 -0.21093738 -0.10682311 -0.03020953 -0.13520299 0.20906182 0.07714486 -0.0365235 -0.24725728 -0.021465808 -0.01781283 0.004541933 0.07613137 0.0038753576 -0.035168197 -0.26683298 -0.004153984 0.121422425 -0.019876784 -0.011922977 -0.022400051 -0.01697582 0.08212832 -0.027355315 -0.20473683 -0.025929272 0.107709 -0.25100252 -0.12970145 -0.28094906 -0.015205444 -0.1726038 -0.0085901655 0.102579735 -0.14036286 0.05559744 -0.075673066 0.3002205 -0.16620196 -0.08888213 -0.1824628 -0.13992329 -0.3966616 0.024026088 0.03712816 0.11257533 -0.0037570617 0.13902603 0.16554907 -0.07710599 0.003952396 0.312095 -0.35323003 -0.028085198 0.03164418 0.14403757 0.044992555 0.06685373 0.036670957 -0.047294155 0.09665118 -0.2677172 0.06995101 -0.0689697 0.13898872 0.16082607 0.022277385 0.08824588 -0.3527332 0.0059797945 0.057058133 -0.12791836 0.11671115 0.012338454 -0.18927643 -0.15165706 0.31477615 -0.12608112 0.0053454423 -0.17180264 -0.07228163 0.08022868 -0.06458906 -0.09410825 -0.06486817 0.20262587 -0.3770624 -0.052752048 -0.06129224 0.13713789 0.07547667 0.045880146 0.1315689 0.0938148 -0.28296062 0.11755494 0.01569535 -0.095779255 -0.082081206 -0.06892881 -0.20842084 -0.007167753 -0.06283998 -0.19853581 -0.13446756 -0.13564658 -0.25874025 -0.042349495 -0.0311429 -0.0063817548 0.16708614 -0.031528864 -0.056756888 -0.35371965 -0.07252705 -0.08233805 -0.12845375 -0.035577446 0.041777708 0.01465976 -0.15874946 0.086208105 -0.06265024 -0.0064430367 0.03311145 -0.1322197 -0.3263468 -0.12410293 0.01680218 -0.16629733 0.094095014 -0.05423799 0.03112449 -0.006037446 -0.11646896 0.05683029 -0.027771166 -0.004742745 0.31916353 -0.40248448 0.15740778 -0.12001669 -0.15201855 -0.076474935 0.07028996 0.1627483 0.19929875 -0.114581056 -0.0611333 0.002924879 0.1530093 0.123180896 -0.08196944 -0.18102038 -0.062411763 -0.04255429 0.09187814 -0.27699474 -0.050293837 0.13027456 -0.04815406 -0.012437433 0.02734097 -0.22830151 -0.22150022 -0.23459312 -0.045602176 0.23549537 -0.090437025 -0.097317524 0.22313444 -0.058475327 -0.014597967 0.19841866 0.21548155 -0.22212581 0.13136016 -0.037382815 -0.16059965 0.25177762 -0.024306916 -0.11214142 0.13344462 0.13667731 -0.012525875 -0.037045065 -0.06650891 0.12453552 -0.05209344 -0.21195026 0.07161383 0.040326163 0.06058049 -0.29569212 0.28877687 0.042450935 -0.08425032 -0.09066332 -0.06482984 0.08792433 -0.025566794 0.019827124 -0.03588832 -0.13494529 -0.0950452 0.05340649 -0.02258267 -0.07187996 0.06639839 -0.23672065 -0.0067068264 -0.13586165 -0.38596943 0.05493672 0.2051158 0.10942062 -0.04410505 -0.21486291 -0.076638795 0.08938106 -0.21047981 -0.00011541988 -0.035290033 -0.38591874 0.06145795 -0.13221504 0.30945018 -0.1558696 -0.32342765 -0.06992943 0.21310179 -0.25262815 -0.13095926 0.12327639 -0.06169511 -0.020315101 -0.17187487 0.1232163 0.19054374 0.02597953 0.06959574 0.0057470123 0.055175133 0.32778952 -0.3424431 0.23394193 -0.013097346 0.09819489 -0.040700845 -0.16101383 0.02650194 0.04161117 0.23708428 -0.14471123 0.09130611 -0.081271365 0.07020218 -0.08401622 -0.012040479 -0.145287 -0.016645504 -0.23132125 -0.09603265 -0.07816054 -0.42935526 -0.2642286 -0.23623449 -0.06739632 -0.14086188 -0.09297832 -0.05903911 -0.076160364 -0.24245037 -0.07205679 0.08141098 -0.08933 -0.08878723 0.02294467 -0.069958724 -0.0030492567 -0.3003826 0.19833745 -0.19683479 -0.10131979 0.012843049 -0.12747873 -0.12801139 -0.08605256 0.09608572 0.07829261 0.10563393 -0.0700912 -0.4195559 -0.047810234 -0.41679686 0.18314373 -0.21524496 0.29324055 0.017054705 -0.09709113 0.33393595 -0.049945176 0.0804484 0.22920999 -0.16721033 0.2648957 -0.07606267 0.053499535 -0.32865041 -0.034039613 0.012268236 -0.15148905 0.19158359 -0.059435192 0.1854657 0.021098936 0.010099297 -0.072515056 0.08761745 -0.20774888 -0.10716359 -0.14652117 -0.06996751 -0.1491898 -0.1504573 -0.19019741 0.046030458 0.07105936 -0.02470545 -0.0020785837 0.18733186 -0.025913132 -0.2634166 -0.04207566 0.13775164 -0.24544443 0.11994677 -0.23300357 0.01664114 -0.023020647 -0.04362374 0.025481394 -0.10111235 -0.06002335 0.17131469 0.16115242 0.0802843 -0.31647146 -0.35728574 -0.2103451 -0.276238 0.050632123 -0.08784016 -0.01669693 -0.02391306 -0.021925176 0.18170609 -0.033473644 0.28235063 -0.118117444 -0.16221026 0.055703472 0.09723151 0.11125182 0.13642088 0.13879874 0.14472693 0.1650914 -0.20123152 -0.13553701 0.15166026 0.031028705 -0.036490556 -0.056004878 0.1060139 0.14044677 0.051218655 0.19915417 0.07386422 -0.10428046 0.08475045 0.031173678 0.12228879 -0.20956595 0.12911773 -0.4238288 -0.32943255 -0.0396959 0.017313397 -0.064736344 0.019697899 0.09447489 0.13937037 -0.11546791 0.36004713 -0.067536935 0.028503262 0.06496009 -0.0037438448 0.068313636 -0.08375201 0.065840036 0.1981179 -0.14204147 -0.015939984 -0.29196227 0.0024658577 0.2057658 -0.03890074 -0.094761096 0.007514428 0.069259 -0.15212823 0.26281685 -0.070251815 0.08564693 -0.017012408 0.328258 -0.09916386 -0.3122201 -0.10453775 -0.11090697 -0.41176242 0.05850533 -0.23721805 -0.13396166 0.013261838 -0.2923856 -0.1979667 0.055556294 0.13733521 -0.05058762 0.14559788 0.07859654 0.13199714 0.07350518 -0.30835277 -0.032328293 -0.12542024 0.03742854 -0.051137418 -0.06615501 -0.272776 -0.033935685 0.03784606 0.0993294 -0.09332707 0.07310056 -0.17113556 -0.3263147 0.1323489 -0.10399074 0.04706449 -0.016281342 0.062798366 0.062341977 0.09117274 -0.04214186 -0.18451208 -0.40808702 0.008035941 0.18107586 -0.031171212 -0.012249157 0.025877438 0.21857904 -0.04356797 -0.20969367 -0.44599563 0.2821158 -0.2988754 0.17379028 0.018233087 -0.2441363 0.09738144 0.06058807 0.020135647 -0.069114394 0.0043458007 -0.49035102 -0.031921387 0.19242668 0.050628215 0.12723169 0.050065186 -0.3538269 0.20511784 -0.2677571 -0.1777491 -0.22173987 -0.15036549 0.08632593 -0.03857578 0.13528503 0.092710674 0.07162241 -0.05911647 -0.025884561 -0.0211598 0.17231014 0.022967272 0.2077417 0.16032921 0.15619019 0.1876205 -0.2700023 -0.12277751 0.00093104696 0.08115041 -0.29042026 -0.004090527 0.018638635 0.15971473 0.15630333 -0.010390689 0.06262607 -0.10123777 -0.19409989 -0.080774575 -0.13059096 -0.031566698 0.1640348 0.13152921 0.14379203 0.038838096 0.1545403 0.2917712 -0.052495014 0.3331537 0.017144533 -0.11046228 0.20326315 -0.02635851 0.057650696 -0.09084932 -0.47688374 -0.30641085 -0.07643039 -0.040664256 0.15807965 0.11492067 0.08027526 -0.05819716 -0.19571462 0.27621987 0.08670825 0.0997894 -0.1258286 0.010693324 -0.014099535 0.035828773 -0.026477445 -0.2450118 -0.019986961 0.19830261 0.2136313 0.1550899 -0.41556647 0.2557822 0.029815098 0.1574468 -0.22810043 0.037523065 0.059747253 -0.023489483 0.20957911 0.14833818 -0.0730579 0.108418256 -0.109085105 -0.08019714 -0.042923722 0.023778293 0.019488033 0.045971837 0.08548469 -0.13589807 0.09687491 -0.11598784 0.16048534 0.025189474 0.13825423 -0.04699651 0.029540004 -0.20360726 0.010299712 -0.13077037 0.0010563094 0.029005714 -0.0037424236 0.2564696 0.31217787 -0.28320056 0.017429912 -0.1424995 0.21770385 0.11715104 0.027438486 -0.054417193 -0.15027584 0.12378381 -0.103995964 -0.15622744 0.032219518 -0.2299046 -0.11320231 0.08836733 -0.031088049 -0.15528491 -0.04310848 -0.075761825 -0.10587469 0.07400152 -0.07101667 0.01078208 -0.19865918 -0.19516928 -0.070914604 -0.015649902 0.025496975 0.021996433 0.05267108 -0.30366275 0.043590706 -0.3258566 0.3189311 -0.1425883 -0.06975946 -0.0147525 -0.2355038 -0.23560622 0.14787 0.08850161 -0.17735246 0.0098385215 -0.08108979 -0.4001774 0.08962654 -0.010921699 0.2932374 0.08647253 0.2350955 -0.26987565 0.059856594 -0.16165216 -0.07142794 -0.010301071 -0.13445032 0.055970415 -0.30002883 -0.44388154 0.09952964 -0.13421568 -0.019520372 -0.058027 -0.11420867 -0.22910815 -0.26600137 0.060578804 -0.12413675 -0.20166343 -0.4207334 -0.36539167 0.17312783 -0.04756844 0.15743099 -0.20338225 0.037065826 -0.14615516 -0.06839671 0.089339286 0.09977092 -0.2249227 -0.08267503 0.04198931 -0.31961417 -0.03850344 0.06074079 0.0581427 -0.0949621 -0.24218637 -0.04153806 -0.12976408 -0.11268305 0.040420696 -0.2340328 -0.045350853 0.017634798 0.10704134 -0.010418572 -0.08472799 -0.011773546 -0.18812758 -0.1684117 -0.12364769 -0.35396636 -0.07615627 -0.12556739 -0.23626807 0.09189676 -0.04211303 -0.08345706 -0.11122185 -0.34458748 -0.07628826 -0.15211214 -0.24459168 -0.025937466 0.09855811 -0.031934947 -0.055947743 0.0972672 0.2648257 -0.049281184 -0.0349938 -0.21971625 -0.34905523 0.16389702 0.04396105 -0.24334772 -0.016332448 -0.013088327 -0.10252695 -0.03149045 0.018365515 -0.051843826 -0.1818067 0.015617886 -0.24676827 -0.042277947 -0.01357679 0.013417224 0.120222285 -0.019061215 0.0029927832 -0.29190353 -0.02112192 -0.18994714 -0.3214978 -0.26615426 -0.1059046 0.18360254 0.08000134 0.14991964 -0.18315008 -0.36272377 -0.0037056166 -0.08378887 0.01894582 -0.056762807 -0.19607459 -0.037502237 0.049668137 -0.033900797 -0.0427923 -0.18222944 -0.1786849 -0.024408977 -0.14675346 0.042490795 -0.3637506 -0.015679533 -0.10889474 0.077122144 -0.219233 -0.20910075 0.07321141 -0.123520724 0.0427594 -0.004368084 0.09223099 -0.059970677 0.32295296 -0.25431752 -0.08000824 -0.050992716 -0.16721211 0.20056531 -0.0867773 -0.08493913 -0.112114124 -0.099462405 -0.24117716 -0.06211378 -0.20798787 -0.14921217 -0.11845613 0.17410284 0.05802855 0.06903105 -0.08982443 0.006044636 -0.013985623 0.07409513 -0.093045175 -0.16333784 0.06124937 -0.13202631 -0.11662141 -0.14056848 0.2928599 0.08163084 -0.05947181 -0.17240725 -0.2837451 -0.33032632 -0.11130566 -0.111112155 -0.039251953 0.07379798 0.043747 -0.15979525 -0.21916616 -0.2191426 -0.35616934 -0.11719277 0.14166296 -0.073408656 -0.14606285 0.09422805 -0.03620067 -0.08082555 -0.11825022 0.15504466 0.03492414 0.053157724 -0.2837785 0.05192995 -0.07904242 0.010711722 -0.1356508 -0.10215023 -0.045957107 -0.35089803 -0.010291398 -0.005705974 0.19319046 -0.14090407 -0.16688731 -0.2825303 -0.33059883 0.06917898 0.06969958 0.26789987 -0.20301688 -0.25324005 0.10634234 -0.122587465 0.08804934 0.06250635 -0.19607258 -0.23444831 0.020900192 0.12877515 0.30767906 -0.3599316 -0.10437437 0.10545929 0.090939775 0.04961105 -0.09089325 -0.14664271 -0.06284728 -0.09772445 -0.13226332 0.10480245 -0.016935384 0.06803702 0.2488573 0.08954853 -0.0467898 0.019330135 0.05617921 -0.16296989 -0.1282682 0.009660888 -0.043022946 -0.08698789 0.02800048 -0.17870058 0.2082231 -0.2460688 0.14224973 0.07979572 0.036343064 -0.09404603 -0.0028611114 -0.025184345 -0.047367644 0.04555967 0.10407589 -0.040405244 -0.35672405 -0.09360732 -0.041538075 0.1067104 0.054988824 0.01697804 -0.24447042 0.028686715 -0.08323634 -0.066300035 -0.14201103 -0.04568068 -0.442436 0.2285537 0.14280361 -0.10786727 0.15309878 -0.048067495 -0.35532454 0.107905164 -0.12739347 -0.30337903 0.07548478 -0.12221587 0.038004927 0.029740134 0.0036152855 -0.022696214 -0.13401897 -0.14654368 -0.048189707 -0.03550207 -0.3976219 -0.018798757 0.0646324 0.024813902 -0.27343252 0.16145147 0.047453318 -0.059280504 0.10590479 -0.06892935 -0.20346348 0.12171931 0.009539745 -0.0037930089 0.1725515 -0.15032886 0.15448214 -0.04299304 -0.13115624 -0.012778545 0.33259693 0.035538718 -0.5071396 -0.006551382 -0.21175212 -0.17374048 0.022826144 0.10159499 0.17531508 0.05688498 -0.14037079 0.071753174 0.15027203 0.1501216 -0.068034776 -0.020130143 -0.28621453 -0.14418666 0.01526361 -0.26079184 -0.20629926 -0.025943032 0.08711573 0.033050846 0.20195942 -0.07851526 0.120527536 0.11417295 -0.24907242 -0.033997755 -0.030842874 0.25075996 -0.06106787 0.06593487 0.022340916 -0.29401436 0.04908828 0.38043585 -0.12740201 0.092993736 0.012347199 0.13740084 0.00020720378 0.0010019012 0.003605808 -0.015634486 0.077649735 0.09387094 -0.068258345 -0.0757916 0.026432661 -0.061551835 0.04414225 -0.42477512 -0.14904207 0.1132914 -0.006656144 -0.11902954 -0.13435043 0.0185932 -0.015169229 -0.27701387 0.13343145 0.10063354 0.025732528 0.10814835 -5.5260003e-05 -0.19217679 0.20140073 -0.1343817 0.1680023 0.018330902 0.03677289 0.061242312 -0.120604895 0.004244272 0.15866587 0.058829263 0.16654757 0.103719585 -0.042883966 -0.116022766 -0.09366546 0.16599701 0.15425055 -0.042196132 -0.044598132 0.05079405 -0.36698166 -0.14448358 0.026779164 -0.104243375 0.10434023 -0.0020871353 0.042868588 0.21708031 0.2031019 -0.13138682 -0.12051964 -0.010628579 -0.05483866 0.03392053 -0.019956108 -0.196928 -0.130406 0.030099722 0.1703642 0.12144039 0.18213424 -0.05986358 0.02694552 0.031313125 0.15346618 0.13231166 -0.14417212 0.078621954 0.09389177 0.18721789 0.08110292 -0.17813672 -0.064833045 -0.046654828 0.25299004 -0.35479185 0.076221086 -0.19458854 0.1525756 0.12084729 -0.120855495 -0.11944212 -0.11852847 0.2515459 0.095326 -0.09047043 -0.06774658 -0.2814283 -0.1941662 -0.18353267 0.004340299 -0.007494435 -0.07068054 -0.008863584 0.049363695 0.04923854 -0.120919496 0.28654537 -0.04845758 0.06378928 0.21979083 -0.07544939 0.035350755 0.017723909 0.014920997 0.010465928 0.0061034523 0.29251492 0.0873374 0.015291405 -0.11018035 -0.046397872 0.121672586 -0.10030845 -0.34256482 0.041768048 -0.22086042 0.07252545 -0.06966555 -0.23626254 0.15573443 -0.11565234 -0.17396306 -0.10149458 -0.018180091 -0.084817395 -0.033684973 -0.0003858581 -0.13481997 -0.09603656 -0.048874646 -0.04085891 -0.22998412 -0.11576554 0.06456042 -0.1936731 -0.16790915 -0.08745132 0.16925097 -0.12200446 0.03983744 -0.10486849 -0.01926709 0.22353578 0.02250786 0.13759808 -0.1043176 -0.25879064 -0.04547183 -0.14321311 -0.07794711 0.006926215 -0.13208796 0.013273655 -0.054160725 0.053492356 0.012022066 0.019865895 0.13163178 -0.086758934 0.0046933815 -0.11700912 0.11510044 0.08358148 -0.01825912 0.08079149 -0.10258645 0.06252765 -0.08874127 -0.04844628 0.04040055 0.040158283 0.08759331 -0.07096019 -0.18388738 -0.014403161 -0.14664306 -0.26044506 0.1573756 -0.13270274 0.1110916 -0.049176656 -0.124921866 -0.076136425 0.0033568442 -0.029098399 -0.2502113 -0.04078812 -0.103951916 0.20041436 -0.04470873 -0.046305846 -0.17468339 -0.023387183 -0.016986568 -0.1063974 0.08167808 -0.03364289 -0.09829164 -0.1710015 -0.025631389 0.083630934 0.089698255 -0.104363136 -0.101219915 0.08993833 0.104827434 0.014790359 0.09513541 -0.19226283 -0.08394779 -0.22550182 -0.08335468 0.13098958 -0.04385065 0.0898095 0.06546982 0.019941261 -0.2513611 -0.058837134 0.17948304 -0.0822126 0.022360139 -0.104374245 -0.110974155 -0.18271537 0.13864242 -0.0726805 0.01591079 -0.1271018 -0.095403254 0.044361357 0.13550521 -0.01658485 0.013623814 -0.274523 -0.123335995 0.07340091 -0.07410917 0.007992439 -0.118580155 0.13023798 -0.036182094 -0.07935605 -0.038445067 0.08782559 0.009369081 -0.28542194 0.15179914 -0.10497291 -0.01572515 0.09109977 -0.034424778 -0.21523142 -0.17014986 -0.1287339 0.067364104 -0.033483945 0.022207627 0.15140088 -0.17293195 -0.011507675 -0.046383943 0.049513247 0.07491452 0.08713211 0.1169228 -0.019741723 -0.18353213 -0.14534251 -0.005534474 -0.0862667 -0.18490665 0.0058403388 -0.13944425 -0.02169816 -0.08924428 0.090251505 0.059341006 0.07354216 -0.20002018 -0.1233918 0.11001604 -0.15913327 -0.11729802 -0.13466932 -0.20423587 -0.23039916 0.0107179005 0.19939724 0.015931038 -0.12530217 0.0008414226 0.025920719 -0.00259933 0.008577436 0.11461947 0.043107238 0.04161558 0.02816667 -0.0611181 0.015831182 -0.052484445 -0.2076697 -0.118224725 -0.13230893 0.14289495 0.15636803 0.076740324 0.10297885 0.08236296 -0.033123054 0.04623547 -0.009936899 -0.3098879 -0.12923871 -0.08015063 0.04510826 -0.008354659 -0.3323754 -0.0011097064 -0.06945466 -0.28309554 -0.08601754 0.112691924 0.0068254 -0.33721092 0.08594381 -0.20778728 -0.071949445 0.114479944 0.042915683 -0.0009855506 -0.3392777 0.25857645 -0.020952137 0.11413489 -0.18394254 -0.11689408 -0.038279478 0.029650802 0.03184332 -0.1594826 -0.17201728 -0.16447924 -0.09668566 0.09962588 -0.011174254 -0.0736621 0.19112599 -0.03491917 -0.19835728 0.13541284 0.06691087 -0.12318951 -0.061123516 -0.12130115 0.2411331 0.33611363 -0.24097617 -0.1384697 0.04997662 0.019729901 -0.21407735 0.18616784 0.028263483 -0.07057793 0.111945055 0.16670766 -0.35401058 -0.015894085 -0.045209628 -0.19880784 0.056068044 0.050691497 0.13391578 -0.10196611 0.08040746 -0.04744259 0.19557647 -0.08576501 0.36289358 -0.33533686 -0.013013567 -0.06810941 -0.1450112 0.056485567 0.04320066 -0.0048848223 -0.07239252 -0.0662841 -0.1873305 -0.10660977 -0.24361274 0.16930607 -0.5020518 -0.31773925 -0.08257933 -0.044718385 -0.12570702 -0.31337467 0.080983765 -0.35050797 -0.19679971 -0.06715901 0.11772256 0.027267283 0.16766565 0.008301904 0.070563495 0.03292123 0.0013704217 0.091773 0.10175358 -0.024667561 -0.05811185 -0.06608097 -0.038299017 0.15724804 -0.055626936 -0.074836776 0.06553462 0.069091246 0.058214396 0.2811104 0.11947958 -0.1229477 0.07967953 -0.26736635 -0.10634564 0.13974585 -0.11100334 0.103799105 -0.04111004 -0.15779808 -0.019148031 -0.07302137 -0.3101728 -0.19186886 -0.04224612 0.05971846 -0.20466995 0.10644119 0.061702937 0.08164291 -4.9611896e-05 0.0036207177 0.22893262 -0.17220867 -0.4783318 -0.016326342 0.12719133 -0.13285911 0.005840195 -0.29498807 0.14152801 -0.33145827 -0.29766425 -0.08985873 -0.1867537 -0.30436617 0.07876582 0.002127917 0.2893164 -0.13670538 -0.1251089 0.14475082 -0.11202793 0.0915032 -0.2537137 -0.022743007 0.09000859 -0.08997052 -0.29168797 0.046496313 -0.0016899992 0.075004324 0.0059070825 0.10611486 -0.36531243 -0.20868233 0.2583473 -0.28471074 0.20008509 0.17270032 0.0136864325 0.089654006 -0.062828556 -0.14665167 0.09147548 -0.21540397 -0.25402734 0.2961722 -0.36967924 0.042722918 -0.02457289 -0.08219732 -0.13858604 0.016519988 0.049531877 0.2518737 -0.07089999 0.06627975 -0.03395084 -0.22490366 0.3267477 -0.109187394 0.07295727 0.3948786 0.24260174 -0.15155603 -0.082064524 0.01586265 0.15019529 -0.24807127 0.034805786 -0.4302087 -0.15742105 0.1266499 -0.0767339 0.1509883 0.33877388 0.0056759524 -0.01251018 -0.22032034 -0.4470161 -0.11111192 -0.07962289 0.03970904 -0.114182286 -0.25775746 -0.0100779915 0.14629108 -0.060638633 -0.014360723 0.12597759 -0.072220646 0.019210882 -0.029635299 -0.2839602 -0.36403316 0.09812364 -0.24022113 0.14424226 0.17709696 -0.1929968 0.098508485 -0.1885646 -0.033944402 0.15409862 -0.007153108 -0.048509635 -0.021941215 -0.15249458 -0.13212338 0.009271545 0.018661 -0.037110757 0.21596086 -0.3205183 -0.10342533 0.2677915 0.039036524 0.07724044 0.070744485 -0.033935647 0.032339573 0.19838732 -0.19015777 -0.0075444537 -0.42330486 -0.35334867 -0.32946327 -0.24624784 -0.19262694 0.06868268 -0.18943524 -0.094343424 -0.030130979 0.29634672 -0.18660751 0.03396153 -0.19986269 0.008278467 0.0832134 -0.4274939 -0.02448006 -0.009384947 -0.054241974 0.013450714 0.016841007 -0.021751115 0.09915354 -0.087733395 0.039166484 0.03667896 0.03647647 -0.026279893 -0.2386211 -0.12273496 -0.058524124 -0.16039677 0.077150695 0.15613665 0.04781727 -0.2710311 0.11735265 -0.034663208 0.1317639 -0.06973446 0.10729775 -0.49250326 -0.041605543 -0.36901397 -0.3250163 -0.18686868 0.14376251 -0.055878714 -0.31077018 0.08199058 -0.1539541 -0.15115765 -0.17530915 0.08156278 -0.19166403 -0.009514855 0.23602432 -0.109491535 -0.27349138 -0.007400116 0.026442932 -0.16941307 0.07477803 -0.27193165 0.045937728 0.21878806 0.1380751 -0.055203296 0.024118666 -0.14829603 0.06020581 -0.11712678 0.02901379 0.040824838 -0.16397117 0.10777832 0.25598577 -0.12229497 0.010412118 -0.09990944 0.1149356 0.04483519 0.2929846 -0.22512172 -0.00557149 -0.028787384 -0.2749232 -0.056786913 -0.21557671 -0.34482414 0.11791302 0.1376276 0.025544476 -0.09613833 -0.024570474 -0.25449675 -0.03464563 0.0029727838 0.14686085 -0.06332799 -0.0056653554 -0.05917516 0.10012987 0.066315584 -0.0050744666 0.04681206 -0.066100046 0.059906784 -0.10013492 0.02396105 -0.13360877 0.026217489 -0.1911028 -0.2227524 -0.12600936 0.08672453 0.034449082 0.0004926862 0.11866416 0.03681611 0.024717914 -0.29021376 -0.0064200335 -0.103416026 -0.36382905 0.10817284 -0.023813369 -0.1583629 0.24149208 -0.0784481 -0.07048946 -0.05934069 -0.0016178279 -0.26194343 0.104324184 0.05957972 0.09093924 0.18315057 0.09993791 0.016478444 -0.15073852 -0.1848394 -0.09942285 0.147795 -0.09316142 -0.025148703 -0.058717597 0.029835682 0.18276036 -0.3191754 0.059724126 0.06718386 -0.065763324 0.009622401 -0.08569177 -0.16590144 0.021992743 -0.020571005 -0.0647799 0.108799 -0.05003474 -0.13133174 -0.21815689 -0.019460352 0.041106835 0.05486066 0.21188195 0.061116476 0.14837794 0.08296237 -0.00949002 0.055809982 -0.09278214 0.073457524 -0.056730326 -0.034529522 0.14941156 -0.109216854 -0.14884761 0.016039772 -0.058545776 -0.006401454 -0.13244137 0.015907247 -0.006862646 0.013687924 -0.061984457 -0.110890694 0.10402574 0.020631425 -0.14828837 -0.04381657 0.030640071 0.20957863 -0.19478647 -0.20584108 -0.031874515 0.04202105 -0.040675357 0.11328081 0.18723762 0.012092336 -0.16736732 -0.060705353 0.25425032 -0.092330866 0.34535673 0.051877867 0.19614933 0.11930184 0.02930454 -0.144676 -0.014897683 -0.10972547 -0.04315216 0.0092522465 0.18725136 0.28837055 -0.008058851 -0.05010471 0.026204035 0.0969384 0.17950377 -0.06782931 -0.037402365 -0.14795941 -0.12494858 -0.3235243 -0.078580506 -0.004598537 -0.061361972 -0.15591052 -0.055050164 -0.01916677 0.18603908 -0.12206555 -0.0024749974 -0.34797874 0.010894225 0.06446276 -0.044469982 0.1277584 -0.038764466 0.4163598 0.26083386 -0.2277721 -0.38608533 -0.017608495 0.18551973 0.056210607 0.096146055 0.077391185 -0.15187253 0.30032787 -0.10528259 -0.15137188 -0.21857026 -0.0009514993 -0.30050743 -0.01624909 -0.06734477 -0.116586134 -0.2965604 -0.07928297 0.13071963 0.12081972 -0.11505159 -0.22722721 -0.1807061 -0.1428906 -0.23444614 0.09688793 -0.20386185 -0.09696797 -0.21122175 -0.3518258 0.031302385 0.07072144 0.39318117 -0.19657245 0.067026645 -0.09200231 0.2034431 -0.0580644 -0.1840644 -0.027893305 -0.07905095 -0.1656498 -0.21505184 0.03758175 -0.057699636 0.080579974 -0.06562923 -0.6928867 -0.10554668 -0.32983646 -0.020876538 0.20511016 -0.07679804 0.121226765 -0.03090859 -0.166283 -0.19115466 0.05373157 -0.004228575 -0.035487615 -0.036887363 -0.34370366 -0.04793538 0.0027390656 0.10965091 0.06935193 -0.060332533 -0.11803651 -0.04844981 -0.012003961 -0.021895891 -0.20165557 0.10928605 0.12497346 -0.07272324 -0.00057784666 -0.09685767 -0.23808515 -0.14376187 0.012634734 -0.15899605 0.0015128851 0.124625176 0.029801652 -0.044663154 0.062134963 0.0068316828 -0.083872594 0.046662446 -0.35668585 0.06026949 -0.015459552 -0.21030475 0.051930808 0.06986979 -0.16399449 -0.11376986 -0.0301665 -0.049764834 0.07322084 0.052929472 -0.18025419 -0.13225597 0.043545656 0.09059175 0.028517678 -0.019486666 -0.09707278 0.041466217 -0.046974193 0.0053183753 -0.16484058 -0.033598814 -0.22759931 -0.32970968 -0.031544086 0.106046796 -0.06300195 -0.084830105 -0.060171224 0.08071459 -0.23820001 -0.11731774 0.09550557 -0.0060817054 -0.008006513 -0.11303561 -0.07025927 -0.23545673 -0.026718121 -0.0308269 -0.09987369 -0.111156225 0.036715765 -0.16479759 0.112387344 0.08152369 -0.09213243 -0.15406819 0.04648583 -0.17494154 -0.07858508 0.082259625 -0.07523836 -0.042075437 -0.1314164 0.012614994 -0.00858398 -0.123941466 -0.075177155 -0.10289879 0.029870935 -0.09170361 0.097188145 -0.08438953 -0.044161588 0.018834518 0.0821291 0.04193069 -0.002730919 -0.12075138 -0.0047402903 -0.017636148 -0.08321534 -0.14984442 -0.055414062 0.055032127 -0.22306134 -0.015281072 0.11396133 -0.079428345 -0.06128223 0.04509071 0.041457437 0.02913636 0.08337279 0.13730529 -0.09644176 -0.079940096 -0.08184998 -0.15948725 0.075893015 -0.1956176 -0.030241193 -0.19345611 -0.037002444 0.0762945 -0.068502925 0.06628387 -0.0139617985 -0.046856757 -0.13894626 -0.07052791 -0.06295675 -0.011959704 0.07520092 -0.078690164 -0.063770585 -0.053278357 -0.10584008 -0.04479328 -0.07143314 -0.11767423 0.056228794 0.036704727 0.18420362 0.020667974 -0.015241221 -0.034017026 -0.1411561 0.03315251 -0.31555438 -0.09932132 0.02298484 -0.1645771 -0.07221977 -0.123972274 0.09128668 -0.059847552 0.0560863 -0.19473043 -0.015752941 -0.1339211 0.028900975 0.13352987 -0.08721784 -0.2779099 0.14989205 0.0825117 -0.014688605 -0.066648856 -0.082554966 -0.19944507 -0.12891412 -0.042612277 -0.22143266 -0.11748249 0.10193102 0.032107934 -0.11491685 0.033313513 -0.105274156 -0.08068722 0.12830289 0.013426376 -0.15545964 -0.009113252 -0.09655186 -0.12362457 -0.15946114 0.06267953 -0.09539141 0.017123973 -0.37097654 0.0016891917 -0.11355548 -0.1830401 -0.10260899 0.13839145 0.12661651 -0.011468083 -0.15235494 -0.05132512 -0.051538255 -0.14296807 -0.0669546 -0.03506707 -0.18231444 0.07633845 -0.18462265 0.07025095 -0.104543194 -0.009466686 0.034819655 0.024217503 -0.18235324 -0.10044668 0.012699392 -0.21379432 0.0774305 -0.057369083 -0.10018364 0.07301111 -0.1738514 -0.07264526 -0.010648162 0.019058514 -0.054562043 0.07705351 0.030677008 -0.120883964 0.0865656 -0.09138786 -0.06613699 -0.23884147 -0.14844732 0.05675608 -0.09178831 0.049326923 -0.08610113 -0.064980984 -0.2084066 -0.13841149 0.087124124 -0.026040232 -0.09863672 -0.075054854 0.07968567 0.04363224 0.10476701 -0.2187029 0.13761128 -0.11137277 0.025058648 -0.17383611 -0.08159989 -0.25348023 -0.006310259 0.006089165 0.3677623 -0.57537246 0.24406925 -0.16362996 0.031997394 -0.11488296 -0.08822625 -0.2388436 0.25685298 0.07599735 0.043379277 -0.53576255 -0.26300377 0.053880136 -0.08917967 -0.11732092 -0.08356915 -0.38673896 -0.1502357 0.08186162 0.04414953 -0.44477466 0.14224601 -0.12993878 -0.17377733 -0.20823473 0.0044998233 -0.48316222 -0.049267452 -0.25755438 0.14967676 -0.05933237 -0.23781063 -0.37731242 0.3229357 -0.12471348 -0.44582585 0.07322785 -0.11394638 -0.013709176 -0.4279445 -0.00057115575 0.10452014 0.049303137 -0.05664671 -0.20678818 -0.08184676 -0.226417 0.1184043 0.123726934 0.0007629801 -0.14293948 0.09738241 -0.12545507 -0.09260445 0.00629956 -0.033226427 0.12558134 0.009451355 -0.22557633 0.08644942 0.070534356 -0.09713295 -0.1365877 0.07258121 -0.22952075 0.05374449 -0.053255644 -0.55955106 -0.090654105 0.009386385 -0.15965366 -0.110436216 0.1017567 0.02491531 0.09444282 0.18222481 0.10886329 -0.23897201 0.109529704 -0.053931758 0.0023615567 0.087097265 -0.09141344 -0.16214281 -0.094250016 -0.043495398 -0.11616657 -0.024173835 -0.18381874 -0.093028754 -0.0029557315 0.14669836 0.07425017 0.040090863 -0.05522961 -0.12171481 0.04848629 -0.026556842 -0.048572533 -0.1000169 -0.10714618 -0.16933355 -0.0011216735 0.18305905 -0.17424478 0.07255551 0.10080017 -0.016256073 -0.06165483 0.058344714 -0.04260812 -0.10575688 0.14202037 -0.2750118 0.05609643 -0.38905427 -0.20939893 0.14244244 0.21436377 0.14158608 -0.24414381 -0.031588998 0.12734331 0.12170755 0.007905755 -0.088923916 -0.10095965 0.120097876 -0.08822762 -0.12556337 0.083896756 -0.30321318 -0.124102645 -0.049955368 -0.27545723 0.017280173 -0.071615085 -0.16570753 0.006099473 -0.038911223 0.08695845 -0.20375751 0.30345002 -0.20993733 -0.058076534 -0.113489434 -0.12993892 -0.3993399 -0.0021853298 0.2549972 0.15347119 -0.2898765 0.16034758 -0.07836577 -0.049667027 -0.063840106 0.11823494 -0.15952808 -0.02279187 -0.020070491 0.118952245 -0.013358874 -0.22895716 0.18774669 -0.052879363 -0.029114941 -0.032062124 -0.031298626 0.19196147 0.18365498 -0.078145936 -0.17664894 -0.14333123 -0.14200546 0.08068161 -0.1635578 -0.007905233 -0.104815364 -0.028297506 -0.0044637825 0.008157838 -0.005737647 0.13488835 0.13228454 -0.039315205 0.07649934 -0.2023293 0.078614704 0.2497984 0.2049702 -0.12565155 0.012017847 -0.22786646 0.18702658 -0.103922494 0.027498258 0.076072305 -0.006291331 -0.11936403 -0.29512528 -0.10218159 -0.07858227 0.020426732 -0.10844407 -0.086772196 -0.05527027 0.05220845 0.09236047 -0.21585199 0.105948135 0.11817952 -0.27871066 -0.100148894 0.081524484 0.07518243 0.12314525 0.048519835 0.23617092 0.054335378 -0.11047282 0.07488919 0.021252513 0.22268653 -0.069316216 -0.23406029 -0.22955 0.019189252 0.20068145 -0.10542314 -0.0276529 0.043817744 0.18351096 0.046007875 -0.021801297 0.09614046 0.17442366 0.074250676 -0.13710594 -0.052296937 -0.13991676 -0.19684546 0.039160304 0.007948521 -0.0912135 -0.34416395 -0.080811016 -0.10090064 -0.2903008 0.04787278 0.095756084 0.022252997 -0.26339155 0.12026975 -0.2987205 -0.040613726 0.03433224 -0.1980804 -0.069895394 -0.093203634 -0.09633726 -0.10618821 -0.29958582 -0.39807224 -0.27206692 -0.23412047 -0.29123503 -0.25904894 0.0045412877 -0.069596425 -0.16067687 0.12742968 0.013993191 -0.089046784 0.09344978 -0.03495109 0.0033831312 -0.25621185 0.12477227 -0.023675183 -0.20768009 0.070163436 -0.028829534 -0.13753842 0.06806224 0.10172917 0.0406505 -0.17881407 -0.12426615 -0.040592723 -0.08939174 -0.08435294 -0.31496498 -0.069821365 -0.22633344 -0.2626985 0.034249894 0.08399382 -0.08287681 0.03943835 -0.09574607 0.090090886 0.0048051896 0.30748916 -0.046272535 0.20807394 0.071329236 0.07398869 0.04624389 0.2746154 -0.0388857 -0.30947033 0.03079186 -0.19884385 -0.35251862 0.028925914 0.11554894 -0.04262646 -0.013369322 0.08794985 -0.05774976 -0.071811974 -0.3055917 -0.056992803 -0.019861333 -0.0055271783 -0.17145984 -0.057681784 0.07166432 -0.07982767 -0.19147798 -0.17620103 -0.059416026 0.07045464 0.04608656 -0.114760995 0.066565886 -0.12433722 -0.07872522 0.20368749 -0.028681315 -0.40770552 0.08271079 0.025729423 -0.2810544 -0.053624444 -0.09607987 0.17307444 -0.040285688 0.06651893 0.08526673 -0.045336187 0.18175042 -0.048604947 0.11384727 -0.05279664 -0.10459338 -0.1747388 0.24850437 0.04391302 -0.15140723 -0.25499234 -0.09065714 0.10572179 -0.08343657 -0.08543049 -0.028269215 0.07686901 0.10572438 0.018966017 -0.011066662 0.020143978 0.10030185 -0.12863235 -0.10734254 0.13068481 -0.05736728 -0.13831298 -0.01139515 -0.10063668 -0.15595944 -0.09330997 -0.104041465 0.111805096 0.08260456 0.010596991 0.06870825 0.10757749 -0.22316672 0.033054832 -0.11914755 -0.28880173 0.0048200916 -0.23469278 -0.19681297 0.153 0.02193836 0.41799292 0.03282282 -0.012344041 -0.16208293 -0.020278573 -0.5142052 0.02492675 0.09974774 -0.0030970152 0.13448499 -0.17126842 0.14871931 -0.09976756 -0.12962762 0.1034555 -0.025102668 0.039028008 0.004062471 -0.05929177 0.07117662 -0.07766521 0.125893 -0.26415896 -0.17207903 0.043165695 -0.2716123 -0.12481312 -0.13790727 -0.45313606 -0.23597316 -0.008748046 0.20501775 0.11975469 -0.24752651 -0.1382501 -0.0010048717 0.21530527 -0.03602673 0.06573807 -0.16243728 -0.093637094 -0.3001528 0.008037421 -0.0087064905 0.17471214 -0.1483918 -0.17966151 0.06112387 -0.36888868 -0.25269768 -0.1138204 0.073247135 -0.24398984 0.020879183 0.09546026 -0.075742275 0.0018101931 -0.10592853 -0.02292921 -0.03833335 -0.041479155 0.1212017 -0.1618955 0.2280084 -0.19610536 0.17410801 -0.3309239 0.15210833 -0.13594326 -0.06323492 -0.42305744 -0.10400414 -0.03167568 -0.072324 -0.019078942 0.10883777 -0.17888585 0.14210874 0.0037905588 -0.39425653 0.037491817 -0.26602352 -0.22296321 -0.19208626 0.18970984 0.080350414 0.0472129 0.073941834 0.27734146 -0.013015841 -0.038599357 -0.13962294 0.05474453 -0.04283152 -0.041148588 -0.056791395 -0.08775383 0.12069628 0.03733611 0.21677549 -0.03825891 0.024717705 -0.08918396 0.13356125 0.09217086 -0.15578532 0.14779079 0.104265444 -0.14842334 -0.06334016 0.13494352 -0.1386314 -0.014714636 -0.3230251 -0.002362912 -0.09464866 -0.17059377 0.17954135 0.040967193 -0.053464912 -0.07219559 -0.39375243 0.17910315 0.017392242 0.113186754 -0.052489746 0.083583206 0.12292491 0.07579278 -0.13773975 0.16710064 -0.0010834062 -0.34531313 0.060746953 -0.1160588 -0.0952738 0.10096453 -0.03466263 -0.092537075 0.010619715 -0.16548881 -0.04554384 -0.26352146 -0.014712329 0.03241549 -0.105285645 -0.030156728 -0.034667917 0.10661706 -0.3124052 -0.1674389 0.12391757 0.09652336 -0.021344546 0.21171567 -0.080418415 -0.06384223 -0.10833321 -0.075316824 -0.012308129 -0.30580366 -0.072283536 0.028696042 0.026669035 0.13995259 -0.19137499 -0.22926661 0.12494806 -0.2674118 0.05180796 -0.0051678317 -0.2873609 0.2489664 -0.10823379 -0.2836963 0.11338612 -0.09955375 0.05035087 -0.1356626 0.009905177 -0.05863528 -0.08205493 0.13019688 -0.13686988 0.04078046 0.024934093 0.068546906 -0.3014979 0.08186601 -0.12573361 0.09367071 -0.046873398 0.12025974 0.036871832 0.05379939 0.088658474 -0.27328467 -0.71495426 -0.062557496 -0.15260974 -0.17509334 -0.06404069 0.05272758 -0.44558004 0.006853996 -0.18668692 0.00018984993 -0.060190164 -0.06583793 0.04747633 -0.07525962 -0.19088139 -0.03748474 0.21475877 0.27280006 -0.038170177 -0.06473915 -0.015819151 0.010069774 0.14733388 -0.17448606 -0.44206437 -0.42709473 0.03429667 -0.11354413 -0.03618904 0.10934561 -0.3196275 -0.1228898 0.07009646 0.15979026 -0.046589095 0.032829396 -0.14066684 -0.39113754 0.014446291 -0.0744694 0.13926907 -0.13162687 -0.011766594 0.20993997 -0.28191638 -0.056909803 0.03993122 0.09342273 -0.24719472 -0.13196921 -0.14077063 0.10310903 -0.20702511 0.15068041 0.046467286 -0.15245213 -0.12576461 0.040507916 0.014996079 -0.25893188 -0.16609536 0.23914519 0.060160115 -0.052241363 -0.03946333 0.15326849 -0.21461649 0.15805869 0.030615736 0.031601574 0.006076481 0.007948574 -0.0021017862 -0.0017914496 0.06619395 0.18346728 -0.19276121 -0.256961 -0.05696852 -0.07878609 -0.0760317 0.13639194 -0.0938035 -0.15013495 -0.028799487 0.14106797 0.058648568 -0.011641463 -0.16148677 0.10508703 0.22915222 0.09521288 -0.058340676 0.07013968 0.0018166007 0.18152243 0.011424474 -0.084023945 -0.04985219 0.18090062 -0.029154433 -0.099608034 -0.39145735 0.027175834 -0.26392627 -0.015133452 0.16273241 0.13677394 0.088752456 0.0813695 0.2699948 -0.0302042 -0.0972852 -0.023488302 0.15332496 0.022975933 -0.02607809 0.11865268 0.14676124 0.014775723 0.046481628 -0.1125752 0.036494542 0.034563232 -0.0032497116 0.13029233 0.258953 0.0079094255 -0.00047455562 -0.28292072 -0.18808682 0.040347703 -0.0157811 0.24636011 -0.22283758 -0.07794506 0.19247976 0.27318963 -0.112281725 -0.21423472 -0.13153107 0.15964478 0.13380618 -0.035803456 -0.2425878 -0.35788852 -0.13085654 -0.07724757 0.07330178 -0.034644317 -0.04680003 0.0606366 0.014114291 0.20489547 -0.0043406333 -0.08700801 -0.16995427 0.08637033 -0.24355905 0.1453925 -0.074899755 -0.0054765292 -0.016333273 0.103833765 0.030671312 -0.42624983 -0.15643592 -0.1911793 0.09994243 0.05720774 0.08837992 -0.101925135 0.044215627 -0.12058559 -0.23136778 -0.120235085 -0.12236727 -0.030240348 0.004274248 0.032037508 -0.11853991 -0.041321363 0.115444206 -0.16390857 0.019556805 0.1296181 -0.0044833375 -0.35602129 -0.029007563 0.014349351 -0.037757922 -0.04392768 0.03872151 -0.068628915 -0.006086459 0.15682757 0.08228472 -0.052990135 -0.0003022465 -0.11580511 -0.16233613 0.06439749 -0.1658254 0.2510677 -0.14789864 -0.13323815 0.17450514 0.099589586 -0.07154996 0.14274582 -0.079621546 0.05822441 0.18050158 0.15455931 0.21492156 -0.07521502 -0.014112554 0.07227528 -0.03616866 0.013148442 -0.13196178 -0.04611943 0.060953803 0.15356007 0.22758588 -0.13751353 0.03044543 0.019918406 -0.08290178 -0.13739277 0.07142366 0.07676432 -0.051771987 -0.120132744 -0.06829747 0.12555707 0.07521296 -0.07973009 0.018576209 -0.015833639 -0.009470553 0.049922705 0.20904669 0.07657889 -0.007858092 0.005097349 -0.08145811 0.0404927 0.11413362 -0.10276371 0.1252793 -0.085233 0.1649114 0.09722075 -0.0041487883 0.09043638 -0.03317365 -0.24143589 0.14371438 0.050997358 -0.14305261 -0.18422346 0.055373423 -0.08943972 0.050949175 0.19046812 0.08651219 0.1799401 0.14432685 0.1960227 0.253518 -0.09933607 -0.17428327 -0.4381737 -0.039281968 0.06137282 -0.4501259 -0.06706919 0.05908201 0.23400933 -0.009964583 0.15711363 0.11417394 0.06334714 -0.05956738 -0.12298676 0.08386788 -0.25670323 -0.30780658 -0.19515854 -0.020976238 -0.026539292 -0.0007925826 0.16913569 0.0055259084 0.16806684 -0.018699642 0.035224278 0.105923295 0.08408938 0.008214814 0.0364163 -0.06868868 0.12252673 0.054536544 0.14774111 -0.16251767 0.23124695 0.007046633 -0.037977047 -0.0023399629 -0.20270997 0.14573787 0.057433393 0.23961253 -0.12406366 0.09587766 -0.49756265 0.068350755 -0.039585 -0.10208856 0.12849306 0.060358778 0.119268276 -0.5290112 -0.13192913 0.24444738 0.1252856 0.045655347 -0.17938897 0.06717005 -0.14480832 -0.04696749 -0.023372471 -0.06527259 0.038676474 -0.080666736 0.037813354 -0.25272506 -0.09069623 -0.09988828 -0.03260865 -0.01796206 -0.03346317 -0.10656885 -0.026740422 -0.20084311 0.06523707 -0.055213094 0.153965 0.0716739 -0.12201702 -0.19702928 0.0731438 -0.4137734 0.3551056 0.077897534 0.047085114 0.2275897 -0.077982605 -0.18797071 -0.13720278 -0.012570973 0.1720084 -0.093969 -0.051692683 0.13562772 -0.0042345007 0.08630035 0.09039755 -0.04618677 -0.08143403 -0.117994964 0.025623018 -0.17564538 0.065337665 -0.14570655 -0.08546648 -0.26119554 -0.022590732 0.052054197 -0.024077397 0.14591658 -0.083538465 0.10938715 -0.103443116 0.103546076 0.11339646 -0.08417403 0.028460272 -0.3701376 0.12696172 -0.004883721 0.23549673 -0.054905217 -0.04355331 0.104863025 -0.09467167 -0.0054608607 0.20579426 0.11135944 0.07792383 -0.24103007 0.12130117 0.23618343 -0.07818085 -0.2624747 -0.05484174 -0.039869115 0.05473578 0.037780233 0.14887069 0.009890883 0.11708649 -0.051439162 -0.02300037 0.1920411 0.1070245 -0.18578455 0.24856879 -0.18143618 0.23254235 0.18203536 0.16696608 0.11384748 -0.10812013 0.2824284 0.091422215 -0.14950253 -0.052475147 -0.307381 0.1602671 -0.5468948 0.086610526 -0.07947296 -0.32032424 -0.15995689 -0.06048182 -0.13127433 0.059358165 -0.07826643 -0.110258885 0.09285146 0.17265339 -0.014766829 0.025356114 0.09098949 0.055803295 -0.022762435 -0.09619889 -0.011140466 -0.4002467 0.0903095 0.20069912 -0.19150233 -0.024172207 -0.26161417 0.07237939 -0.04480284 -0.10627296 0.014268826 -0.12151025 -0.20689501 0.045362618 -0.09482939 -0.4404017 -0.08077158 -0.04959992 0.0483522 -0.23285776 -0.21560954 0.16353786 0.039507277 -0.09728223 -0.060611904 -0.031124536 0.043101296 0.18879877 -0.076986514 0.0004811337 -0.19675829 0.12761712 0.002353635 -0.16418947 -0.04508641 0.1242701 -0.24515523 -0.11862322 0.22723065 -0.31906334 0.169148 -0.29055947 -0.07470238 -0.29360497 0.081389755 -0.17798865 0.17333414 0.052927326 -0.2957718 -0.027774427 -0.15363526 -0.0934712 -0.09652197 0.10244933 -0.12572764 0.0062213847 0.008827131 -0.0915377 -0.2536827 -0.087819025 -0.076208696 -0.041208737 -0.047194675 -0.09713055 0.10818283 -0.18726912 -0.027297257 -0.3679472 -0.36642602 0.041380536 -0.7136178 -0.47166917 -0.17434548 -0.17705011 -0.0741761 0.04459539 -0.00042645502 0.0034242424 0.07736522 0.2907049 -0.29117298 -0.025786791 -0.16024439 -0.082295954 0.16266698 -0.2487739 -0.63311535 -0.2778424 -0.11730658 -0.247493 0.18835604 -0.10117856 -0.013880369 -0.024490438 0.17903507 -0.042912073 -0.20536934 0.10953316 -0.083546944 -0.12821493 -0.009235197 -0.33175695 -0.068473965 -0.27413595 -0.2720819 -0.19368233 -0.36836246 -0.032738995 -0.09381178 -0.006971046 0.14912044 -0.021452934 -0.12424718 -0.14659345 0.31233835 -0.038465984 -0.15958619 -0.16968364 -0.16322614 0.11882734 -0.020099947 0.061025605 -0.06393491 -0.16642126 0.1223087 -0.075827956 0.12760071 -0.34910846 0.22537492 -0.13875785 -0.10964924 0.062388144 -0.08094933 -0.020113096 0.26485777 0.20430775 -0.093451396 -0.03401894 -0.038668435 -0.09086192 0.05301915 -0.24550845 0.05653304 -0.25359774 0.06956948 0.15906258 -0.10074028 -0.09726542 0.12469797 -0.010487859 -0.120016806 -0.017186627 -0.0010012921 -0.295415 0.2158566 -0.115360014 0.0066561354 0.06439265 -0.115869984 -0.010164976 0.030642929 -0.2956887 -0.076561145 0.041006774 -0.005635523 0.0947282 -0.10724725 -0.14853309 0.09309336 -0.083865464 0.13414674 0.20552014 -0.34644437 0.16358307 0.06716262 0.13068704 -0.21922843 -0.008168757 -0.070664406 0.09118234 0.09279757 -0.09980786 0.1790469 -0.52634585 0.07257442 -0.1450169 -0.01861525 -0.33450234 -0.09143863 -0.0066713174 -0.01686037 0.010455658 -0.008672622 0.11264399 -0.25474164 -0.20672166 -0.26341975 0.011898012 -0.1628799 -0.08240635 -0.53850514 0.18739289 -0.05934218 -0.00665539 -0.1906988 0.08024028 -0.16224721 0.10841295 -0.5747755 0.08509097 0.15369643 -0.102283925 -0.2956264 0.28118044 -0.32653287 0.21571577 -0.078677595 0.014514596 -0.09081282 0.05937426 -0.106841356 0.2501151 -0.07690959 -0.10551265 -0.27494586 -0.41792303 -0.18043682 -0.09619825 -0.6541662 0.020759229 -0.03749019 -0.43795034 0.0008537696 0.25551394 0.088304274 -0.01623184 -0.08155706 -0.033059172 -0.18724091 0.2105975 -0.19685985 -0.1499807 -0.2791867 -0.04341295 0.028847624 -0.043853484 -0.1576133 0.21901451 -0.10323341 -0.22485977 -0.28036115 -0.20680957 0.037762582 0.023260606 0.059651643 0.089334905 -0.07436792 -0.25271016 -0.036223467 -0.03651917 -0.025834847 -0.12598845 -0.1271083 -0.01855733 -0.103012376 0.13390112 -0.10081752 0.111722015 -0.059395265 0.35948545 -0.09375726 -0.038706586 -0.0036229505 0.09091603 0.0008722358 -0.025769554 0.14245413 0.04326633 -0.0057235784 -0.11739312 -0.11047404 -0.017770382 0.10204539 -0.13324884 -0.3236784 -0.1804629 0.05461065 -0.37010115 0.0056617428 -0.19509186 -0.080156036 -0.006768566 0.3975861 0.10204401 0.07644292 0.11037666 0.033378057 -0.076535605 -0.09833816 -0.27782422 -0.01986023 0.22817105 0.25724897 0.16883165 -0.14014101 -0.053407013 0.14827064 -0.23262109 0.09584517 -0.061723262 -0.38365334 0.19312757 0.4890063 -0.09373755 -0.13019268 0.0124648 -0.15273842 -0.066043064 0.10772409 0.19500573 -0.10145938 -0.17636752 -0.11104727 -0.21653253 -0.09276592 0.022079851 -0.026380403 -0.37774262 -0.17082255 -0.117370315 -0.013083823 -0.05261291 0.046583757 -0.025889967 0.18670857 -0.051059633 -0.012495151 0.12179925 0.05408542 -0.24298668 -0.29767355 0.22186434 -0.2146589 -0.42748472 0.102408625 -0.054209717 0.18444885 -0.008425997 -0.02809186 -0.21682777 -0.23880355 -0.014862327 -0.23295923 0.040389545 0.06786705 0.12549551 0.03806803 -0.24423584 0.033340614 -0.05368234 -0.23846352 0.30212614 -0.2296931 0.0083611915 -0.092581324 -0.101606056 -0.41290554 0.07731668 -0.16042338 -0.39030704 -0.09488317 -0.22821735 -0.08407131 -0.24743043 0.16098888 -0.19503544 -0.054143444 -0.44463602 -0.12343083 0.09080201 -0.06259018 -0.029627271 -0.4902225 -0.107330196 -0.012915297 -0.2399477 0.14481358 -0.07027288 0.089281544 -0.39980334 -0.14082605 -0.31988212 -0.12732293 -0.012233978 0.03043933 -0.0019870386 -0.008982138 -0.20917788 -0.097694926 -0.12713319 0.010839379 -0.03671879 0.25524616 0.09669119 -0.09000812 -0.01063281 -0.32846585 0.10143728 -0.16490906 -0.15525733 -0.18745127 -0.3254228 0.08286527 -0.07433067 -0.090338595 -0.122293465 -0.0104504125 0.09930659 -0.47162727 0.090302244 -0.17772508 -0.42123708 -0.2629724 0.07721307 0.032955967 -0.06739158 -0.06934621 -0.04111106 -0.05087091 -0.05789698 0.11463449 0.05543998 -0.0077459062 -0.04233393 -0.09962006 0.09751768 -0.06983244 -0.13955443 -0.046652563 -0.15354134 0.04757098 0.062961295 -0.41055164 0.026404208 0.055722367 0.060461856 -0.0822691 0.057838537 0.05784366 0.0026003467 0.21033967 0.19162779 -0.308072 -0.15578133 -0.090764865 -0.32039127 -0.016782865 -0.026821814 -0.049133163 -0.121616125 0.061510675 0.18819693 0.30428526 0.0680215 -0.060975432 -0.16889468 -0.08313043 -0.09377996 -0.060212117 0.4579408 -0.39078814 0.14139926 0.09374978 0.022807702 -0.059662852 0.040119477 -0.03899987 -0.110233724 0.04117065 -0.10650876 -0.037327956 -0.031027893 0.10656115 -0.008409148 -0.025406094 -0.11198973 0.035041176 -0.035379842 -0.1910732 -0.0021533628 0.1975765 0.048065487 0.12181575 -0.04385227 -0.02759141 -0.2822652 -0.08558846 0.12158174 0.18713054 -0.021942254 0.081650466 -0.109709345 0.042902496 -0.114088036 0.013278058 -0.2623377 0.069567166 0.047294382 0.0941183 0.047398683 -0.0054160636 -0.06913938 0.08653244 -0.13078558 0.004285735 0.06053625 0.088606566 -0.27469334 -0.0026336245 -0.10302363 -0.31475523 0.08350955 0.03789275 0.0058555845 0.17636001 0.10706234 0.093458146 -0.046799827 0.04622173 0.22013536 -0.12007311 0.20666797 0.022646068 0.050386943 -0.20966983 0.09955206 0.09678916 0.02996754 -0.012165486 -0.017172532 -0.08295451 -0.10338378 0.2569235 0.07229083 -0.07386934 0.025569232 -0.07617724 -0.1485695 -0.061623648 -0.17172216 0.068639874 -0.13934536 -0.086059056 -0.1868624 0.15741467 -0.017022 0.0124911135 0.14130166 -0.09737633 -0.07007759 0.18459323 -0.12888564 -0.15530026 0.1732097 -0.058484312 -0.03701985 -0.124611646 -0.19234039 -0.3511025 -0.034346856 0.17556879 0.08414765 -0.37107998 0.023054803 0.118425086 0.111051016 -0.09250747 -0.027938435 0.020023525 0.01873748 -0.49427354 -0.09955054 0.031916257 -0.25041074 -0.08226573 0.13220723 0.21622735 0.053663578 0.2068457 0.17687215 0.10727286 -0.24514967 0.033988096 0.25245005 0.07072175 0.14768112 0.023868171 -0.03604226 -0.3270522 0.0055518174 0.0058469777 -0.038385544 0.007992109 -0.040390242 -0.34224102 -0.13005978 0.17307168 -0.36544684 0.048275296 -0.15359332 -0.0849194 0.09849383 0.095502876 -0.07175634 0.007132069 0.039141353 0.24161264 -0.07539557 0.08644484 -0.033637356 0.27545702 -0.10957665 0.04842657 -0.0327706 0.2166606 0.04519731 0.24537207 0.005751636 -0.19574583 0.07770656 0.25946972 0.10220558 0.11924564 -0.017433112 -0.27014157 0.026723215 0.04228313 -0.034802828 -0.31693223 -0.10651556 0.019746449 -0.18856451 -0.062834136 -0.40231374 0.04226002 -0.12299448 0.1104912 -0.0009028512 0.07653775 -0.16519275 -0.14041898 -0.024548842 0.06486841 -0.27413046 -0.00376369 -0.013405096 0.059221722 -0.04279368 -0.18304324 0.11770327 0.22321647 0.18568188 -0.06615543 0.14873189 -0.35896733 -0.041574553 -0.10253752 -0.22430816 0.10513125 -0.10899478 -0.21217148 -0.022215089 -0.22473411 -0.19833341 -0.042492386 0.10288763 0.18912794 0.08968863 0.03746437 -0.21160918 0.081554115 0.07147975 -0.26854426 -0.057770763 -0.015360333 -0.329161 0.10319755 0.005631695 -0.026811803 0.075093515 0.17707086 -0.27197593 -0.13626744 -0.08344582 -0.002745883 0.10683193 0.12211856 -0.22943176 -0.021939622 -0.15164132 0.01301671 0.23432691 -0.008625138 -0.22826403 0.17487258 -0.012763392 -0.02067425 -0.1703153 -0.28532118 0.2108278 -0.30020973 -0.031199392 -0.06018447 0.14253189 0.046009447 0.055864166 0.13038817 0.35369122 0.18235283 0.030223118 0.27637812 0.10190873 0.056062188 -0.055956002 -0.05575097 -0.06000814 -0.1526604 -0.11253172 0.04220992 0.0072132237 0.13544731 0.19134493 0.16339926 0.12996618 0.02250642 -0.10821165 -0.3553887 -0.022247668 0.092392124 0.06342671 0.12604994 0.0033781405 0.01612307 0.09934993 0.08948958 0.051897462 -0.14996964 -0.018803071 -0.003153623 -0.1904078 -0.00898804 -0.03516666 -0.038550224 -0.09033389 -0.1400444 -0.08211381 -0.028842816 0.12293985 0.03756799 0.029510122 0.07198338 -0.06510898 -0.021203168 -0.277952 -0.07896024 -0.16318165 -0.057702113 -0.002924306 0.06471668 -0.124990195 0.044542268 0.12312715 -0.13155879 -0.051213995 0.0914444 0.098841384 -0.19181658 0.1732506 -0.06201355 -0.014229142 0.06934679 0.1526635 -0.078966625 0.059498902 -0.062893085 0.1561028 -0.070414886 0.00436995 -0.061674993 0.14717345 -0.13432641 -0.027139092 -0.0112458635 0.24501936 -0.079258904 0.012797317 0.03505138 0.15160336 -0.19326445 -0.2821612 0.061836753 0.057377763 0.060248777 0.021385547 0.44096428 0.24877332 -0.094984256 -0.041770753 0.19839251 -0.16095482 0.008607733 0.34718326 -0.09374972 -0.17943656 0.33257383 -0.03661817 0.15876175 -0.03994878 -0.029802002 0.033912636 0.121969454 -0.10778033 -0.27356067 0.008378173 -0.4331125 -0.3237848 -0.0007434649 -0.023097562 -0.13125916 -0.05628088 0.22403847 -0.104387544 -0.025294082 -0.034915693 -0.11143149 0.12162113 -0.027560731 -0.0685797 0.06720846 -0.10729685 -0.2852413 0.015374658 0.100820996 0.1808734 0.08549302 -0.12711726 0.072563745 0.06353526 0.01570964 -0.13253993 -0.21476619 -0.071095645 -0.04417906 -0.17126888 0.09180337 -0.1687362 -0.0083109215 -0.092926666 -0.028980065 -0.051833127 0.11121879 -0.030975016 0.14131548 -0.093981154 0.36016756 -0.2424216 -0.017197242 0.0462367 0.103039116 -0.19358975 -0.046586975 -0.0034085403 -0.34658694 -0.03134996 -0.014115991 0.034205917 -0.04346986 -0.0075773075 0.19297373 0.021197045 0.029537274 -0.08277789 -0.160306 -0.15629087 -0.08516329 0.14854023 0.12024575 0.022675283 -0.0044985507 0.08392225 -0.029684486 -0.07220969 -0.11405207 -0.036838677 0.07973039 0.1536896 0.032848153 -0.27278927 0.034737352 0.16548932 -0.0023296273 0.032442816 -0.1985107 -0.051226057 -0.04042022 -0.13637443 0.14826754 0.119037256 0.120440565 0.019544134 0.05202022 0.08445218 0.08479672 0.030250283 0.055110674 -0.11624687 -0.01888031 -0.012234583 0.13186945 0.092870146 0.013335092 -0.09050566 -0.06255514 0.15581764 0.027929213 0.1210795 0.22901213 0.026853027 -0.045296468 0.051228836 -0.06739135 0.10863854 0.16183162 0.03524662 0.2527027 0.11452651 -0.07770884 0.0955064 -0.13586229 0.11130233 0.024122087 -0.14591499 0.058074225 0.08406758 -0.09800739 0.08627535 0.048363887 -0.30636612 0.049905993 -0.108585835 0.0522197 0.13813707 -0.081594415 0.07032722 -0.03740777 0.04821246 -0.12483031 0.11540189 0.02387854 0.22690575 -0.028634144 0.15882592 -0.15017566 -0.4654769 0.09677881 0.009166525 0.15857436 0.028113699 0.08976864 0.1260175 -0.046306085 -0.30594844 -0.15418969 0.24036136 0.10401902 -0.09600682 -0.20144604 0.057215013 -0.086737245 -0.09337073 0.013558624 -0.011362489 -0.03573488 0.09075881 -0.058330342 -0.08697015 -0.09976331 0.044485122 -0.3468815 -0.09444382 -0.12735052 0.006320661 0.024856903 0.06214192 0.09589693 0.1417775 -0.014505069 -0.10337402 -0.0906731 0.05305458 -0.18031165 -0.106123425 -0.19500731 0.12122844 -0.23484318 -0.091507934 -0.120610476 -0.16369061 0.080468625 -0.076833464 -0.08324194 0.09727562 0.003397227 0.018560065 0.31245586 -0.0020518596 -0.055747915 -0.07436567 -0.084990144 0.055604868 0.11450739 0.052216 0.019607969 0.111448646 -0.06387108 -0.11503706 -0.09362128 -0.04494072 0.16141178 0.31231448 -0.050055176 0.010983676 0.09653905 0.052558426 -0.043162145 -0.20729728 0.2598278 0.013538122 -0.16504967 0.041273396 0.09641424 -0.103256024 0.061933804 -0.14420919 0.14999762 0.072332405 -0.1428889 0.07943475 -0.09606234 0.031681716 -0.045138247 -0.2873235 -0.026459519 0.07313834 -0.07085737 -0.037099633 0.09110992 0.21363276 -0.013298562 -0.10719829 0.24103047 -0.026151052 0.06152654 -0.0535885 0.17942226 -0.32093462 0.05545874 -0.042156376 0.12986135 0.03638508 -0.06700964 0.0091057075 -0.02384413 0.021327611 -0.2150268 -0.17949317 0.09091561 0.12029204 -0.020715434 -0.15732738 0.03795541 -0.069143526 -0.07836905 0.081611425 -0.07872958 -0.17273827 0.07946357 0.08492703 -0.20609465 0.055589825 -0.08591027 -0.008964712 -0.023012677 -0.06420774 -0.18199594 -0.28464684 -0.22133873 -0.18291375 0.0074205874 0.096933715 0.11511435 -0.042533536 -0.010396938 -0.023338538 0.030450637 -0.1364191 -0.089881934 -0.25640544 -0.08203463 0.10275286 0.0041099465 -0.207016 0.079683766 -0.046995305 0.16241638 0.0056291693 0.006327236 0.07818997 0.15064116 0.030596888 0.22095785 -0.048060495 0.0950544 0.048897713 0.29422557 -0.26867232 0.024641914 -0.051305216 -0.17473973 -0.15962988 0.072131366 0.07980084 -0.20592652 0.009216858 -0.091890834 -0.111854605 -0.14602555 -0.064287715 -0.06449559 -0.2042077 -0.07608256 -0.15519305 0.10234642 0.07714916 0.1588667 0.10647207 -0.012550931 -0.09578173 -0.14357905 0.00591812 0.05553164 -0.09565173 -0.10537312 -0.238687 0.041777484 0.2304106 0.18791199 0.04363256 -0.028236302 -0.20307684 -0.01083611 -0.16800296 -0.18104148 -0.18189019 -0.106360465 -0.007776828 0.03918666 -0.017283728 0.041029923 0.12809306 -0.03196158 0.057683375 0.009409521 -0.21112432 -0.22294886 0.101528384 -0.19466914 -0.34547794 0.0002461917 -0.05756811 0.13031979 -0.23915514 -0.19093601 -0.006364772 0.2895851 0.0636825 -0.23199125 0.0952381 -0.012362015 -0.063411035 0.047299556 0.20560014 0.029465944 0.1847071 -0.04997888 0.16177881 0.17851342 -0.11059209 0.06684651 0.27263552 -0.049903125 -0.1109893 -0.1008291 -0.18085155 0.24434032 -0.034326963 -0.14251341 -0.006701137 -0.19668318 -0.1748864 -0.057232104 0.067506 0.118313596 0.07353594 -0.015298043 -0.06838228 -0.17063415 -0.19403136 -0.04566478 -0.13006012 0.19412552 0.035459086 -0.21057595 -0.22878563 0.3452679 -0.078740776 -0.107312985 -0.032365296 -0.07287475 -0.1383547 -0.037877884 0.14094873 -0.09532002 -0.077617906 -0.094458796 -0.08677292 -0.32927054 0.06498328 -0.03287684 -0.11651967 0.100554794 -0.005713074 -0.10963252 0.022996943 -0.065422244 0.010354941 -0.027743995 -0.088560075 0.0024852885 -0.18573514 0.22134198 -0.13929865 -0.1688969 -0.1008841 -0.09785814 -0.008600492 -0.22295088 0.035562582 -0.016555045 0.18900232 0.11404666 -0.2794415 -0.047419023 0.16316673 0.009926369 -0.12357017 -0.03104725 0.17226194 0.07352459 -0.3307229 0.0013529237 -0.15697666 0.15852363 0.05480653 0.014727838 0.20572786 -0.05528357 -0.36727762 0.040584512 0.04905218 -0.067350045 -0.15607716 0.075749315 -0.14929304 0.10760787 0.012467547 0.09684111 -0.2344966 -0.06892733 0.10562929 0.14136948 -0.0059808604 0.18302493 -0.09379976 -0.09907033 0.04297791 0.0015644459 0.1262511 0.022965359 0.06677369 -0.2685419 0.05899888 -0.006922854 -0.048040062 -0.027682012 -0.09001644 -0.0020891563 0.06712373 0.06459787 -0.12912782 0.04383815 0.023923144 0.07044079 -0.08860588 -0.04122847 -0.13978417 0.20428634 0.1451618 -0.2711044 -0.010589939 0.027612649 -0.14962628 -0.072030894 -0.12083384 0.049470358 0.11086009 0.2094634 -0.2478157 -0.25287747 -0.03906045 -0.02008962 -0.2188664 -0.33859313 -0.07094046 -0.24529189 0.10502954 0.23667902 0.057806984 0.085317336 0.05849181 -0.06548675 -0.10570123 0.33380812 0.12076778 -0.5082809 -0.29476038 -0.15131876 0.016481237 -0.19413796 0.32044008 0.11155605 -0.03132713 0.13120884 0.02384366 0.0022992243 0.087416604 -0.17285176 0.117511496 -0.05909959 -0.06890367 0.016228536 -0.014985545 -0.010260415 -0.21949415 0.021425597 -0.11967226 0.13919537 -0.09055121 0.021607114 -0.1372048 -0.03837607 0.06752229 -0.14334813 -0.0022172178 -0.027356623 0.060626168 -0.5580209 0.13301 0.04055315 -0.017652875 -0.028180733 -0.59264505 -0.066877715 0.018457593 0.08418161 0.24852034 -0.21905036 0.004589953 -0.08861647 0.0028071257 -0.039185718 0.05320374 -0.16556376 -0.0019525345 -0.07343116 0.0042991703 0.09840759 -0.16414918 -0.21273759 0.042987715 0.07692391 -0.11265895 0.14567457 0.012194818 -0.3988179 0.072259195 0.18228136 0.060721043 -0.02485592 0.09658811 0.061081268 0.03591835 -0.26350197 -0.12618299 -0.0725993 -0.02799815 0.10036406 0.105226025 -0.22098477 -0.056659218 -0.1120043 -0.11153815 0.0009569415 -0.12682301 0.013584242 -0.16943945 0.043664195 -0.10742554 -0.1241936 0.25027236 0.24716757 0.08824113 -0.016417513 -0.15460421 -0.13899665 -0.058703106 0.034443244 -0.16150327 0.04534917 -0.008643388 -0.27070838 0.15375833 0.068936355 -0.070002355 0.0054244036 -0.12419884 -0.29356712 0.1130812 -0.009129967 -0.062835485 -0.032228697 0.10924063 0.0001472422 0.09875681 0.08728975 0.08389227 0.14591467 0.00056970795 0.22736354 -0.1843583 0.031050457 0.07095281 0.071747124 -0.04422869 0.20087536 0.15442084 0.12479174 -0.06549352 -0.43389067 -0.07213513 -0.04462539 0.0979649 -0.03620624 -0.08005696 -0.03876965 0.26114407 -0.2025653 0.0131767625 0.039050665 -0.042535014 -0.0073321904 0.23764698 -0.031209646 0.21379584 0.17093718 -0.02547988 0.042500228 0.04150495 -0.47589123 0.048694246 0.29163787 -0.097967036 -0.037678644 -0.002402443 -0.083003186 0.10026039 0.091708094 0.045385677 0.0799476 -0.03015563 -0.18382779 0.09959417 -0.092642665 -0.11192636 0.16194303 -0.17702514 0.21646185 -0.011521693 0.025352731 -0.089050725 -0.093820155 -0.055615917 0.25572696 0.16016321 0.027176887 -0.047456514 -0.15519537 -0.20393059 -0.1308562 0.15680891 -0.19444288 0.28177583 -0.042881824 -0.11817652 0.09292447 0.009420263 -0.2638004 0.12555479 0.006327797 0.026798507 -0.13564566 0.10305307 0.0030526589 -0.1639967 -0.03469481 0.04620573 0.06501124 -0.07657298 -0.051680386 0.06687838 -0.17763864 -0.1476317 0.09998713 -0.09321363 -0.130149 0.044422247 0.09335252 0.15681158 0.2410692 -0.14294875 -0.23685938 -0.17191625 -0.07794454 0.056575995 -0.12859266 -0.12621552 -0.023859028 -0.021112092 0.20984289 0.060002163 0.12008847 0.0145891 -0.08932231 0.03360992 -0.15706 0.1994893 -0.037903044 0.16210629 0.061999142 -0.046853986 0.011652518 -0.07018586 -0.05074202 -0.11759494 0.13525157 0.10881432 0.21024188 -0.044268385 -0.015553057 -0.24118383 -0.10259954 -0.110454775 0.13961022 0.06658348 -0.015519944 0.33131334 -0.1156637 0.09173427 0.13621028 -0.09567681 0.0082411105 -0.019270323 -0.18897188 -0.29269516 -0.07589624 -0.085926086 -0.17592447 -0.13900468 -0.07354106 -0.09114916 -0.12949811 -0.043095402 -0.054208323 -0.0733893 0.05573858 0.08132941 0.046381302 0.10242171 -0.25097474 -0.08999372 0.041105315 0.050674673 0.0029598633 0.032018095 0.1730882 -0.11979239 0.1189107 -0.012083142 -0.10750963 -0.063067846 -0.22518778 0.060253285 -0.3693237 -0.19225705 -0.10962512 -0.091179386 0.069172315 -0.025627892 -0.2652829 -0.17793088 -0.18281977 -0.20803764 -0.06092246 -0.2600754 -0.08907688 -0.040124107 0.09678997 -0.30159473 0.055026572 -0.098072484 -0.28023806 -0.0479179 0.122548826 -0.11237985 0.04260575 0.08241218 -0.020334663 0.10148583 0.002579798 0.052051246 -0.10687218 0.27782533 -0.21303985 -0.012951137 -0.21404192 0.0005155376 0.014851789 -0.13523278 -0.07635481 -0.2050276 -0.13931262 0.12058005 0.1709006 -0.06611259 0.041612085 0.0483599 -0.11043608 0.080924526 -0.055337567 0.11092026 -0.22765312 0.2268719 -0.062683836 -0.018181717 -0.08714422 -0.14670783 0.034915544 -0.4230221 0.09797741 0.027313225 -0.048734184 0.038087856 -0.18654056 0.065461956 0.08769038 0.18116699 0.036400884 -0.0095606 -0.2571981 -0.0043141446 0.023009118 -0.091842234 0.12839359 0.21555479 0.009553839 0.009480828 0.112123094 0.22508433 0.09212034 -0.04696372 0.022485768 -0.11338281 -0.2291245 -0.022084288 -0.037202276 -0.08297164 -0.16510417 -0.16364706 0.10915478 -0.17595582 -0.22377296 -0.07766144 0.15785386 -0.09154111 -0.045167424 0.19251059 0.17353082 0.051059276 0.23281142 -0.05268663 -0.054459468 -0.15336059 -0.103047356 0.009039405 -0.14869018 -0.031790853 0.038399003 -0.20510586 -0.07508078 -0.15615055 -0.22929698 0.1974698 0.058785092 -0.23382701 0.09975407 0.03621122 0.058393855 0.056854006 -0.13285962 -0.017687801 -0.004106083 0.18441562 -0.06878863 -0.15958963 -0.30352357 -0.08539363 0.07211994 -0.17398037 -0.13739738 0.09435377 -0.05306732 -0.03224842 0.061725527 0.04537922 0.14108743 0.1631299 0.0032058377 -0.008812401 -0.10288511 -0.042134345 0.17313589 -0.052954517 -0.009695722 -0.21391463 0.06844244 -0.5369364 -0.06765868 0.19740635 -0.1246326 0.058252543 -0.10591081 0.023415703 -0.21782044 