10 128
-0.35600504 -0.03862963 0.2873019 -0.11181131 -0.016394341 -0.124377124 0.07505573 0.1400292 0.18656977 -0.10789572 -0.0714041 -0.058904193 -0.025774485 -0.061226998 -0.29290584 -0.25569668 0.0891998 -0.25423342 -0.08511579 -0.12586233 0.08356679 -0.090733156 -0.3537396 0.08565967 0.08535577 -0.6075941 0.19261597 -0.406374 0.21338777 0.028668566 -0.41367903 0.15316744 -0.15605022 0.028077561 -0.13692157 -0.52431124 0.07204863 -0.018867925 -0.25704598 -0.41333026 -0.14292808 0.13001412 0.3379366 -0.09435161 0.00024869133 0.27085605 -0.3432251 0.32386807 0.26150015 0.15603943 -0.059354693 0.27213806 0.37220728 0.11520463 0.012969521 -0.11301707 0.003813957 -0.09081303 0.034928262 -0.3105282 -0.023930257 -0.24021403 0.23509492 -0.2617081 0.1405627 -0.43611506 0.2232937 -0.35327587 -0.13108237 0.029541122 -0.28853017 0.06677036 -0.105336666 -0.18877879 -0.1299579 -0.166902 -0.18549462 0.18677865 0.22480613 -0.039070193 -0.34564444 -0.07017893 -0.33958966 -0.16799028 -0.21508603 -0.020143997 0.21744096 0.11717693 -0.19706222 0.051145516 -0.011397811 0.05788641 0.0042729904 0.14840814 -0.18163653 -0.102327295 -0.693666 0.16182974 -0.35915816 0.2837235 0.012700105 0.12733038 0.18968621 -0.17973228 0.10882947 -0.07702497 0.11548401 -0.28646472 -0.2304362 -0.24130845 0.13736756 -0.081259005 0.044660512 0.10782192 -0.5655031 0.04775414 -0.014114188 -0.043680266 0.102138065 -0.10538544 -0.31681138 0.26942453 -0.08179444 0.09653613 0.16732576 -0.31711277 -0.2827267 -0.17248578 0.2292451 -0.1439195 -0.047093403 -0.203923 -0.11773832 -0.06411452 -0.258002 0.1305501 -0.14702328 0.08746016 -0.34450898 -0.04084478 -0.13728587 -0.0050291643 0.08515325 0.08224316 0.075292915 -0.2479332 -0.40243304 -0.3728529 -0.032479167 -0.1124686 -0.5176493 -0.018839689 -0.17023723 -0.15666574 -0.16863187 -0.17936368 0.23652947 -0.29383552 0.048684347 0.050855283 0.029266331 -0.049983412 0.060891286 -0.1280696 -0.13103677 0.15532517 -0.22278011 0.16522993 0.0666682 0.09441857 -0.38008657 -0.14763325 0.11150223 0.027034584 0.22878675 -0.26321352 0.01671703 -0.30531114 0.05468182 -0.28086308 -0.08718176 -0.26976296 -0.2785274 -0.009233406 0.16828997 -0.3243634 -0.30688983 0.008393223 0.050098367 0.03474543 -0.078810535 -0.30454245 0.1705454 -0.016966032 0.03100353 0.38158637 -0.042644884 0.096125044 0.3390906 -0.10254163 -0.050007295 0.1364207 0.25688756 -0.36355552 -0.1731493 -0.024665454 0.009306126 0.11896564 0.14738667 0.08650855 -0.22985508 0.1370251 0.14250253 -0.112009235 0.17997056 -0.2497338 0.29954398 0.047095444 0.1506915 -0.071428776 -0.51894134 0.06897058 0.23318121 0.10099058 -0.18807222 0.035116285 -0.039557695 0.16284046 -0.26120752 0.48329875 -0.1835244 0.023468262 0.032235116 0.057683267 -0.057870176 0.2753274 -0.28999183 -0.04411098 -0.18053608 -0.16106637 0.32401547 0.10836634 0.09805309 -0.1911822 -0.09047459 0.5355145 -0.29277384 -0.12856013 -0.10094035 0.014914711 0.07977306 0.16856162 0.2254301 -0.6890705 0.04718166 -0.11349105 -0.09125918 0.2505607 -0.35852277 0.058948543 0.15325719 0.08326243 -0.14526547 -0.6226367 0.022234323 0.20100321 -0.3299209 0.10851724 -0.20872104 0.076751485 0.031577505 -0.26248497 0.085613415 0.026158622 -0.02549534 0.06880043 0.38251227 0.27081317 0.30507788 0.08035673 -0.098356515 0.03794812 -0.00020849422 -0.13734505 -0.25682646 0.09808944 0.008130053 0.20963752 -0.3174956 -0.30523992 -0.10352089 0.0617436 0.032749664 0.027795145 -0.0732416 -0.07771246 0.21951194 -0.14152747 0.38371193 -0.19408989 -0.18345365 0.108958915 -0.07009882 -0.039730135 -0.12574957 -0.19101362 0.1626213 0.18159005 -0.047041263 0.04416004 0.11172547 -0.22979255 -0.020912234 -0.4353067 0.20249371 -0.010166275 0.01974616 0.09265214 0.031062337 0.1130213 -0.13522962 0.09959166 0.23167151 0.12341175 -0.07085118 -0.2437494 -0.026105741 0.23565184 -0.3182151 0.16684197 0.05504201 0.16529599 0.08525234 -0.11876912 0.052295662 -0.53015083 0.14912213 0.5017042 -0.2736749 -0.50147784 0.056215115 0.2166613 -0.011928018 -0.10171987 0.06724176 -0.0045861574 -0.38304785 -0.046227146 0.04475415 0.09316441 0.11413759 -0.09670397 -0.18654068 -0.19236249 0.06623033 0.18540664 -0.033060122 -0.21542971 -0.24660335 -0.24192533 0.078911 0.120355636 -0.115270846 0.18484752 -0.31085354 0.24864286 0.21864212 -0.093277715 -0.17548813 -0.2556734 -0.059164405 0.08764593 0.11181953 -0.12558459 0.056036934 -0.29429713 0.10126054 0.25203627 0.0108940285 0.07393012 0.3169517 0.011142722 0.16825074 -0.08429559 0.055209197 -0.23523018 -0.5393087 0.081522316 -0.15331492 0.011861338 -0.05329494 -0.25144303 -0.06567261 -0.22207658 0.21642946 0.13370685 -0.079589784 -0.31817797 -0.16619304 -0.334869 0.25475532 0.052410528 -0.1159267 0.2649245 -0.4071738 0.06673176 0.3104482 0.04251736 -0.16131389 -0.062730126 -0.33049634 0.04300567 0.020804033 0.13216595 -0.07097361 0.056509092 -0.02353794 0.25421414 -0.019082295 0.19079086 -0.07713283 0.052593622 0.3137401 0.022465173 -0.12687753 -0.1010763 -0.1122783 0.08953597 0.1764471 -0.21397236 0.21486154 -0.14805816 -0.09109609 -0.033383776 0.09757167 -0.19014874 0.17646559 -0.08464871 0.10303892 0.28394035 0.038955532 -0.47885883 0.16905181 -0.05704434 0.15830198 0.25382417 -0.09635948 -0.065422826 0.1566379 -0.16333121 -0.04215698 0.107404016 0.08863795 0.2935457 -0.23335962 0.1630554 -0.17385256 0.16394864 -0.013648329 0.20668533 0.08859832 -0.12667115 -0.17659372 -0.08794464 0.16562027 0.20504573 -0.06845187 -0.42185405 0.15425402 -0.25664443 0.068775155 0.1515726 -0.27572235 -0.18122545 -0.11827886 -0.10572199 -0.35981157 0.092586726 0.15160239 -0.2273574 -0.1039298 -0.1493097 -0.089966804 -0.2546157 0.3298549 -0.24725267 -0.08255179 -0.4020956 -0.1909953 0.17626426 0.0190784 -0.16993806 -0.25415695 -0.07724658 -0.016043859 0.07347767 0.08436932 -0.17465526 0.07605531 -0.20074815 -0.16319239 0.21409088 0.11339896 0.16094877 0.18177098 -0.11058159 -0.36101314 0.22074622 0.12542857 0.15793878 0.10578285 -0.36861253 0.030557543 -0.022182275 0.10414837 -0.28789213 -0.115632825 -0.417653 0.19458455 0.053935725 -0.09697158 -0.30609185 -0.22653751 -0.17490847 -0.02313593 -0.061474916 0.20900208 0.1769498 -0.061146542 0.027372604 0.16435434 -0.06375831 0.17895104 -0.029292354 0.10716534 -0.3994655 0.1261523 0.14508735 0.35505036 -0.09934842 -0.19465472 0.20208324 -0.53814447 -0.12604317 -0.13590324 -0.08912034 0.06901867 0.08597934 -0.14245729 -0.19968638 -0.40753537 0.16048908 -0.2496687 0.09810349 -0.15621127 0.09582096 -0.1811908 -0.064436585 0.2127418 -0.13665444 -0.09345947 -0.22752008 -0.08829753 -0.026386326 -0.15562886 -0.2924608 -0.026675109 -0.26729113 0.22548698 -0.05564401 0.0624143 -0.39077044 0.02365705 0.070915736 -0.29361323 -0.19234419 -0.4029617 0.08247519 0.056634087 0.17363754 -0.20454645 0.19919673 0.101649694 -0.19059579 0.17650789 -0.0458862 -0.2907359 -0.043201864 0.06122659 -0.049852274 0.032870904 -0.1635946 -0.17322063 -0.5536564 -0.027284319 0.034042355 -0.08432137 0.002978695 -0.1292434 -0.016116595 -0.31736317 -0.031577513 -0.04794896 -0.003660141 0.00016418299 -0.15056731 -0.254823 0.21613878 -0.05719893 0.029238665 -0.055592213 0.21520832 -0.23127718 -0.31086558 0.19834082 0.112539895 0.109068334 0.23859894 0.17619962 -0.10425123 0.27135304 -0.027347308 -0.11054491 -0.26691237 0.31785133 -0.1893253 0.10428836 0.22183356 0.07522819 0.05225666 -0.080753416 -0.1798761 -0.32523036 -0.24324906 0.25876054 -0.37752888 0.11686674 -0.010295815 -0.18622321 0.2149274 -0.095406525 -0.18004243 -0.011948082 -0.079482324 0.020833466 -0.02499485 0.124781415 -0.023043348 -0.0041649505 -0.41546357 -0.026882071 -0.27297312 -0.23944022 -0.23894328 0.21419814 -0.2717117 0.053451 0.11369897 -0.33861834 -0.19385621 -0.22724178 -0.138001 0.21417934 -0.016489657 -0.2853948 0.2217857 -0.10150758 -0.097666055 -0.08209731 -0.033248894 -0.085367 0.1514548 0.16240183 0.13998826 0.10950293 0.15625414 0.04294829 -0.21861434 -0.21004371 0.030837778 0.057678387 -0.07503919 -0.3509431 -0.051991273 -0.17210685 -0.047484774 -0.07033122 0.20628814 -0.056650117 0.104537345 -0.19327842 0.25893357 0.043428898 0.023006547 -0.15808044 0.40809578 -0.33802524 0.16964126 -0.28513923 0.2237928 0.15481676 0.22821477 0.10907226 0.14045666 0.1330293 -0.16958751 -0.21046478 -0.046392802 -0.2163157 -0.13045299 -0.231265 -0.052014574 -0.3390012 0.15221246 -0.13640209 0.15496986 -0.094331235 -0.011523811 -0.20076923 0.21071927 -0.26432797 -0.0038682402 0.15082702 0.29603267 -0.031260516 0.1807549 0.32128108 0.18287416 0.11164443 0.21625413 0.14586169 -0.009501208 0.017142689 -0.15628536 0.14911556 0.056716286 0.059059665 -0.03295828 0.043569338 0.14602764 0.2390665 -0.2562254 -0.022359217 0.2582349 -0.31339568 0.01919666 -0.11334206 -0.25469902 0.18650934 -0.18687421 0.12551576 0.012437629 -0.20144749 -0.019831017 0.15307517 0.04754674 -0.19345604 0.11864358 0.10820559 0.19136846 0.023476072 -0.103931025 -0.0020066008 -0.14201945 -0.12222884 0.101426125 0.104564495 -0.39037892 -0.4948305 0.008354827 0.09796416 -0.3535547 -0.027414981 -0.4418886 -0.11284744 0.28761262 0.030946873 -0.42983517 -0.12740216 -0.15431118 0.25722682 0.13706039 0.03611346 -0.30248126 0.09860793 0.04376993 -0.09034593 -0.23806648 -0.014485039 0.13937673 -0.47344968 0.09028256 0.2742549 -0.36094508 0.053557135 0.17152967 -0.19338469 -0.13292402 -0.07874006 -0.35023344 0.12697855 -0.41259092 -0.022477321 -0.15338272 -0.3028474 -0.06285991 0.2496928 0.08174602 0.11719674 0.15499634 -0.3170802 0.121950455 0.18705446 0.015128515 -0.30329123 0.10324505 -0.1979956 0.17964345 -0.15363297 0.2121311 0.060212515 -0.008503045 -0.037618157 -0.4342279 -0.15657067 0.38225526 -0.20966595 0.18744048 0.03104174 -0.336454 0.07256297 0.13943386 -0.25431108 0.13477124 0.19414322 -0.071667746 0.14515951 -0.2794937 0.14967003 -0.35376772 -0.2615555 -0.28020293 0.016749071 -0.06118755 -0.090798154 -0.14356224 0.18602428 0.20137379 -0.23164679 -0.26936018 -0.13654199 0.25162834 0.12931868 -0.1751032 0.042655583 0.09511059 0.005688949 -0.15178749 0.10015996 0.10734526 0.2105935 -0.40351188 -0.36919516 0.10769731 0.031628832 0.40267205 0.2023017 0.023425983 0.10328713 -0.07866393 -0.42156446 0.0053417706 -0.13124532 -0.39554277 0.1806218 -0.25146878 0.14394803 -0.18945684 -0.35467297 0.12249271 -0.1800756 -0.16596663 -0.23755011 0.14614657 -0.011211586 -0.3000112 -0.04269468 -0.1643183 -0.015986467 0.09680387 0.3079237 -0.35775456 0.023535032 -0.06581768 0.1587076 -0.020621901 0.070079535 0.16146895 0.17546129 -0.004936736 0.0044815233 0.20296995 0.4602038 0.0352573 -0.05105707 0.13635352 -0.19412541 -0.08516862 -0.0060013803 -0.043808788 -0.002893498 0.30316937 -0.09808578 0.08434994 0.079576775 -0.22911169 0.26501465 0.17921938 -0.21660338 0.2761911 0.06321691 -0.077164575 -0.07822122 -0.15206017 0.07185869 0.15346235 0.025982589 -0.0013533559 -0.16402385 -0.044314846 -0.23485245 -0.14043939 -0.18061247 -0.14915203 -0.23657577 -0.28522253 -0.061907347 -0.052593283 -0.07465019 0.06825828 0.09888284 0.09880932 0.12095547 0.2342215 -0.24606328 -0.3557414 0.19300404 -0.059218846 0.4387875 -0.2993798 -0.28705055 -0.3018407 -0.2946269 -0.3614525 -0.03683737 0.19122593 -0.34798193 0.12811522 0.12804838 -0.26119405 -0.02845482 -0.05758158 -0.42777535 0.063725404 0.08236288 -0.22879636 -0.026956141 0.21974511 0.08722574 0.18006946 0.34280276 0.07780345 0.15921156 -0.13991305 -0.05367112 0.0023674124 0.1546125 0.3463081 -0.05834155 0.0899146 0.16192384 0.055381343 -0.18280269 -0.29697806 0.058461055 0.23227553 -0.06924176 0.11263526 -0.2369801 0.12040671 -0.13447498 -0.3533329 -0.21731673 0.027131101 -0.07058937 0.080980666 -0.2720121 0.21451996 -0.1624406 -0.50978345 -0.03276168 -0.2952101 -0.020814002 0.25878707 -0.021754993 -0.25672886 -0.09649863 -0.027145213 -0.1001548 0.13422862 -0.18085249 0.04786037 -0.20903212 -0.0509874 0.11164204 -0.03319197 0.07590895 0.31017196 -0.16091959 0.16040857 -0.18012847 -0.18126777 -0.24524532 0.14926042 0.1440714 -0.25370204 0.20572622 0.059016697 -0.21940562 -0.046485547 -0.24356934 0.12117595 0.1277402 -0.27119046 0.20911983 0.4221977 -0.23666081 -0.05808668 -0.14342824 -0.2505004 -0.11735362 0.09400565 -0.24143401 0.096729904 0.25694585 0.2238603 -0.12385774 0.081098676 -0.10021614 -0.1214463 -0.6147242 0.14277439 -0.2491535 -0.21098885 -0.0396387 -0.19423267 0.14466417 0.13054986 0.20344697 0.01922163 0.15748702 0.067300305 -0.24261664 -0.10968853 0.17709087 0.047695965 -0.1786162 -0.31976983 0.034460135 -0.08049541 -0.1146805 -0.2362916 -0.20001781 0.02500819 -0.18337104 -0.3523284 -0.0064641703 0.23293473 0.14203206 0.09059687 0.16504599 0.111839 -0.35058835 0.022501068 0.12015701 0.15487505 0.028861234 0.21099553 -0.4623482 -0.012239849 0.1247807 -0.45347318 -0.18802023 -0.390359 -0.07371887 0.08152513 0.17797548 -0.21481252 -0.2671007 -0.005786662 -0.013703404 -0.028284427 0.12710528 -0.06832051 -0.03984777 0.12952863 0.0019261626 0.13132113 -0.1427313 -0.33173713 0.10355388 0.07103029 -0.1346219 0.2712321 -0.008079381 0.13016759 -0.0895849 -0.16146408 -0.28464332 -0.106633306 0.19572604 -0.0642221 -0.011246745 -0.15511426 0.025092123 -0.32608518 0.08668554 -0.16113238 0.17114317 -0.18465728 -0.066690974 -0.17691907 -0.052107427 -0.012464538 0.22824621 -0.07352227 0.21289617 -0.052093077 -0.26925963 0.23926893 0.09829112 -0.0393972 -0.3740989 0.265433 0.08607769 0.09711622 0.09030913 0.019653173 0.17598847 -0.20106277 0.14816083 -0.3172176 -0.015140307 -0.14366132 -0.17148314 0.027223168 -0.101574026 0.45918122 -0.050358374 -0.04750744 -0.15938047 -0.41546845 0.21459053 0.20744173 0.44073576 -0.06162036 0.19257617 0.16764653 -0.22751935 0.14552376 -0.012982698 0.15224725 -0.10547889 -0.17568651 -0.056946494 -0.21790539 0.17665838 0.280441 -0.10111786 -0.11482806 -0.1460403 -0.011263141 -0.04004719 -0.017747281 -0.08292184 -0.042171407 -0.1659184 0.20154494 -0.08357805 -0.154559 0.09351934 -0.008001221 -0.020639425 0.12878898 0.11041486 0.0114202695 -0.21335858 -0.14916423 -0.1823431 0.19863631 0.043120857 -0.085515365 -0.21546811 0.1944776 -0.2588934 -0.36889535 0.062264383 -0.06869052 0.22392078 0.2009381 0.10926484 -0.045860823 -0.050543524 0.10755234 -0.27451205 -0.052968953 -0.10882698 -0.38832942 -0.3494817 0.13941151 0.09285014 -0.2612539 -0.1550963 -0.07018853 0.06720538 -0.19132951 -0.13648741 -0.21498717 0.17673533 -0.19325702 0.096424975 -0.0646773 -0.32236147 -0.18721728 0.0694484 -0.12836845 -0.3775653 0.05996414 0.20787345 0.19173013 -0.40533346 -0.196815 0.13637564 0.060326867 -0.14992481 0.21524556 -0.029341623 0.13682786 0.0041254596 -0.3760736 0.19782394 0.037503324 -0.2353689 -0.09939975 0.23793167 -0.045193225 0.164939 -0.01757848 -0.13330543 -0.16155866 0.22213544 -0.18100883 0.21114445 -0.13505475 -0.04645786 0.17624709 0.28967825 0.1769334 -0.15406899 0.055236816 -0.16030774 0.03118301 -0.17648494 0.27636757 -0.06536561 0.101389565 -0.30626273 -0.029319633 -0.1470803 0.0790808 
0.2130896 -0.6302255 0.19783561 0.028095994 -0.101092175 0.16227151 -0.2892606 0.00044006476 0.24540192 0.13469829 
