10 128
0.18024911 0.14626506 -0.32449618 -0.4032587 -0.09292759 -0.05022322 -0.5091248 0.07158542 0.05072057 -0.18812594 -0.30151656 -0.28299677 -0.2270084 -0.26280916 -0.12636751 0.16942225 -0.10747442 -0.08621592 -0.106182225 -0.44915575 0.21159332 -0.047952484 -0.092679024 -0.22129075 -0.08833288 -0.37691146 -0.14877039 -0.32768622 -0.18525863 0.06398852 0.09748722 0.04499256 -0.09613786 -0.4552246 -0.34083563 -0.25334805 -0.07707645 0.08578077 -0.084465586 -0.20315821 0.10903094 -0.17293146 -0.09585945 -0.017776929 -0.17865852 0.1925427 0.07802198 0.15809432 -0.40888566 -0.11225247 0.01193397 -0.08934669 0.121463835 0.017014738 0.16805762 -0.1453134 0.027016448 -0.07387001 0.07749688 -0.025845945 0.043461114 0.10608464 -0.12720926 -0.06916014 0.13880135 -0.05684032 0.08713016 -0.14005029 -0.08146086 -0.2446729 0.13366243 -0.094105296 -0.13216874 0.031125387 -0.18170278 0.039207377 -0.17448431 0.051506154 0.049272686 0.11800256 -0.21619244 -0.09795292 -0.15308198 -0.11736396 -0.49720237 -0.14881432 0.016833263 0.22237357 -0.14340672 -0.64013875 -0.14090009 -0.106794246 -0.2272053 0.032285817 0.08039845 -0.19196735 0.092380226 0.050543666 0.02898533 -0.019430647 -0.099433474 -0.3356161 -0.039106715 -0.0978393 -0.36429128 0.08456355 0.014032459 -0.10017666 -0.35598895 -0.03167448 0.12869349 -0.17724217 -0.10761925 0.1803967 -0.102608494 -0.25359678 -0.037298523 0.023765074 -0.20284507 0.06824529 -0.07878733 -0.21724126 -0.17270938 -0.28675154 -0.008105022 0.28017 -0.29210776 -0.15260962 0.06248873 -0.17475782 0.052496813 0.042227406 -0.22158562 -0.22040282 0.09921124 -0.08351427 -0.036550906 0.06037317 -0.019969877 0.22546859 0.048400328 0.055777084 -0.21165472 0.14145307 -0.19370629 0.18177761 0.037676174 -0.25566015 0.14266518 -0.12575227 -0.29326534 -0.5412085 -0.15957904 0.059346624 -0.014243685 -0.12692256 0.06199514 -0.18603405 -0.22317874 -0.11319513 -0.1369615 0.101947434 -0.24747047 0.08367006 -0.017415361 0.062222365 0.23157062 -0.12135643 0.16708064 -0.1311565 0.10969327 0.10613657 0.053286683 -0.009923768 0.022350932 0.039551686 0.08278642 -0.0057611363 -0.0036202427 0.04894118 0.021901265 -0.08065706 0.22425455 0.10504926 -0.21507743 0.010496895 0.2183249 0.18148878 0.078658 -0.23546757 0.15865305 0.015081044 -0.20078692 -0.0511475 -0.107657194 -0.05957333 -0.1088765 0.17029256 -0.113558255 -0.10440835 0.04314373 0.062110927 0.034626126 0.06900043 -0.124069884 -0.27910182 -0.30746683 -0.21799974 0.04819199 -0.092516564 0.16145785 -0.4089841 -0.029392479 -0.39885893 0.1317321 -0.07237942 0.051664058 -0.10704494 -0.0119519485 0.014438129 0.04859881 -0.17918016 0.14647733 -0.17609635 0.09717398 0.2447458 0.10776383 -0.4644246 -0.19865668 -0.2034047 -0.2361574 0.030379195 -0.002037213 -0.19033834 -0.32653308 -0.14380832 0.10532944 -0.3030813 0.021639287 -0.06846024 -0.06428587 -0.07525437 -0.07393993 -0.11530068 -0.05957943 -0.051054932 0.08531806 0.07422198 0.18433374 0.112091824 -0.05491989 -0.01977789 -0.18234654 0.06855662 0.08542494 0.0234463 -0.1955935 -0.16203792 -0.18999596 -0.2369524 0.04589007 -0.06367035 -0.07432933 -0.00020617218 0.09871633 0.1717182 0.10206052 -0.28131673 -0.13825029 -0.22464117 -0.009918766 0.13318779 -0.26465848 0.074870914 -0.18225919 -0.2439985 0.10748992 -0.040196277 -0.40896213 -0.33965597 0.19103558 0.14134483 -0.18408531 -0.013173345 0.09253003 -0.034906227 -0.19509423 0.12225 0.11922322 -0.06908684 -0.26892957 0.12016647 -0.026962506 0.09817174 -0.0126507385 0.06238219 0.09990509 -0.10208859 -0.31722212 -0.12848978 0.10529814 0.105294295 -0.025192384 0.14976387 0.11574139 -0.041479245 -0.29926163 -0.16217151 -0.09544351 0.010392141 -0.143543 0.045172624 0.22784708 -0.185249 0.09508357 -0.14539881 -0.10281553 0.0083077615 0.14225623 0.06635219 0.00036893418 -0.005870764 0.29093847 0.18921939 0.19308218 0.09138155 0.07468621 -0.05075975 -0.112618014 0.14535654 -0.09264477 0.16812035 -0.18800154 0.11034948 0.13158895 -0.08623989 0.13279288 -0.11862447 0.21266316 0.054864876 -0.1553765 -0.06670567 0.23572941 -0.058600344 -0.3104894 -0.25404775 -0.24004291 0.13030049 -0.19049416 0.10554805 -0.272637 -0.089347064 0.027474698 -0.07798168 -0.18804304 0.21122304 0.2714993 0.10320091 -0.19575752 -0.10678156 -0.14829683 0.05242056 0.056717843 -0.09946815 0.05607503 -0.09389144 0.13301404 0.014620235 -0.17014275 0.18336308 -0.3208322 -0.30334216 0.062613875 -0.043357022 0.047670126 -0.06925958 0.20271572 -0.2834381 0.1044028 0.20200461 -0.23124467 -0.18152559 -0.09481937 0.10336829 -0.23300812 0.02719078 0.14362337 0.065681554 0.0658298 0.04256926 -0.43028146 -0.024401873 -0.11277684 0.017820584 0.13589652 -0.15603508 -0.35931367 0.07306658 0.015091848 0.089120634 -0.10968238 0.13225737 -0.15955274 -0.24710366 -0.06420423 0.06953205 -0.19370149 -0.27422172 0.0800271 0.1167528 -0.105387226 0.054405402 -0.056194466 -0.04523115 -0.2169437 0.13087343 0.041551746 0.1544896 -0.38535324 0.13197309 0.20864134 0.10223948 -0.056076583 0.00034454296 0.012787879 -0.23503418 0.2677951 -0.1151902 -0.1997794 0.1023689 -0.028602818 0.104449674 0.1641572 0.22995266 -0.1854998 -0.15340565 -0.12648699 0.100855276 -0.11008206 -0.13426222 0.12448584 -0.2733605 0.111154966 -0.18142813 0.009630492 0.0418233 0.11428872 -0.0040276255 0.12113469 -0.28200883 0.13945965 -0.19208166 -0.23143142 0.014029413 -0.12171636 -0.15203923 -0.05071041 -0.036002338 -0.10296897 -0.071265 -0.2968854 0.16574769 -0.0030299637 0.11190134 -0.07243527 -0.18085147 0.014202327 -0.3328666 0.07407483 -0.23193225 0.003279158 -0.3789957 -0.1264121 -0.29706413 0.12835017 0.15570007 0.07734483 -0.10544205 -0.0070614177 -0.33092326 -0.03574912 -0.11969256 -0.09543767 0.05721582 -0.042289488 -0.36699048 -0.09510909 0.056696385 0.20929654 0.0059831534 0.21819484 -0.2453535 -0.22583188 -0.1675726 0.096561 0.144084 0.08356364 0.025721699 -0.16729249 0.08717005 -0.061127175 0.051339854 0.027263591 0.011945875 -0.11135354 0.13612275 -0.008551992 -0.10200901 -0.29406276 -0.025182448 0.16705112 -0.041162 -0.31840894 -0.046569295 -0.10151496 0.06386398 -0.40397897 -0.18158054 -0.35696676 0.19913994 0.09014719 -0.1593341 -0.13700917 0.079969324 -0.17597906 0.19494602 -0.34162042 -0.28182805 -0.081303336 0.08739295 -0.19054253 0.27091128 -0.07309451 -0.1774284 0.014050848 0.1048736 0.038846925 0.14767066 0.32076496 0.11122477 0.09562389 -0.036557537 -0.20883906 0.13222346 -0.04952786 -0.52437204 -0.29400325 -0.0007319834 -0.04001088 -0.047073398 0.17739798 0.004997863 -0.26882696 -0.06033652 0.0141112385 0.009023151 -0.106706314 -0.030847302 -0.22353156 0.09204265 0.03886405 -0.0018793495 -0.22274044 -0.16728045 0.10672406 -0.11772106 0.050499376 0.0043461625 -0.06091887 -0.24423948 0.2486452 -0.09021201 -0.013952732 0.21773578 0.079519816 -0.15835088 -0.22886345 0.01021544 0.1165641 0.022767244 0.0739768 -0.18781501 0.13445103 0.051486664 -0.17175524 0.0077501214 0.20735566 -0.04996523 -0.079517104 -0.06158355 -0.13897681 -0.119159 0.13146085 0.2092943 0.15305983 -0.21983059 0.045673773 0.10957355 -0.17514518 0.20334902 -0.08261786 0.20428206 -0.099437 -0.23981816 -0.11138565 -0.29940787 -0.076692656 -0.3716557 -0.25490975 0.17145522 -0.14587006 -0.10868442 0.006321902 -0.16403434 -0.40456292 -0.037869282 -0.20715956 0.010769134 0.08420381 -0.03910287 -0.055070885 -0.09095374 -0.040377412 -0.2621285 0.044375677 0.18315266 0.0981799 -0.055435147 0.06730551 -0.14907555 0.1302413 -0.09639599 -0.16198282 0.14870997 -0.28364602 -0.1949269 -0.0055868034 0.071754105 -0.06623836 -0.0779762 0.008218731 0.18603258 0.18549615 -0.13910642 -0.26709548 -0.087631315 -0.04974204 -0.0351658 0.10317852 0.011753685 0.07784475 -0.0015163096 -0.12181527 0.08344507 0.08330988 -0.004911837 -0.027172403 -0.074695885 -0.14166422 0.1263708 0.06459861 0.15707171 0.07664934 -0.01380795 0.11454788 -0.032377407 -0.1754333 -0.09282775 -0.21837041 -0.108634144 -0.100631274 -0.0414182 -0.38676703 0.09178029 0.13330166 0.102601945 -0.26565883 -0.044695556 -0.06524845 -0.21603578 0.15862913 -0.07576233 0.18363243 0.032566942 -0.037596166 -0.009506717 -0.18479082 0.11799381 0.13975619 -0.07788315 -0.10009683 0.055141915 0.060648985 -0.09699897 -0.15992078 -0.084615394 0.1728348 0.11816295 -0.08250738 -0.1578229 -0.14356494 -0.032998614 0.117474034 -0.30015197 0.16273947 -0.15908128 0.13308255 -0.09499662 -0.15238416 -0.009008605 -0.009986749 -0.16093911 -0.021126684 -0.05051113 -0.034921777 0.02225407 0.069299616 0.18210518 -0.071945705 0.05223579 -0.15071753 -0.0069831554 0.13151789 -0.43313327 0.10601528 0.09401532 0.1427166 0.08726633 -0.057287794 -0.03805156 -0.09876612 -0.0729884 0.18817593 0.1068077 0.14590855 -0.15622841 0.021205222 -0.17794369 -0.12693353 -0.117228866 -0.1727037 -0.28472298 -0.17310633 0.08318242 0.00014335502 0.09171488 -0.13688108 -0.39756286 0.064202115 -0.110922776 0.15958978 0.06878615 -0.1684338 -0.01667698 -0.2692844 0.09438787 -0.13718455 0.20463015 0.035277255 0.0834408 -0.12475258 0.097721055 0.022462469 -0.2733399 0.24601716 -0.08774138 0.144065 0.035916194 0.10089353 0.18580082 0.09632849 -0.13289116 -0.37073874 -0.05340353 -0.08640479 -0.20631741 0.06715707 -0.008368347 -0.17484115 -0.010449729 -0.34636626 0.13258725 -0.33202904 -0.14343669 -0.03576853 -0.1804427 -0.059448283 0.15435773 0.1612021 -0.13698116 -0.034159876 -0.06215157 -0.30039567 0.12466837 -0.27500644 0.159762 0.09510139 0.080318294 -0.2038245 -0.12228747 -0.29853696 0.23383991 0.14261054 -0.12627755 0.09119387 -0.230014 -0.26998517 0.025975566 -0.05351179 -0.19197845 -0.072782174 0.14318797 -0.13371445 -0.09727253 -0.2852082 -0.11362565 -0.06044442 -0.16910936 0.045691345 -0.38388667 -0.091411605 -0.07635754 0.066222884 0.1043767 -0.11512308 -0.19877677 0.10489699 0.04104583 -0.18330857 0.102673404 -0.31632367 -0.2511414 -0.001524696 -0.07716651 0.10466292 0.17222126 -0.12110245 0.060171425 -0.014428661 -0.40968224 -0.12209989 0.22344023 0.0050232043 -0.03639024 -0.13924646 0.101939715 0.047053535 0.015124353 -0.15941317 0.23768839 -0.1496191 -0.23358935 0.019184252 0.20252042 0.03145589 -0.13148655 -0.32001442 -0.16901365 -0.09773209 -0.13451254 0.069384396 -0.031506564 -0.12012682 0.016582612 0.078757 0.067552716 -0.1116924 -0.002539473 -0.0652986 0.010677901 -0.15821724 -0.41836944 0.052396655 -0.1666383 -0.06068197 -0.17904185 0.122283906 -0.15456419 0.17595029 -0.23921065 0.10320044 0.21731374 -0.05949802 0.1230627 -0.1893044 0.04912466 -0.20398802 -0.186792 -0.2811069 -0.27456138 -0.35380986 0.13565896 0.15135145 -0.027562344 0.11104207 -0.3889899 -0.31908944 -0.215772 -0.15138386 -0.017969275 0.27000394 -0.10618637 -0.073500484 -0.0869658 0.022264512 0.20862213 -0.0005931045 -0.14164115 -0.1632469 -0.33356145 0.040449977 0.21754661 -0.20908473 0.1306514 -0.11815607 -0.049944755 -0.069243304 -0.06782414 -0.084725335 -0.14005485 -0.015116941 0.15284659 0.124493845 -0.36061957 0.11815851 0.058266867 -0.19147088 -0.21057297 0.03627759 -0.09785628 -0.21928187 -0.013886855 -0.07035795 -0.21882695 0.01434425 -0.078273095 -0.15269457 -0.110994436 -0.12410281 -0.09383218 -0.04826996 -0.027507646 0.090230525 -0.03355153 0.020781564 0.13361703 -0.19784354 -0.10940689 0.11551484 -0.22729258 -0.007615988 0.109781675 0.15776183 -0.18836825 -0.09852899 0.05424298 0.14328246 0.08560823 -0.14644514 -0.09572904 0.056998547 -0.19621146 -0.05550585 0.14595583 0.24074157 0.092588365 -0.041922487 0.26136866 -0.1907215 0.08779786 0.009981516 0.27155426 -0.02725582 0.04521329 -0.3024709 0.06585712 -0.23143181 -0.20681998 0.11005186 -0.1918205 -0.1268951 -0.27133903 -0.107767105 0.1418935 0.038624294 -0.08263359 -0.07127888 -0.064429834 -0.19843589 -0.18318361 0.124240644 0.037166703 -0.03097043 -0.09530977 -0.04436905 -0.2980553 0.11541827 -0.2941182 -0.11348832 -0.038895193 -0.24525942 0.08468118 -0.026021974 -0.14091858 -0.040005002 -0.1363154 -0.2853 0.08935748 0.05794594 -0.13220097 -0.008005379 -0.12809455 0.18698515 0.12954052 0.09645736 0.060548134 -0.0082876645 -0.061437752 0.119688034 -0.21977428 -0.15665412 -0.18874559 -0.009504471 -0.17337501 -0.14532293 0.11447511 0.011867527 -0.16790493 0.032589626 -0.007318965 -0.1599704 -0.063011594 0.02606979 0.039920766 0.0062082754 0.051352944 -0.27653536 -0.11365219 0.07076298 0.109091856 0.07407173 -0.09412011 -0.5159509 0.10573515 0.0992224 -0.2523744 0.18032993 0.13914196 -0.15694483 0.04895127 -0.012983684 0.1694963 -0.113024995 0.0015654621 -0.30888426 0.08148477 -0.078162774 -0.4565965 0.11202043 0.04467156 -0.13176584 -0.04859729 -0.013654279 0.08463182 -0.077397875 -0.08843767 -0.18524717 0.1446513 -0.18581879 0.06798394 0.087283574 0.16508214 0.05234951 0.11637269 -0.17183465 -0.054922797 -0.14112304 0.10776495 -0.19215472 0.12913251 0.17468451 0.008568702 -0.17071167 -0.048304655 -0.24880558 -0.15028101 -0.18440859 0.12544037 -0.08510347 -0.27576485 0.09396015 0.08342192 -0.27909315 0.059941728 -0.20623426 0.021018434 -0.06783299 -0.21950428 -0.028292097 -0.013595126 -0.25643492 0.09074693 -0.25005817 0.020340947 0.08410477 0.17169051 -0.18701886 -0.19799998 0.040661294 -0.033458337 -0.014274804 -0.02464922 -0.106585294 0.053771816 -0.20577465 0.1495265 0.17869505 0.056998003 0.12090453 -0.15106113 -0.092690095 0.021363813 -0.25461462 0.17312722 -0.30325675 -0.19976902 -0.03997056 -0.2300311 -0.036958557 -0.113722146 0.2392485 -0.18741268 0.07580705 -0.07590861 -0.056723196 -0.37159738 -0.1142284 0.13805138 0.1317515 0.1596871 -0.15086572 -0.13483585 -0.13640234 -0.18717994 -0.26626343 -0.08027251 -0.05120765 0.059425212 -0.012376111 -0.1154466 -0.12004403 -0.18403453 0.29814437 -0.09184007 -0.019467514 0.13367978 -0.29476476 -0.10813758 -0.3529526 0.16958518 0.05868481 -0.017062837 0.051526908 -0.04815472 -0.27563906 -0.12374955 -0.16524933 0.0113665555 0.054791722 0.012341231 -0.11607199 0.21604297 0.16772953 -0.116586946 -0.016092533 0.05449407 0.18585858 0.05644957 0.15530351 0.0025323108 0.15615353 -0.0031127543 -0.22798342 0.10007386 0.045736123 -0.32726312 -0.10653661 0.12168826 -0.2549209 0.058994636 -0.061047655 -0.19675952 -0.09277632 -0.141132 -0.116267346 -0.34486204 -0.04189404 -0.28724006 0.07504066 0.10868302 -0.12552005 0.094598226 -0.09382636 -0.08390369 0.15611838 0.003564851 -0.055130597 -0.11183596 0.05945895 0.07441884 -0.14989579 -0.02555934 0.0354154 0.0308869 -0.162831 -0.1327822 0.021764336 -0.29171848 -0.027267015 -0.27797472 -0.050224528 0.10973878 0.15302424 -0.10605037 -0.052040614 -0.0068084076 0.14471515 -0.22687761 -0.19238022 0.17413081 -0.17857662 0.11179247 0.010288674 0.036352787 0.10038462 -0.06700776 0.07300771 -0.015276148 -0.2332982 -0.033007223 -0.008625156 0.17580537 -0.112530254 -0.11637659 -0.00543048 -0.112850524 0.07496899 0.1806202 0.061396066 0.007960219 0.044543274 0.2124185 -0.16594929 -0.19582161 -0.21266176 0.052534934 -0.16674553 0.048892606 0.088592686 -0.24709329 -0.015344619 -0.12519917 0.02065869 -0.10165889 -0.15097561 -0.10870688 0.008371687 0.06708532 0.12201837 -0.038892094 -0.15124497 -0.08329729 -0.19753744 0.05385879 0.13903746 -0.2900664 0.23999758 -0.088719495 -0.006824744 -0.113716915 
-0.15768799 -0.39927202 -0.0056342008 0.09139981 -0.10509489 0.043444067 0.024826357 -0.09727749 0.36737132 0.092540935 
